{"learner":{"attributes":{"best_iteration":"76","best_score":"0.998647532420499","scikit_learn":"{\"_estimator_type\": \"classifier\"}"},"feature_names":["is_neutral","elo_home_pre","elo_away_pre","elo_diff_pre","elo_p_home_implied","dc_lambda_home","dc_lambda_away","dc_lambda_diff","dc_lambda_sum","dc_p_home","dc_p_draw","dc_p_away","dc_p_over25","dc_p_btts","market_p_home","market_p_draw","market_p_away","market_overround","has_market","home_gf_roll5","home_ga_roll5","home_gd_roll5","home_gd_roll10","away_gf_roll5","away_ga_roll5","away_gd_roll5","away_gd_roll10","home_rest_days","away_rest_days","home_matches_last_7d","away_matches_last_7d","home_fatigue_idx","away_fatigue_idx","home_momentum","away_momentum","rest_diff","congestion_diff","fatigue_diff","gd5_diff","momentum_diff"],"feature_types":["float","float","float","float","float","float","float","float","float","float","float","float","float","float","float","float","float","float","float","float","float","float","float","float","float","float","float","float","float","float","float","float","float","float","float","float","float","float","float","float"],"gradient_booster":{"model":{"cats":{"enc":[],"feature_segments":[],"sorted_idx":[]},"gbtree_model_param":{"num_parallel_tree":"1","num_trees":"531"},"iteration_indptr":[0,3,6,9,12,15,18,21,24,27,30,33,36,39,42,45,48,51,54,57,60,63,66,69,72,75,78,81,84,87,90,93,96,99,102,105,108,111,114,117,120,123,126,129,132,135,138,141,144,147,150,153,156,159,162,165,168,171,174,177,180,183,186,189,192,195,198,201,204,207,210,213,216,219,222,225,228,231,234,237,240,243,246,249,252,255,258,261,264,267,270,273,276,279,282,285,288,291,294,297,300,303,306,309,312,315,318,321,324,327,330,333,336,339,342,345,348,351,354,357,360,363,366,369,372,375,378,381,384,387,390,393,396,399,402,405,408,411,414,417,420,423,426,429,432,435,438,441,444,447,450,453,456,459,462,465,468,471,474,477,480,483,486,489,492,495,498,501,504,507,510,513,516,519,522,525,528,531],"tree_info":[0,1,2,0,1,2,0,1,2,0,1,2,0,1,2,0,1,2,0,1,2,0,1,2,0,1,2,0,1,2,0,1,2,0,1,2,0,1,2,0,1,2,0,1,2,0,1,2,0,1,2,0,1,2,0,1,2,0,1,2,0,1,2,0,1,2,0,1,2,0,1,2,0,1,2,0,1,2,0,1,2,0,1,2,0,1,2,0,1,2,0,1,2,0,1,2,0,1,2,0,1,2,0,1,2,0,1,2,0,1,2,0,1,2,0,1,2,0,1,2,0,1,2,0,1,2,0,1,2,0,1,2,0,1,2,0,1,2,0,1,2,0,1,2,0,1,2,0,1,2,0,1,2,0,1,2,0,1,2,0,1,2,0,1,2,0,1,2,0,1,2,0,1,2,0,1,2,0,1,2,0,1,2,0,1,2,0,1,2,0,1,2,0,1,2,0,1,2,0,1,2,0,1,2,0,1,2,0,1,2,0,1,2,0,1,2,0,1,2,0,1,2,0,1,2,0,1,2,0,1,2,0,1,2,0,1,2,0,1,2,0,1,2,0,1,2,0,1,2,0,1,2,0,1,2,0,1,2,0,1,2,0,1,2,0,1,2,0,1,2,0,1,2,0,1,2,0,1,2,0,1,2,0,1,2,0,1,2,0,1,2,0,1,2,0,1,2,0,1,2,0,1,2,0,1,2,0,1,2,0,1,2,0,1,2,0,1,2,0,1,2,0,1,2,0,1,2,0,1,2,0,1,2,0,1,2,0,1,2,0,1,2,0,1,2,0,1,2,0,1,2,0,1,2,0,1,2,0,1,2,0,1,2,0,1,2,0,1,2,0,1,2,0,1,2,0,1,2,0,1,2,0,1,2,0,1,2,0,1,2,0,1,2,0,1,2,0,1,2,0,1,2,0,1,2,0,1,2,0,1,2,0,1,2,0,1,2,0,1,2,0,1,2,0,1,2,0,1,2,0,1,2,0,1,2,0,1,2,0,1,2,0,1,2,0,1,2,0,1,2,0,1,2,0,1,2,0,1,2,0,1,2,0,1,2,0,1,2,0,1,2,0,1,2,0,1,2,0,1,2,0,1,2,0,1,2,0,1,2,0,1,2,0,1,2,0,1,2,0,1,2,0,1,2,0,1,2,0,1,2,0,1,2,0,1,2,0,1,2,0,1,2,0,1,2,0,1,2,0,1,2],"trees":[{"base_weights":[-3.5186291E-3,-2.7173126E-1,3.6945733E-1,-4.2861527E-1,-3.9136283E-2,1.8565045E-1,6.248088E-1,-6.2212807E-1,-3.388116E-1,-9.369492E-2,2.3375133E-1,-2.0686811E-1,2.5563672E-1,3.1690028E-1,7.134816E-1,-1.9663816E-2,-1.4388821E-2,-1.1749879E-2,-3.0459093E-3,-3.8916054E-3,2.0156659E-3,-1.2214256E-3,1.20258555E-2,-8.380398E-3,3.941664E-3,1.0058019E-2,4.0744888E-3,2.0984844E-3,1.2511325E-2,2.1481772E-3,2.170054E-2],"categories":[],"categories_nodes":[],"categories_segments":[],"categories_sizes":[],"default_left":[0,1,0,0,0,0,0,0,0,0,0,0,0,0,0,0,0,0,0,0,0,0,0,0,0,0,0,0,0,0,0],"id":0,"left_children":[1,3,5,7,9,11,13,15,17,19,21,23,25,27,29,-1,-1,-1,-1,-1,-1,-1,-1,-1,-1,-1,-1,-1,-1,-1,-1],"loss_changes":[4.4386453E2,9.414714E1,8.688153E1,2.6360657E1,1.555493E1,2.98306E1,2.073462E1,1.680191E0,1.3176254E1,5.057923E0,8.020689E0,4.1147056E0,8.679424E0,4.3215237E0,3.703064E0,0E0,0E0,0E0,0E0,0E0,0E0,0E0,0E0,0E0,0E0,0E0,0E0,0E0,0E0,0E0,0E0],"parents":[2147483647,0,0,1,1,2,2,3,3,4,4,5,5,6,6,7,7,8,8,9,9,10,10,11,11,12,12,13,13,14,14],"right_children":[2,4,6,8,10,12,14,16,18,20,22,24,26,28,30,-1,-1,-1,-1,-1,-1,-1,-1,-1,-1,-1,-1,-1,-1,-1,-1],"split_conditions":[4.717776E-1,3.4211951E-1,6.4535034E-1,2.1790347E-1,5.219197E-1,3.9925826E-1,5.964666E-1,1.1319364E0,3.809067E-1,1.5636788E3,-4.8071474E-2,1.55104E3,2.6067227E-1,1.5567931E3,-4.704585E-1,-1.9663816E-2,-1.4388821E-2,-1.1749879E-2,-3.0459093E-3,-3.8916054E-3,2.0156659E-3,-1.2214256E-3,1.20258555E-2,-8.380398E-3,3.941664E-3,1.0058019E-2,4.0744888E-3,2.0984844E-3,1.2511325E-2,2.1481772E-3,2.170054E-2],"split_indices":[9,14,14,14,14,14,9,5,9,1,34,1,15,1,34,0,0,0,0,0,0,0,0,0,0,0,0,0,0,0,0],"split_type":[0,0,0,0,0,0,0,0,0,0,0,0,0,0,0,0,0,0,0,0,0,0,0,0,0,0,0,0,0,0,0],"sum_hessian":[4.4330024E3,2.5789695E3,1.8540328E3,1.5391416E3,1.039828E3,1.0800477E3,7.7398517E2,4.8410858E2,1.055033E3,8.676678E2,1.721602E2,1.6284099E2,9.172067E2,1.751031E2,5.988821E2,3.865021E2,9.760649E1,8.61782E2,1.9325105E2,7.0924115E2,1.5842662E2,6.5724976E1,1.0643522E2,1.3439287E2,2.8448124E1,5.488526E2,3.6835416E2,5.1500916E1,1.23602196E2,9.319213E0,5.8956287E2],"tree_param":{"num_deleted":"0","num_feature":"40","num_nodes":"31","size_leaf_vector":"1"}},{"base_weights":[2.439983E-3,-1.9342916E-1,9.157951E-2,-2.717848E-1,-1.1796312E-1,-1.0232773E-1,1.2293618E-1,-3.203234E-1,-2.6530245E-2,6.2545277E-3,-1.8137003E-1,-2.7910072E-1,6.2487192E-2,2.0959006E-1,4.8282813E-2,-5.400872E-3,-1.1143823E-2,1.4456804E-3,-1.2961678E-2,-1.2197468E-3,1.23408055E-2,8.337442E-3,-5.9591704E-3,-9.130402E-3,2.0875685E-2,6.6345553E-3,-1.7980444E-3,-4.675216E-3,6.656225E-3,6.6718413E-3,6.796473E-4],"categories":[],"categories_nodes":[],"categories_segments":[],"categories_sizes":[],"default_left":[0,0,0,0,0,1,0,0,0,1,0,0,0,0,0,0,0,0,0,0,0,0,0,0,0,0,0,0,0,0,0],"id":1,"left_children":[1,3,5,7,9,11,13,15,17,19,21,23,25,27,29,-1,-1,-1,-1,-1,-1,-1,-1,-1,-1,-1,-1,-1,-1,-1,-1],"loss_changes":[6.013334E1,6.3055344E0,1.441659E1,6.2559357E0,4.3519263E0,9.665787E0,1.31657715E1,3.0208359E0,2.7456536E0,3.61703E0,3.0108023E0,4.3583527E0,3.3810782E0,4.30114E0,4.8875E0,0E0,0E0,0E0,0E0,0E0,0E0,0E0,0E0,0E0,0E0,0E0,0E0,0E0,0E0,0E0,0E0],"parents":[2147483647,0,0,1,1,2,2,3,3,4,4,5,5,6,6,7,7,8,8,9,9,10,10,11,11,12,12,13,13,14,14],"right_children":[2,4,6,8,10,12,14,16,18,20,22,24,26,28,30,-1,-1,-1,-1,-1,-1,-1,-1,-1,-1,-1,-1,-1,-1,-1,-1],"split_conditions":[2.4273266E-1,2.0285715E-1,1.6848886E-1,2.2175881E-1,1.2E0,2.589436E-1,1.5150288E3,1.4330221E3,5.5E0,2E0,-1.6E0,1.4E1,2.7510837E-1,-1.08851006E2,-1.65E0,-5.400872E-3,-1.1143823E-2,1.4456804E-3,-1.2961678E-2,-1.2197468E-3,1.23408055E-2,8.337442E-3,-5.9591704E-3,-9.130402E-3,2.0875685E-2,6.6345553E-3,-1.7980444E-3,-4.675216E-3,6.656225E-3,6.6718413E-3,6.796473E-4],"split_indices":[15,10,11,15,20,15,2,2,32,35,26,32,15,3,38,0,0,0,0,0,0,0,0,0,0,0,0,0,0,0,0],"split_type":[0,0,0,0,0,0,0,0,0,0,0,0,0,0,0,0,0,0,0,0,0,0,0,0,0,0,0,0,0,0,0],"sum_hessian":[3.440096E3,1.0751952E3,2.364901E3,5.2494604E2,5.502492E2,3.2856335E2,2.0363374E3,4.3770682E2,8.7239235E1,1.8656355E2,3.6368564E2,1.5786147E2,1.7070187E2,9.407486E2,1.0955889E3,1.1934025E2,3.1836655E2,7.5154144E1,1.2085089E1,1.6881358E2,1.7749973E1,1.2085089E1,3.5160056E2,1.5521786E2,2.643613E0,7.364351E1,9.705837E1,2.9835062E1,9.109136E2,1.3860086E2,9.56988E2],"tree_param":{"num_deleted":"0","num_feature":"40","num_nodes":"31","size_leaf_vector":"1"}},{"base_weights":[-4.1873567E-3,-2.583563E-1,4.5359597E-1,-2.2217695E-2,-4.0674138E-1,6.6119885E-1,1.6801089E-1,2.2805688E-1,-9.4520815E-2,-2.8236526E-1,-4.966678E-1,9.5299053E-1,5.436948E-1,2.9617137E-1,-1.3245419E-2,8.935615E-3,-4.985114E-3,-4.193279E-4,-5.089107E-3,-5.293082E-3,-1.2091969E-2,-1.2236178E-2,-1.6466724E-2,2.972823E-2,1.438306E-2,1.7920714E-2,5.1857997E-3,6.1468743E-3,1.5245822E-2,-2.7860638E-3,6.6631883E-3],"categories":[],"categories_nodes":[],"categories_segments":[],"categories_sizes":[],"default_left":[0,0,1,0,0,0,0,0,0,1,0,0,0,0,0,0,0,0,0,0,0,0,0,0,0,0,0,0,0,0,0],"id":2,"left_children":[1,3,5,7,9,11,13,15,17,19,21,23,25,27,29,-1,-1,-1,-1,-1,-1,-1,-1,-1,-1,-1,-1,-1,-1,-1,-1],"loss_changes":[4.589221E2,8.884456E1,8.326105E1,1.7790758E1,1.7137512E1,2.6896637E1,1.38390045E1,6.163966E0,4.6075583E0,8.272255E0,3.7312012E0,3.2053986E0,1.1443954E1,6.5433044E0,4.6985917E0,0E0,0E0,0E0,0E0,0E0,0E0,0E0,0E0,0E0,0E0,0E0,0E0,0E0,0E0,0E0,0E0],"parents":[2147483647,0,0,1,1,2,2,3,3,4,4,5,5,6,6,7,7,8,8,9,9,10,10,11,11,12,12,13,13,14,14],"right_children":[2,4,6,8,10,12,14,16,18,20,22,24,26,28,30,-1,-1,-1,-1,-1,-1,-1,-1,-1,-1,-1,-1,-1,-1,-1,-1],"split_conditions":[3.7702104E-1,4.8432043E-1,2.814133E-1,3.311317E-1,5.7431346E-1,1.7076737E-1,3.7615344E-1,3.043323E-1,4.1544628E-1,4.999265E-2,6.4535034E-1,2.3961614E-1,3.022134E-1,1.7824099E0,1.75E0,8.935615E-3,-4.985114E-3,-4.193279E-4,-5.089107E-3,-5.293082E-3,-1.2091969E-2,-1.2236178E-2,-1.6466724E-2,2.972823E-2,1.438306E-2,1.7920714E-2,5.1857997E-3,6.1468743E-3,1.5245822E-2,-2.7860638E-3,6.6631883E-3],"split_indices":[11,14,14,14,9,14,14,15,14,17,14,15,9,6,24,0,0,0,0,0,0,0,0,0,0,0,0,0,0,0,0],"split_type":[0,0,0,0,0,0,0,0,0,0,0,0,0,0,0,0,0,0,0,0,0,0,0,0,0,0,0,0,0,0,0],"sum_hessian":[3.9401638E3,2.5340747E3,1.4060892E3,9.787696E2,1.555305E3,8.126858E2,5.934034E2,2.1841742E2,7.603521E2,6.561173E2,8.9918774E2,2.2923016E2,5.834556E2,3.4687283E2,2.4653056E2,1.8597919E2,3.2438232E1,3.680658E2,3.9228635E2,3.5206293E2,3.0405435E2,3.3952014E2,5.596676E2,2.1019974E2,1.903043E1,5.0863147E2,7.482419E1,2.4523303E2,1.0163979E2,1.8511417E2,6.1416386E1],"tree_param":{"num_deleted":"0","num_feature":"40","num_nodes":"31","size_leaf_vector":"1"}},{"base_weights":[-4.1731955E-3,-2.6903212E-1,3.7961906E-1,-1.3793206E-1,-5.2269626E-1,6.937499E-2,5.10651E-1,-2.5770754E-1,7.2790654E-3,-6.7856663E-1,-4.498373E-1,-1.8452625E-1,1.7595166E-1,3.2947218E-1,6.2164694E-1,-1.2451384E-2,-4.1529518E-3,-1.8615641E-3,6.278184E-3,-2.114344E-2,-1.220843E-2,-1.061995E-3,-1.386233E-2,1.328709E-2,-6.3473596E-3,2.037233E-2,4.36188E-3,1.4756007E-2,7.7647893E-3,1.3826958E-2,2.1277262E-2],"categories":[],"categories_nodes":[],"categories_segments":[],"categories_sizes":[],"default_left":[0,1,0,1,0,0,0,0,0,0,0,0,0,1,0,0,0,0,0,0,0,0,0,0,0,0,0,0,0,0,0],"id":3,"left_children":[1,3,5,7,9,11,13,15,17,19,21,23,25,27,29,-1,-1,-1,-1,-1,-1,-1,-1,-1,-1,-1,-1,-1,-1,-1,-1],"loss_changes":[4.5799493E2,8.850885E1,7.4717896E1,3.0618797E1,9.696793E0,1.4910113E1,2.5595398E1,1.7988297E1,1.1195585E1,1.4569244E0,3.134941E0,2.9570284E0,5.7586317E0,5.430134E0,1.060553E1,0E0,0E0,0E0,0E0,0E0,0E0,0E0,0E0,0E0,0E0,0E0,0E0,0E0,0E0,0E0,0E0],"parents":[2147483647,0,0,1,1,2,2,3,3,4,4,5,5,6,6,7,7,8,8,9,9,10,10,11,11,12,12,13,13,14,14],"right_children":[2,4,6,8,10,12,14,16,18,20,22,24,26,28,30,-1,-1,-1,-1,-1,-1,-1,-1,-1,-1,-1,-1,-1,-1,-1,-1],"split_conditions":[4.878085E-1,4.3146372E-1,5.169817E-1,3.8695627E-1,1.7442961E-1,3.9925826E-1,6.2392515E-1,-2.7207613E-1,1.5636788E3,2.25E0,-3.0423605E2,1.9634509E0,1.3846249E3,-9.0625E-1,6.6390294E-1,-1.2451384E-2,-4.1529518E-3,-1.8615641E-3,6.278184E-3,-2.114344E-2,-1.220843E-2,-1.061995E-3,-1.386233E-2,1.328709E-2,-6.3473596E-3,2.037233E-2,4.36188E-3,1.4756007E-2,7.7647893E-3,1.3826958E-2,2.1277262E-2],"split_indices":[7,16,14,14,14,14,9,7,1,20,3,8,2,35,14,0,0,0,0,0,0,0,0,0,0,0,0,0,0,0,0],"split_type":[0,0,0,0,0,0,0,0,0,0,0,0,0,0,0,0,0,0,0,0,0,0,0,0,0,0,0,0,0,0,0],"sum_hessian":[4.501562E3,2.6638262E3,1.8377356E3,1.7582206E3,9.0560565E2,5.466033E2,1.2911323E3,9.626457E2,7.9557495E2,2.8317328E2,6.224324E2,1.6117288E2,3.854304E2,4.9351062E2,7.9762164E2,4.129532E2,5.4969244E2,5.933146E2,2.0226039E2,2.5534021E2,2.7833067E1,1.8079391E1,6.0435297E2,5.391156E0,1.5578172E2,1.9637243E1,3.6579315E2,1.4599191E2,3.475187E2,2.8575256E2,5.1186908E2],"tree_param":{"num_deleted":"0","num_feature":"40","num_nodes":"31","size_leaf_vector":"1"}},{"base_weights":[-2.5734333E-3,-2.423952E-1,5.5318806E-2,-3.2801348E-1,-3.9298665E-2,-2.6174037E-2,1.5392339E-1,6.590427E-2,-3.4606165E-1,-3.115913E-1,6.0429856E-2,-1.3123356E-1,9.622356E-4,-2.581243E-1,1.679657E-1,2.5634956E-2,-6.2368265E-3,-1.5483166E-2,-8.844837E-3,-1.3463482E-2,2.2236658E-4,-1.3928816E-2,3.080799E-3,-4.464065E-3,1.5266355E-2,1.798008E-2,-1.9996756E-4,-2.1384878E-3,-1.3635276E-2,9.236142E-3,3.863592E-3],"categories":[],"categories_nodes":[],"categories_segments":[],"categories_sizes":[],"default_left":[0,1,1,0,0,0,0,1,1,0,0,0,0,0,1,0,0,0,0,0,0,0,0,0,0,0,0,0,0,0,0],"id":4,"left_children":[1,3,5,7,9,11,13,15,17,19,21,23,25,27,29,-1,-1,-1,-1,-1,-1,-1,-1,-1,-1,-1,-1,-1,-1,-1,-1],"loss_changes":[4.7756504E1,1.1605061E1,2.2273985E1,3.388813E0,5.4857135E0,4.3302584E0,7.343134E0,5.1662006E0,3.6157532E0,2.3746238E0,3.3890011E0,3.6577454E0,5.5263176E0,1.480675E0,6.5751E0,0E0,0E0,0E0,0E0,0E0,0E0,0E0,0E0,0E0,0E0,0E0,0E0,0E0,0E0,0E0,0E0],"parents":[2147483647,0,0,1,1,2,2,3,3,4,4,5,5,6,6,7,7,8,8,9,9,10,10,11,11,12,12,13,13,14,14],"right_children":[2,4,6,8,10,12,14,16,18,20,22,24,26,28,30,-1,-1,-1,-1,-1,-1,-1,-1,-1,-1,-1,-1,-1,-1,-1,-1],"split_conditions":[1.9580117E-1,2.2175881E-1,2.6641393E-1,-3.400966E-1,-6.25E-1,1.7649369E-1,-1.8E0,4.6759628E-2,1.1106291E-1,1.8E0,4.7882173E-2,1.6398411E3,7.271397E-1,2.647972E0,-6.666667E-1,2.5634956E-2,-6.2368265E-3,-1.5483166E-2,-8.844837E-3,-1.3463482E-2,2.2236658E-4,-1.3928816E-2,3.080799E-3,-4.464065E-3,1.5266355E-2,1.798008E-2,-1.9996756E-4,-2.1384878E-3,-1.3635276E-2,9.236142E-3,3.863592E-3],"split_indices":[10,15,15,34,22,11,25,17,15,24,11,2,6,8,22,0,0,0,0,0,0,0,0,0,0,0,0,0,0,0,0],"split_type":[0,0,0,0,0,0,0,0,0,0,0,0,0,0,0,0,0,0,0,0,0,0,0,0,0,0,0,0,0,0,0],"sum_hessian":[3.435792E3,6.6687054E2,2.7689216E3,4.6824496E2,1.9862556E2,1.516808E3,1.2521135E3,2.0281406E1,4.4796356E2,5.2107006E1,1.4651855E2,3.0978534E2,1.2070226E3,4.0119205E1,1.2119944E3,4.1337047E0,1.6147701E1,9.9518E1,3.4844556E2,3.5867905E1,1.6239098E1,9.432874E0,1.3708568E2,3.0300412E2,6.7812223E0,1.3240124E1,1.1937825E3,2.195607E1,1.8163136E1,2.6215314E2,9.4984125E2],"tree_param":{"num_deleted":"0","num_feature":"40","num_nodes":"31","size_leaf_vector":"1"}},{"base_weights":[-5.030929E-3,3.8778648E-1,-2.723074E-1,9.926701E-2,5.6218725E-1,-3.975253E-1,-2.8268572E-2,-4.6877548E-2,2.4600197E-1,9.352622E-1,4.579259E-1,-4.957049E-1,-2.799005E-1,-8.2927756E-2,2.8779647E-1,-2.04836E-3,1.760009E-2,2.4076164E-2,6.64693E-3,1.03672035E-2,2.8935274E-2,1.067613E-2,1.8936392E-2,-1.623253E-2,-1.1605359E-2,-6.224773E-3,-1.14337625E-2,-4.4951164E-3,2.908817E-4,-7.125527E-3,1.0709728E-2],"categories":[],"categories_nodes":[],"categories_segments":[],"categories_sizes":[],"default_left":[0,0,1,0,0,0,0,0,0,0,0,1,1,0,0,0,0,0,0,0,0,0,0,0,0,0,0,0,0,0,0],"id":5,"left_children":[1,3,5,7,9,11,13,15,17,19,21,23,25,27,29,-1,-1,-1,-1,-1,-1,-1,-1,-1,-1,-1,-1,-1,-1,-1,-1],"loss_changes":[4.1672955E2,8.075777E1,7.215625E1,1.3059471E1,3.8089447E1,1.77482E1,1.3922553E1,4.2324314E0,3.7743378E0,3.0720825E0,1.3459396E1,3.771347E0,5.0803413E0,4.256019E0,4.4900236E0,0E0,0E0,0E0,0E0,0E0,0E0,0E0,0E0,0E0,0E0,0E0,0E0,0E0,0E0,0E0,0E0],"parents":[2147483647,0,0,1,1,2,2,3,3,4,4,5,5,6,6,7,7,8,8,9,9,10,10,11,11,12,12,13,13,14,14],"right_children":[2,4,6,8,10,12,14,16,18,20,22,24,26,28,30,-1,-1,-1,-1,-1,-1,-1,-1,-1,-1,-1,-1,-1,-1,-1,-1],"split_conditions":[4.1763358E-2,4.0631032E-1,2.499899E-1,3.2933593E-1,1.6677484E-1,1.6896294E-1,4.0483359E-1,8E0,1.9234233E-1,6.013923E-1,5.620281E-1,1.5938804E-1,5.4908824E-1,1.6E0,-1E0,-2.04836E-3,1.760009E-2,2.4076164E-2,6.64693E-3,1.03672035E-2,2.8935274E-2,1.067613E-2,1.8936392E-2,-1.623253E-2,-1.1605359E-2,-6.224773E-3,-1.14337625E-2,-4.4951164E-3,2.908817E-4,-7.125527E-3,1.0709728E-2],"split_indices":[7,16,16,16,14,11,16,31,10,16,11,16,14,23,21,0,0,0,0,0,0,0,0,0,0,0,0,0,0,0,0],"split_type":[0,0,0,0,0,0,0,0,0,0,0,0,0,0,0,0,0,0,0,0,0,0,0,0,0,0,0,0,0,0,0],"sum_hessian":[3.9651873E3,1.6051659E3,2.3600212E3,6.0591327E2,9.992527E2,1.5588878E3,8.011335E2,3.0424924E2,3.01664E2,2.1477824E2,7.844744E2,8.4617255E2,7.127152E2,6.8427295E2,1.1686053E2,2.9603372E2,8.215515E0,1.0010341E1,2.916537E2,1.1360226E1,2.0341801E2,4.975545E2,2.8691992E2,5.916112E2,2.5456134E2,4.1905618E2,2.9365903E2,3.9656647E2,2.8770648E2,1.3035064E1,1.0382546E2],"tree_param":{"num_deleted":"0","num_feature":"40","num_nodes":"31","size_leaf_vector":"1"}},{"base_weights":[-7.5039053E-3,-2.6803276E-1,3.6724654E-1,-1.4058216E-1,-5.0771457E-1,1.8469296E-1,6.207154E-1,-2.7285832E-1,-4.2304173E-2,-6.6620773E-1,-4.403608E-1,-2.0220399E-1,2.4886318E-1,3.9278096E-1,6.986231E-1,-7.9604366E-4,-1.1172355E-2,-2.532198E-3,8.835366E-3,2.4291093E-3,-2.0167975E-2,-9.168451E-3,-1.3851589E-2,-1.557006E-2,-3.655838E-3,1.0337428E-2,4.4023697E-3,1.8831866E-2,8.066047E-3,2.1073425E-2,-5.9416885E-3],"categories":[],"categories_nodes":[],"categories_segments":[],"categories_sizes":[],"default_left":[0,1,0,0,0,0,0,0,1,0,0,0,0,0,0,0,0,0,0,0,0,0,0,0,0,0,0,0,0,0,0],"id":6,"left_children":[1,3,5,7,9,11,13,15,17,19,21,23,25,27,29,-1,-1,-1,-1,-1,-1,-1,-1,-1,-1,-1,-1,-1,-1,-1,-1],"loss_changes":[4.3671588E2,8.046002E1,8.4651825E1,2.240643E1,9.18338E0,2.664661E1,1.30746765E1,1.8006721E1,1.4120827E1,1.3266983E0,1.583252E0,3.7731972E0,8.871933E0,5.4848843E0,2.230194E0,0E0,0E0,0E0,0E0,0E0,0E0,0E0,0E0,0E0,0E0,0E0,0E0,0E0,0E0,0E0,0E0],"parents":[2147483647,0,0,1,1,2,2,3,3,4,4,5,5,6,6,7,7,8,8,9,9,10,10,11,11,12,12,13,13,14,14],"right_children":[2,4,6,8,10,12,14,16,18,20,22,24,26,28,30,-1,-1,-1,-1,-1,-1,-1,-1,-1,-1,-1,-1,-1,-1,-1,-1],"split_conditions":[4.878085E-1,4.2897224E-1,6.4535034E-1,3.3042064E-1,1.7076737E-1,3.9925826E-1,6.179611E-1,3.1905934E-1,5.460518E-1,3.030624E-1,-2.199532E-1,-1.7658882E-1,1.6896294E-1,1.9834605E-1,6.9735813E-1,-7.9604366E-4,-1.1172355E-2,-2.532198E-3,8.835366E-3,2.4291093E-3,-2.0167975E-2,-9.168451E-3,-1.3851589E-2,-1.557006E-2,-3.655838E-3,1.0337428E-2,4.4023697E-3,1.8831866E-2,8.066047E-3,2.1073425E-2,-5.9416885E-3],"split_indices":[7,16,14,9,14,14,9,16,14,11,33,33,11,15,13,0,0,0,0,0,0,0,0,0,0,0,0,0,0,0,0],"split_type":[0,0,0,0,0,0,0,0,0,0,0,0,0,0,0,0,0,0,0,0,0,0,0,0,0,0,0,0,0,0,0],"sum_hessian":[4.4690054E3,2.6365964E3,1.8324087E3,1.7233693E3,9.132271E2,1.0672268E3,7.651819E2,7.3310376E2,9.902655E2,2.6704623E2,6.461809E2,1.5121495E2,9.160119E2,1.9799416E2,5.6718774E2,2.117378E2,5.2136597E2,8.815674E2,1.0869813E2,1.9488819E0,2.6509735E2,9.260205E1,5.5357886E2,2.8382133E1,1.2283281E2,4.7037073E2,4.4564117E2,6.555848E1,1.3243567E2,5.6521027E2,1.9774668E0],"tree_param":{"num_deleted":"0","num_feature":"40","num_nodes":"31","size_leaf_vector":"1"}},{"base_weights":[4.5155035E-3,-2.376157E-1,6.295711E-2,-3.2031402E-1,-9.767661E-2,-3.9622556E-2,1.2994038E-1,-3.2653693E-2,-3.488448E-1,-1.8102083E-1,9.954203E-2,8.909264E-2,-7.417731E-2,1.6576286E-1,-2.1228094E-2,-7.993213E-3,1.3838493E-2,-1.7885217E-2,-9.667872E-3,-1.1272492E-3,-7.545091E-3,-8.676497E-3,8.259397E-3,1.3873068E-4,1.2689838E-2,-5.731225E-3,-1.1113307E-3,4.6411566E-3,1.4551398E-2,-1.3881784E-3,2.0001298E-2],"categories":[],"categories_nodes":[],"categories_segments":[],"categories_sizes":[],"default_left":[0,1,0,0,0,0,0,0,0,0,0,0,0,0,1,0,0,0,0,0,0,0,0,0,0,0,0,0,0,0,0],"id":7,"left_children":[1,3,5,7,9,11,13,15,17,19,21,23,25,27,29,-1,-1,-1,-1,-1,-1,-1,-1,-1,-1,-1,-1,-1,-1,-1,-1],"loss_changes":[4.866991E1,7.676712E0,1.9047241E1,3.4198608E0,4.1664076E0,4.887945E0,9.086035E0,4.87134E0,2.123375E0,1.774148E0,5.3482294E0,6.5639644E0,3.7400947E0,4.635929E0,5.6259804E0,0E0,0E0,0E0,0E0,0E0,0E0,0E0,0E0,0E0,0E0,0E0,0E0,0E0,0E0,0E0,0E0],"parents":[2147483647,0,0,1,1,2,2,3,3,4,4,5,5,6,6,7,7,8,8,9,9,10,10,11,11,12,12,13,13,14,14],"right_children":[2,4,6,8,10,12,14,16,18,20,22,24,26,28,30,-1,-1,-1,-1,-1,-1,-1,-1,-1,-1,-1,-1,-1,-1,-1,-1],"split_conditions":[1.9580117E-1,2.0954159E-1,2.627625E-1,-1.1E0,5E-1,1.4422932E3,1.5687897E3,3.5570732E-1,1.1106291E-1,1.4823512E3,4.8776872E-2,1.1697841E0,4.6644825E-1,2.5E0,5.3536755E-1,-7.993213E-3,1.3838493E-2,-1.7885217E-2,-9.667872E-3,-1.1272492E-3,-7.545091E-3,-8.676497E-3,8.259397E-3,1.3873068E-4,1.2689838E-2,-5.731225E-3,-1.1113307E-3,4.6411566E-3,1.4551398E-2,-1.3881784E-3,2.0001298E-2],"split_indices":[10,15,15,26,22,2,1,39,15,1,17,6,13,37,14,0,0,0,0,0,0,0,0,0,0,0,0,0,0,0,0],"split_type":[0,0,0,0,0,0,0,0,0,0,0,0,0,0,0,0,0,0,0,0,0,0,0,0,0,0,0,0,0,0,0],"sum_hessian":[3.435325E3,6.667521E2,2.768573E3,4.174677E2,2.4928436E2,1.0940055E3,1.6745674E3,3.8056255E1,3.7941147E2,1.7534723E2,7.393713E1,2.308693E2,8.631362E2,1.3536088E3,3.209586E2,2.6455622E1,1.1600635E1,3.266191E1,3.4674954E2,5.8781338E1,1.16565895E2,2.261905E1,5.1318085E1,1.8587547E2,4.4993828E1,2.0612796E2,6.570083E2,1.3111687E3,4.2440117E1,3.1148444E2,9.474179E0],"tree_param":{"num_deleted":"0","num_feature":"40","num_nodes":"31","size_leaf_vector":"1"}},{"base_weights":[-3.2820588E-4,-2.4259324E-1,4.2920837E-1,-4.0310138E-1,-4.9012806E-2,2.703786E-1,7.443473E-1,-2.6476008E-1,-4.8117015E-1,-9.479947E-2,3.3837184E-1,-3.5143316E-2,3.574424E-1,9.1360366E-1,6.270322E-1,-4.7218823E-3,-1.1946772E-2,-1.1796297E-2,-1.585738E-2,-5.0591733E-3,9.860198E-5,-2.7302478E-3,1.2090411E-2,-4.1367407E-3,3.2064565E-3,7.97038E-3,1.5783783E-2,3.3260826E-2,2.137048E-2,2.2654917E-2,1.5958045E-2],"categories":[],"categories_nodes":[],"categories_segments":[],"categories_sizes":[],"default_left":[0,1,1,0,0,0,0,1,0,0,0,0,0,0,0,0,0,0,0,0,0,0,0,0,0,0,0,0,0,0,0],"id":8,"left_children":[1,3,5,7,9,11,13,15,17,19,21,23,25,27,29,-1,-1,-1,-1,-1,-1,-1,-1,-1,-1,-1,-1,-1,-1,-1,-1],"loss_changes":[4.157118E2,7.932362E1,7.170581E1,1.4823532E1,2.0641056E1,2.5587746E1,8.4175415E0,7.155281E0,3.2958527E0,7.526557E0,3.489068E0,3.1661005E0,1.1299629E1,5.9898224E0,2.7404175E0,0E0,0E0,0E0,0E0,0E0,0E0,0E0,0E0,0E0,0E0,0E0,0E0,0E0,0E0,0E0,0E0],"parents":[2147483647,0,0,1,1,2,2,3,3,4,4,5,5,6,6,7,7,8,8,9,9,10,10,11,11,12,12,13,13,14,14],"right_children":[2,4,6,8,10,12,14,16,18,20,22,24,26,28,30,-1,-1,-1,-1,-1,-1,-1,-1,-1,-1,-1,-1,-1,-1,-1,-1],"split_conditions":[3.7702104E-1,2.2032687E-1,5.065538E-1,7.862662E-1,4.2368123E-1,3.2441562E-1,8.1521845E-1,4.9694877E-2,6.4535034E-1,3.0316782E-1,-1.8370663E2,2.4990446E1,1.7688439E0,2.2254097E-1,1.7076737E-1,-4.7218823E-3,-1.1946772E-2,-1.1796297E-2,-1.585738E-2,-5.0591733E-3,9.860198E-5,-2.7302478E-3,1.2090411E-2,-4.1367407E-3,3.2064565E-3,7.97038E-3,1.5783783E-2,3.3260826E-2,2.137048E-2,2.2654917E-2,1.5958045E-2],"split_indices":[11,16,16,7,16,16,5,17,14,16,3,3,6,15,14,0,0,0,0,0,0,0,0,0,0,0,0,0,0,0,0],"split_type":[0,0,0,0,0,0,0,0,0,0,0,0,0,0,0,0,0,0,0,0,0,0,0,0,0,0,0,0,0,0,0],"sum_hessian":[3.990858E3,2.5522317E3,1.4386263E3,1.3941232E3,1.1581085E3,9.590046E2,4.7962177E2,5.0609076E2,8.880324E2,1.0370461E3,1.2106238E2,2.1294312E2,7.4606146E2,1.9078752E2,2.8883423E2,2.828865E2,2.2320425E2,3.1751743E2,5.70515E2,5.9082916E2,4.4621695E2,1.5734048E1,1.0532833E2,1.23590126E2,8.9353E1,4.8653754E2,2.5952393E2,9.229826E1,9.8489265E1,1.1713188E2,1.7170235E2],"tree_param":{"num_deleted":"0","num_feature":"40","num_nodes":"31","size_leaf_vector":"1"}},{"base_weights":[3.3472613E-3,-2.9389742E-1,3.1427833E-1,-4.2050076E-1,-3.0475628E-2,4.3851595E-2,4.7070864E-1,-5.920311E-1,-3.4444064E-1,-7.5220466E-2,1.9607618E-1,1.1838935E-1,-1.7335628E-1,5.6807166E-1,2.8095034E-1,-1.7864758E-2,6.69438E-3,-4.7559766E-3,-1.2003187E-2,-3.6983804E-3,1.1868665E-3,-5.323733E-3,8.567387E-3,7.339278E-3,1.494881E-3,-6.21098E-3,5.6445478E-3,1.2126392E-2,1.9526564E-2,1.4753207E-2,6.501875E-3],"categories":[],"categories_nodes":[],"categories_segments":[],"categories_sizes":[],"default_left":[0,1,0,0,0,0,0,0,0,0,0,0,0,0,0,0,0,0,0,0,0,0,0,0,0,0,0,0,0,0,0],"id":9,"left_children":[1,3,5,7,9,11,13,15,17,19,21,23,25,27,29,-1,-1,-1,-1,-1,-1,-1,-1,-1,-1,-1,-1,-1,-1,-1,-1],"loss_changes":[4.1392615E2,7.633659E1,9.2556E1,1.9766296E1,7.5856905E0,1.3064025E1,2.5297577E1,1.5980988E0,1.100901E1,3.4514544E0,4.2300744E0,5.1696434E0,2.5897088E0,1.188205E1,6.206253E0,0E0,0E0,0E0,0E0,0E0,0E0,0E0,0E0,0E0,0E0,0E0,0E0,0E0,0E0,0E0,0E0],"parents":[2147483647,0,0,1,1,2,2,3,3,4,4,5,5,6,6,7,7,8,8,9,9,10,10,11,11,12,12,13,13,14,14],"right_children":[2,4,6,8,10,12,14,16,18,20,22,24,26,28,30,-1,-1,-1,-1,-1,-1,-1,-1,-1,-1,-1,-1,-1,-1,-1,-1],"split_conditions":[2.9170302E-1,3.5986125E-1,5.2446586E-1,2.1790347E-1,5.219197E-1,3.308182E-1,1.7161357E-1,1.6E1,3.6619008E-1,5.629386E-1,-7.777778E-1,1.7835364E-1,2E0,6.4931697E-1,1.4973961E-1,-1.7864758E-2,6.69438E-3,-4.7559766E-3,-1.2003187E-2,-3.6983804E-3,1.1868665E-3,-5.323733E-3,8.567387E-3,7.339278E-3,1.494881E-3,-6.21098E-3,5.6445478E-3,1.2126392E-2,1.9526564E-2,1.4753207E-2,6.501875E-3],"split_indices":[7,14,14,14,14,16,11,32,11,13,26,11,30,14,16,0,0,0,0,0,0,0,0,0,0,0,0,0,0,0,0],"split_type":[0,0,0,0,0,0,0,0,0,0,0,0,0,0,0,0,0,0,0,0,0,0,0,0,0,0,0,0,0,0,0],"sum_hessian":[4.4746255E3,2.2877173E3,2.1869084E3,1.544312E3,7.4340533E2,8.0237476E2,1.3845336E3,4.7024664E2,1.0740653E3,6.2191144E2,1.21493904E2,5.980544E2,2.0432039E2,9.1240216E2,4.7213147E2,4.6879532E2,1.4513004E0,2.4926918E2,8.2479614E2,4.3826443E2,1.8364697E2,2.3104418E1,9.838949E1,2.0866362E2,3.8939075E2,1.8769061E2,1.6629768E1,3.102639E2,6.021383E2,1.0713081E2,3.6500064E2],"tree_param":{"num_deleted":"0","num_feature":"40","num_nodes":"31","size_leaf_vector":"1"}},{"base_weights":[8.733667E-3,-1.9750911E-1,6.8811044E-2,-2.7335504E-1,-4.580925E-2,-2.1127507E-2,1.2483543E-1,-4.8941034E-1,-2.4423598E-1,-1.2042618E-1,8.635871E-2,-1.3003713E-1,2.5130432E-2,1.5023318E-1,1.0452836E-2,-1.5581397E-2,8.821044E-3,-9.377244E-3,-4.804486E-3,1.3842926E-3,-7.1844994E-3,5.299694E-3,-8.672814E-3,-1.0719323E-3,-9.611351E-3,4.407138E-4,2.021279E-2,4.0657674E-3,1.6647171E-2,-1.9007757E-3,8.326955E-3],"categories":[],"categories_nodes":[],"categories_segments":[],"categories_sizes":[],"default_left":[0,1,0,0,0,1,0,0,1,0,0,0,0,0,0,0,0,0,0,0,0,0,0,0,0,0,0,0,0,0,0],"id":10,"left_children":[1,3,5,7,9,11,13,15,17,19,21,23,25,27,29,-1,-1,-1,-1,-1,-1,-1,-1,-1,-1,-1,-1,-1,-1,-1,-1],"loss_changes":[4.283946E1,8.949049E0,1.349543E1,3.029789E0,2.6083899E0,5.192187E0,4.7900944E0,1.7075729E0,2.5539207E0,3.3644152E0,3.3514616E0,5.4911065E0,4.883842E0,7.884573E0,5.988319E0,0E0,0E0,0E0,0E0,0E0,0E0,0E0,0E0,0E0,0E0,0E0,0E0,0E0,0E0,0E0,0E0],"parents":[2147483647,0,0,1,1,2,2,3,3,4,4,5,5,6,6,7,7,8,8,9,9,10,10,11,11,12,12,13,13,14,14],"right_children":[2,4,6,8,10,12,14,16,18,20,22,24,26,28,30,-1,-1,-1,-1,-1,-1,-1,-1,-1,-1,-1,-1,-1,-1,-1,-1],"split_conditions":[2.0493764E-1,2.2581649E-1,2.631625E-1,-1.65E0,7.7083335E0,-8.020833E-1,1.5687897E3,3E0,1.7538147E-1,8.9523345E-1,5E-1,6E-1,2.1667187E0,2.5E0,2.8544566E-1,-1.5581397E-2,8.821044E-3,-9.377244E-3,-4.804486E-3,1.3842926E-3,-7.1844994E-3,5.299694E-3,-8.672814E-3,-1.0719323E-3,-9.611351E-3,4.407138E-4,2.021279E-2,4.0657674E-3,1.6647171E-2,-1.9007757E-3,8.326955E-3],"split_indices":[10,15,15,38,28,35,1,25,15,6,37,38,5,37,10,0,0,0,0,0,0,0,0,0,0,0,0,0,0,0,0],"split_type":[0,0,0,0,0,0,0,0,0,0,0,0,0,0,0,0,0,0,0,0,0,0,0,0,0,0,0,0,0,0,0],"sum_hessian":[3.453243E3,7.779618E2,2.675281E3,5.1758105E2,2.6038074E2,1.0273209E3,1.6479602E3,5.771766E1,4.5986343E2,1.6653767E2,9.3843056E1,3.05181E2,7.221399E2,1.3480168E3,2.9994336E2,5.6240376E1,1.477283E0,2.5068877E2,2.0917467E2,6.992815E1,9.660952E1,7.650281E1,1.7340248E1,2.056604E2,9.952059E1,7.1271375E2,9.426143E0,1.3033182E3,4.469859E1,2.3619925E2,6.3744114E1],"tree_param":{"num_deleted":"0","num_feature":"40","num_nodes":"31","size_leaf_vector":"1"}},{"base_weights":[4.3979785E-3,4.1902933E-1,-2.1703282E-1,2.6350424E-1,6.942659E-1,-3.5373628E-1,4.853081E-2,4.2384258E-1,1.05754346E-1,8.709025E-1,5.477454E-1,-4.7524092E-1,-2.3482768E-1,6.411812E-1,1.8851044E-2,8.8692345E-3,1.7388312E-2,1.0248801E-3,8.652429E-3,2.7222877E-2,1.1473092E-2,1.7135216E-2,-1.6444483E-3,-1.1514719E-3,-1.4580892E-2,-7.4835434E-3,5.9952256E-3,8.477209E-3,2.5784926E-2,2.3370332E-3,-2.2835713E-3],"categories":[],"categories_nodes":[],"categories_segments":[],"categories_sizes":[],"default_left":[0,1,1,0,0,0,0,0,0,0,0,0,0,0,0,0,0,0,0,0,0,0,0,0,0,0,0,0,0,0,0],"id":11,"left_children":[1,3,5,7,9,11,13,15,17,19,21,23,25,27,29,-1,-1,-1,-1,-1,-1,-1,-1,-1,-1,-1,-1,-1,-1,-1,-1],"loss_changes":[3.6501596E2,5.8879517E1,9.412074E1,2.2359707E1,1.1947006E1,2.4499725E1,1.5498593E1,8.434021E0,5.865642E0,3.2779846E0,3.9851532E0,3.9424896E0,5.6220856E0,2.8045158E0,4.736389E0,0E0,0E0,0E0,0E0,0E0,0E0,0E0,0E0,0E0,0E0,0E0,0E0,0E0,0E0,0E0,0E0],"parents":[2147483647,0,0,1,1,2,2,3,3,4,4,5,5,6,6,7,7,8,8,9,9,10,10,11,11,12,12,13,13,14,14],"right_children":[2,4,6,8,10,12,14,16,18,20,22,24,26,28,30,-1,-1,-1,-1,-1,-1,-1,-1,-1,-1,-1,-1,-1,-1,-1,-1],"split_conditions":[-5.4021004E1,5.065538E-1,2.608398E-1,2.8948843E-1,1.6677484E-1,1.6896294E-1,2.5670582E-1,1.7542862E0,1.8E0,2.3961614E-1,5.8007723E-1,4.7823438E-1,4.787821E-1,-3.0907478E-2,2.8925878E-1,8.8692345E-3,1.7388312E-2,1.0248801E-3,8.652429E-3,2.7222877E-2,1.1473092E-2,1.7135216E-2,-1.6444483E-3,-1.1514719E-3,-1.4580892E-2,-7.4835434E-3,5.9952256E-3,8.477209E-3,2.5784926E-2,2.3370332E-3,-2.2835713E-3],"split_indices":[3,16,16,9,14,11,14,6,24,15,39,14,11,39,15,0,0,0,0,0,0,0,0,0,0,0,0,0,0,0,0],"split_type":[0,0,0,0,0,0,0,0,0,0,0,0,0,0,0,0,0,0,0,0,0,0,0,0,0,0,0,0,0,0,0],"sum_hessian":[3.971702E3,1.3820378E3,2.589664E3,8.8555896E2,4.964789E2,1.7091735E3,8.8049066E2,4.3750323E2,4.480557E2,2.2062201E2,2.758569E2,8.423944E2,8.6677905E2,4.0026592E1,8.4046405E2,2.431663E2,1.9433693E2,3.2359863E2,1.2445707E2,2.0367598E2,1.6946024E1,2.6563284E2,1.0224062E1,2.0522392E1,8.21872E2,8.3939124E2,2.7387827E1,1.6883057E1,2.3143536E1,5.184587E2,3.220054E2],"tree_param":{"num_deleted":"0","num_feature":"40","num_nodes":"31","size_leaf_vector":"1"}},{"base_weights":[-9.5796876E-4,-2.431618E-1,3.3880168E-1,-9.058679E-2,-4.48768E-1,-2.8583238E-2,4.4524893E-1,-1.3427892E-1,2.4433513E-1,-5.6642115E-1,-3.55248E-1,-2.2119243E-1,8.438092E-2,2.3478831E-1,5.224271E-1,-1.0569357E-2,-2.7343512E-3,1.0239264E-3,1.1069084E-2,-1.9217465E-2,-1.4669881E-2,-5.6122676E-3,-1.1525768E-2,1.173797E-2,-7.388052E-3,9.063202E-4,1.11999465E-2,1.27822785E-2,4.7012893E-3,1.1100256E-2,1.850916E-2],"categories":[],"categories_nodes":[],"categories_segments":[],"categories_sizes":[],"default_left":[0,1,0,1,0,0,0,0,0,0,0,0,0,1,0,0,0,0,0,0,0,0,0,0,0,0,0,0,0,0,0],"id":12,"left_children":[1,3,5,7,9,11,13,15,17,19,21,23,25,27,29,-1,-1,-1,-1,-1,-1,-1,-1,-1,-1,-1,-1,-1,-1,-1,-1],"loss_changes":[3.6802798E2,8.182605E1,7.281511E1,2.2034557E1,1.1829468E1,9.176125E0,2.3197601E1,1.24375515E1,4.5322695E0,2.1810913E0,2.8972244E0,2.585878E0,4.144079E0,5.7045097E0,1.4737549E1,0E0,0E0,0E0,0E0,0E0,0E0,0E0,0E0,0E0,0E0,0E0,0E0,0E0,0E0,0E0,0E0],"parents":[2147483647,0,0,1,1,2,2,3,3,4,4,5,5,6,6,7,7,8,8,9,9,10,10,11,11,12,12,13,13,14,14],"right_children":[2,4,6,8,10,12,14,16,18,20,22,24,26,28,30,-1,-1,-1,-1,-1,-1,-1,-1,-1,-1,-1,-1,-1,-1,-1,-1],"split_conditions":[4.878085E-1,3.8947433E-1,4.8432043E-1,5.219197E-1,2.1790347E-1,3.981466E-1,8.6219704E-1,-5.626755E-1,-4.8071474E-2,1.6677484E-1,7.5E-1,3.3846137E-1,5.5E0,-9.0625E-1,6.4535034E-1,-1.0569357E-2,-2.7343512E-3,1.0239264E-3,1.1069084E-2,-1.9217465E-2,-1.4669881E-2,-5.6122676E-3,-1.1525768E-2,1.173797E-2,-7.388052E-3,9.063202E-4,1.11999465E-2,1.27822785E-2,4.7012893E-3,1.1100256E-2,1.850916E-2],"split_indices":[7,16,14,14,14,14,7,7,34,14,19,13,31,35,14,0,0,0,0,0,0,0,0,0,0,0,0,0,0,0,0],"split_type":[0,0,0,0,0,0,0,0,0,0,0,0,0,0,0,0,0,0,0,0,0,0,0,0,0,0,0,0,0,0,0],"sum_hessian":[4.4682676E3,2.6089788E3,1.8592891E3,1.4992819E3,1.1096969E3,4.1802127E2,1.4412678E3,1.3273242E3,1.7195753E2,4.869607E2,6.227362E2,1.5382545E2,2.641958E2,3.888846E2,1.0523832E3,2.1685098E2,1.1104733E3,6.495472E1,1.0700282E2,2.4129291E2,2.4566777E2,9.3633255E1,5.2910297E2,4.9016104E0,1.4892384E2,2.243462E2,3.9849594E1,1.1013848E2,2.7874612E2,4.0664572E2,6.457375E2],"tree_param":{"num_deleted":"0","num_feature":"40","num_nodes":"31","size_leaf_vector":"1"}},{"base_weights":[-1.7909864E-3,-2.190145E-1,6.039347E-2,-2.9666436E-1,-6.7525946E-2,-2.4524787E-2,1.4834295E-1,-5.033145E-1,-2.6813668E-1,-1.5260628E-1,8.1455246E-2,-1.3490544E-2,-3.8653812E-1,1.4182878E-1,7.6539165E-1,4.3110352E-4,-1.5913503E-2,-1.0141154E-2,-5.432168E-3,-5.3255168E-5,-8.876351E-3,8.631008E-3,-3.7461724E-3,2.77468E-3,-1.4896272E-3,3.4403952E-3,-1.3814606E-2,5.0624153E-3,-8.6968177E-4,-8.703678E-3,2.8459022E-2],"categories":[],"categories_nodes":[],"categories_segments":[],"categories_sizes":[],"default_left":[0,1,1,0,0,0,0,0,1,0,0,0,0,0,0,0,0,0,0,0,0,0,0,0,0,0,0,0,0,0,0],"id":13,"left_children":[1,3,5,7,9,11,13,15,17,19,21,23,25,27,29,-1,-1,-1,-1,-1,-1,-1,-1,-1,-1,-1,-1,-1,-1,-1,-1],"loss_changes":[4.7071922E1,9.082874E0,2.0241333E1,2.7493324E0,3.3890133E0,5.502412E0,5.1335526E0,8.5592556E-1,2.6424599E0,3.6646287E0,4.232738E0,5.1500525E0,1.6159544E0,6.077978E0,3.1521215E0,0E0,0E0,0E0,0E0,0E0,0E0,0E0,0E0,0E0,0E0,0E0,0E0,0E0,0E0,0E0,0E0],"parents":[2147483647,0,0,1,1,2,2,3,3,4,4,5,5,6,6,7,7,8,8,9,9,10,10,11,11,12,12,13,13,14,14],"right_children":[2,4,6,8,10,12,14,16,18,20,22,24,26,28,30,-1,-1,-1,-1,-1,-1,-1,-1,-1,-1,-1,-1,-1,-1,-1,-1],"split_conditions":[2.0375936E-1,2.2175881E-1,2.638918E-1,-1.75E0,7.7083335E0,1.2691292E0,1.5091975E2,-7.170674E-1,1.7355387E-1,1.837161E-1,5.141642E-2,1.4659585E3,-2.6909822E-1,1.5687897E3,2.3891744E-1,4.3110352E-4,-1.5913503E-2,-1.0141154E-2,-5.432168E-3,-5.3255168E-5,-8.876351E-3,8.631008E-3,-3.7461724E-3,2.77468E-3,-1.4896272E-3,3.4403952E-3,-1.3814606E-2,5.0624153E-3,-8.6968177E-4,-8.703678E-3,2.8459022E-2],"split_indices":[10,15,15,38,28,7,3,39,15,10,17,2,34,1,10,0,0,0,0,0,0,0,0,0,0,0,0,0,0,0,0],"split_type":[0,0,0,0,0,0,0,0,0,0,0,0,0,0,0,0,0,0,0,0,0,0,0,0,0,0,0,0,0,0,0],"sum_hessian":[3.480805E3,7.7355817E2,2.7072468E3,5.1014954E2,2.634086E2,1.3780929E3,1.3291538E3,5.7844734E1,4.5230478E2,1.6762978E2,9.577884E1,1.339344E3,3.874896E1,1.3177025E3,1.14512825E1,2.9279096E0,5.4916824E1,2.47682E2,2.0462279E2,8.264705E1,8.498273E1,4.7504547E1,4.8274292E1,3.3995892E2,9.99385E2,4.840292E0,3.390867E1,1.1383412E3,1.7936134E2,1.521365E0,9.929917E0],"tree_param":{"num_deleted":"0","num_feature":"40","num_nodes":"31","size_leaf_vector":"1"}},{"base_weights":[6.03419E-4,3.555764E-1,-2.5459108E-1,2.1260172E-1,6.749726E-1,-3.7168318E-1,-2.8995326E-2,3.4864435E-1,4.113981E-2,8.080715E-1,5.387546E-1,-4.7063392E-1,-2.5238904E-1,-1.0922561E-1,1.5690109E-1,1.55219715E-2,8.147342E-3,1.945426E-2,7.4097095E-4,2.566895E-2,1.4507897E-2,1.6741933E-2,-2.3212258E-3,-1.4410975E-2,1.330756E-4,-1.1110426E-2,-5.808883E-3,7.822011E-3,-3.871758E-3,1.6506828E-2,3.1507786E-3],"categories":[],"categories_nodes":[],"categories_segments":[],"categories_sizes":[],"default_left":[0,1,1,1,0,0,0,0,0,0,1,1,0,0,0,0,0,0,0,0,0,0,0,0,0,0,0,0,0,0,0],"id":14,"left_children":[1,3,5,7,9,11,13,15,17,19,21,23,25,27,29,-1,-1,-1,-1,-1,-1,-1,-1,-1,-1,-1,-1,-1,-1,-1,-1],"loss_changes":[3.582226E2,7.523912E1,6.0748764E1,2.6688984E1,8.384888E0,1.7637833E1,1.179051E1,8.0215E0,5.0503745E0,3.0953674E0,3.1593704E0,3.820465E0,4.645298E0,4.115973E0,4.7498274E0,0E0,0E0,0E0,0E0,0E0,0E0,0E0,0E0,0E0,0E0,0E0,0E0,0E0,0E0,0E0,0E0],"parents":[2147483647,0,0,1,1,2,2,3,3,4,4,5,5,6,6,7,7,8,8,9,9,10,10,11,11,12,12,13,13,14,14],"right_children":[2,4,6,8,10,12,14,16,18,20,22,24,26,28,30,-1,-1,-1,-1,-1,-1,-1,-1,-1,-1,-1,-1,-1,-1,-1,-1],"split_conditions":[5.5184186E-2,5.0080025E-1,2.499899E-1,3.331243E-1,1.7442961E-1,1.6896294E-1,3.5598952E-1,2.4379614E-1,1.04166664E-1,2.2E0,4E0,2.3966283E-1,3.5E0,-2.55E0,2.210598E-1,1.55219715E-2,8.147342E-3,1.945426E-2,7.4097095E-4,2.566895E-2,1.4507897E-2,1.6741933E-2,-2.3212258E-3,-1.4410975E-2,1.330756E-4,-1.1110426E-2,-5.808883E-3,7.822011E-3,-3.871758E-3,1.6506828E-2,3.1507786E-3],"split_indices":[7,16,16,14,14,11,16,10,28,20,35,16,32,38,14,0,0,0,0,0,0,0,0,0,0,0,0,0,0,0,0],"split_type":[0,0,0,0,0,0,0,0,0,0,0,0,0,0,0,0,0,0,0,0,0,0,0,0,0,0,0,0,0,0,0],"sum_hessian":[3.950454E3,1.6518962E3,2.2985579E3,1.1433967E3,5.0849948E2,1.5123171E3,7.862407E2,6.363959E2,5.0700082E2,2.5220497E2,2.5629453E2,8.2342303E2,6.8889404E2,5.4978577E2,2.3645494E2,1.959312E2,4.4046466E2,1.1336466E1,4.9566437E2,2.171082E2,3.509676E1,2.4868895E2,7.605569E0,8.0687177E2,1.6551275E1,2.2553415E2,4.633599E2,2.6737572E1,5.230482E2,2.531309E1,2.1114185E2],"tree_param":{"num_deleted":"0","num_feature":"40","num_nodes":"31","size_leaf_vector":"1"}},{"base_weights":[-8.135635E-3,-2.4892358E-1,3.3356142E-1,-3.8425326E-1,-1.1540984E-2,5.224615E-1,1.3146465E-1,-5.8704543E-1,-3.021726E-1,-6.719628E-2,2.5874364E-1,6.657288E-1,3.9582735E-1,1.9297116E-1,-1.7593426E-1,-1.9853525E-2,-1.5209315E-2,-1.1007545E-2,-2.3018303E-3,-2.783491E-3,3.7773293E-3,1.1367172E-3,1.1497662E-2,1.7274113E-2,2.3543674E-2,1.4362067E-2,9.330961E-3,4.989541E-3,1.2591803E-2,-1.9919695E-2,-3.755376E-3],"categories":[],"categories_nodes":[],"categories_segments":[],"categories_sizes":[],"default_left":[0,1,1,0,0,0,0,0,0,0,0,0,0,0,0,0,0,0,0,0,0,0,0,0,0,0,0,0,0,0,0],"id":15,"left_children":[1,3,5,7,9,11,13,15,17,19,21,23,25,27,29,-1,-1,-1,-1,-1,-1,-1,-1,-1,-1,-1,-1,-1,-1,-1,-1],"loss_changes":[3.6776257E2,8.4224365E1,7.040303E1,2.7441895E1,1.43873E1,1.6788055E1,1.6996725E1,2.1956482E0,1.7355919E1,3.9405015E0,4.462351E0,3.8590698E0,3.2984161E0,4.3753223E0,3.5576048E0,0E0,0E0,0E0,0E0,0E0,0E0,0E0,0E0,0E0,0E0,0E0,0E0,0E0,0E0,0E0,0E0],"parents":[2147483647,0,0,1,1,2,2,3,3,4,4,5,5,6,6,7,7,8,8,9,9,10,10,11,11,12,12,13,13,14,14],"right_children":[2,4,6,8,10,12,14,16,18,20,22,24,26,28,30,-1,-1,-1,-1,-1,-1,-1,-1,-1,-1,-1,-1,-1,-1,-1,-1],"split_conditions":[4.878085E-1,3.6182228E-1,1.6636452E-1,2.1790347E-1,5.264642E-1,1.8927644E-1,3.1905934E-1,1.6677484E-1,7.8216106E-2,1.6077819E3,-4.8071474E-2,1.7150793E3,1.4609456E-1,1.6684185E0,-1.2E0,-1.9853525E-2,-1.5209315E-2,-1.1007545E-2,-2.3018303E-3,-2.783491E-3,3.7773293E-3,1.1367172E-3,1.1497662E-2,1.7274113E-2,2.3543674E-2,1.4362067E-2,9.330961E-3,4.989541E-3,1.2591803E-2,-1.9919695E-2,-3.755376E-3],"split_indices":[7,14,16,14,14,10,16,14,7,2,34,1,16,7,22,0,0,0,0,0,0,0,0,0,0,0,0,0,0,0,0],"split_type":[0,0,0,0,0,0,0,0,0,0,0,0,0,0,0,0,0,0,0,0,0,0,0,0,0,0,0,0,0,0,0],"sum_hessian":[4.4658174E3,2.620054E3,1.8457634E3,1.6679395E3,9.5211456E2,9.523915E2,8.933719E2,4.7703967E2,1.1908998E3,7.907841E2,1.6133047E2,4.428546E2,5.095369E2,7.45043E2,1.4832889E2,2.3921585E2,2.378238E2,9.2421844E2,2.6668137E2,6.9918146E2,9.1602646E1,5.910372E1,1.02226746E2,2.5894714E2,1.8390744E2,2.5293723E2,2.5659967E2,6.697829E2,7.526011E1,1.1696077E1,1.3663281E2],"tree_param":{"num_deleted":"0","num_feature":"40","num_nodes":"31","size_leaf_vector":"1"}},{"base_weights":[5.4105343E-3,-2.0087834E-1,6.670791E-2,-2.796059E-1,-4.423328E-2,-3.2884579E-3,1.3879019E-1,8.502042E-2,-2.9627246E-1,-6.737795E-2,6.8552595E-1,-5.1957663E-2,7.395985E-2,3.1793955E-1,1.05019525E-1,3.1937834E-2,-3.2642742E-3,-9.966003E-3,-3.2588905E-3,3.4163683E-4,-5.997687E-3,-7.1888836E-3,2.6843922E-2,-2.2809377E-3,4.4575166E-3,1.3924602E-3,1.6045725E-2,1.5924033E-2,3.4231606E-3,-7.884153E-4,4.5349114E-3],"categories":[],"categories_nodes":[],"categories_segments":[],"categories_sizes":[],"default_left":[0,1,1,0,0,0,1,0,0,0,0,0,0,0,0,0,0,0,0,0,0,0,0,0,0,0,0,0,0,0,0],"id":16,"left_children":[1,3,5,7,9,11,13,15,17,19,21,23,25,27,29,-1,-1,-1,-1,-1,-1,-1,-1,-1,-1,-1,-1,-1,-1,-1,-1],"loss_changes":[4.3634884E1,9.723925E0,1.3422709E1,3.2451935E0,4.598344E0,5.08902E0,7.862314E0,4.889855E0,3.3200722E0,2.7231596E0,2.0512843E0,4.0312395E0,6.5927906E0,8.855221E0,6.707159E0,0E0,0E0,0E0,0E0,0E0,0E0,0E0,0E0,0E0,0E0,0E0,0E0,0E0,0E0,0E0,0E0],"parents":[2147483647,0,0,1,1,2,2,3,3,4,4,5,5,6,6,7,7,8,8,9,9,10,10,11,11,12,12,13,13,14,14],"right_children":[2,4,6,8,10,12,14,16,18,20,22,24,26,28,30,-1,-1,-1,-1,-1,-1,-1,-1,-1,-1,-1,-1,-1,-1,-1,-1],"split_conditions":[2.0637265E-1,2.2581649E-1,2.638918E-1,-3.400966E-1,6.2400913E-1,2.598419E-1,-1.5E0,4.6611156E-2,1.9234233E-1,4.9158257E-1,1.3876425E0,3.4044135E0,2.8260636E0,1.2E0,-1.297494E-1,3.1937834E-2,-3.2642742E-3,-9.966003E-3,-3.2588905E-3,3.4163683E-4,-5.997687E-3,-7.1888836E-3,2.6843922E-2,-2.2809377E-3,4.4575166E-3,1.3924602E-3,1.6045725E-2,1.5924033E-2,3.4231606E-3,-7.884153E-4,4.5349114E-3],"split_indices":[10,15,15,34,14,10,38,17,10,14,7,8,8,25,39,0,0,0,0,0,0,0,0,0,0,0,0,0,0,0,0],"split_type":[0,0,0,0,0,0,0,0,0,0,0,0,0,0,0,0,0,0,0,0,0,0,0,0,0,0,0,0,0,0,0],"sum_hessian":[3.4466519E3,7.8849927E2,2.6581526E3,5.2371674E2,2.647825E2,1.3495575E3,1.3085952E3,2.2533468E1,5.011833E2,2.584025E2,6.3800178E0,8.283328E2,5.212246E2,2.0488348E2,1.1037117E3,2.2380383E0,2.029543E1,4.193502E2,8.1833084E1,1.6323E2,9.517249E1,1.1234219E0,5.256596E0,7.406632E2,8.766965E1,4.939087E2,2.7315928E1,9.865309E1,1.0623039E2,2.8724298E2,8.164687E2],"tree_param":{"num_deleted":"0","num_feature":"40","num_nodes":"31","size_leaf_vector":"1"}},{"base_weights":[1.0105207E-3,3.4378442E-1,-2.3931773E-1,6.439143E-2,4.9249783E-1,-3.9128864E-1,-4.0594056E-2,-1.9872248E-2,1.8740761E-1,7.849695E-1,4.0041018E-1,-2.7071577E-1,-4.7026607E-1,-9.088246E-2,3.018284E-1,-3.7763522E-3,2.8862818E-3,-3.4919286E-3,7.498074E-3,2.4209546E-2,9.824436E-3,1.596756E-2,9.2054065E-3,-4.8553376E-3,-1.2558287E-2,-1.558758E-2,-1.1811449E-2,-4.91805E-3,-1.0436933E-4,-9.943546E-3,1.0613625E-2],"categories":[],"categories_nodes":[],"categories_segments":[],"categories_sizes":[],"default_left":[0,0,1,0,0,0,0,0,0,0,0,1,1,0,0,0,0,0,0,0,0,0,0,0,0,0,0,0,0,0,0],"id":17,"left_children":[1,3,5,7,9,11,13,15,17,19,21,23,25,27,29,-1,-1,-1,-1,-1,-1,-1,-1,-1,-1,-1,-1,-1,-1,-1,-1],"loss_changes":[3.2461136E2,6.741676E1,6.992427E1,5.8793564E0,2.7910248E1,1.2242554E1,1.7378578E1,4.183386E0,4.4363527E0,2.0061035E0,9.664719E0,8.303593E0,2.574463E0,5.6096587E0,4.4887533E0,0E0,0E0,0E0,0E0,0E0,0E0,0E0,0E0,0E0,0E0,0E0,0E0,0E0,0E0,0E0,0E0],"parents":[2147483647,0,0,1,1,2,2,3,3,4,4,5,5,6,6,7,7,8,8,9,9,10,10,11,11,12,12,13,13,14,14],"right_children":[2,4,6,8,10,12,14,16,18,20,22,24,26,28,30,-1,-1,-1,-1,-1,-1,-1,-1,-1,-1,-1,-1,-1,-1,-1,-1],"split_conditions":[2.6719205E-2,3.9784256E-1,2.2032687E-1,3.394207E-1,1.7076737E-1,5.7431346E-1,4.0483359E-1,0E0,4.0813038E-1,2.75E0,-7.591305E-1,4.999265E-2,1.3443066E-1,2.920607E-1,3.7442777E-1,-3.7763522E-3,2.8862818E-3,-3.4919286E-3,7.498074E-3,2.4209546E-2,9.824436E-3,1.596756E-2,9.2054065E-3,-4.8553376E-3,-1.2558287E-2,-1.558758E-2,-1.1811449E-2,-4.91805E-3,-1.0436933E-4,-9.943546E-3,1.0613625E-2],"split_indices":[7,16,16,16,14,9,16,22,13,23,7,17,16,16,9,0,0,0,0,0,0,0,0,0,0,0,0,0,0,0,0],"split_type":[0,0,0,0,0,0,0,0,0,0,0,0,0,0,0,0,0,0,0,0,0,0,0,0,0,0,0,0,0,0,0],"sum_hessian":[3.9365007E3,1.6220922E3,2.3144087E3,5.644696E2,1.0576226E3,1.3103787E3,1.00403E3,3.3599588E2,2.284737E2,2.4965775E2,8.0796484E2,5.221226E2,7.88256E2,8.767405E2,1.2728955E2,1.7553131E2,1.6046458E2,3.8703293E1,1.897704E2,2.367375E2,1.2920246E1,3.3148535E2,4.764795E2,3.031495E2,2.1897316E2,4.7235468E2,3.1590128E2,4.7662344E2,4.00117E2,8.836133E0,1.18453415E2],"tree_param":{"num_deleted":"0","num_feature":"40","num_nodes":"31","size_leaf_vector":"1"}},{"base_weights":[3.7236265E-3,-2.6335734E-1,3.063781E-1,-3.8918152E-1,-2.1331567E-2,4.317547E-1,-9.232189E-3,-5.5530214E-1,-3.1724215E-1,1.1931004E-1,-9.798949E-2,2.6660746E-1,5.6031317E-1,-2.8372347E-1,4.365362E-2,-1.7187016E-2,-9.573784E-3,-1.5055339E-2,-7.9442905E-3,-5.4984447E-3,5.754212E-3,1.0306651E-2,-3.634074E-3,1.261267E-2,6.0748705E-3,1.2148892E-2,1.8858891E-2,8.5317455E-3,-1.02861235E-2,-1.0168572E-3,9.045436E-3],"categories":[],"categories_nodes":[],"categories_segments":[],"categories_sizes":[],"default_left":[0,1,1,0,0,0,0,0,0,0,0,1,0,0,0,0,0,0,0,0,0,0,0,0,0,0,0,0,0,0,0],"id":18,"left_children":[1,3,5,7,9,11,13,15,17,19,21,23,25,27,29,-1,-1,-1,-1,-1,-1,-1,-1,-1,-1,-1,-1,-1,-1,-1,-1],"loss_changes":[3.6289938E2,7.261046E1,8.328618E1,1.8398544E1,8.841219E0,3.1680847E1,8.7392435E0,1.5939789E0,1.03769455E1,6.4195514E0,5.504521E0,6.369034E0,8.460297E0,3.462616E0,1.0120122E1,0E0,0E0,0E0,0E0,0E0,0E0,0E0,0E0,0E0,0E0,0E0,0E0,0E0,0E0,0E0,0E0],"parents":[2147483647,0,0,1,1,2,2,3,3,4,4,5,5,6,6,7,7,8,8,9,9,10,10,11,11,12,12,13,13,14,14],"right_children":[2,4,6,8,10,12,14,16,18,20,22,24,26,28,30,-1,-1,-1,-1,-1,-1,-1,-1,-1,-1,-1,-1,-1,-1,-1,-1],"split_conditions":[4.4470322E-1,3.5986125E-1,2.3803632E-1,2.1790347E-1,2.682144E-1,6.2392515E-1,3.405445E-1,2.5E0,2.3732224E-1,-1.5476714E-1,-3.400966E-1,-9.0625E-1,6.4535034E-1,-3.9225668E-1,1.5644286E3,-1.7187016E-2,-9.573784E-3,-1.5055339E-2,-7.9442905E-3,-5.4984447E-3,5.754212E-3,1.0306651E-2,-3.634074E-3,1.261267E-2,6.0748705E-3,1.2148892E-2,1.8858891E-2,8.5317455E-3,-1.02861235E-2,-1.0168572E-3,9.045436E-3],"split_indices":[9,14,16,14,15,9,14,23,10,34,34,35,14,39,2,0,0,0,0,0,0,0,0,0,0,0,0,0,0,0,0],"split_type":[0,0,0,0,0,0,0,0,0,0,0,0,0,0,0,0,0,0,0,0,0,0,0,0,0,0,0,0,0,0,0],"sum_hessian":[4.4854854E3,2.3829143E3,2.102571E3,1.5670314E3,8.15883E2,1.504264E3,5.98307E2,4.694805E2,1.0975509E3,2.8743088E2,5.284521E2,6.61125E2,8.43139E2,9.524269E1,5.0306433E2,4.3426984E2,3.5210667E1,2.3898782E2,8.5856305E2,5.4963863E1,2.3246701E2,2.4943247E1,5.0350888E2,1.912261E2,4.6989893E2,2.617595E2,5.813795E2,8.262674E0,8.698002E1,3.8808817E2,1.1497617E2],"tree_param":{"num_deleted":"0","num_feature":"40","num_nodes":"31","size_leaf_vector":"1"}},{"base_weights":[-2.7181597E-3,-1.0134994E-1,1.2135563E-1,-4.6505384E-2,-2.6034367E-1,1.9068913E-1,7.241442E-2,-1.0259707E-2,-2.0698579E-1,7.206283E-4,-2.8691655E-1,4.9582396E-2,2.4783011E-1,6.874217E-1,6.342007E-2,-3.258784E-3,8.6575584E-4,-1.331822E-2,-4.1929157E-3,-2.328352E-3,2.529838E-2,-8.810416E-3,1.4583208E-2,1.4757795E-2,-1.2944762E-4,8.489394E-3,-2.2372021E-3,3.0343851E-2,7.0678414E-4,6.260992E-3,1.0710798E-3],"categories":[],"categories_nodes":[],"categories_segments":[],"categories_sizes":[],"default_left":[1,0,0,0,0,0,0,0,0,1,1,0,0,0,0,0,0,0,0,0,0,0,0,0,0,0,0,0,0,0,0],"id":19,"left_children":[1,3,5,7,9,11,13,15,17,19,21,23,25,27,29,-1,-1,-1,-1,-1,-1,-1,-1,-1,-1,-1,-1,-1,-1,-1,-1],"loss_changes":[4.21689E1,1.6715618E1,5.1508904E0,8.312444E0,3.4130325E0,5.057276E0,4.8793106E0,4.5024257E0,4.070318E0,3.2619839E0,2.6200752E0,4.394907E0,5.120329E0,2.6925635E0,3.5572717E0,0E0,0E0,0E0,0E0,0E0,0E0,0E0,0E0,0E0,0E0,0E0,0E0,0E0,0E0,0E0,0E0],"parents":[2147483647,0,0,1,1,2,2,3,3,4,4,5,5,6,6,7,7,8,8,9,9,10,10,11,11,12,12,13,13,14,14],"right_children":[2,4,6,8,10,12,14,16,18,20,22,24,26,28,30,-1,-1,-1,-1,-1,-1,-1,-1,-1,-1,-1,-1,-1,-1,-1,-1],"split_conditions":[2.6067227E-1,1.2691292E0,4E0,5.967376E-1,-2.647171E-1,-7.472971E1,-3E0,2.1046342E-1,1.8317455E-1,2.1E1,2.589436E-1,7.5E-1,7.579155E1,1.25E0,2.0648203E0,-3.258784E-3,8.6575584E-4,-1.331822E-2,-4.1929157E-3,-2.328352E-3,2.529838E-2,-8.810416E-3,1.4583208E-2,1.4757795E-2,-1.2944762E-4,8.489394E-3,-2.2372021E-3,3.0343851E-2,7.0678414E-4,6.260992E-3,1.0710798E-3],"split_indices":[15,7,32,11,34,3,35,11,15,27,15,20,3,24,8,0,0,0,0,0,0,0,0,0,0,0,0,0,0,0,0],"split_type":[0,0,0,0,0,0,0,0,0,0,0,0,0,0,0,0,0,0,0,0,0,0,0,0,0,0,0,0,0,0,0],"sum_hessian":[3.4418318E3,1.9177184E3,1.5241135E3,1.4277902E3,4.8992828E2,6.282701E2,8.958434E2,1.1664636E3,2.6132648E2,4.5440987E1,4.4448727E2,1.821631E2,4.46107E2,1.0738234E1,8.8510516E2,3.3088043E2,8.355832E2,5.52752E1,2.060513E2,4.3237026E1,2.2039587E0,4.4186118E2,2.6261222E0,1.8019543E1,1.6414355E2,4.0247244E2,4.3634556E1,6.512293E0,4.225941E0,1.397183E2,7.4538684E2],"tree_param":{"num_deleted":"0","num_feature":"40","num_nodes":"31","size_leaf_vector":"1"}},{"base_weights":[2.2544404E-3,-2.0516701E-1,4.1590315E-1,1.14448644E-1,-3.008797E-1,2.6560113E-1,6.301106E-1,4.9131736E-1,3.3024352E-3,-3.9509228E-1,-1.3251717E-1,3.5205573E-1,1.7153908E-1,8.646682E-1,5.5845356E-1,2.4258183E-2,1.0064997E-2,-1.9416922E-3,4.2253654E-3,-1.426807E-2,-8.461856E-3,-1.2968641E-2,-3.5016802E-3,9.399324E-3,2.1363493E-2,-9.873183E-3,5.976339E-3,8.517167E-3,2.7131023E-2,1.7708305E-2,7.2493083E-3],"categories":[],"categories_nodes":[],"categories_segments":[],"categories_sizes":[],"default_left":[1,0,0,0,1,0,0,0,0,0,0,0,0,0,0,0,0,0,0,0,0,0,0,0,0,0,0,0,0,0,0],"id":20,"left_children":[1,3,5,7,9,11,13,15,17,19,21,23,25,27,29,-1,-1,-1,-1,-1,-1,-1,-1,-1,-1,-1,-1,-1,-1,-1,-1],"loss_changes":[3.3884122E2,8.053289E1,4.212941E1,2.544769E1,3.201068E1,6.2103844E0,8.150574E0,6.298252E0,4.4272933E0,1.153653E1,3.3529472E0,5.1866417E0,5.3508224E0,2.3287582E0,3.9604034E0,0E0,0E0,0E0,0E0,0E0,0E0,0E0,0E0,0E0,0E0,0E0,0E0,0E0,0E0,0E0,0E0],"parents":[2147483647,0,0,1,1,2,2,3,3,4,4,5,5,6,6,7,7,8,8,9,9,10,10,11,11,12,12,13,13,14,14],"right_children":[2,4,6,8,10,12,14,16,18,20,22,24,26,28,30,-1,-1,-1,-1,-1,-1,-1,-1,-1,-1,-1,-1,-1,-1,-1,-1],"split_conditions":[3.5598952E-1,3.7234157E-1,5.065538E-1,-1.0245153E2,2.2032687E-1,-2.5997835E-1,6.782612E-1,1.7896974E-1,3.2933593E-1,1.6896294E-1,-1.3333334E0,3.4642396E0,3E0,5E-1,2.25E0,2.4258183E-2,1.0064997E-2,-1.9416922E-3,4.2253654E-3,-1.426807E-2,-8.461856E-3,-1.2968641E-2,-3.5016802E-3,9.399324E-3,2.1363493E-2,-9.873183E-3,5.976339E-3,8.517167E-3,2.7131023E-2,1.7708305E-2,7.2493083E-3],"split_indices":[16,9,16,3,16,7,5,9,16,11,26,8,28,23,20,0,0,0,0,0,0,0,0,0,0,0,0,0,0,0,0],"split_type":[0,0,0,0,0,0,0,0,0,0,0,0,0,0,0,0,0,0,0,0,0,0,0,0,0,0,0,0,0,0,0],"sum_hessian":[3.9452266E3,2.628294E3,1.3169327E3,6.0560175E2,2.0226921E3,7.7654065E2,5.403921E2,1.3636877E2,4.6923297E2,1.2952183E3,7.274739E2,4.017747E2,3.7476593E2,1.2127729E2,4.1911484E2,4.2153446E1,9.4215324E1,3.146657E2,1.5456726E2,7.5267914E2,5.4253906E2,3.3771442E1,6.9370245E2,3.6611826E2,3.5656425E1,1.8488386E1,3.5627756E2,8.802836E0,1.1247446E2,3.7928915E2,3.9825657E1],"tree_param":{"num_deleted":"0","num_feature":"40","num_nodes":"31","size_leaf_vector":"1"}},{"base_weights":[7.878187E-3,-2.2379312E-1,3.2908353E-1,-3.7641665E-1,-2.0233065E-2,-3.461307E-2,4.2773655E-1,-1.1772333E-1,-4.446283E-1,-6.2228005E-2,2.2247513E-1,5.732803E-2,-2.3114908E-1,5.574399E-1,3.0004957E-1,-6.6235405E-3,3.6375385E-3,-1.8382445E-2,-1.1972903E-2,-3.1919256E-3,1.4344024E-3,-9.895544E-3,7.871805E-3,7.622825E-4,1.8861298E-2,-1.2312164E-2,-2.4251933E-3,2.148572E-2,1.4723324E-2,1.3416247E-2,7.2371964E-3],"categories":[],"categories_nodes":[],"categories_segments":[],"categories_sizes":[],"default_left":[0,1,0,0,0,0,0,0,0,0,0,0,0,1,0,0,0,0,0,0,0,0,0,0,0,0,0,0,0,0,0],"id":21,"left_children":[1,3,5,7,9,11,13,15,17,19,21,23,25,27,29,-1,-1,-1,-1,-1,-1,-1,-1,-1,-1,-1,-1,-1,-1,-1,-1],"loss_changes":[3.2906345E2,7.980263E1,6.651306E1,2.58022E1,1.1269804E1,7.2041698E0,2.3807587E1,7.665478E0,8.398758E0,4.5879965E0,3.7698126E0,4.932794E0,3.3554215E0,6.925293E0,6.178993E0,0E0,0E0,0E0,0E0,0E0,0E0,0E0,0E0,0E0,0E0,0E0,0E0,0E0,0E0,0E0,0E0],"parents":[2147483647,0,0,1,1,2,2,3,3,4,4,5,5,6,6,7,7,8,8,9,9,10,10,11,11,12,12,13,13,14,14],"right_children":[2,4,6,8,10,12,14,16,18,20,22,24,26,28,30,-1,-1,-1,-1,-1,-1,-1,-1,-1,-1,-1,-1,-1,-1,-1,-1],"split_conditions":[4.878085E-1,3.361741E-1,4.7823438E-1,3.6619008E-1,5.264642E-1,3.2933593E-1,2.0984933E-1,7.5E0,1.7076737E-1,1.4129393E0,3.8357425E-1,7.5E0,3.5E0,7.786953E-2,1.4973961E-1,-6.6235405E-3,3.6375385E-3,-1.8382445E-2,-1.1972903E-2,-3.1919256E-3,1.4344024E-3,-9.895544E-3,7.871805E-3,7.622825E-4,1.8861298E-2,-1.2312164E-2,-2.4251933E-3,2.148572E-2,1.4723324E-2,1.3416247E-2,7.2371964E-3],"split_indices":[7,14,14,11,14,16,10,32,14,5,13,32,31,16,16,0,0,0,0,0,0,0,0,0,0,0,0,0,0,0,0],"split_type":[0,0,0,0,0,0,0,0,0,0,0,0,0,0,0,0,0,0,0,0,0,0,0,0,0,0,0,0,0,0,0],"sum_hessian":[4.4180806E3,2.5671294E3,1.850951E3,1.466152E3,1.1009774E3,3.952203E2,1.4557307E3,3.0706335E2,1.1590886E3,9.398463E2,1.6113107E2,2.70224E2,1.24996315E2,7.1882404E2,7.3690674E2,2.1464621E2,9.2417145E1,2.4170508E2,9.173836E2,6.7070026E2,2.691461E2,9.881425E0,1.5124965E2,2.579058E2,1.2318228E1,5.5430275E1,6.956604E1,2.0681789E2,5.120061E2,2.0663583E2,5.302709E2],"tree_param":{"num_deleted":"0","num_feature":"40","num_nodes":"31","size_leaf_vector":"1"}},{"base_weights":[4.808534E-3,-1.1970558E-1,9.475651E-2,-2.2601363E-1,-1.5393623E-2,6.6138194E-3,1.3081394E-1,-8.880707E-2,-2.689874E-1,2.988799E-1,-3.7292134E-2,-1.3191064E-1,6.0115512E-2,-1.2397925E-1,1.4557391E-1,-1.5883576E-2,-1.0201574E-3,-1.08081605E-2,-5.3426055E-3,-5.9605204E-3,1.2922007E-2,-6.2512304E-4,-1.114685E-2,2.796426E-4,-1.13096675E-2,5.4277303E-3,-6.6484814E-4,-5.7176044E-3,1.1637982E-2,4.9529118E-3,-1.4188179E-3],"categories":[],"categories_nodes":[],"categories_segments":[],"categories_sizes":[],"default_left":[1,0,0,0,0,0,0,0,1,0,0,0,0,0,0,0,0,0,0,0,0,0,0,0,0,0,0,0,0,0,0],"id":22,"left_children":[1,3,5,7,9,11,13,15,17,19,21,23,25,27,29,-1,-1,-1,-1,-1,-1,-1,-1,-1,-1,-1,-1,-1,-1,-1,-1],"loss_changes":[3.854646E1,1.6000626E1,6.34881E0,4.1667557E0,5.0514097E0,4.330757E0,5.3686447E0,4.1528144E0,4.3800163E0,3.3086543E0,3.7518249E0,5.6433377E0,4.196328E0,2.8321114E0,5.065859E0,0E0,0E0,0E0,0E0,0E0,0E0,0E0,0E0,0E0,0E0,0E0,0E0,0E0,0E0,0E0,0E0],"parents":[2147483647,0,0,1,1,2,2,3,3,4,4,5,5,6,6,7,7,8,8,9,9,10,10,11,11,12,12,13,13,14,14],"right_children":[2,4,6,8,10,12,14,16,18,20,22,24,26,28,30,-1,-1,-1,-1,-1,-1,-1,-1,-1,-1,-1,-1,-1,-1,-1,-1],"split_conditions":[2.4273266E-1,2.204974E-1,2.638918E-1,1.4330221E3,1.4051874E3,-8.020833E-1,-3.400966E-1,1.1106291E-1,1.8317455E-1,-2.942698E2,2.4703055E2,1.2536041E-1,3.5E0,3.1000698E-1,2.8118217E-1,-1.5883576E-2,-1.0201574E-3,-1.08081605E-2,-5.3426055E-3,-5.9605204E-3,1.2922007E-2,-6.2512304E-4,-1.114685E-2,2.796426E-4,-1.13096675E-2,5.4277303E-3,-6.6484814E-4,-5.7176044E-3,1.1637982E-2,4.9529118E-3,-1.4188179E-3],"split_indices":[15,10,15,2,1,35,34,15,15,3,3,39,31,15,34,0,0,0,0,0,0,0,0,0,0,0,0,0,0,0,0],"split_type":[0,0,0,0,0,0,0,0,0,0,0,0,0,0,0,0,0,0,0,0,0,0,0,0,0,0,0,0,0,0,0],"sum_hessian":[3.437686E3,1.4415293E3,1.9961569E3,7.127782E2,7.287511E2,5.8020575E2,1.415951E3,1.714633E2,5.413149E2,4.5823566E1,6.8292755E2,1.6083836E2,4.193674E2,7.672319E1,1.3392279E3,1.7049644E1,1.5441367E2,2.671297E2,2.7418518E2,9.387003E0,3.643656E1,6.529121E2,3.0015469E1,1.0325767E2,5.7580704E1,1.689287E2,2.5043869E2,6.900055E1,7.722634E0,1.2163866E3,1.2284129E2],"tree_param":{"num_deleted":"0","num_feature":"40","num_nodes":"31","size_leaf_vector":"1"}},{"base_weights":[1.3613463E-3,-2.3949008E-1,3.44357E-1,-3.836051E-1,-5.191766E-2,2.0967247E-1,6.409771E-1,-2.4731624E-1,-4.5799243E-1,-1.13321155E-1,1.419898E-1,3.1147265E-1,1.1285067E-2,7.9330826E-1,4.9315724E-1,-5.7189716E-3,-1.3444377E-2,-1.1421695E-2,-1.4964573E-2,1.0347728E-3,-4.6352725E-3,-1.1787142E-2,5.5373083E-3,7.3688566E-3,1.3194671E-2,9.1171596E-4,-1.3405526E-2,2.4499577E-2,1.1297001E-2,1.5731666E-2,1.7233487E-3],"categories":[],"categories_nodes":[],"categories_segments":[],"categories_sizes":[],"default_left":[0,1,1,0,0,1,0,1,0,0,0,0,0,0,0,0,0,0,0,0,0,0,0,0,0,0,0,0,0,0,0],"id":23,"left_children":[1,3,5,7,9,11,13,15,17,19,21,23,25,27,29,-1,-1,-1,-1,-1,-1,-1,-1,-1,-1,-1,-1,-1,-1,-1,-1],"loss_changes":[3.268114E2,6.278456E1,6.49281E1,1.3094742E1,1.2082865E1,2.271967E1,1.0670959E1,5.1601353E0,2.2942963E0,4.697295E0,5.710172E0,6.068321E0,3.3855934E0,1.7899628E0,3.5245132E0,0E0,0E0,0E0,0E0,0E0,0E0,0E0,0E0,0E0,0E0,0E0,0E0,0E0,0E0,0E0,0E0],"parents":[2147483647,0,0,1,1,2,2,3,3,4,4,5,5,6,6,7,7,8,8,9,9,10,10,11,11,12,12,13,13,14,14],"right_children":[2,4,6,8,10,12,14,16,18,20,22,24,26,28,30,-1,-1,-1,-1,-1,-1,-1,-1,-1,-1,-1,-1,-1,-1,-1,-1],"split_conditions":[3.5416558E-1,2.2032687E-1,5.065538E-1,5.5330986E-1,3.5598952E-1,3.56348E-1,1.7076737E-1,6.0777986E-1,6.4535034E-1,-2.3756517E-1,-2.932642E-1,1.7542862E0,3.625105E0,2.4273266E-1,2.9660228E-1,-5.7189716E-3,-1.3444377E-2,-1.1421695E-2,-1.4964573E-2,1.0347728E-3,-4.6352725E-3,-1.1787142E-2,5.5373083E-3,7.3688566E-3,1.3194671E-2,9.1171596E-4,-1.3405526E-2,2.4499577E-2,1.1297001E-2,1.5731666E-2,1.7233487E-3],"split_indices":[11,16,16,9,16,14,14,14,14,39,33,6,8,15,33,0,0,0,0,0,0,0,0,0,0,0,0,0,0,0,0],"split_type":[0,0,0,0,0,0,0,0,0,0,0,0,0,0,0,0,0,0,0,0,0,0,0,0,0,0,0,0,0,0,0],"sum_hessian":[3.9520317E3,2.322075E3,1.6299567E3,1.3119735E3,1.01010144E3,1.1233138E3,5.066428E2,4.662968E2,8.4567676E2,7.677985E2,2.4230292E2,7.416201E2,3.8169376E2,2.452128E2,2.6143E2,3.6669592E2,9.960089E1,2.9949612E2,5.4618066E2,1.6739241E2,6.004061E2,1.6655685E1,2.2564723E2,4.9401517E2,2.4760493E2,3.6820593E2,1.3487821E1,2.303881E2,1.48246975E1,2.4356435E2,1.7865646E1],"tree_param":{"num_deleted":"0","num_feature":"40","num_nodes":"31","size_leaf_vector":"1"}},{"base_weights":[1.857985E-3,-2.7303612E-1,2.481148E-1,-7.3245995E-2,-4.0493625E-1,3.865432E-1,-1.2526963E-2,9.893177E-2,-1.5748796E-1,-3.452888E-1,-5.4446286E-1,2.1061994E-1,5.07617E-1,5.454098E-2,-1.7093776E-1,-1.0487108E-2,4.561199E-3,-2.9310226E-3,-8.22555E-3,-1.3630133E-2,-8.47778E-3,-1.699592E-2,-9.527569E-3,1.434302E-2,4.608824E-3,1.7480144E-2,1.1786014E-2,1.1682619E-2,9.039591E-4,-9.862009E-3,-1.7967483E-3],"categories":[],"categories_nodes":[],"categories_segments":[],"categories_sizes":[],"default_left":[0,0,1,0,1,0,0,0,0,0,0,0,1,0,0,0,0,0,0,0,0,0,0,0,0,0,0,0,0,0,0],"id":24,"left_children":[1,3,5,7,9,11,13,15,17,19,21,23,25,27,29,-1,-1,-1,-1,-1,-1,-1,-1,-1,-1,-1,-1,-1,-1,-1,-1],"loss_changes":[3.01382E2,5.5378845E1,8.473892E1,1.220068E1,1.0166153E1,3.2456253E1,8.693685E0,6.7011013E0,3.882434E0,5.847473E0,1.5220795E0,9.437225E0,7.3547974E0,4.678028E0,4.2248898E0,0E0,0E0,0E0,0E0,0E0,0E0,0E0,0E0,0E0,0E0,0E0,0E0,0E0,0E0,0E0,0E0],"parents":[2147483647,0,0,1,1,2,2,3,3,4,4,5,5,6,6,7,7,8,8,9,9,10,10,11,11,12,12,13,13,14,14],"right_children":[2,4,6,8,10,12,14,16,18,20,22,24,26,28,30,-1,-1,-1,-1,-1,-1,-1,-1,-1,-1,-1,-1,-1,-1,-1,-1],"split_conditions":[2.3010004E-1,3.8947433E-1,2.2914262E-1,2.7678406E-1,5.527E-1,6.007182E-1,3.308182E-1,4E0,7.7916665E0,2.469972E-1,6.209455E-1,1.4609456E-1,1.3077182E-1,6E-1,3.5E0,-1.0487108E-2,4.561199E-3,-2.9310226E-3,-8.22555E-3,-1.3630133E-2,-8.47778E-3,-1.699592E-2,-9.527569E-3,1.434302E-2,4.608824E-3,1.7480144E-2,1.1786014E-2,1.1682619E-2,9.039591E-4,-9.862009E-3,-1.7967483E-3],"split_indices":[7,16,16,16,16,9,16,28,27,10,13,16,16,24,31,0,0,0,0,0,0,0,0,0,0,0,0,0,0,0,0],"split_type":[0,0,0,0,0,0,0,0,0,0,0,0,0,0,0,0,0,0,0,0,0,0,0,0,0,0,0,0,0,0,0],"sum_hessian":[4.4480854E3,2.1017285E3,2.3463567E3,8.370115E2,1.264717E3,1.5318278E3,8.14529E2,2.7487006E2,5.621414E2,8.9083545E2,3.7388156E2,6.266985E2,9.051292E2,5.7317126E2,2.4135777E2,2.7919939E1,2.4695013E2,3.741356E2,1.8800581E2,3.2064175E2,5.701937E2,3.3800995E2,3.5871616E1,1.0748155E2,5.19217E2,5.4228284E2,3.628464E2,3.69077E1,5.3626355E2,9.8074234E1,1.4328354E2],"tree_param":{"num_deleted":"0","num_feature":"40","num_nodes":"31","size_leaf_vector":"1"}},{"base_weights":[-4.9964003E-3,-2.216123E-1,4.0236644E-2,4.171219E-2,-2.4590434E-1,-2.5826506E-2,1.06742986E-1,-1.5697485E-2,1.6759378E-1,-2.0231853E-1,-3.939892E-1,-1.24249635E-2,-3.174976E-1,2.2863045E-1,7.278612E-2,1.2475431E-2,-1.0183562E-3,-6.411204E-3,1.0780118E-2,-1.37754325E-2,-5.834469E-3,1.8097613E-2,-5.5782014E-4,-2.2130902E-3,-1.6490323E-2,1.2114401E-2,2.6170746E-3,4.4513796E-3,8.2125474E-4],"categories":[],"categories_nodes":[],"categories_segments":[],"categories_sizes":[],"default_left":[0,0,1,0,0,0,1,0,0,0,0,0,0,0,0,0,0,0,0,0,0,0,0,0,0,0,0,0,0],"id":25,"left_children":[1,3,5,7,9,11,13,-1,15,17,19,21,23,25,27,-1,-1,-1,-1,-1,-1,-1,-1,-1,-1,-1,-1,-1,-1],"loss_changes":[3.371646E1,3.822853E0,1.2513466E1,3.8674774E0,3.3550568E0,5.5809402E0,5.8400593E0,0E0,2.2281756E0,2.87072E0,1.4043789E0,5.222339E0,3.4685922E0,7.565195E0,3.81182E0,0E0,0E0,0E0,0E0,0E0,0E0,0E0,0E0,0E0,0E0,0E0,0E0,0E0,0E0],"parents":[2147483647,0,0,1,1,2,2,3,3,4,4,5,5,6,6,8,8,9,9,10,10,11,11,12,12,13,13,14,14],"right_children":[2,4,6,8,10,12,14,-1,16,18,20,22,24,26,28,-1,-1,-1,-1,-1,-1,-1,-1,-1,-1,-1,-1,-1,-1],"split_conditions":[2.127086E-1,-1.1E0,2.638918E-1,3.7527546E-1,1.7278538E3,2.6437266E0,-6.666667E-1,-1.5697485E-2,1.4626708E3,3.4037595E2,2.0833334E-2,2E-1,1.333999E2,5.0564528E-2,1.4850518E3,1.2475431E-2,-1.0183562E-3,-6.411204E-3,1.0780118E-2,-1.37754325E-2,-5.834469E-3,1.8097613E-2,-5.5782014E-4,-2.2130902E-3,-1.6490323E-2,1.2114401E-2,2.6170746E-3,4.4513796E-3,8.2125474E-4],"split_indices":[15,26,15,13,1,5,22,0,2,3,35,20,3,17,2,0,0,0,0,0,0,0,0,0,0,0,0,0,0],"split_type":[0,0,0,0,0,0,0,0,0,0,0,0,0,0,0,0,0,0,0,0,0,0,0,0,0,0,0,0,0],"sum_hessian":[3.437268E3,5.9242303E2,2.844845E3,4.99148E1,5.4250824E2,1.4277915E3,1.4170536E3,7.944809E0,4.196999E1,4.2279843E2,1.1970978E2,1.3670636E3,6.072789E1,3.062629E2,1.1107906E3,1.7852596E1,2.4117392E1,4.156104E2,7.188015E0,8.826477E1,3.1445007E1,1.1641599E1,1.355422E3,3.0912907E1,2.9814981E1,1.3512991E2,1.7113301E2,4.151604E2,6.9563025E2],"tree_param":{"num_deleted":"0","num_feature":"40","num_nodes":"29","size_leaf_vector":"1"}},{"base_weights":[5.761347E-3,3.513111E-1,-2.1585065E-1,1.1122617E-1,5.165992E-1,-3.317392E-1,1.772473E-2,-3.435209E-3,1.8608403E-1,3.9082527E-1,6.4240384E-1,-2.0044574E-1,-4.4251367E-1,-4.6883218E-2,2.7611718E-1,-1.1741524E-3,1.0119831E-2,6.343579E-3,-6.55278E-3,1.214007E-2,-9.223804E-3,1.6145855E-2,2.6670307E-2,-1.06949685E-2,-4.768207E-3,-1.5372331E-2,-1.0658488E-2,-2.8648642E-3,2.4556112E-3,5.1302556E-3,1.5959846E-2],"categories":[],"categories_nodes":[],"categories_segments":[],"categories_sizes":[],"default_left":[0,0,1,0,0,0,0,0,0,0,0,0,1,0,0,0,0,0,0,0,0,0,0,0,0,0,0,0,0,0,0],"id":26,"left_children":[1,3,5,7,9,11,13,15,17,19,21,23,25,27,29,-1,-1,-1,-1,-1,-1,-1,-1,-1,-1,-1,-1,-1,-1,-1,-1],"loss_changes":[3.0051318E2,6.073343E1,6.47315E1,5.3895645E0,1.3858612E1,2.3066238E1,1.3294083E1,3.067049E0,3.990241E0,4.6855316E0,1.06236725E1,4.6473484E0,4.9109344E0,4.005313E0,4.1014824E0,0E0,0E0,0E0,0E0,0E0,0E0,0E0,0E0,0E0,0E0,0E0,0E0,0E0,0E0,0E0,0E0],"parents":[2147483647,0,0,1,1,2,2,3,3,4,4,5,5,6,6,7,7,8,8,9,9,10,10,11,11,12,12,13,13,14,14],"right_children":[2,4,6,8,10,12,14,16,18,20,22,24,26,28,30,-1,-1,-1,-1,-1,-1,-1,-1,-1,-1,-1,-1,-1,-1,-1,-1],"split_conditions":[3.480881E-1,4.3146372E-1,2.6356548E-1,3.2441562E-1,5.6615245E-1,5.7431346E-1,4.0483359E-1,3.387576E-1,1.6341014E3,6.321325E-1,6.925431E-1,2.3454997E-1,1.3625413E-1,1.8E0,1.75E0,-1.1741524E-3,1.0119831E-2,6.343579E-3,-6.55278E-3,1.214007E-2,-9.223804E-3,1.6145855E-2,2.6670307E-2,-1.06949685E-2,-4.768207E-3,-1.5372331E-2,-1.0658488E-2,-2.8648642E-3,2.4556112E-3,5.1302556E-3,1.5959846E-2],"split_indices":[9,16,16,16,11,9,16,9,1,4,16,15,16,24,24,0,0,0,0,0,0,0,0,0,0,0,0,0,0,0,0],"split_type":[0,0,0,0,0,0,0,0,0,0,0,0,0,0,0,0,0,0,0,0,0,0,0,0,0,0,0,0,0,0,0],"sum_hessian":[3.9202966E3,1.531354E3,2.3889426E3,6.257634E2,9.055906E2,1.5961643E3,7.927783E2,2.4792288E2,3.7784058E2,4.569578E2,4.4863278E2,7.3300385E2,8.631605E2,6.35513E2,1.5726534E2,2.2601282E2,2.1910051E1,3.564411E2,2.1399471E1,4.4889917E2,8.058603E0,3.1984183E2,1.2879095E2,1.5080939E2,5.8219446E2,4.7377756E2,3.8938297E2,4.6169073E2,1.738223E2,1.1383939E2,4.342594E1],"tree_param":{"num_deleted":"0","num_feature":"40","num_nodes":"31","size_leaf_vector":"1"}},{"base_weights":[2.486838E-3,-2.5546473E-1,2.667237E-1,-3.7763962E-1,-6.2652096E-2,4.6215022E-1,9.540903E-2,-1.325536E-1,-4.225219E-1,6.274713E-2,-1.4629291E-1,2.7650663E-1,5.411206E-1,-2.4686942E-1,1.3647208E-1,-1.33578135E-2,-1.9002358E-3,-1.7400153E-2,-1.1336225E-2,-5.351621E-3,4.536659E-3,-2.8972004E-3,-1.0407341E-2,5.0985757E-3,1.2667365E-2,1.1602519E-2,1.7335085E-2,6.346493E-3,-1.0166695E-2,8.003485E-3,1.7815469E-3],"categories":[],"categories_nodes":[],"categories_segments":[],"categories_sizes":[],"default_left":[0,1,1,0,0,0,0,0,0,0,0,1,0,0,0,0,0,0,0,0,0,0,0,0,0,0,0,0,0,0,0],"id":27,"left_children":[1,3,5,7,9,11,13,15,17,19,21,23,25,27,29,-1,-1,-1,-1,-1,-1,-1,-1,-1,-1,-1,-1,-1,-1,-1,-1],"loss_changes":[3.0277417E2,5.290349E1,7.337578E1,1.5018906E1,9.187943E0,1.4720261E1,1.6537096E1,4.614723E0,7.7299805E0,7.5466585E0,5.17017E0,4.667959E0,3.6148987E0,5.468442E0,1.0491465E1,0E0,0E0,0E0,0E0,0E0,0E0,0E0,0E0,0E0,0E0,0E0,0E0,0E0,0E0,0E0,0E0],"parents":[2147483647,0,0,1,1,2,2,3,3,4,4,5,5,6,6,7,7,8,8,9,9,10,10,11,11,12,12,13,13,14,14],"right_children":[2,4,6,8,10,12,14,16,18,20,22,24,26,28,30,-1,-1,-1,-1,-1,-1,-1,-1,-1,-1,-1,-1,-1,-1,-1,-1],"split_conditions":[2.9170302E-1,3.361741E-1,1.6636452E-1,3.6619008E-1,2.7958533E-1,6.007182E-1,3.4607628E-1,8E-1,1.7442961E-1,-1.1433081E-1,9E0,6.141156E-1,6.565941E-1,1.4543104E0,1.7161357E-1,-1.33578135E-2,-1.9002358E-3,-1.7400153E-2,-1.1336225E-2,-5.351621E-3,4.536659E-3,-2.8972004E-3,-1.0407341E-2,5.0985757E-3,1.2667365E-2,1.1602519E-2,1.7335085E-2,6.346493E-3,-1.0166695E-2,8.003485E-3,1.7815469E-3],"split_indices":[7,14,16,11,16,9,14,19,14,34,27,14,14,5,11,0,0,0,0,0,0,0,0,0,0,0,0,0,0,0,0],"split_type":[0,0,0,0,0,0,0,0,0,0,0,0,0,0,0,0,0,0,0,0,0,0,0,0,0,0,0,0,0,0,0],"sum_hessian":[4.4380894E3,2.2457876E3,2.1923018E3,1.3735358E3,8.722519E2,1.022497E3,1.1698048E3,2.1382439E2,1.1597113E3,3.4920413E2,5.230478E2,3.0783685E2,7.1466016E2,1.2423426E2,1.0455706E3,3.678056E1,1.7704382E2,2.5086597E2,9.0884534E2,9.318897E1,2.5601517E2,4.215397E2,1.0150805E2,1.803268E2,1.2751005E2,1.4174844E2,5.7291174E2,2.0334713E1,1.0389954E2,3.86796E2,6.587746E2],"tree_param":{"num_deleted":"0","num_feature":"40","num_nodes":"31","size_leaf_vector":"1"}},{"base_weights":[6.117062E-4,-2.3359177E-1,5.455321E-2,-3.579506E-1,-1.5433009E-1,-8.4416255E-2,9.396559E-2,5.157674E-1,-3.7111935E-1,2.2855282E-2,-2.0450617E-1,-1.0913665E-1,2.0129386E-1,-9.386839E-2,1.13668546E-1,-6.742304E-3,2.613572E-2,-5.2623443E-5,-1.1718762E-2,-2.802139E-3,2.4114706E-2,1.6477603E-2,-6.482507E-3,-2.797912E-3,-1.4357513E-2,2.3704015E-3,2.7056344E-2,-1.07470155E-2,-5.7033624E-4,4.434797E-3,1.0836516E-3],"categories":[],"categories_nodes":[],"categories_segments":[],"categories_sizes":[],"default_left":[0,1,0,0,0,0,0,0,0,0,0,0,0,0,0,0,0,0,0,0,0,0,0,0,0,0,0,0,0,0,0],"id":28,"left_children":[1,3,5,7,9,11,13,15,17,19,21,23,25,27,29,-1,-1,-1,-1,-1,-1,-1,-1,-1,-1,-1,-1,-1,-1,-1,-1],"loss_changes":[4.3422035E1,6.231804E0,1.5317054E1,3.2471848E0,3.5343113E0,4.4108734E0,8.07951E0,1.584752E0,1.7740288E0,8.258119E0,2.9355278E0,3.2554111E0,4.1356926E0,4.0988264E0,5.211666E0,0E0,0E0,0E0,0E0,0E0,0E0,0E0,0E0,0E0,0E0,0E0,0E0,0E0,0E0,0E0,0E0],"parents":[2147483647,0,0,1,1,2,2,3,3,4,4,5,5,6,6,7,7,8,8,9,9,10,10,11,11,12,12,13,13,14,14],"right_children":[2,4,6,8,10,12,14,16,18,20,22,24,26,28,30,-1,-1,-1,-1,-1,-1,-1,-1,-1,-1,-1,-1,-1,-1,-1,-1],"split_conditions":[1.9408345E-1,1.7355387E-1,2.4273266E-1,-1.9E0,1.465353E3,3.3680427E0,1.6848886E-1,5E-1,1.3502244E3,1.6684185E0,1.3054622E3,2.4132223E-1,3.056875E-1,5.882022E-1,1.5847976E3,-6.742304E-3,2.613572E-2,-5.2623443E-5,-1.1718762E-2,-2.802139E-3,2.4114706E-2,1.6477603E-2,-6.482507E-3,-2.797912E-3,-1.4357513E-2,2.3704015E-3,2.7056344E-2,-1.07470155E-2,-5.7033624E-4,4.434797E-3,1.0836516E-3],"split_indices":[10,15,15,26,1,8,11,19,2,7,2,15,39,9,2,0,0,0,0,0,0,0,0,0,0,0,0,0,0,0,0],"split_type":[0,0,0,0,0,0,0,0,0,0,0,0,0,0,0,0,0,0,0,0,0,0,0,0,0,0,0,0,0,0,0],"sum_hessian":[3.4330955E3,6.414377E2,2.791658E3,2.4694981E2,3.9448785E2,6.1629517E2,2.1753628E3,2.5333836E0,2.4441643E2,8.729929E1,3.0718857E2,5.683555E2,4.793959E1,2.0580792E2,1.9695548E3,1.060085E0,1.4732984E0,1.2369453E1,2.3204697E2,7.751997E1,9.779321E0,3.2418334E0,3.0394675E2,5.4734436E2,2.1011202E1,4.271044E1,5.2291465E0,4.374545E1,1.6206247E2,1.3660299E3,6.0352496E2],"tree_param":{"num_deleted":"0","num_feature":"40","num_nodes":"31","size_leaf_vector":"1"}},{"base_weights":[3.9439523E-3,3.982675E-1,-1.8411115E-1,2.1470602E-1,5.8641607E-1,-3.1521127E-1,2.397875E-2,2.713266E-1,-1.6651486E-1,7.490458E-1,5.3590244E-1,-4.317627E-1,-2.0419277E-1,-2.2755383E-2,2.9175296E-1,1.9181387E-2,7.249506E-3,-7.0580514E-3,1.0734376E-2,2.8556501E-2,1.6896384E-2,1.6344944E-2,-1.0361725E-2,-7.335194E-3,-1.37454355E-2,-2.8473688E-3,-7.901186E-3,-2.1798753E-3,3.0285548E-3,-4.8051006E-3,9.995576E-3],"categories":[],"categories_nodes":[],"categories_segments":[],"categories_sizes":[],"default_left":[0,0,1,0,0,0,0,0,0,0,0,0,1,0,0,0,0,0,0,0,0,0,0,0,0,0,0,0,0,0,0],"id":29,"left_children":[1,3,5,7,9,11,13,15,17,19,21,23,25,27,29,-1,-1,-1,-1,-1,-1,-1,-1,-1,-1,-1,-1,-1,-1,-1,-1],"loss_changes":[2.9007327E2,4.337262E1,7.227145E1,1.3958967E1,4.3119507E0,2.085086E1,1.28475895E1,5.8096046E0,3.208318E0,4.300186E0,4.1699524E0,3.688919E0,5.3570976E0,5.417057E0,2.9629679E0,0E0,0E0,0E0,0E0,0E0,0E0,0E0,0E0,0E0,0E0,0E0,0E0,0E0,0E0,0E0,0E0],"parents":[2147483647,0,0,1,1,2,2,3,3,4,4,5,5,6,6,7,7,8,8,9,9,10,10,11,11,12,12,13,13,14,14],"right_children":[2,4,6,8,10,12,14,16,18,20,22,24,26,28,30,-1,-1,-1,-1,-1,-1,-1,-1,-1,-1,-1,-1,-1,-1,-1,-1],"split_conditions":[-2.0553048E-1,5.065538E-1,2.608398E-1,4.300613E-1,4.2690378E-1,1.6896294E-1,4.3564796E-1,1.9408345E-1,5.516443E-1,-1.1583852E0,2.9046669E1,4.5606934E1,4.721297E-2,1.75E0,-2.7780557E-1,1.9181387E-2,7.249506E-3,-7.0580514E-3,1.0734376E-2,2.8556501E-2,1.6896384E-2,1.6344944E-2,-1.0361725E-2,-7.335194E-3,-1.37454355E-2,-2.8473688E-3,-7.901186E-3,-2.1798753E-3,3.0285548E-3,-4.8051006E-3,9.995576E-3],"split_indices":[7,16,16,14,13,11,16,10,14,7,3,3,17,24,33,0,0,0,0,0,0,0,0,0,0,0,0,0,0,0,0],"split_type":[0,0,0,0,0,0,0,0,0,0,0,0,0,0,0,0,0,0,0,0,0,0,0,0,0,0,0,0,0,0,0],"sum_hessian":[3.9077615E3,1.261128E3,2.6466335E3,6.405131E2,6.206149E2,1.6230532E3,1.02358026E3,5.5818555E2,8.2327576E1,1.405273E2,4.8008765E2,7.8897687E2,8.340763E2,8.730402E2,1.5054004E2,3.858281E1,5.196027E2,7.375844E1,8.5691395E0,6.3247658E1,7.727964E1,4.760282E2,4.059435E0,1.0008402E2,6.888929E2,2.9483984E2,5.3923645E2,6.2266437E2,2.5037585E2,1.2161285E1,1.3837875E2],"tree_param":{"num_deleted":"0","num_feature":"40","num_nodes":"31","size_leaf_vector":"1"}},{"base_weights":[2.69368E-3,-2.139825E-1,3.0405533E-1,-3.5294455E-1,-4.361559E-2,1.6142367E-1,4.9977773E-1,-1.11227825E-1,-4.0938953E-1,-8.769765E-2,2.173673E-1,-1.1965616E-2,2.6018554E-1,5.999929E-1,3.423636E-1,1.6597164E-3,-7.859857E-3,-1.6984118E-2,-1.1006422E-2,-5.205835E-3,-8.241238E-4,4.263401E-4,1.0364397E-2,-7.446485E-3,1.7806953E-3,2.8832827E-3,9.048703E-3,1.8203566E-2,-4.0319893E-3,6.082009E-3,1.3644496E-2],"categories":[],"categories_nodes":[],"categories_segments":[],"categories_sizes":[],"default_left":[0,1,0,0,0,0,0,0,0,0,0,0,0,0,1,0,0,0,0,0,0,0,0,0,0,0,0,0,0,0,0],"id":30,"left_children":[1,3,5,7,9,11,13,15,17,19,21,23,25,27,29,-1,-1,-1,-1,-1,-1,-1,-1,-1,-1,-1,-1,-1,-1,-1,-1],"loss_changes":[2.897628E2,6.1085068E1,5.165274E1,1.9303635E1,1.3406412E1,1.8442167E1,1.1916885E1,6.855364E0,7.2582855E0,5.1365147E0,4.3752594E0,6.6447783E0,4.6060905E0,2.5317535E0,4.661747E0,0E0,0E0,0E0,0E0,0E0,0E0,0E0,0E0,0E0,0E0,0E0,0E0,0E0,0E0,0E0,0E0],"parents":[2147483647,0,0,1,1,2,2,3,3,4,4,5,5,6,6,7,7,8,8,9,9,10,10,11,11,12,12,13,13,14,14],"right_children":[2,4,6,8,10,12,14,16,18,20,22,24,26,28,30,-1,-1,-1,-1,-1,-1,-1,-1,-1,-1,-1,-1,-1,-1,-1,-1],"split_conditions":[4.754754E-1,3.311317E-1,6.4535034E-1,3.6193958E-1,5.264642E-1,4.7823438E-1,2.0724806E-1,-4.8765508E-3,1.7076737E-1,4E0,-4.8071474E-2,3.6423612E-1,4.825589E-2,2.1046342E-1,4.6821438E-2,1.6597164E-3,-7.859857E-3,-1.6984118E-2,-1.1006422E-2,-5.205835E-3,-8.241238E-4,4.263401E-4,1.0364397E-2,-7.446485E-3,1.7806953E-3,2.8832827E-3,9.048703E-3,1.8203566E-2,-4.0319893E-3,6.082009E-3,1.3644496E-2],"split_indices":[9,14,14,11,14,14,10,33,14,31,34,14,17,11,17,0,0,0,0,0,0,0,0,0,0,0,0,0,0,0,0],"split_type":[0,0,0,0,0,0,0,0,0,0,0,0,0,0,0,0,0,0,0,0,0,0,0,0,0,0,0,0,0,0,0],"sum_hessian":[4.433559E3,2.5795017E3,1.8540574E3,1.4195133E3,1.1599885E3,1.0745988E3,7.794587E2,2.6985263E2,1.1496606E3,9.935056E2,1.6648294E2,3.9060263E2,6.839961E2,4.7282147E2,3.066372E2,1.2881627E2,1.4103635E2,2.4000914E2,9.096515E2,4.081222E2,5.853834E2,6.5243774E1,1.0123917E2,8.942544E1,3.0117722E2,1.3925307E2,5.44743E2,4.6883258E2,3.98889E0,1.3929001E2,1.6734718E2],"tree_param":{"num_deleted":"0","num_feature":"40","num_nodes":"31","size_leaf_vector":"1"}},{"base_weights":[3.552438E-3,-1.770235E-1,5.25826E-2,-9.721476E-2,-2.7505103E-1,-1.2746003E-1,7.445712E-2,4.5518884E-1,-1.2374623E-1,-1.3644215E-1,-3.472946E-1,-1.6688254E-1,2.7605262E-1,1.1354888E-1,-1.2458589E-2,-8.246115E-4,2.4238983E-2,-9.01547E-3,-1.9866668E-3,-5.5244947E-3,1.3222253E-2,-1.1285652E-2,-4.3845255E-4,-5.6351507E-3,8.027063E-3,-8.421298E-3,1.8031618E-2,3.9580925E-3,-3.2191272E-3,-1.2007408E-3,1.0162227E-2],"categories":[],"categories_nodes":[],"categories_segments":[],"categories_sizes":[],"default_left":[0,0,0,0,0,1,0,0,0,0,0,0,0,0,0,0,0,0,0,0,0,0,0,0,0,0,0,0,0,0,0],"id":31,"left_children":[1,3,5,7,9,11,13,15,17,19,21,23,25,27,29,-1,-1,-1,-1,-1,-1,-1,-1,-1,-1,-1,-1,-1,-1,-1,-1],"loss_changes":[3.0489338E1,5.699709E0,1.0684872E1,6.0989375E0,3.198969E0,4.770999E0,8.21194E0,3.3045394E0,3.9391708E0,3.3563228E0,2.055027E0,2.5513716E0,5.210737E0,6.7968235E0,7.301124E0,0E0,0E0,0E0,0E0,0E0,0E0,0E0,0E0,0E0,0E0,0E0,0E0,0E0,0E0,0E0,0E0],"parents":[2147483647,0,0,1,1,2,2,3,3,4,4,5,5,6,6,7,7,8,8,9,9,10,10,11,11,12,12,13,13,14,14],"right_children":[2,4,6,8,10,12,14,16,18,20,22,24,26,28,30,-1,-1,-1,-1,-1,-1,-1,-1,-1,-1,-1,-1,-1,-1,-1,-1],"split_conditions":[2.0285715E-1,6.565941E-1,1.7360134E-1,1.441606E-1,1.4330221E3,2E0,1.5894099E3,3.376813E-3,-6.666667E-1,5.92921E-1,1.9580117E-1,3.3535056E0,-1.1845915E-1,1.6076327E3,4.392108E1,-8.246115E-4,2.4238983E-2,-9.01547E-3,-1.9866668E-3,-5.5244947E-3,1.3222253E-2,-1.1285652E-2,-4.3845255E-4,-5.6351507E-3,8.027063E-3,-8.421298E-3,1.8031618E-2,3.9580925E-3,-3.2191272E-3,-1.2007408E-3,1.0162227E-2],"split_indices":[10,14,16,16,2,35,2,33,22,13,10,8,33,1,3,0,0,0,0,0,0,0,0,0,0,0,0,0,0,0,0],"split_type":[0,0,0,0,0,0,0,0,0,0,0,0,0,0,0,0,0,0,0,0,0,0,0,0,0,0,0,0,0,0,0],"sum_hessian":[3.4395933E3,7.33377E2,2.7062163E3,4.064504E2,3.269266E2,2.921297E2,2.4140867E3,1.7145983E1,3.893044E2,1.1399309E2,2.1293352E2,2.6719778E2,2.4931923E1,1.6647328E3,7.493538E2,8.018754E0,9.127229E0,9.350823E1,2.9579617E2,1.0654815E2,7.444935E0,1.9567705E2,1.7256475E1,2.5598557E2,1.1212211E1,9.289891E0,1.5642032E1,1.5375282E3,1.2720452E2,6.9645984E2,5.2893967E1],"tree_param":{"num_deleted":"0","num_feature":"40","num_nodes":"31","size_leaf_vector":"1"}},{"base_weights":[7.594521E-3,-1.986327E-1,3.4544584E-1,-3.314288E-1,3.4744274E-2,1.8364376E-1,5.364548E-1,-2.118185E-1,-4.3389922E-1,-3.8729757E-2,1.6557635E-1,2.276888E-2,2.6069558E-1,3.7379667E-1,6.606495E-1,-4.66178E-3,-9.572212E-3,-7.845792E-3,-1.3681462E-2,7.294347E-4,-4.474735E-3,2.3275474E-3,1.120179E-2,1.4050871E-3,-1.5457413E-2,7.3287226E-3,2.5714051E-2,2.0214694E-2,8.92455E-3,2.4209812E-2,1.6641604E-2],"categories":[],"categories_nodes":[],"categories_segments":[],"categories_sizes":[],"default_left":[0,1,0,0,0,0,0,1,0,0,0,0,0,0,1,0,0,0,0,0,0,0,0,0,0,0,0,0,0,0,0],"id":32,"left_children":[1,3,5,7,9,11,13,15,17,19,21,23,25,27,29,-1,-1,-1,-1,-1,-1,-1,-1,-1,-1,-1,-1,-1,-1,-1,-1],"loss_changes":[2.7373456E2,7.563205E1,4.582602E1,1.887616E1,8.535286E0,1.0019386E1,1.3281235E1,4.2669754E0,2.95195E0,3.9710639E0,5.7792845E0,3.4701378E0,4.9332085E0,6.4640045E0,5.0584106E0,0E0,0E0,0E0,0E0,0E0,0E0,0E0,0E0,0E0,0E0,0E0,0E0,0E0,0E0,0E0,0E0],"parents":[2147483647,0,0,1,1,2,2,3,3,4,4,5,5,6,6,7,7,8,8,9,9,10,10,11,11,12,12,13,13,14,14],"right_children":[2,4,6,8,10,12,14,16,18,20,22,24,26,28,30,-1,-1,-1,-1,-1,-1,-1,-1,-1,-1,-1,-1,-1,-1,-1,-1],"split_conditions":[3.7702104E-1,2.577049E-1,5.065538E-1,5.7431346E-1,3.5598952E-1,3.411983E-1,5.6615245E-1,5.516443E-1,4.5606934E1,2.9079542E-1,1.75E0,3.625105E0,3E0,1.7076737E-1,1.3107671E-1,-4.66178E-3,-9.572212E-3,-7.845792E-3,-1.3681462E-2,7.294347E-4,-4.474735E-3,2.3275474E-3,1.120179E-2,1.4050871E-3,-1.5457413E-2,7.3287226E-3,2.5714051E-2,2.0214694E-2,8.92455E-3,2.4209812E-2,1.6641604E-2],"split_indices":[11,16,16,9,16,16,11,14,3,15,24,8,20,14,14,0,0,0,0,0,0,0,0,0,0,0,0,0,0,0,0],"split_type":[0,0,0,0,0,0,0,0,0,0,0,0,0,0,0,0,0,0,0,0,0,0,0,0,0,0,0,0,0,0,0],"sum_hessian":[3.924813E3,2.4376658E3,1.4871471E3,1.5530879E3,8.8457794E2,8.0725287E2,6.798943E2,7.194417E2,8.336462E2,5.6736127E2,3.1721667E2,2.6226538E2,5.449875E2,2.9783652E2,3.8205774E2,4.7463757E2,2.4480414E2,9.784082E1,7.3580536E2,3.621606E2,2.0520067E2,2.2478665E2,9.2430016E1,2.5278339E2,9.482001E0,5.3314276E2,1.18447E1,5.721815E1,2.4061836E2,1.5486748E2,2.2719028E2],"tree_param":{"num_deleted":"0","num_feature":"40","num_nodes":"31","size_leaf_vector":"1"}},{"base_weights":[-3.0746025E-3,-2.562324E-1,2.5562268E-1,-3.584075E-1,-4.1427396E-2,4.456843E-1,9.2456475E-2,-5.752121E-1,-3.1301627E-1,7.889712E-2,-1.1200155E-1,2.5897878E-1,5.2934074E-1,2.2803664E-1,4.8610684E-3,-1.7447963E-2,7.313795E-3,-4.362021E-3,-1.0730039E-2,4.2893452E-4,1.3019283E-2,-4.058722E-3,1.3167671E-2,1.2321349E-2,4.807904E-3,1.4316752E-2,1.9354563E-2,1.0018058E-2,3.49734E-3,6.645764E-4,-1.5965678E-2],"categories":[],"categories_nodes":[],"categories_segments":[],"categories_sizes":[],"default_left":[0,1,1,0,0,0,0,0,0,1,0,0,0,0,0,0,0,0,0,0,0,0,0,0,0,0,0,0,0,0,0],"id":33,"left_children":[1,3,5,7,9,11,13,15,17,19,21,23,25,27,29,-1,-1,-1,-1,-1,-1,-1,-1,-1,-1,-1,-1,-1,-1,-1,-1],"loss_changes":[2.904443E2,4.916423E1,6.793985E1,1.45850525E1,6.172165E0,1.5543152E1,1.4044373E1,1.6463089E0,9.327263E0,6.1604404E0,5.990611E0,4.620489E0,3.593628E0,5.401018E0,6.715079E0,0E0,0E0,0E0,0E0,0E0,0E0,0E0,0E0,0E0,0E0,0E0,0E0,0E0,0E0,0E0,0E0],"parents":[2147483647,0,0,1,1,2,2,3,3,4,4,5,5,6,6,7,7,8,8,9,9,10,10,11,11,12,12,13,13,14,14],"right_children":[2,4,6,8,10,12,14,16,18,20,22,24,26,28,30,-1,-1,-1,-1,-1,-1,-1,-1,-1,-1,-1,-1,-1,-1,-1,-1],"split_conditions":[2.9170302E-1,3.5986125E-1,1.6636452E-1,1.7442961E-1,2.6356548E-1,6.063064E-1,2.2914262E-1,2.447015E-1,3.6619008E-1,1.3E1,2E0,1.4973961E-1,7.909992E-1,1.7649369E-1,4.853919E-1,-1.7447963E-2,7.313795E-3,-4.362021E-3,-1.0730039E-2,4.2893452E-4,1.3019283E-2,-4.058722E-3,1.3167671E-2,1.2321349E-2,4.807904E-3,1.4316752E-2,1.9354563E-2,1.0018058E-2,3.49734E-3,6.645764E-4,-1.5965678E-2],"split_indices":[7,14,16,14,16,9,16,7,11,28,25,16,14,11,16,0,0,0,0,0,0,0,0,0,0,0,0,0,0,0,0],"split_type":[0,0,0,0,0,0,0,0,0,0,0,0,0,0,0,0,0,0,0,0,0,0,0,0,0,0,0,0,0,0,0],"sum_hessian":[4.4308574E3,2.2394146E3,2.1914429E3,1.5166576E3,7.22757E2,1.0106915E3,1.1807513E3,2.585216E2,1.258136E3,2.6711197E2,4.5564502E2,3.152667E2,6.9542487E2,4.62181E2,7.185703E2,2.5709647E2,1.4251337E0,2.664473E2,9.9168866E2,2.2775685E2,3.935513E1,4.3861243E2,1.7032589E1,1.2177234E2,1.9349435E2,4.8666476E2,2.0876007E2,2.3495468E2,2.2722632E2,6.9801373E2,2.055654E1],"tree_param":{"num_deleted":"0","num_feature":"40","num_nodes":"31","size_leaf_vector":"1"}},{"base_weights":[1.541534E-2,-1.8446644E-1,5.9771985E-2,-3.2104525E-1,-9.871934E-2,-3.257675E-2,1.1185554E-1,3.6936033E-1,-3.4202784E-1,-1.20971076E-1,5.3085816E-1,-1.4443259E-1,-2.5024356E-3,1.3152912E-1,-5.7561062E-2,2.5102662E-2,-6.3266475E-3,-1.1030175E-2,1.5340501E-3,-9.563005E-3,-2.0043731E-3,2.3885718E-2,-2.7122775E-3,-2.2457736E-3,-1.4097964E-2,-2.8607682E-3,1.3025708E-3,7.4421256E-3,3.131067E-3,1.580971E-3,-6.5451516E-3],"categories":[],"categories_nodes":[],"categories_segments":[],"categories_sizes":[],"default_left":[0,1,0,0,0,1,0,0,1,0,0,1,0,1,0,0,0,0,0,0,0,0,0,0,0,0,0,0,0,0,0],"id":34,"left_children":[1,3,5,7,9,11,13,15,17,19,21,23,25,27,29,-1,-1,-1,-1,-1,-1,-1,-1,-1,-1,-1,-1,-1,-1,-1,-1],"loss_changes":[3.081816E1,7.33008E0,1.3687265E1,3.767067E0,5.602046E0,3.45469E0,6.0778656E0,2.5543218E0,2.4219303E0,4.017454E0,2.4038196E0,4.8578644E0,3.4688542E0,5.1087246E0,3.3991034E0,0E0,0E0,0E0,0E0,0E0,0E0,0E0,0E0,0E0,0E0,0E0,0E0,0E0,0E0,0E0,0E0],"parents":[2147483647,0,0,1,1,2,2,3,3,4,4,5,5,6,6,7,7,8,8,9,9,10,10,11,11,12,12,13,13,14,14],"right_children":[2,4,6,8,10,12,14,16,18,20,22,24,26,28,30,-1,-1,-1,-1,-1,-1,-1,-1,-1,-1,-1,-1,-1,-1,-1,-1],"split_conditions":[1.9580117E-1,1.7355387E-1,2.6067227E-1,-3.9604977E-1,4.1646054E-1,4.1041665E0,1.6596799E3,-2.2222222E-1,5.7188682E-2,-1.7338334E-1,6.027554E-1,4.84375E0,2.177584E-1,-1.25E0,1.5899016E0,2.5102662E-2,-6.3266475E-3,-1.1030175E-2,1.5340501E-3,-9.563005E-3,-2.0043731E-3,2.3885718E-2,-2.7122775E-3,-2.2457736E-3,-1.4097964E-2,-2.8607682E-3,1.3025708E-3,7.4421256E-3,3.131067E-3,1.580971E-3,-6.5451516E-3],"split_indices":[10,15,15,34,33,27,2,22,17,33,14,28,11,38,6,0,0,0,0,0,0,0,0,0,0,0,0,0,0,0,0],"split_type":[0,0,0,0,0,0,0,0,0,0,0,0,0,0,0,0,0,0,0,0,0,0,0,0,0,0,0,0,0,0,0],"sum_hessian":[3.471473E3,6.29314E2,2.842159E3,2.405984E2,3.8871564E2,1.0251776E3,1.8169813E3,6.1170893E0,2.3448131E2,3.7700647E2,1.1709178E1,2.1561871E2,8.095589E2,1.6283372E3,1.8864421E2,2.8983319E0,3.2187574E0,2.2024515E2,1.4236167E1,7.8938644E1,2.9806784E2,7.810383E0,3.8987951E0,1.7967441E2,3.5944305E1,2.671696E2,5.4238934E2,3.046874E2,1.3236497E3,1.1265186E2,7.599235E1],"tree_param":{"num_deleted":"0","num_feature":"40","num_nodes":"31","size_leaf_vector":"1"}},{"base_weights":[-3.6630107E-3,-1.8704042E-1,3.4876925E-1,1.3436745E-1,-2.667921E-1,6.067943E-1,2.61412E-1,3.8283864E-1,9.251592E-3,-1.816313E-1,-4.1804752E-1,7.429302E-1,4.839839E-1,1.7798148E-1,3.3341157E-1,6.932325E-3,2.0892957E-2,-8.9896104E-4,8.624733E-3,-9.014867E-3,-3.9095418E-3,-9.401364E-3,-1.4067072E-2,2.6620988E-2,1.8667048E-2,1.5906828E-2,-3.2574171E-3,2.0903111E-3,7.309524E-3,1.12588415E-2,3.0948238E-3],"categories":[],"categories_nodes":[],"categories_segments":[],"categories_sizes":[],"default_left":[1,0,0,1,0,0,0,0,0,0,0,0,0,0,0,0,0,0,0,0,0,0,0,0,0,0,0,0,0,0,0],"id":35,"left_children":[1,3,5,7,9,11,13,15,17,19,21,23,25,27,29,-1,-1,-1,-1,-1,-1,-1,-1,-1,-1,-1,-1,-1,-1,-1,-1],"loss_changes":[2.5217668E2,6.585874E1,2.9783798E1,1.5896164E1,2.6343857E1,4.902687E0,5.89534E0,7.8293076E0,3.7521613E0,7.9699974E0,3.6419373E0,1.6106415E0,5.116562E0,3.2950354E0,5.0829926E0,0E0,0E0,0E0,0E0,0E0,0E0,0E0,0E0,0E0,0E0,0E0,0E0,0E0,0E0,0E0,0E0],"parents":[2147483647,0,0,1,1,2,2,3,3,4,4,5,5,6,6,7,7,8,8,9,9,10,10,11,11,12,12,13,13,14,14],"right_children":[2,4,6,8,10,12,14,16,18,20,22,24,26,28,30,-1,-1,-1,-1,-1,-1,-1,-1,-1,-1,-1,-1,-1,-1,-1,-1],"split_conditions":[3.5598952E-1,3.480881E-1,1.8700393E-1,4.2897232E-2,1.1678277E2,1.21583864E-1,4.3146372E-1,5.6615245E-1,5.5E0,2.2032687E-1,1.9146013E0,5.7727903E-1,2.5E0,2.77022E-1,1.2E0,6.932325E-3,2.0892957E-2,-8.9896104E-4,8.624733E-3,-9.014867E-3,-3.9095418E-3,-9.401364E-3,-1.4067072E-2,2.6620988E-2,1.8667048E-2,1.5906828E-2,-3.2574171E-3,2.0903111E-3,7.309524E-3,1.12588415E-2,3.0948238E-3],"split_indices":[16,9,14,17,3,9,16,11,32,16,5,12,24,15,25,0,0,0,0,0,0,0,0,0,0,0,0,0,0,0,0],"split_type":[0,0,0,0,0,0,0,0,0,0,0,0,0,0,0,0,0,0,0,0,0,0,0,0,0,0,0,0,0,0,0],"sum_hessian":[3.8979465E3,2.5645168E3,1.3334298E3,5.0956097E2,2.0549558E3,3.342554E2,9.9917444E2,1.6927438E2,3.402866E2,1.3175449E3,7.374109E2,1.5373766E2,1.8051775E2,4.6606232E2,5.331121E2,1.164116E2,5.286278E1,2.9981345E2,4.047313E1,3.9434772E2,9.231972E2,2.4581099E2,4.9159988E2,6.4202354E1,8.953529E1,1.6764513E2,1.2872614E1,1.7747897E2,2.8858334E2,4.4999677E2,8.311532E1],"tree_param":{"num_deleted":"0","num_feature":"40","num_nodes":"31","size_leaf_vector":"1"}},{"base_weights":[-6.6122727E-4,-2.2591753E-1,2.517035E-1,-3.362221E-1,-1.697713E-2,4.0565065E-1,5.2303705E-2,-4.9642098E-1,-2.6747426E-1,1.8043557E-1,-5.833132E-2,3.2581306E-1,5.546833E-1,-1.5441188E-1,1.1729812E-1,-1.6047515E-2,-1.0147013E-2,-9.353048E-3,-2.0085739E-3,-6.690106E-3,8.23868E-3,8.312364E-3,-2.277361E-3,-1.922947E-2,1.0096479E-2,1.4157202E-2,2.0612685E-2,-6.9545205E-3,3.0709242E-3,6.3118315E-3,1.3195731E-3],"categories":[],"categories_nodes":[],"categories_segments":[],"categories_sizes":[],"default_left":[0,1,1,0,0,0,0,0,0,0,0,0,0,0,0,0,0,0,0,0,0,0,0,0,0,0,0,0,0,0,0],"id":36,"left_children":[1,3,5,7,9,11,13,15,17,19,21,23,25,27,29,-1,-1,-1,-1,-1,-1,-1,-1,-1,-1,-1,-1,-1,-1,-1,-1],"loss_changes":[2.5083473E2,5.372177E1,6.3838654E1,1.6538452E1,6.614683E0,1.3608002E1,1.2248426E1,2.4139404E0,9.479347E0,5.456561E0,3.9886913E0,8.417183E0,3.8090515E0,4.386187E0,4.709029E0,0E0,0E0,0E0,0E0,0E0,0E0,0E0,0E0,0E0,0E0,0E0,0E0,0E0,0E0,0E0,0E0],"parents":[2147483647,0,0,1,1,2,2,3,3,4,4,5,5,6,6,7,7,8,8,9,9,10,10,11,11,12,12,13,13,14,14],"right_children":[2,4,6,8,10,12,14,16,18,20,22,24,26,28,30,-1,-1,-1,-1,-1,-1,-1,-1,-1,-1,-1,-1,-1,-1,-1,-1],"split_conditions":[4.4470322E-1,3.5986125E-1,2.445563E-1,2.1790347E-1,2.5358903E-1,1.5676918E0,3.9925826E-1,1.1319364E0,6.358923E-2,-6.666667E-1,-3.400966E-1,3.2555407E-1,7.7641976E-1,1.5989916E3,1.7835364E-1,-1.6047515E-2,-1.0147013E-2,-9.353048E-3,-2.0085739E-3,-6.690106E-3,8.23868E-3,8.312364E-3,-2.277361E-3,-1.922947E-2,1.0096479E-2,1.4157202E-2,2.0612685E-2,-6.9545205E-3,3.0709242E-3,6.3118315E-3,1.3195731E-3],"split_indices":[9,14,15,14,15,7,14,5,7,26,34,14,14,2,11,0,0,0,0,0,0,0,0,0,0,0,0,0,0,0,0],"split_type":[0,0,0,0,0,0,0,0,0,0,0,0,0,0,0,0,0,0,0,0,0,0,0,0,0,0,0,0,0,0,0],"sum_hessian":[4.408472E3,2.329453E3,2.079019E3,1.5237899E3,8.05663E2,1.1720591E3,9.0695996E2,4.5382587E2,1.0699641E3,1.3837503E2,6.6728796E2,7.6735516E2,4.047039E2,2.1629124E2,6.906687E2,3.611692E2,9.2656685E1,8.754688E2,1.9449529E2,2.5672909E1,1.12702126E2,3.176401E1,6.35524E2,7.1384377E0,7.6021674E2,2.5463895E2,1.5006494E2,1.6634172E2,4.9949528E1,3.0263083E2,3.8803787E2],"tree_param":{"num_deleted":"0","num_feature":"40","num_nodes":"31","size_leaf_vector":"1"}},{"base_weights":[-9.828185E-3,-1.5593135E-1,5.3152204E-2,-3.0255237E-1,-1.10311575E-1,-1.6318554E-1,7.269934E-2,4.962814E-2,-3.4713423E-1,-1.4681628E-1,6.8741795E-3,-1.9517747E-1,4.8552725E-1,9.5474176E-2,-1.9740941E-2,1.935061E-2,-3.24348E-3,-1.1494967E-2,-1.0592227E-3,-2.7906545E-3,-6.9038444E-3,-6.0259923E-4,1.8651161E-2,1.3449363E-3,-8.37485E-3,-2.6005234E-3,2.6409833E-2,2.5959217E-3,1.1826763E-2,-8.387614E-3,1.150649E-3],"categories":[],"categories_nodes":[],"categories_segments":[],"categories_sizes":[],"default_left":[0,0,0,0,0,0,0,0,0,0,1,0,0,0,0,0,0,0,0,0,0,0,0,0,0,0,0,0,0,0,0],"id":37,"left_children":[1,3,5,7,9,11,13,15,17,19,21,23,25,27,29,-1,-1,-1,-1,-1,-1,-1,-1,-1,-1,-1,-1,-1,-1,-1,-1],"loss_changes":[3.1474054E1,6.824663E0,1.0132189E1,3.8551846E0,3.3769836E0,4.3133025E0,4.622179E0,2.8718889E0,2.4026546E0,2.653576E0,3.1628976E0,3.870771E0,2.391857E0,4.635338E0,6.592583E0,0E0,0E0,0E0,0E0,0E0,0E0,0E0,0E0,0E0,0E0,0E0,0E0,0E0,0E0,0E0,0E0],"parents":[2147483647,0,0,1,1,2,2,3,3,4,4,5,5,6,6,7,7,8,8,9,9,10,10,11,11,12,12,13,13,14,14],"right_children":[2,4,6,8,10,12,14,16,18,20,22,24,26,28,30,-1,-1,-1,-1,-1,-1,-1,-1,-1,-1,-1,-1,-1,-1,-1,-1],"split_conditions":[2.4273266E-1,1.7355387E-1,1.9705367E-1,-9E-1,2.0996706E-1,4.3087292E-1,1.5728735E3,-4.1129178E-1,2.3446888E-1,6.2129354E-1,3E0,1.4687505E3,4E0,2.5E0,-5.098923E1,1.935061E-2,-3.24348E-3,-1.1494967E-2,-1.0592227E-3,-2.7906545E-3,-6.9038444E-3,-6.0259923E-4,1.8651161E-2,1.3449363E-3,-8.37485E-3,-2.6005234E-3,2.6409833E-2,2.5959217E-3,1.1826763E-2,-8.387614E-3,1.150649E-3],"split_indices":[15,15,10,26,39,33,1,34,10,14,35,1,28,37,3,0,0,0,0,0,0,0,0,0,0,0,0,0,0,0,0],"split_type":[0,0,0,0,0,0,0,0,0,0,0,0,0,0,0,0,0,0,0,0,0,0,0,0,0,0,0,0,0,0,0],"sum_hessian":[3.4166838E3,1.0282883E3,2.3883955E3,2.413453E2,7.86943E2,1.9670192E2,2.1916936E3,2.7093113E1,2.142522E2,5.996419E2,1.8730106E2,1.8878983E2,7.9121003E0,1.7584038E3,4.3328976E2,4.380651E0,2.2712463E1,1.9164967E2,2.2602518E1,3.6694113E2,2.3270079E2,1.8128618E2,6.0148787E0,4.9179085E1,1.3961073E2,3.867516E0,4.0445843E0,1.7097985E3,4.86054E1,7.77795E1,3.5551028E2],"tree_param":{"num_deleted":"0","num_feature":"40","num_nodes":"31","size_leaf_vector":"1"}},{"base_weights":[-2.2992822E-3,2.9557547E-1,-2.2450225E-1,1.7938033E-1,5.470623E-1,-3.5711512E-1,-5.436867E-2,5.766248E-3,2.817274E-1,4.4308716E-1,6.845199E-1,-4.516053E-1,-2.7094948E-1,-9.26141E-2,2.1125843E-1,6.2892702E-3,-1.113483E-3,9.423871E-3,2.0967393E-4,1.3641708E-2,-1.415741E-2,2.1923076E-2,1.0359624E-2,-1.1747357E-2,-1.5426943E-2,-5.303084E-3,-1.0137079E-2,-5.2387128E-3,-1.0726011E-3,5.4977095E-4,1.0378065E-2],"categories":[],"categories_nodes":[],"categories_segments":[],"categories_sizes":[],"default_left":[0,1,1,0,0,0,0,0,0,0,0,0,0,1,0,0,0,0,0,0,0,0,0,0,0,0,0,0,0,0,0],"id":38,"left_children":[1,3,5,7,9,11,13,15,17,19,21,23,25,27,29,-1,-1,-1,-1,-1,-1,-1,-1,-1,-1,-1,-1,-1,-1,-1,-1],"loss_changes":[2.591461E2,4.8685593E1,5.0555275E1,2.0380116E1,6.93486E0,1.0012573E1,1.0042E1,3.7529397E0,6.4197197E0,3.68824E0,3.002655E0,1.8448715E0,4.067112E0,4.007569E0,3.2231922E0,0E0,0E0,0E0,0E0,0E0,0E0,0E0,0E0,0E0,0E0,0E0,0E0,0E0,0E0,0E0,0E0],"parents":[2147483647,0,0,1,1,2,2,3,3,4,4,5,5,6,6,7,7,8,8,9,9,10,10,11,11,12,12,13,13,14,14],"right_children":[2,4,6,8,10,12,14,16,18,20,22,24,26,28,30,-1,-1,-1,-1,-1,-1,-1,-1,-1,-1,-1,-1,-1,-1,-1,-1],"split_conditions":[4.1763358E-2,5.0080025E-1,2.2032687E-1,3.6536604E-1,6.1105096E-1,1.435748E-1,4.0483359E-1,4.84375E0,-1.8167185E1,3.2E0,2.2E0,1.991343E2,1.553682E3,7E0,-5.076811E-2,6.2892702E-3,-1.113483E-3,9.423871E-3,2.0967393E-4,1.3641708E-2,-1.415741E-2,2.1923076E-2,1.0359624E-2,-1.1747357E-2,-1.5426943E-2,-5.303084E-3,-1.0137079E-2,-5.2387128E-3,-1.0726011E-3,5.4977095E-4,1.0378065E-2],"split_indices":[7,16,16,16,16,11,16,28,3,20,20,3,1,28,39,0,0,0,0,0,0,0,0,0,0,0,0,0,0,0,0],"split_type":[0,0,0,0,0,0,0,0,0,0,0,0,0,0,0,0,0,0,0,0,0,0,0,0,0,0,0,0,0,0,0],"sum_hessian":[3.911259E3,1.6708015E3,2.2404575E3,1.1451372E3,5.256643E2,1.2578285E3,9.826291E2,4.2548624E2,7.1965094E2,3.040915E2,2.2157285E2,5.958885E2,6.6194E2,8.6009406E2,1.2253508E2,7.259054E1,3.528957E2,6.434751E2,7.6175865E1,3.0126624E2,2.8252535E0,1.929549E2,2.861794E1,3.116651E2,2.8422342E2,2.7807077E2,3.8386923E2,3.5047104E2,5.09623E2,5.130698E1,7.1228096E1],"tree_param":{"num_deleted":"0","num_feature":"40","num_nodes":"31","size_leaf_vector":"1"}},{"base_weights":[-3.3044196E-3,-2.0670134E-1,2.7764553E-1,-3.122445E-2,-3.2354936E-1,4.418047E-1,1.028917E-1,1.8340375E-1,-7.436376E-2,-9.909948E-2,-3.8508156E-1,2.9829213E-1,5.0457066E-1,1.7710327E-1,-1.2988828E-1,1.9324891E-3,1.27586415E-2,-9.567936E-3,-1.6163306E-3,-7.185811E-4,-9.282866E-3,-9.731592E-3,-1.5003374E-2,1.2969997E-2,3.7931597E-3,1.9118708E-2,1.3240926E-2,1.5319526E-2,4.4373204E-3,-5.488985E-3,7.0001674E-3],"categories":[],"categories_nodes":[],"categories_segments":[],"categories_sizes":[],"default_left":[0,0,1,0,0,0,0,0,0,1,1,0,1,0,0,0,0,0,0,0,0,0,0,0,0,0,0,0,0,0,0],"id":39,"left_children":[1,3,5,7,9,11,13,15,17,19,21,23,25,27,29,-1,-1,-1,-1,-1,-1,-1,-1,-1,-1,-1,-1,-1,-1,-1,-1],"loss_changes":[2.5248471E2,5.2529755E1,5.3137543E1,9.532975E0,2.1168198E1,8.311478E0,1.5616566E1,4.906949E0,4.2556825E0,5.2589097E0,8.09964E0,6.7050056E0,4.993347E0,6.512001E0,4.308356E0,0E0,0E0,0E0,0E0,0E0,0E0,0E0,0E0,0E0,0E0,0E0,0E0,0E0,0E0,0E0,0E0],"parents":[2147483647,0,0,1,1,2,2,3,3,4,4,5,5,6,6,7,7,8,8,9,9,10,10,11,11,12,12,13,13,14,14],"right_children":[2,4,6,8,10,12,14,16,18,20,22,24,26,28,30,-1,-1,-1,-1,-1,-1,-1,-1,-1,-1,-1,-1,-1,-1,-1,-1],"split_conditions":[4.878085E-1,3.6536604E-1,1.6636452E-1,2.523516E-1,3.6619008E-1,6.2392515E-1,2.920607E-1,9.153424E-2,4.583416E-2,5.200178E-2,5.3684944E-1,2.445563E-1,1.39348E-1,1.3846249E3,5.5E0,1.9324891E-3,1.27586415E-2,-9.567936E-3,-1.6163306E-3,-7.185811E-4,-9.282866E-3,-9.731592E-3,-1.5003374E-2,1.2969997E-2,3.7931597E-3,1.9118708E-2,1.3240926E-2,1.5319526E-2,4.4373204E-3,-5.488985E-3,7.0001674E-3],"split_indices":[7,16,16,15,11,9,16,33,17,17,16,15,15,2,32,0,0,0,0,0,0,0,0,0,0,0,0,0,0,0,0],"split_type":[0,0,0,0,0,0,0,0,0,0,0,0,0,0,0,0,0,0,0,0,0,0,0,0,0,0,0,0,0,0,0],"sum_hessian":[4.4143584E3,2.5608967E3,1.8534618E3,1.0246539E3,1.5362427E3,9.541252E2,8.9933655E2,1.7039516E2,8.542588E2,3.316628E2,1.2045798E3,2.938198E2,6.603054E2,6.8229535E2,2.1704123E2,1.1590964E2,5.448551E1,6.3773964E1,7.9048486E2,2.4599951E2,8.5663284E1,7.935235E2,4.1105637E2,1.6336671E2,1.3045308E2,2.0715685E2,4.5314856E2,5.2255157E1,6.3004016E2,1.90235E2,2.6806229E1],"tree_param":{"num_deleted":"0","num_feature":"40","num_nodes":"31","size_leaf_vector":"1"}},{"base_weights":[1.0001755E-2,-1.7138419E-1,6.8811655E-2,-1.3116E-1,-3.4904546E-1,-9.196661E-2,8.331584E-2,-1.4618775E-1,3.745805E-1,-3.9612007E-1,8.451096E-2,-1.4140245E-1,3.6846355E-1,1.11178756E-1,3.4482586E-3,-1.3159854E-2,-3.967545E-3,-8.161838E-3,2.1479728E-2,6.3443426E-3,-1.26934685E-2,2.750025E-2,-1.3393645E-2,-7.946833E-3,5.9271144E-4,-6.3812057E-3,2.1553107E-2,1.334396E-2,3.036013E-3,-1.0538397E-3,1.2365481E-2],"categories":[],"categories_nodes":[],"categories_segments":[],"categories_sizes":[],"default_left":[0,0,0,0,0,1,0,0,0,0,0,0,0,0,0,0,0,0,0,0,0,0,0,0,0,0,0,0,0,0,0],"id":40,"left_children":[1,3,5,7,9,11,13,15,17,19,21,23,25,27,29,-1,-1,-1,-1,-1,-1,-1,-1,-1,-1,-1,-1,-1,-1,-1,-1],"loss_changes":[3.696371E1,5.971649E0,6.1168766E0,5.3917303E0,3.2391682E0,5.0539503E0,5.3423576E0,2.6409626E0,4.941293E0,2.484436E0,8.273195E0,3.9474587E0,4.706911E0,5.835455E0,9.852958E0,0E0,0E0,0E0,0E0,0E0,0E0,0E0,0E0,0E0,0E0,0E0,0E0,0E0,0E0,0E0,0E0],"parents":[2147483647,0,0,1,1,2,2,3,3,4,4,5,5,6,6,7,7,8,8,9,9,10,10,11,11,12,12,13,13,14,14],"right_children":[2,4,6,8,10,12,14,16,18,20,22,24,26,28,30,-1,-1,-1,-1,-1,-1,-1,-1,-1,-1,-1,-1,-1,-1,-1,-1],"split_conditions":[2.11899E-1,1.7184359E3,1.6286153E-1,4.1646054E-1,6.135769E-1,2E0,4.934223E-1,3.193488E-1,-9.673792E-2,-3.400966E-1,4.999265E-2,1.7252223E2,-1.520915E-1,-1.9101527E2,1.25E0,-1.3159854E-2,-3.967545E-3,-8.161838E-3,2.1479728E-2,6.3443426E-3,-1.26934685E-2,2.750025E-2,-1.3393645E-2,-7.946833E-3,5.9271144E-4,-6.3812057E-3,2.1553107E-2,1.334396E-2,3.036013E-3,-1.0538397E-3,1.2365481E-2],"split_indices":[10,1,16,33,13,35,16,13,34,34,17,3,33,3,25,0,0,0,0,0,0,0,0,0,0,0,0,0,0,0,0],"split_type":[0,0,0,0,0,0,0,0,0,0,0,0,0,0,0,0,0,0,0,0,0,0,0,0,0,0,0,0,0,0,0],"sum_hessian":[3.4609353E3,8.4644305E2,2.6144922E3,6.9301465E2,1.5342844E2,2.1545894E2,2.3990332E3,6.743972E2,1.8617388E1,1.3855693E2,1.4871508E1,1.9581978E2,1.963916E1,1.7779772E3,6.2105597E2,2.79009E1,6.4649634E2,6.573406E0,1.2043981E1,5.312781E0,1.3324416E2,5.226827E0,9.644681E0,1.1013729E2,8.568248E1,7.676275E0,1.1962886E1,4.9102646E1,1.7288745E3,5.691663E2,5.1889652E1],"tree_param":{"num_deleted":"0","num_feature":"40","num_nodes":"31","size_leaf_vector":"1"}},{"base_weights":[-2.9127062E-3,-1.9851571E-1,3.1334937E-1,-8.4372416E-2,-3.8086835E-1,5.509002E-2,4.2352632E-1,-1.453176E-1,1.1774934E-1,-4.4726932E-1,-2.9710925E-1,-4.1458994E-2,1.376724E-1,3.492136E-1,6.3726676E-1,-1.118848E-2,-3.4418064E-3,1.2419768E-2,1.998391E-3,-1.3865241E-2,-3.181631E-3,-1.018734E-2,5.9704715E-4,-4.4666277E-3,1.9359349E-3,2.6000072E-3,1.4338109E-2,1.0749674E-2,-7.887448E-3,2.0576226E-2,6.2929066E-3],"categories":[],"categories_nodes":[],"categories_segments":[],"categories_sizes":[],"default_left":[0,0,0,1,1,0,0,0,0,0,0,0,1,0,1,0,0,0,0,0,0,0,0,0,0,0,0,0,0,0,0],"id":41,"left_children":[1,3,5,7,9,11,13,15,17,19,21,23,25,27,29,-1,-1,-1,-1,-1,-1,-1,-1,-1,-1,-1,-1,-1,-1,-1,-1],"loss_changes":[2.4177866E2,5.0198456E1,4.2450928E1,1.8360748E1,4.901413E0,3.5908217E0,1.617897E1,7.8803577E0,5.182875E0,2.5175629E0,5.62484E0,2.3932686E0,4.124574E0,4.5433044E0,5.272606E0,0E0,0E0,0E0,0E0,0E0,0E0,0E0,0E0,0E0,0E0,0E0,0E0,0E0,0E0,0E0,0E0],"parents":[2147483647,0,0,1,1,2,2,3,3,4,4,5,5,6,6,7,7,8,8,9,9,10,10,11,11,12,12,13,13,14,14],"right_children":[2,4,6,8,10,12,14,16,18,20,22,24,26,28,30,-1,-1,-1,-1,-1,-1,-1,-1,-1,-1,-1,-1,-1,-1,-1,-1],"split_conditions":[3.7702104E-1,8.8462456E1,3.9784256E-1,3.4747988E-1,1.3836524E-1,3.2441562E-1,6.538326E-1,2.3851873E-1,2.3641118E-1,2.5917062E-1,1.5625117E3,1.5412905E0,1.2E1,4E0,2.653638E-1,-1.118848E-2,-3.4418064E-3,1.2419768E-2,1.998391E-3,-1.3865241E-2,-3.181631E-3,-1.018734E-2,5.9704715E-4,-4.4666277E-3,1.9359349E-3,2.6000072E-3,1.4338109E-2,1.0749674E-2,-7.887448E-3,2.0576226E-2,6.2929066E-3],"split_indices":[11,3,16,16,16,16,11,15,14,11,2,6,28,29,15,0,0,0,0,0,0,0,0,0,0,0,0,0,0,0,0],"split_type":[0,0,0,0,0,0,0,0,0,0,0,0,0,0,0,0,0,0,0,0,0,0,0,0,0,0,0,0,0,0,0],"sum_hessian":[3.9043557E3,2.4128137E3,1.491542E3,1.485742E3,9.2707196E2,4.4692697E2,1.044615E3,1.1419692E3,3.437726E2,5.1227795E2,4.14794E2,2.0649948E2,2.4042747E2,7.790311E2,2.655839E2,1.3263348E2,1.0093358E3,4.851628E1,2.9525632E2,4.901573E2,2.212065E1,3.6566486E2,4.9129154E1,1.0215184E2,1.0434764E2,2.1126793E2,2.915955E1,7.6842566E2,1.0605447E1,2.3738435E2,2.8199549E1],"tree_param":{"num_deleted":"0","num_feature":"40","num_nodes":"31","size_leaf_vector":"1"}},{"base_weights":[-6.298948E-3,-2.4984568E-1,2.1312863E-1,-3.54135E-1,-1.3669621E-2,-1.2437313E-2,3.469639E-1,-4.9791595E-1,-2.8885436E-1,-1.03730716E-1,1.0218451E-1,5.270657E-2,-1.820125E-1,2.2825839E-1,4.4269344E-1,-1.572013E-2,-6.7400015E-3,-7.4240374E-3,-1.2912886E-2,-3.6439386E-3,1.27301E-2,5.958899E-4,8.246306E-3,1.1104404E-3,1.6838793E-2,-6.3217245E-3,1.61611E-2,1.4569627E-2,5.9107738E-3,8.589068E-3,1.5221221E-2],"categories":[],"categories_nodes":[],"categories_segments":[],"categories_sizes":[],"default_left":[0,1,0,0,0,0,0,0,0,0,0,0,0,0,0,0,0,0,0,0,0,0,0,0,0,0,0,0,0,0,0],"id":42,"left_children":[1,3,5,7,9,11,13,15,17,19,21,23,25,27,29,-1,-1,-1,-1,-1,-1,-1,-1,-1,-1,-1,-1,-1,-1,-1,-1],"loss_changes":[2.358106E2,5.1500732E1,7.008398E1,1.33281555E1,6.7268796E0,9.589299E0,1.635376E1,2.9739075E0,5.6604996E0,3.4985662E0,3.9994385E0,4.965822E0,5.211737E0,5.070545E0,7.8462067E0,0E0,0E0,0E0,0E0,0E0,0E0,0E0,0E0,0E0,0E0,0E0,0E0,0E0,0E0,0E0,0E0],"parents":[2147483647,0,0,1,1,2,2,3,3,4,4,5,5,6,6,7,7,8,8,9,9,10,10,11,11,12,12,13,13,14,14],"right_children":[2,4,6,8,10,12,14,16,18,20,22,24,26,28,30,-1,-1,-1,-1,-1,-1,-1,-1,-1,-1,-1,-1,-1,-1,-1,-1],"split_conditions":[2.3010004E-1,3.5986125E-1,5.169817E-1,2.1790347E-1,1.509379E3,3.308182E-1,6.2392515E-1,6.209455E-1,1.8428243E0,4.181713E-1,1.4217339E0,3.1735027E-1,8E0,1.945301E-1,6.4535034E-1,-1.572013E-2,-6.7400015E-3,-7.4240374E-3,-1.2912886E-2,-3.6439386E-3,1.27301E-2,5.958899E-4,8.246306E-3,1.1104404E-3,1.6838793E-2,-6.3217245E-3,1.61611E-2,1.4569627E-2,5.9107738E-3,8.589068E-3,1.5221221E-2],"split_indices":[7,14,14,14,1,16,9,13,6,34,5,15,31,15,14,0,0,0,0,0,0,0,0,0,0,0,0,0,0,0,0],"split_type":[0,0,0,0,0,0,0,0,0,0,0,0,0,0,0,0,0,0,0,0,0,0,0,0,0,0,0,0,0,0,0],"sum_hessian":[4.408559E3,2.0893137E3,2.3192454E3,1.4486348E3,6.4067896E2,8.643255E2,1.4549198E3,4.482054E2,1.0004294E3,3.605831E2,2.8009586E2,6.254366E2,2.3888892E2,6.525368E2,8.0238306E2,4.0746713E2,4.0738285E1,7.783822E2,2.2204716E2,3.5035715E2,1.0225965E1,1.9118774E2,8.890811E1,6.0879834E2,1.6638262E1,2.3109775E2,7.791166E0,6.746245E1,5.8507434E2,2.3793446E2,5.6444855E2],"tree_param":{"num_deleted":"0","num_feature":"40","num_nodes":"31","size_leaf_vector":"1"}},{"base_weights":[3.854818E-3,-1.6732495E-1,5.0316833E-2,-2.839904E-1,-1.164473E-1,8.355966E-2,-4.8642617E-2,-1.2544705E-1,-3.6940435E-1,-8.9762345E-2,-3.9201912E-1,1.110094E-1,-6.9076575E-2,-1.0800974E-1,6.7044504E-2,-5.200703E-3,2.321975E-2,1.09370975E-2,-1.2077783E-2,-4.007181E-3,1.1681321E-3,-1.5496822E-2,-4.1190296E-4,2.9947024E-3,1.4902689E-2,-3.3777421E-3,7.203119E-3,-3.5802159E-3,1.8429106E-2,2.0886077E-2,1.0439393E-3],"categories":[],"categories_nodes":[],"categories_segments":[],"categories_sizes":[],"default_left":[0,1,0,0,0,1,0,0,0,0,0,0,0,1,0,0,0,0,0,0,0,0,0,0,0,0,0,0,0,0,0],"id":43,"left_children":[1,3,5,7,9,11,13,15,17,19,21,23,25,27,29,-1,-1,-1,-1,-1,-1,-1,-1,-1,-1,-1,-1,-1,-1,-1,-1],"loss_changes":[2.729298E1,4.282284E0,8.886747E0,2.901085E0,3.7058306E0,8.482977E0,4.684177E0,3.7342777E0,3.7682858E0,2.6648173E0,2.0937448E0,7.295437E0,4.215175E0,3.8304162E0,4.6547265E0,0E0,0E0,0E0,0E0,0E0,0E0,0E0,0E0,0E0,0E0,0E0,0E0,0E0,0E0,0E0,0E0],"parents":[2147483647,0,0,1,1,2,2,3,3,4,4,5,5,6,6,7,7,8,8,9,9,10,10,11,11,12,12,13,13,14,14],"right_children":[2,4,6,8,10,12,14,16,18,20,22,24,26,28,30,-1,-1,-1,-1,-1,-1,-1,-1,-1,-1,-1,-1,-1,-1,-1,-1],"split_conditions":[2.0375936E-1,1.0218595E-1,1.5707124E3,1.4338007E3,6.925431E-1,4.934223E-1,2.598419E-1,6.135769E-1,-1.75E0,1.8916057E-1,2E0,4E0,1.25E0,6.716057E-2,-1.3333334E0,-5.200703E-3,2.321975E-2,1.09370975E-2,-1.2077783E-2,-4.007181E-3,1.1681321E-3,-1.5496822E-2,-4.1190296E-4,2.9947024E-3,1.4902689E-2,-3.3777421E-3,7.203119E-3,-3.5802159E-3,1.8429106E-2,2.0886077E-2,1.0439393E-3],"split_indices":[10,16,1,2,16,16,10,13,25,39,23,37,25,17,22,0,0,0,0,0,0,0,0,0,0,0,0,0,0,0,0],"split_type":[0,0,0,0,0,0,0,0,0,0,0,0,0,0,0,0,0,0,0,0,0,0,0,0,0,0,0,0,0,0,0],"sum_hessian":[3.4275132E3,7.3059247E2,2.6969207E3,2.1907556E2,5.115169E2,2.0190013E3,6.779193E2,7.843107E1,1.4064449E2,4.6877466E2,4.2742252E1,1.711716E3,3.0728543E2,4.4810046E2,2.2981886E2,7.599749E1,2.433579E0,5.2205415E0,1.3542395E2,3.496692E2,1.1910545E2,3.160583E1,1.1136421E1,1.6659246E3,4.579133E1,2.7048795E2,3.6797466E1,4.4282352E2,5.2769265E0,9.197015E0,2.2062184E2],"tree_param":{"num_deleted":"0","num_feature":"40","num_nodes":"31","size_leaf_vector":"1"}},{"base_weights":[1.2039167E-3,-1.6345634E-1,3.2792982E-1,-3.399611E-1,-4.7020044E-2,5.379224E-1,