{"learner":{"attributes":{"best_iteration":"61","best_score":"1.009913665366075","scikit_learn":"{\"_estimator_type\": \"classifier\"}"},"feature_names":["is_neutral","elo_home_pre","elo_away_pre","elo_diff_pre","elo_p_home_implied","dc_lambda_home","dc_lambda_away","dc_lambda_diff","dc_lambda_sum","dc_p_home","dc_p_draw","dc_p_away","dc_p_over25","dc_p_btts","market_p_home","market_p_draw","market_p_away","market_overround","has_market","home_gf_roll5","home_ga_roll5","home_gd_roll5","home_gd_roll10","away_gf_roll5","away_ga_roll5","away_gd_roll5","away_gd_roll10","home_rest_days","away_rest_days","home_matches_last_7d","away_matches_last_7d","home_fatigue_idx","away_fatigue_idx","home_momentum","away_momentum","rest_diff","congestion_diff","fatigue_diff","gd5_diff","momentum_diff"],"feature_types":["float","float","float","float","float","float","float","float","float","float","float","float","float","float","float","float","float","float","float","float","float","float","float","float","float","float","float","float","float","float","float","float","float","float","float","float","float","float","float","float"],"gradient_booster":{"model":{"cats":{"enc":[],"feature_segments":[],"sorted_idx":[]},"gbtree_model_param":{"num_parallel_tree":"1","num_trees":"486"},"iteration_indptr":[0,3,6,9,12,15,18,21,24,27,30,33,36,39,42,45,48,51,54,57,60,63,66,69,72,75,78,81,84,87,90,93,96,99,102,105,108,111,114,117,120,123,126,129,132,135,138,141,144,147,150,153,156,159,162,165,168,171,174,177,180,183,186,189,192,195,198,201,204,207,210,213,216,219,222,225,228,231,234,237,240,243,246,249,252,255,258,261,264,267,270,273,276,279,282,285,288,291,294,297,300,303,306,309,312,315,318,321,324,327,330,333,336,339,342,345,348,351,354,357,360,363,366,369,372,375,378,381,384,387,390,393,396,399,402,405,408,411,414,417,420,423,426,429,432,435,438,441,444,447,450,453,456,459,462,465,468,471,474,477,480,483,486],"tree_info":[0,1,2,0,1,2,0,1,2,0,1,2,0,1,2,0,1,2,0,1,2,0,1,2,0,1,2,0,1,2,0,1,2,0,1,2,0,1,2,0,1,2,0,1,2,0,1,2,0,1,2,0,1,2,0,1,2,0,1,2,0,1,2,0,1,2,0,1,2,0,1,2,0,1,2,0,1,2,0,1,2,0,1,2,0,1,2,0,1,2,0,1,2,0,1,2,0,1,2,0,1,2,0,1,2,0,1,2,0,1,2,0,1,2,0,1,2,0,1,2,0,1,2,0,1,2,0,1,2,0,1,2,0,1,2,0,1,2,0,1,2,0,1,2,0,1,2,0,1,2,0,1,2,0,1,2,0,1,2,0,1,2,0,1,2,0,1,2,0,1,2,0,1,2,0,1,2,0,1,2,0,1,2,0,1,2,0,1,2,0,1,2,0,1,2,0,1,2,0,1,2,0,1,2,0,1,2,0,1,2,0,1,2,0,1,2,0,1,2,0,1,2,0,1,2,0,1,2,0,1,2,0,1,2,0,1,2,0,1,2,0,1,2,0,1,2,0,1,2,0,1,2,0,1,2,0,1,2,0,1,2,0,1,2,0,1,2,0,1,2,0,1,2,0,1,2,0,1,2,0,1,2,0,1,2,0,1,2,0,1,2,0,1,2,0,1,2,0,1,2,0,1,2,0,1,2,0,1,2,0,1,2,0,1,2,0,1,2,0,1,2,0,1,2,0,1,2,0,1,2,0,1,2,0,1,2,0,1,2,0,1,2,0,1,2,0,1,2,0,1,2,0,1,2,0,1,2,0,1,2,0,1,2,0,1,2,0,1,2,0,1,2,0,1,2,0,1,2,0,1,2,0,1,2,0,1,2,0,1,2,0,1,2,0,1,2,0,1,2,0,1,2,0,1,2,0,1,2,0,1,2,0,1,2,0,1,2,0,1,2,0,1,2,0,1,2,0,1,2,0,1,2,0,1,2,0,1,2,0,1,2,0,1,2,0,1,2,0,1,2,0,1,2,0,1,2,0,1,2,0,1,2,0,1,2,0,1,2,0,1,2,0,1,2,0,1,2,0,1,2,0,1,2,0,1,2],"trees":[{"base_weights":[-2.815102E-3,-2.952032E-1,3.3521697E-1,-4.3528792E-1,-1.602379E-2,4.992316E-2,5.275267E-1,-6.1902565E-1,-3.556625E-1,2.542303E-1,-5.7965633E-2,-2.2659369E-1,1.3305154E-1,3.2970476E-1,6.478438E-1,-1.9199224E-2,-1.0706571E-2,-1.5219483E-2,-8.6515285E-3,6.9577235E-4,1.1515633E-2,-6.664809E-3,-4.5598394E-4,1.5744168E-2,-7.73773E-3,2.5114778E-3,8.668166E-3,8.241663E-3,1.8954132E-2,1.3579018E-2,2.1662252E-2],"categories":[],"categories_nodes":[],"categories_segments":[],"categories_sizes":[],"default_left":[0,1,0,0,0,0,0,0,0,0,1,0,0,1,0,0,0,0,0,0,0,0,0,0,0,0,0,0,0,0,0],"id":0,"left_children":[1,3,5,7,9,11,13,15,17,19,21,23,25,27,29,-1,-1,-1,-1,-1,-1,-1,-1,-1,-1,-1,-1,-1,-1,-1,-1],"loss_changes":[4.385991E2,9.3043274E1,1.1286835E2,2.2739014E1,9.064547E0,1.9160679E1,2.883014E1,2.1588593E0,1.1033081E1,3.2003336E0,4.8499346E0,4.809678E0,4.874798E0,7.442314E0,1.0392181E1,0E0,0E0,0E0,0E0,0E0,0E0,0E0,0E0,0E0,0E0,0E0,0E0,0E0,0E0,0E0,0E0],"parents":[2147483647,0,0,1,1,2,2,3,3,4,4,5,5,6,6,7,7,8,8,9,9,10,10,11,11,12,12,13,13,14,14],"right_children":[2,4,6,8,10,12,14,16,18,20,22,24,26,28,30,-1,-1,-1,-1,-1,-1,-1,-1,-1,-1,-1,-1,-1,-1,-1,-1],"split_conditions":[4.437672E-1,3.5982776E-1,5.460518E-1,2.1790347E-1,2.4900362E-1,3.8699183E-1,6.243191E-1,6.255565E-1,2.4768087E-1,1.2E0,-1.6766347E-1,-5.535398E-1,5.488181E-2,6.708038E-1,6.4931697E-1,-1.9199224E-2,-1.0706571E-2,-1.5219483E-2,-8.6515285E-3,6.9577235E-4,1.1515633E-2,-6.664809E-3,-4.5598394E-4,1.5744168E-2,-7.73773E-3,2.5114778E-3,8.668166E-3,8.241663E-3,1.8954132E-2,1.3579018E-2,2.1662252E-2],"split_indices":[9,14,14,14,15,14,9,13,10,19,33,39,17,14,14,0,0,0,0,0,0,0,0,0,0,0,0,0,0,0,0],"split_type":[0,0,0,0,0,0,0,0,0,0,0,0,0,0,0,0,0,0,0,0,0,0,0,0,0,0,0,0,0,0,0],"sum_hessian":[4.4336177E3,2.3774473E3,2.0561704E3,1.5823488E3,7.950984E2,8.289428E2,1.2272278E3,4.7431223E2,1.1080365E3,1.0545722E2,6.896412E2,1.9080399E2,6.381388E2,4.6695474E2,7.6027295E2,4.3654382E2,3.77684E1,3.3648212E2,7.7155444E2,3.8749397E1,6.6707825E1,1.4077312E2,5.4886804E2,6.376483E0,1.844275E2,4.8706522E2,1.510736E2,3.9828494E2,6.8669815E1,2.1336693E2,5.4690607E2],"tree_param":{"num_deleted":"0","num_feature":"40","num_nodes":"31","size_leaf_vector":"1"}},{"base_weights":[-2.2230542E-3,-2.3038144E-1,6.2368236E-2,-3.305419E-1,-1.235747E-1,-9.741546E-2,9.523437E-2,9.304822E-2,-3.5163498E-1,-3.1925604E-2,-2.5418216E-1,-2.0679024E-1,5.6870885E-2,1.9469146E-1,2.0637276E-2,-8.387517E-3,2.032676E-2,-1.37169035E-2,-8.703155E-3,1.0565227E-2,-2.4605722E-3,-9.962531E-3,-7.504821E-4,-7.3351013E-3,8.222832E-3,-9.438068E-3,3.224429E-3,2.2535115E-2,5.421078E-3,1.5598422E-2,4.1476506E-4],"categories":[],"categories_nodes":[],"categories_segments":[],"categories_sizes":[],"default_left":[0,0,0,0,0,1,0,0,0,0,0,0,0,0,0,0,0,0,0,0,0,0,0,0,0,0,0,0,0,0,0],"id":1,"left_children":[1,3,5,7,9,11,13,15,17,19,21,23,25,27,29,-1,-1,-1,-1,-1,-1,-1,-1,-1,-1,-1,-1,-1,-1,-1,-1],"loss_changes":[5.0757687E1,8.047764E0,1.4115378E1,3.558651E0,4.42408E0,7.7681646E0,1.6517628E1,4.762587E0,2.1571388E0,4.2960443E0,2.7090607E0,5.012336E0,3.6763701E0,7.158066E0,4.322187E0,0E0,0E0,0E0,0E0,0E0,0E0,0E0,0E0,0E0,0E0,0E0,0E0,0E0,0E0,0E0,0E0],"parents":[2147483647,0,0,1,1,2,2,3,3,4,4,5,5,6,6,7,7,8,8,9,9,10,10,11,11,12,12,13,13,14,14],"right_children":[2,4,6,8,10,12,14,16,18,20,22,24,26,28,30,-1,-1,-1,-1,-1,-1,-1,-1,-1,-1,-1,-1,-1,-1,-1,-1],"split_conditions":[2.2342199E-1,1.9217966E-1,1.7598918E-1,1.3502244E3,2.5E-1,2.589436E-1,1.5089086E3,5.1455643E-2,-1.3615723E-1,4.644869E-2,1.8487206E2,1.5E1,-8.888889E-1,1.8124595E-1,-1.7777778E0,-8.387517E-3,2.032676E-2,-1.37169035E-2,-8.703155E-3,1.0565227E-2,-2.4605722E-3,-9.962531E-3,-7.504821E-4,-7.3351013E-3,8.222832E-3,-9.438068E-3,3.224429E-3,2.2535115E-2,5.421078E-3,1.5598422E-2,4.1476506E-4],"split_indices":[15,10,11,2,26,15,2,17,39,17,3,27,26,11,22,0,0,0,0,0,0,0,0,0,0,0,0,0,0,0,0],"split_type":[0,0,0,0,0,0,0,0,0,0,0,0,0,0,0,0,0,0,0,0,0,0,0,0,0,0,0,0,0,0,0],"sum_hessian":[3.4402742E3,7.579177E2,2.6823564E3,3.8896622E2,3.6895148E2,4.5694092E2,2.2254155E3,1.8126581E1,3.7083966E2,2.1827426E2,1.5067722E2,2.6698944E2,1.8995148E2,9.524008E2,1.2730148E3,1.1706751E1,6.419831E0,1.3179535E2,2.390443E2,2.3791138E1,1.9448311E2,1.1178059E2,3.889662E1,2.4848523E2,1.850422E1,2.1525316E1,1.6842615E2,2.0770042E1,9.316308E2,1.5105485E1,1.2579092E3],"tree_param":{"num_deleted":"0","num_feature":"40","num_nodes":"31","size_leaf_vector":"1"}},{"base_weights":[6.196499E-3,-2.2517288E-1,4.8996985E-1,2.5666524E-2,-3.8038176E-1,6.7701614E-1,1.8955591E-1,2.707566E-1,-6.436682E-2,-2.4974951E-1,-4.8578504E-1,9.609306E-1,5.682082E-1,3.3406198E-1,-8.642565E-3,-1.1302182E-2,9.205084E-3,-5.11033E-4,-6.1371364E-3,-8.3407474E-4,-9.014917E-3,-1.1826605E-2,-1.624315E-2,2.975681E-2,6.38384E-3,2.1616796E-2,1.3813047E-2,1.4361912E-2,6.160343E-3,3.2755162E-3,-4.3502925E-3],"categories":[],"categories_nodes":[],"categories_segments":[],"categories_sizes":[],"default_left":[0,0,1,0,0,0,0,0,0,1,0,0,0,0,0,0,0,0,0,0,0,0,0,0,0,0,0,0,0,0,0],"id":2,"left_children":[1,3,5,7,9,11,13,15,17,19,21,23,25,27,29,-1,-1,-1,-1,-1,-1,-1,-1,-1,-1,-1,-1,-1,-1,-1,-1],"loss_changes":[4.414961E2,1.0390303E2,7.144986E1,2.2582403E1,2.245549E1,2.3179016E1,1.4109777E1,6.6532497E0,4.9629483E0,8.321064E0,4.2115173E0,4.553253E0,8.742935E0,5.1076374E0,3.3993657E0,0E0,0E0,0E0,0E0,0E0,0E0,0E0,0E0,0E0,0E0,0E0,0E0,0E0,0E0,0E0,0E0],"parents":[2147483647,0,0,1,1,2,2,3,3,4,4,5,5,6,6,7,7,8,8,9,9,10,10,11,11,12,12,13,13,14,14],"right_children":[2,4,6,8,10,12,14,16,18,20,22,24,26,28,30,-1,-1,-1,-1,-1,-1,-1,-1,-1,-1,-1,-1,-1,-1,-1,-1],"split_conditions":[3.9813122E-1,4.7393137E-1,2.8353855E-1,3.3287483E-1,5.751378E-1,1.6677484E-1,3.7085918E-1,3E0,2.977934E-1,2.1180555E-1,6.4535034E-1,2.8668258E-1,1.7901471E-1,0E0,4.300613E-1,-1.1302182E-2,9.205084E-3,-5.11033E-4,-6.1371364E-3,-8.3407474E-4,-9.014917E-3,-1.1826605E-2,-1.624315E-2,2.975681E-2,6.38384E-3,2.1616796E-2,1.3813047E-2,1.4361912E-2,6.160343E-3,3.2755162E-3,-4.3502925E-3],"split_indices":[11,14,14,14,9,14,14,27,15,27,14,9,9,26,14,0,0,0,0,0,0,0,0,0,0,0,0,0,0,0,0],"split_type":[0,0,0,0,0,0,0,0,0,0,0,0,0,0,0,0,0,0,0,0,0,0,0,0,0,0,0,0,0,0,0],"sum_hessian":[3.9404111E3,2.6662974E3,1.2741139E3,1.01981006E3,1.6464872E3,7.8367084E2,4.90443E2,2.7290082E2,7.4690924E2,7.3825946E2,9.082278E2,2.1278479E2,5.7088605E2,2.8284808E2,2.0759492E2,1.3407172E1,2.5949365E2,5.600738E2,1.8683543E2,1.3796413E2,6.0029535E2,3.4945145E2,5.5877637E2,2.0370251E2,9.082278E0,2.3181433E2,3.3907172E2,1.306118E2,1.5223628E2,1.11582275E2,9.601265E1],"tree_param":{"num_deleted":"0","num_feature":"40","num_nodes":"31","size_leaf_vector":"1"}},{"base_weights":[-3.7368198E-3,-2.6203564E-1,3.6645788E-1,-9.372847E-3,-4.0019804E-1,5.7736367E-1,1.4489472E-1,3.164972E-1,-6.6932E-2,-5.9814394E-1,-3.183499E-1,3.338087E-1,6.755128E-1,2.4171822E-1,-1.322194E-1,-7.1913283E-3,1.1547963E-2,-5.204562E-3,-7.175456E-5,-2.041772E-2,-1.4985714E-2,-1.14429705E-2,-2.8654856E-3,6.0530645E-3,1.414099E-2,1.4996607E-2,2.1551898E-2,5.8510383E-3,1.3894947E-2,-4.783764E-3,1.9376084E-2],"categories":[],"categories_nodes":[],"categories_segments":[],"categories_sizes":[],"default_left":[0,0,1,0,0,0,0,0,1,0,0,1,0,0,0,0,0,0,0,0,0,0,0,0,0,0,0,0,0,0,0],"id":3,"left_children":[1,3,5,7,9,11,13,15,17,19,21,23,25,27,29,-1,-1,-1,-1,-1,-1,-1,-1,-1,-1,-1,-1,-1,-1,-1,-1],"loss_changes":[4.3088934E2,9.264795E1,8.637387E1,1.7680506E1,2.7418945E1,2.221399E1,2.4368702E1,5.5710974E0,5.5065737E0,3.3828278E0,1.7051361E1,4.828104E0,4.3568726E0,6.7664185E0,5.2045736E0,0E0,0E0,0E0,0E0,0E0,0E0,0E0,0E0,0E0,0E0,0E0,0E0,0E0,0E0,0E0,0E0],"parents":[2147483647,0,0,1,1,2,2,3,3,4,4,5,5,6,6,7,7,8,8,9,9,10,10,11,11,12,12,13,13,14,14],"right_children":[2,4,6,8,10,12,14,16,18,20,22,24,26,28,30,-1,-1,-1,-1,-1,-1,-1,-1,-1,-1,-1,-1,-1,-1,-1,-1],"split_conditions":[4.9001828E-1,3.4535086E-1,1.6636452E-1,2.4900362E-1,2.1790347E-1,6.2158066E-1,2.920695E-1,-9E-1,-1.0410045E-1,1.7076737E-1,6.4282306E-2,6.141156E-1,6.6390294E-1,2.280126E0,5.932348E-1,-7.1913283E-3,1.1547963E-2,-5.204562E-3,-7.175456E-5,-2.041772E-2,-1.4985714E-2,-1.14429705E-2,-2.8654856E-3,6.0530645E-3,1.414099E-2,1.4996607E-2,2.1551898E-2,5.8510383E-3,1.3894947E-2,-4.783764E-3,1.9376084E-2],"split_indices":[7,16,16,15,14,9,16,26,39,14,7,14,14,5,39,0,0,0,0,0,0,0,0,0,0,0,0,0,0,0,0],"split_type":[0,0,0,0,0,0,0,0,0,0,0,0,0,0,0,0,0,0,0,0,0,0,0,0,0,0,0,0,0,0,0],"sum_hessian":[4.502219E3,2.6522373E3,1.8499818E3,9.3835956E2,1.7138778E3,9.461401E2,9.0384174E2,1.3951286E2,7.988467E2,4.9766998E2,1.2162079E3,2.74292E2,6.718481E2,6.6999976E2,2.3384201E2,1.4736408E1,1.2477645E2,3.0006863E2,4.9877805E2,2.6463342E2,2.3303658E2,9.467632E2,2.6944467E2,1.4247021E2,1.3182178E2,1.3682213E2,5.3502594E2,5.5645404E2,1.1354569E2,2.2746889E2,6.3731213E0],"tree_param":{"num_deleted":"0","num_feature":"40","num_nodes":"31","size_leaf_vector":"1"}},{"base_weights":[-7.6401895E-3,-1.1761485E-1,1.2777686E-1,-2.8854734E-1,-4.865312E-2,2.2736552E-1,9.648942E-2,-4.0462443E-1,-1.5424599E-1,-3.994157E-2,-5.6406945E-1,2.0143928E-1,6.370018E-1,1.5824638E-1,3.6323953E-2,-7.967164E-3,-1.3882777E-2,1.8978616E-3,-6.8901856E-3,-3.4420919E-3,1.7705245E-6,-1.8168991E-2,2.3537262E-3,6.6571017E-3,-1.0343889E-2,2.1546187E-3,3.608799E-2,-9.191738E-3,5.2312855E-3,-3.0851022E-3,2.8559787E-3],"categories":[],"categories_nodes":[],"categories_segments":[],"categories_sizes":[],"default_left":[1,0,0,1,0,0,0,0,0,0,0,0,0,0,0,0,0,0,0,0,0,0,0,0,0,0,0,0,0,0,0],"id":4,"left_children":[1,3,5,7,9,11,13,15,17,19,21,23,25,27,29,-1,-1,-1,-1,-1,-1,-1,-1,-1,-1,-1,-1,-1,-1,-1,-1],"loss_changes":[5.12205E1,2.2344057E1,4.7590485E0,8.374165E0,6.037758E0,3.6412811E0,4.359627E0,2.1081924E0,4.228676E0,3.9922054E0,6.922941E-1,4.0441895E0,6.519068E0,4.453168E0,4.923012E0,0E0,0E0,0E0,0E0,0E0,0E0,0E0,0E0,0E0,0E0,0E0,0E0,0E0,0E0,0E0,0E0],"parents":[2147483647,0,0,1,1,2,2,3,3,4,4,5,5,6,6,7,7,8,8,9,9,10,10,11,11,12,12,13,13,14,14],"right_children":[2,4,6,8,10,12,14,16,18,20,22,24,26,28,30,-1,-1,-1,-1,-1,-1,-1,-1,-1,-1,-1,-1,-1,-1,-1,-1],"split_conditions":[2.589436E-1,1.9014348E-1,2.2165089E0,1.8317455E-1,6.869688E-1,2.6E0,1.517223E3,1.4338007E3,-1.0429131E2,2.1933164E-1,2.153919E-1,2.4E0,5.181535E-2,-1.0885221E2,-9.875784E-2,-7.967164E-3,-1.3882777E-2,1.8978616E-3,-6.8901856E-3,-3.4420919E-3,1.7705245E-6,-1.8168991E-2,2.3537262E-3,6.6571017E-3,-1.0343889E-2,2.1546187E-3,3.608799E-2,-9.191738E-3,5.2312855E-3,-3.0851022E-3,2.8559787E-3],"split_indices":[15,10,8,15,11,24,2,2,3,11,34,24,17,3,34,0,0,0,0,0,0,0,0,0,0,0,0,0,0,0,0],"split_type":[0,0,0,0,0,0,0,0,0,0,0,0,0,0,0,0,0,0,0,0,0,0,0,0,0,0,0,0,0,0,0],"sum_hessian":[3.4353433E3,1.8959061E3,1.5394371E3,5.431803E2,1.352726E3,3.6502377E2,1.1744133E3,2.8919897E2,2.539813E2,1.3323613E3,2.0364525E1,3.4610214E2,1.892162E1,5.7793274E2,5.9648065E2,8.8545006E1,2.0065398E2,6.547988E1,1.885014E2,4.6296072E2,8.6940063E2,1.923509E1,1.1294346E0,3.3474866E2,1.13534775E1,1.0594738E1,8.326881E0,1.8182209E1,5.597505E2,1.7688739E2,4.1959326E2],"tree_param":{"num_deleted":"0","num_feature":"40","num_nodes":"31","size_leaf_vector":"1"}},{"base_weights":[-2.2407027E-3,-2.4779382E-1,4.2960414E-1,-3.8415784E-1,2.3934018E-2,2.143924E-1,6.998636E-1,-2.5398842E-1,-4.91386E-1,-3.441058E-2,3.787698E-1,3.525422E-1,5.4893613E-2,9.555372E-1,5.5999494E-1,-5.3273444E-3,-1.1828945E-2,-1.1875714E-2,-1.659519E-2,-2.493445E-3,2.711339E-3,7.0873844E-3,1.7638301E-2,1.5479462E-2,7.883117E-3,1.3904865E-2,-3.3177267E-4,9.142078E-3,2.9677803E-2,1.8188527E-2,2.0196976E-3],"categories":[],"categories_nodes":[],"categories_segments":[],"categories_sizes":[],"default_left":[0,1,0,0,0,0,0,1,0,0,0,0,0,0,0,0,0,0,0,0,0,0,0,0,0,0,0,0,0,0,0],"id":5,"left_children":[1,3,5,7,9,11,13,15,17,19,21,23,25,27,29,-1,-1,-1,-1,-1,-1,-1,-1,-1,-1,-1,-1,-1,-1,-1,-1],"loss_changes":[4.2099063E2,9.379941E1,8.340442E1,2.3274094E1,1.7573627E1,1.7678173E1,2.1712708E1,8.065655E0,5.0038605E0,4.4501963E0,3.2953186E0,6.045063E0,1.0130869E1,4.2792053E0,9.420029E0,0E0,0E0,0E0,0E0,0E0,0E0,0E0,0E0,0E0,0E0,0E0,0E0,0E0,0E0,0E0,0E0],"parents":[2147483647,0,0,1,1,2,2,3,3,4,4,5,5,6,6,7,7,8,8,9,9,10,10,11,11,12,12,13,13,14,14],"right_children":[2,4,6,8,10,12,14,16,18,20,22,24,26,28,30,-1,-1,-1,-1,-1,-1,-1,-1,-1,-1,-1,-1,-1,-1,-1,-1],"split_conditions":[3.7475187E-1,2.608398E-1,5.062982E-1,8.756218E-1,4.236799E-1,3.361741E-1,1.6677484E-1,5.4908824E-1,6.4535034E-1,3.492998E-1,1.0429523E-1,1.2E0,-2.2294404E-1,6.013923E-1,-1.9624387E-1,-5.3273444E-3,-1.1828945E-2,-1.1875714E-2,-1.659519E-2,-2.493445E-3,2.711339E-3,7.0873844E-3,1.7638301E-2,1.5479462E-2,7.883117E-3,1.3904865E-2,-3.3177267E-4,9.142078E-3,2.9677803E-2,1.8188527E-2,2.0196976E-3],"split_indices":[11,16,16,7,16,14,14,14,14,16,39,23,33,16,7,0,0,0,0,0,0,0,0,0,0,0,0,0,0,0,0],"split_type":[0,0,0,0,0,0,0,0,0,0,0,0,0,0,0,0,0,0,0,0,0,0,0,0,0,0,0,0,0,0,0],"sum_hessian":[3.966072E3,2.5289355E3,1.4371364E3,1.68334E3,8.455956E2,8.0204346E2,6.350929E2,7.6337714E2,9.199629E2,7.277413E2,1.1785431E2,4.2848807E2,3.735554E2,2.2045245E2,4.146404E2,4.9716232E2,2.6621478E2,3.6714078E2,5.5282214E2,5.2392444E2,2.038168E2,7.262738E1,4.522693E1,1.4854634E2,2.7994174E2,5.024059E1,3.2331482E2,1.184942E1,2.0860304E2,3.7860693E2,3.6033485E1],"tree_param":{"num_deleted":"0","num_feature":"40","num_nodes":"31","size_leaf_vector":"1"}},{"base_weights":[1.0879446E-2,-2.7775553E-1,3.3907816E-1,-4.004201E-1,-3.025764E-2,4.8237073E-1,-2.6756411E-2,-5.038161E-1,-2.6548308E-1,-8.002095E-2,2.3146565E-1,3.062128E-1,6.186097E-1,-3.351354E-1,3.6114026E-2,-1.9161828E-2,-1.2737139E-2,-1.3574418E-2,-6.425337E-3,-3.2120566E-3,7.7188537E-3,8.987409E-3,-6.648945E-3,1.4886433E-2,7.846937E-3,1.2875029E-2,2.1228611E-2,1.4123374E-4,-1.2683386E-2,-9.854444E-4,8.061209E-3],"categories":[],"categories_nodes":[],"categories_segments":[],"categories_sizes":[],"default_left":[0,1,1,0,0,0,0,1,0,0,0,0,0,0,0,0,0,0,0,0,0,0,0,0,0,0,0,0,0,0,0],"id":6,"left_children":[1,3,5,7,9,11,13,15,17,19,21,23,25,27,29,-1,-1,-1,-1,-1,-1,-1,-1,-1,-1,-1,-1,-1,-1,-1,-1],"loss_changes":[4.2380676E2,7.224431E1,1.09765884E2,2.1936325E1,1.0339157E1,3.572461E1,1.1484083E1,9.066772E0,6.470566E0,6.132438E0,4.048757E0,5.339485E0,1.3663635E1,2.9912472E0,7.922058E0,0E0,0E0,0E0,0E0,0E0,0E0,0E0,0E0,0E0,0E0,0E0,0E0,0E0,0E0,0E0,0E0],"parents":[2147483647,0,0,1,1,2,2,3,3,4,4,5,5,6,6,7,7,8,8,9,9,10,10,11,11,12,12,13,13,14,14],"right_children":[2,4,6,8,10,12,14,16,18,20,22,24,26,28,30,-1,-1,-1,-1,-1,-1,-1,-1,-1,-1,-1,-1,-1,-1,-1,-1],"split_conditions":[4.437672E-1,3.6218837E-1,2.3976018E-1,2.6336822E-1,5.264642E-1,1.07731E0,3.3807996E-1,1.7076737E-1,2.615138E-1,1.3333334E0,1.6003062E0,1.441606E-1,6.4931697E-1,-1.5763123E-1,1.5641597E3,-1.9161828E-2,-1.2737139E-2,-1.3574418E-2,-6.425337E-3,-3.2120566E-3,7.7188537E-3,8.987409E-3,-6.648945E-3,1.4886433E-2,7.846937E-3,1.2875029E-2,2.1228611E-2,1.4123374E-4,-1.2683386E-2,-9.854444E-4,8.061209E-3],"split_indices":[9,14,16,9,14,7,14,14,14,26,6,16,14,34,2,0,0,0,0,0,0,0,0,0,0,0,0,0,0,0,0],"split_type":[0,0,0,0,0,0,0,0,0,0,0,0,0,0,0,0,0,0,0,0,0,0,0,0,0,0,0,0,0,0,0],"sum_hessian":[4.469868E3,2.3784465E3,2.0914216E3,1.5894496E3,7.889968E2,1.5023384E3,5.890833E2,8.968032E2,6.9264636E2,6.6411285E2,1.2488398E2,6.5801526E2,8.443232E2,9.829347E1,4.9078983E2,3.2662152E2,5.701817E2,1.4575575E2,5.468906E2,6.1607794E2,4.803488E1,1.0915257E2,1.5731405E1,1.2135567E2,5.366596E2,2.7361957E2,5.707036E2,2.0540302E1,7.775317E1,3.7987662E2,1.109132E2],"tree_param":{"num_deleted":"0","num_feature":"40","num_nodes":"31","size_leaf_vector":"1"}},{"base_weights":[-2.7703284E-4,-2.4110234E-1,5.8710106E-2,-3.2522592E-1,-5.7411425E-2,-4.7840234E-2,1.2809776E-1,-2.101978E-1,-3.6706853E-1,-1.5544562E-1,1.3356872E-1,-1.5766898E-1,-4.5794183E-3,2.9486796E-1,1.0148451E-1,-8.055124E-3,2.077905E-2,-1.4631855E-2,-8.904334E-3,-9.1027166E-4,-1.1867516E-2,-3.6007464E-3,1.1778409E-2,7.7601974E-3,-5.5975933E-3,-4.850128E-3,1.1072154E-3,4.3923557E-3,1.2615395E-2,4.071309E-3,-1.1989225E-3],"categories":[],"categories_nodes":[],"categories_segments":[],"categories_sizes":[],"default_left":[0,1,0,0,1,0,1,0,0,0,0,0,1,0,0,0,0,0,0,0,0,0,0,0,0,0,0,0,0,0,0],"id":7,"left_children":[1,3,5,7,9,11,13,15,17,19,21,23,25,27,29,-1,-1,-1,-1,-1,-1,-1,-1,-1,-1,-1,-1,-1,-1,-1,-1],"loss_changes":[4.8852036E1,1.0417946E1,2.0434994E1,2.0772324E0,4.066054E0,5.1816645E0,7.3674297E0,7.1283307E0,2.5697975E0,4.2710104E0,4.954748E0,3.807222E0,5.125832E0,4.1530056E0,7.012191E0,0E0,0E0,0E0,0E0,0E0,0E0,0E0,0E0,0E0,0E0,0E0,0E0,0E0,0E0,0E0,0E0],"parents":[2147483647,0,0,1,1,2,2,3,3,4,4,5,5,6,6,7,7,8,8,9,9,10,10,11,11,12,12,13,13,14,14],"right_children":[2,4,6,8,10,12,14,16,18,20,22,24,26,28,30,-1,-1,-1,-1,-1,-1,-1,-1,-1,-1,-1,-1,-1,-1,-1,-1],"split_conditions":[1.9688429E-1,2.2252902E-1,2.627641E-1,1.4338007E3,8E0,4.6876383E-1,-1E0,6.2357E-1,-1.2023665E-1,1.854243E-1,1.25E0,4.5629635E-2,4.8020835E0,-3.6042046E1,1.5688822E3,-8.055124E-3,2.077905E-2,-1.4631855E-2,-8.904334E-3,-9.1027166E-4,-1.1867516E-2,-3.6007464E-3,1.1778409E-2,7.7601974E-3,-5.5975933E-3,-4.850128E-3,1.1072154E-3,4.3923557E-3,1.2615395E-2,4.071309E-3,-1.1989225E-3],"split_indices":[10,15,15,2,28,13,21,13,39,10,24,17,27,3,1,0,0,0,0,0,0,0,0,0,0,0,0,0,0,0,0],"split_type":[0,0,0,0,0,0,0,0,0,0,0,0,0,0,0,0,0,0,0,0,0,0,0,0,0,0,0,0,0,0,0],"sum_hessian":[3.4349363E3,6.7459784E2,2.7603384E3,4.6164203E2,2.1295581E2,1.0888865E3,1.6714519E3,1.2634853E2,3.352935E2,1.409667E2,7.19891E1,3.0620834E2,7.8267816E2,2.2724934E2,1.4442025E3,1.200037E2,6.3448277E0,1.1901429E2,2.1627919E2,9.416362E1,4.680309E1,3.6919678E1,3.506942E1,1.8854736E1,2.873536E2,1.6230533E2,6.203728E2,1.06153854E2,1.210955E2,1.1629008E3,2.813018E2],"tree_param":{"num_deleted":"0","num_feature":"40","num_nodes":"31","size_leaf_vector":"1"}},{"base_weights":[-1.201373E-2,3.690011E-1,-2.5595993E-1,2.0982808E-1,6.951828E-1,-4.0111536E-1,-6.194423E-2,3.2467178E-1,-2.402128E-2,9.132268E-1,5.717575E-1,-2.4650948E-1,-5.0169426E-1,-9.050905E-2,2.4298036E-1,7.145479E-3,1.5527199E-2,4.215374E-3,-4.178408E-3,3.3440705E-2,2.2119239E-2,1.5859067E-2,2.9412549E-2,-8.062098E-3,1.5454289E-2,-1.6428456E-2,-1.2527827E-2,-5.5089424E-4,-4.480905E-3,8.146792E-4,1.8593749E-2],"categories":[],"categories_nodes":[],"categories_segments":[],"categories_sizes":[],"default_left":[0,1,1,0,0,0,0,0,0,0,0,0,1,0,0,0,0,0,0,0,0,0,0,0,0,0,0,0,0,0,0],"id":8,"left_children":[1,3,5,7,9,11,13,15,17,19,21,23,25,27,29,-1,-1,-1,-1,-1,-1,-1,-1,-1,-1,-1,-1,-1,-1,-1,-1],"loss_changes":[3.713765E2,8.068413E1,6.85508E1,2.8242012E1,1.2697723E1,2.1414398E1,9.144785E0,1.1515617E1,6.6390247E0,4.7788544E0,4.8035583E0,9.638523E0,2.794571E0,4.0572543E0,7.2887745E0,0E0,0E0,0E0,0E0,0E0,0E0,0E0,0E0,0E0,0E0,0E0,0E0,0E0,0E0,0E0,0E0],"parents":[2147483647,0,0,1,1,2,2,3,3,4,4,5,5,6,6,7,7,8,8,9,9,10,10,11,11,12,12,13,13,14,14],"right_children":[2,4,6,8,10,12,14,16,18,20,22,24,26,28,30,-1,-1,-1,-1,-1,-1,-1,-1,-1,-1,-1,-1,-1,-1,-1,-1],"split_conditions":[-3.6042046E1,5.062982E-1,2.2032687E-1,3.012001E-2,1.246396E-1,5.719182E-1,3.975103E-1,1.7685318E0,3.5409674E-1,1.3580553E-1,-8.710188E1,4.7863322E-1,1.4016134E-1,-5.0162707E-2,1.1743052E-1,7.145479E-3,1.5527199E-2,4.215374E-3,-4.178408E-3,3.3440705E-2,2.2119239E-2,1.5859067E-2,2.9412549E-2,-8.062098E-3,1.5454289E-2,-1.6428456E-2,-1.2527827E-2,-5.5089424E-4,-4.480905E-3,8.146792E-4,1.8593749E-2],"split_indices":[3,16,16,7,9,9,16,6,14,14,3,11,16,39,39,0,0,0,0,0,0,0,0,0,0,0,0,0,0,0,0],"split_type":[0,0,0,0,0,0,0,0,0,0,0,0,0,0,0,0,0,0,0,0,0,0,0,0,0,0,0,0,0,0,0],"sum_hessian":[3.991535E3,1.5576487E3,2.4338862E3,1.0490234E3,5.0862515E2,1.3910321E3,1.0428541E3,7.030017E2,3.460218E2,1.7921844E2,3.294067E2,5.509836E2,8.400486E2,9.5481506E2,8.80391E1,4.8846393E2,2.1453778E2,1.4236115E2,2.0366064E2,7.856851E1,1.0064993E2,3.0211472E2,2.7291998E1,5.366179E2,1.4365658E1,5.3622925E2,3.0381934E2,4.3014807E2,5.24667E2,5.7340557E1,3.0698542E1],"tree_param":{"num_deleted":"0","num_feature":"40","num_nodes":"31","size_leaf_vector":"1"}},{"base_weights":[9.0760775E-3,-2.5842342E-1,3.3774096E-1,-5.7440795E-2,-4.2672968E-1,5.9024792E-2,4.8244533E-1,-9.691755E-2,2.3443995E-1,-1.7110658E-1,-4.7574008E-1,-2.9168394E-1,1.12546444E-1,5.6361735E-1,2.956098E-1,-5.9230584E-3,-1.1733659E-3,1.3334414E-3,1.4083867E-2,1.1110507E-2,-6.0756E-3,-1.9166395E-2,-1.2834454E-2,4.999174E-3,-1.0987564E-2,2.5597592E-3,9.702233E-3,1.2504649E-2,1.9092938E-2,1.5514236E-2,6.7888615E-3],"categories":[],"categories_nodes":[],"categories_segments":[],"categories_sizes":[],"default_left":[0,0,0,0,0,0,0,0,0,0,0,0,0,0,0,0,0,0,0,0,0,0,0,0,0,0,0,0,0,0,0],"id":9,"left_children":[1,3,5,7,9,11,13,15,17,19,21,23,25,27,29,-1,-1,-1,-1,-1,-1,-1,-1,-1,-1,-1,-1,-1,-1,-1,-1],"loss_changes":[3.9379453E2,8.3481674E1,8.0999756E1,1.3039932E1,1.6670456E1,1.3000748E1,1.97258E1,5.7648506E0,5.9836946E0,3.8799229E0,8.259567E0,3.259406E0,3.3848329E0,9.301483E0,5.981762E0,0E0,0E0,0E0,0E0,0E0,0E0,0E0,0E0,0E0,0E0,0E0,0E0,0E0,0E0,0E0,0E0],"parents":[2147483647,0,0,1,1,2,2,3,3,4,4,5,5,6,6,7,7,8,8,9,9,10,10,11,11,12,12,13,13,14,14],"right_children":[2,4,6,8,10,12,14,16,18,20,22,24,26,28,30,-1,-1,-1,-1,-1,-1,-1,-1,-1,-1,-1,-1,-1,-1,-1,-1],"split_conditions":[3.8599622E-1,3.9537647E-1,5.2446586E-1,5.264642E-1,3.6619914E-1,3.4051543E-1,1.7598918E-1,3.7614793E-1,3.167188E-2,-5.107466E-1,1.7076737E-1,-1.9600436E-1,1.2E0,6.4535034E-1,1.482591E-1,-5.9230584E-3,-1.1733659E-3,1.3334414E-3,1.4083867E-2,1.1110507E-2,-6.0756E-3,-1.9166395E-2,-1.2834454E-2,4.999174E-3,-1.0987564E-2,2.5597592E-3,9.702233E-3,1.2504649E-2,1.9092938E-2,1.5514236E-2,6.7888615E-3],"split_indices":[7,16,14,14,11,14,11,14,33,39,14,34,26,14,16,0,0,0,0,0,0,0,0,0,0,0,0,0,0,0,0],"split_type":[0,0,0,0,0,0,0,0,0,0,0,0,0,0,0,0,0,0,0,0,0,0,0,0,0,0,0,0,0,0,0],"sum_hessian":[4.4751416E3,2.4673772E3,2.0077645E3,1.1257488E3,1.3416284E3,6.8711774E2,1.3206467E3,9.928078E2,1.3294095E2,2.1729059E2,1.1243378E3,8.9798676E1,5.973191E2,9.17848E2,4.027987E2,3.6072025E2,6.320875E2,7.4828156E1,5.81128E1,1.0731869E1,2.0655872E2,2.4969557E2,8.746423E2,1.2220102E1,7.7578575E1,5.3151276E2,6.580632E1,3.087816E2,6.0906647E2,9.291554E1,3.0988315E2],"tree_param":{"num_deleted":"0","num_feature":"40","num_nodes":"31","size_leaf_vector":"1"}},{"base_weights":[4.4760606E-3,-2.111547E-1,7.167599E-2,-2.9191098E-1,-1.0933712E-1,6.6301394E-3,1.7533675E-1,-3.9185792E-1,-2.1662703E-1,-5.892807E-3,-3.030556E-1,-6.2025044E-2,9.6929096E-2,2.8706813E-1,1.14736184E-1,3.9683154E-4,-1.244475E-2,-1.2462047E-2,-4.9231066E-3,-2.7482675E-3,7.0972075E-3,-9.847723E-3,6.1354577E-3,-1.2714397E-3,-1.3559926E-2,2.7075203E-3,2.9479194E-2,1.2078656E-2,3.3184355E-3,3.0535436E-3,3.5583705E-2],"categories":[],"categories_nodes":[],"categories_segments":[],"categories_sizes":[],"default_left":[0,0,0,0,0,1,0,0,0,0,0,0,0,0,0,0,0,0,0,0,0,0,0,0,0,0,0,0,0,0,0],"id":10,"left_children":[1,3,5,7,9,11,13,15,17,19,21,23,25,27,29,-1,-1,-1,-1,-1,-1,-1,-1,-1,-1,-1,-1,-1,-1,-1,-1],"loss_changes":[5.0081528E1,6.688362E0,1.7764091E1,3.2671013E0,7.3393326E0,1.0061916E1,6.812273E0,1.8137074E0,2.6303396E0,5.050296E0,1.7654238E0,7.025655E0,3.9688878E0,7.1673584E0,8.943637E0,0E0,0E0,0E0,0E0,0E0,0E0,0E0,0E0,0E0,0E0,0E0,0E0,0E0,0E0,0E0,0E0],"parents":[2147483647,0,0,1,1,2,2,3,3,4,4,5,5,6,6,7,7,8,8,9,9,10,10,11,11,12,12,13,13,14,14],"right_children":[2,4,6,8,10,12,14,16,18,20,22,24,26,28,30,-1,-1,-1,-1,-1,-1,-1,-1,-1,-1,-1,-1,-1,-1,-1,-1],"split_conditions":[2.2916842E-1,2.0491818E-1,2.720329E-1,-6.6560954E-2,4.4444445E-1,2.6465347E-1,1.4710431E3,4.5966232E-1,1.3571471E-1,1.8864762E0,1.762584E3,2.640473E0,5.5E0,5.7175845E-2,5.557702E-1,3.9683154E-4,-1.244475E-2,-1.2462047E-2,-4.9231066E-3,-2.7482675E-3,7.0972075E-3,-9.847723E-3,6.1354577E-3,-1.2714397E-3,-1.3559926E-2,2.7075203E-3,2.9479194E-2,1.2078656E-2,3.3184355E-3,3.0535436E-3,3.5583705E-2],"split_indices":[15,10,10,39,26,15,2,6,15,5,2,5,37,33,13,0,0,0,0,0,0,0,0,0,0,0,0,0,0,0,0],"split_type":[0,0,0,0,0,0,0,0,0,0,0,0,0,0,0,0,0,0,0,0,0,0,0,0,0,0,0,0,0,0,0],"sum_hessian":[3.4521042E3,8.191942E2,2.6329102E3,4.5476495E2,3.6442926E2,1.6190833E3,1.0138269E3,1.9176611E2,2.6299884E2,2.389125E2,1.25516754E2,9.201275E2,6.9895575E2,3.538842E2,6.599427E2,1.0334685E1,1.8143143E2,5.2081024E1,2.109178E2,1.7743167E2,6.148084E1,1.20252556E2,5.2642035E0,8.781125E2,4.2014984E1,6.9591223E2,3.0435112E0,2.1229536E2,1.415888E2,6.542242E2,5.718543E0],"tree_param":{"num_deleted":"0","num_feature":"40","num_nodes":"31","size_leaf_vector":"1"}},{"base_weights":[3.3757703E-3,3.7464985E-1,-2.5325236E-1,1.1655346E-1,5.722998E-1,-3.9447796E-1,-4.3596163E-2,-2.5957847E-2,2.1157148E-1,8.8269734E-1,4.7498572E-1,-4.8817998E-1,-2.7203146E-1,-9.295167E-2,3.3942097E-1,1.7023413E-2,-1.2877949E-3,4.696935E-3,1.1557442E-2,2.9897194E-2,1.5038505E-2,1.54097695E-2,2.993038E-3,-1.4870252E-2,3.566619E-3,-1.3996767E-2,-6.761961E-3,-3.7267106E-3,1.9392481E-3,1.6560514E-2,4.9312226E-3],"categories":[],"categories_nodes":[],"categories_segments":[],"categories_sizes":[],"default_left":[0,0,1,0,0,0,0,0,0,1,0,0,0,0,0,0,0,0,0,0,0,0,0,0,0,0,0,0,0,0,0],"id":11,"left_children":[1,3,5,7,9,11,13,15,17,19,21,23,25,27,29,-1,-1,-1,-1,-1,-1,-1,-1,-1,-1,-1,-1,-1,-1,-1,-1],"loss_changes":[3.7883148E2,8.276303E1,6.957597E1,9.588022E0,2.6943848E1,1.58489685E1,1.7993498E1,2.9154627E0,3.9353027E0,8.434738E0,1.0121292E1,3.7265778E0,5.353859E0,4.16465E0,3.8637695E0,0E0,0E0,0E0,0E0,0E0,0E0,0E0,0E0,0E0,0E0,0E0,0E0,0E0,0E0,0E0,0E0],"parents":[2147483647,0,0,1,1,2,2,3,3,4,4,5,5,6,6,7,7,8,8,9,9,10,10,11,11,12,12,13,13,14,14],"right_children":[2,4,6,8,10,12,14,16,18,20,22,24,26,28,30,-1,-1,-1,-1,-1,-1,-1,-1,-1,-1,-1,-1,-1,-1,-1,-1],"split_conditions":[4.5756463E-2,4.3154904E-1,2.2914262E-1,3.2269433E-1,1.2156887E-1,1.6895035E-1,4.1836163E-1,4.2897232E-2,1.7685318E0,2.4983272E-1,-3.6042046E1,1.2081444E0,1.540538E-1,3.5579765E-1,2.6210397E-1,1.7023413E-2,-1.2877949E-3,4.696935E-3,1.1557442E-2,2.9897194E-2,1.5038505E-2,1.54097695E-2,2.993038E-3,-1.4870252E-2,3.566619E-3,-1.3996767E-2,-6.761961E-3,-3.7267106E-3,1.9392481E-3,1.6560514E-2,4.9312226E-3],"split_indices":[7,16,16,16,9,11,16,17,6,15,3,6,16,16,15,0,0,0,0,0,0,0,0,0,0,0,0,0,0,0,0],"split_type":[0,0,0,0,0,0,0,0,0,0,0,0,0,0,0,0,0,0,0,0,0,0,0,0,0,0,0,0,0,0,0],"sum_hessian":[3.9720159E3,1.6230154E3,2.3490005E3,7.052548E2,9.1776056E2,1.4025032E3,9.464974E2,2.827021E2,4.2255273E2,2.1520177E2,7.025588E2,7.911234E2,6.113797E2,8.39796E2,1.0670131E2,6.055498E0,2.766466E2,3.2380115E2,9.8751595E1,1.6323906E2,5.196272E1,6.3624384E2,6.631492E1,7.818375E2,9.285914E0,1.14738945E2,4.9664078E2,7.010973E2,1.3869875E2,4.623787E1,6.0463436E1],"tree_param":{"num_deleted":"0","num_feature":"40","num_nodes":"31","size_leaf_vector":"1"}},{"base_weights":[3.276951E-3,-2.6698893E-1,3.1408596E-1,-4.0511155E-1,-3.4316637E-2,7.678296E-2,4.743143E-1,-3.1819752E-1,-5.5147487E-1,2.6941448E-1,-8.1773266E-2,1.4474657E-1,-1.6301969E-1,6.307147E-1,3.619169E-1,-1.0928534E-2,-3.0787487E-3,-1.905235E-2,-1.4415252E-2,-1.3392946E-2,1.0012416E-2,-6.752838E-3,-9.7621285E-4,8.31094E-3,2.9742674E-3,-5.8479174E-3,2.3800801E-2,1.2483287E-2,2.064309E-2,8.7546585E-3,1.5595427E-2],"categories":[],"categories_nodes":[],"categories_segments":[],"categories_sizes":[],"default_left":[0,1,0,1,0,0,0,0,0,0,1,0,0,0,1,0,0,0,0,0,0,0,0,0,0,0,0,0,0,0,0],"id":12,"left_children":[1,3,5,7,9,11,13,15,17,19,21,23,25,27,29,-1,-1,-1,-1,-1,-1,-1,-1,-1,-1,-1,-1,-1,-1,-1,-1],"loss_changes":[3.75759E2,7.686719E1,7.903589E1,1.8746155E1,1.2922672E1,1.3753304E1,2.1369354E1,9.330078E0,2.691986E0,5.8796577E0,5.4487114E0,3.9045143E0,6.0057306E0,5.788162E0,7.7458572E0,0E0,0E0,0E0,0E0,0E0,0E0,0E0,0E0,0E0,0E0,0E0,0E0,0E0,0E0,0E0,0E0],"parents":[2147483647,0,0,1,1,2,2,3,3,4,4,5,5,6,6,7,7,8,8,9,9,10,10,11,11,12,12,13,13,14,14],"right_children":[2,4,6,8,10,12,14,16,18,20,22,24,26,28,30,-1,-1,-1,-1,-1,-1,-1,-1,-1,-1,-1,-1,-1,-1,-1,-1],"split_conditions":[3.5276538E-1,3.4378886E-1,5.4908824E-1,5.062982E-1,2.5118932E-1,3.3095577E-1,1.9014348E-1,6.4282306E-2,1.6677484E-1,-9E-1,1E0,2.585432E-1,6.418408E-1,6.4931697E-1,6.529609E-1,-1.0928534E-2,-3.0787487E-3,-1.905235E-2,-1.4415252E-2,-1.3392946E-2,1.0012416E-2,-6.752838E-3,-9.7621285E-4,8.31094E-3,2.9742674E-3,-5.8479174E-3,2.3800801E-2,1.2483287E-2,2.064309E-2,8.7546585E-3,1.5595427E-2],"split_indices":[7,14,14,16,15,16,10,7,14,26,19,15,39,14,14,0,0,0,0,0,0,0,0,0,0,0,0,0,0,0,0],"split_type":[0,0,0,0,0,0,0,0,0,0,0,0,0,0,0,0,0,0,0,0,0,0,0,0,0,0,0,0,0,0,0],"sum_hessian":[4.469268E3,2.3907012E3,2.078567E3,1.4992251E3,8.9147595E2,8.389763E2,1.2395906E3,9.4462964E2,5.545955E2,1.19202705E2,7.7227325E2,6.54324E2,1.8465233E2,5.1447644E2,7.251142E2,7.771122E2,1.6751744E2,2.4732784E2,3.0726767E2,8.849816E0,1.1035289E2,1.9563055E2,5.766427E2,1.6514308E2,4.8918088E2,1.8023103E2,4.421294E0,1.1203189E2,4.0244458E2,5.061593E2,2.1895488E2],"tree_param":{"num_deleted":"0","num_feature":"40","num_nodes":"31","size_leaf_vector":"1"}},{"base_weights":[-5.5681476E-3,-1.97483E-1,5.3807598E-2,-2.943039E-1,-7.1139395E-2,-4.798748E-2,1.1871715E-1,-1.5632093E-1,-3.454345E-1,-2.91689E-1,-3.1824682E-2,-1.6668126E-2,-1.6608645E-1,1.5267134E-1,-3.380159E-2,-5.605769E-3,2.5234282E-2,-1.076164E-2,4.547957E-3,1.7412597E-2,-1.0566434E-2,1.65225E-2,-1.6390928E-3,4.092046E-3,-1.651918E-3,-6.025205E-3,7.187691E-3,4.226767E-3,1.5610079E-2,5.8215205E-3,-3.602456E-3],"categories":[],"categories_nodes":[],"categories_segments":[],"categories_sizes":[],"default_left":[0,1,0,0,0,0,0,0,0,0,0,0,1,0,0,0,0,0,0,0,0,0,0,0,0,0,0,0,0,0,0],"id":13,"left_children":[1,3,5,7,9,11,13,15,17,19,21,23,25,27,29,-1,-1,-1,-1,-1,-1,-1,-1,-1,-1,-1,-1,-1,-1,-1,-1],"loss_changes":[3.9688778E1,1.0025093E1,1.7588278E1,3.1745872E0,3.1001668E0,3.8308558E0,8.425358E0,4.2574596E0,2.3397636E0,3.2682638E0,4.1468434E0,4.846227E0,3.1582575E0,5.610817E0,5.895566E0,0E0,0E0,0E0,0E0,0E0,0E0,0E0,0E0,0E0,0E0,0E0,0E0,0E0,0E0,0E0,0E0],"parents":[2147483647,0,0,1,1,2,2,3,3,4,4,5,5,6,6,7,7,8,8,9,9,10,10,11,11,12,12,13,13,14,14],"right_children":[2,4,6,8,10,12,14,16,18,20,22,24,26,28,30,-1,-1,-1,-1,-1,-1,-1,-1,-1,-1,-1,-1,-1,-1,-1,-1],"split_conditions":[2.0719826E-1,2.0954159E-1,2.6384372E-1,-1.2628283E-1,-1E0,6.1790633E-1,1.5688822E3,1.3333334E0,6.921862E-1,2.9295674E-1,-2.7059573E-1,1.4652183E3,2E0,2E0,-1.1461842E-1,-5.605769E-3,2.5234282E-2,-1.076164E-2,4.547957E-3,1.7412597E-2,-1.0566434E-2,1.65225E-2,-1.6390928E-3,4.092046E-3,-1.651918E-3,-6.025205E-3,7.187691E-3,4.226767E-3,1.5610079E-2,5.8215205E-3,-3.602456E-3],"split_indices":[10,15,15,34,21,14,1,26,13,13,33,2,35,36,33,0,0,0,0,0,0,0,0,0,0,0,0,0,0,0,0],"split_type":[0,0,0,0,0,0,0,0,0,0,0,0,0,0,0,0,0,0,0,0,0,0,0,0,0,0,0,0,0,0,0],"sum_hessian":[3.4791074E3,8.2095544E2,2.658152E3,4.632751E2,3.576804E2,1.035204E3,1.622948E3,1.2744955E2,3.3582553E2,5.217089E1,3.055095E2,8.200203E2,2.1518369E2,1.3274296E3,2.9551843E2,1.25240555E2,2.208994E0,3.2762396E2,8.201594E0,2.270856E0,4.9900036E1,9.767857E0,2.9574164E2,1.6342024E2,6.566001E2,1.99134E2,1.6049683E1,1.2889026E3,3.8526955E1,8.0481544E1,2.150369E2],"tree_param":{"num_deleted":"0","num_feature":"40","num_nodes":"31","size_leaf_vector":"1"}},{"base_weights":[2.7048392E-3,4.4240934E-1,-2.1014443E-1,1.383399E-1,5.988275E-1,-3.7859628E-1,-2.443553E-2,-3.4579527E-2,2.312506E-1,8.553563E-1,5.074256E-1,-2.2221714E-1,-4.7392768E-1,-8.002973E-2,2.5915244E-1,3.7571106E-3,-4.2444724E-3,2.1337429E-2,6.111301E-3,2.905038E-2,1.5973471E-2,2.0743992E-2,1.3831731E-2,-4.4624E-3,-1.1014883E-2,-1.5634831E-2,-1.1383179E-2,-4.215227E-5,-4.429261E-3,-1.22459E-2,8.734654E-3],"categories":[],"categories_nodes":[],"categories_segments":[],"categories_sizes":[],"default_left":[0,0,1,0,0,0,0,0,0,1,0,0,1,0,0,0,0,0,0,0,0,0,0,0,0,0,0,0,0,0,0],"id":14,"left_children":[1,3,5,7,9,11,13,15,17,19,21,23,25,27,29,-1,-1,-1,-1,-1,-1,-1,-1,-1,-1,-1,-1,-1,-1,-1,-1],"loss_changes":[3.7016208E2,6.1192627E1,8.335244E1,7.098094E0,1.9091583E1,2.0620392E1,2.0059946E1,2.697401E0,3.5042248E0,7.021454E0,4.7602844E0,5.5665817E0,3.4709778E0,5.651264E0,4.692548E0,0E0,0E0,0E0,0E0,0E0,0E0,0E0,0E0,0E0,0E0,0E0,0E0,0E0,0E0,0E0,0E0],"parents":[2147483647,0,0,1,1,2,2,3,3,4,4,5,5,6,6,7,7,8,8,9,9,10,10,11,11,12,12,13,13,14,14],"right_children":[2,4,6,8,10,12,14,16,18,20,22,24,26,28,30,-1,-1,-1,-1,-1,-1,-1,-1,-1,-1,-1,-1,-1,-1,-1,-1],"split_conditions":[-1.8120483E-1,4.3154904E-1,2.2032687E-1,3.2442078E-1,1.2156887E-1,7.942522E-1,4.046354E-1,-5.9107758E-2,3E0,1.8700393E-1,1.7442961E-1,1.0867122E2,1.4609456E-1,4.1544628E-1,3.1486568E-1,3.7571106E-3,-4.2444724E-3,2.1337429E-2,6.111301E-3,2.905038E-2,1.5973471E-2,2.0743992E-2,1.3831731E-2,-4.4624E-3,-1.1014883E-2,-1.5634831E-2,-1.1383179E-2,-4.215227E-5,-4.429261E-3,-1.22459E-2,8.734654E-3],"split_indices":[7,16,16,16,9,7,16,39,28,14,14,3,16,14,9,0,0,0,0,0,0,0,0,0,0,0,0,0,0,0,0],"split_type":[0,0,0,0,0,0,0,0,0,0,0,0,0,0,0,0,0,0,0,0,0,0,0,0,0,0,0,0,0,0,0],"sum_hessian":[3.951126E3,1.2880704E3,2.6630557E3,4.388112E2,8.492592E2,1.3953195E3,1.2677362E3,1.5380843E2,2.8500278E2,2.1871017E2,6.30549E2,5.3097845E2,8.64341E2,1.0611461E3,2.0659006E2,6.150994E1,9.229848E1,1.2770923E1,2.7223184E2,1.5905643E2,5.9653744E1,1.2129321E2,5.0925583E2,3.5505804E2,1.7592041E2,5.702502E2,2.9409082E2,4.915623E2,5.6958386E2,8.37783E0,1.9821222E2],"tree_param":{"num_deleted":"0","num_feature":"40","num_nodes":"31","size_leaf_vector":"1"}},{"base_weights":[-7.601501E-3,-2.5182033E-1,3.2968104E-1,-4.0334308E-1,-4.5430563E-2,1.3165954E-1,5.251392E-1,-4.5725566E-1,-8.7651595E-2,-1.0306302E-1,2.6005602E-1,1.9046304E-1,-2.3940514E-1,6.570514E-1,4.006142E-1,-1.9186478E-2,-1.2234909E-2,1.7452204E-3,-8.21245E-3,-4.0489915E-3,1.05532E-3,4.981572E-3,1.6514927E-2,9.290783E-3,3.7457375E-3,8.463391E-3,-9.267752E-3,2.0280786E-2,1.7103064E-4,1.4635999E-2,8.535473E-3],"categories":[],"categories_nodes":[],"categories_segments":[],"categories_sizes":[],"default_left":[0,1,0,0,0,0,0,0,1,0,0,0,0,1,0,0,0,0,0,0,0,0,0,0,0,0,0,0,0,0,0],"id":15,"left_children":[1,3,5,7,9,11,13,15,17,19,21,23,25,27,29,-1,-1,-1,-1,-1,-1,-1,-1,-1,-1,-1,-1,-1,-1,-1,-1],"loss_changes":[3.682884E2,8.106287E1,7.2541565E1,2.5367172E1,1.942242E1,2.0502613E1,1.4985687E1,1.0980438E1,6.0175514E0,4.0976753E0,4.5998955E0,6.247591E0,4.845885E0,5.621277E0,4.695122E0,0E0,0E0,0E0,0E0,0E0,0E0,0E0,0E0,0E0,0E0,0E0,0E0,0E0,0E0,0E0,0E0],"parents":[2147483647,0,0,1,1,2,2,3,3,4,4,5,5,6,6,7,7,8,8,9,9,10,10,11,11,12,12,13,13,14,14],"right_children":[2,4,6,8,10,12,14,16,18,20,22,24,26,28,30,-1,-1,-1,-1,-1,-1,-1,-1,-1,-1,-1,-1,-1,-1,-1,-1],"split_conditions":[4.5983493E-1,3.361741E-1,6.0777986E-1,7.9017974E-2,5.219197E-1,3.3095577E-1,1.9014348E-1,1.7442961E-1,4.7845036E-2,1.5640437E3,8.895833E0,1.2E0,-2.0962094E-1,2.2581783E-1,1.4973961E-1,-1.9186478E-2,-1.2234909E-2,1.7452204E-3,-8.21245E-3,-4.0489915E-3,1.05532E-3,4.981572E-3,1.6514927E-2,9.290783E-3,3.7457375E-3,8.463391E-3,-9.267752E-3,2.0280786E-2,1.7103064E-4,1.4635999E-2,8.535473E-3],"split_indices":[7,14,14,7,14,16,10,14,17,1,28,20,34,15,16,0,0,0,0,0,0,0,0,0,0,0,0,0,0,0,0],"split_type":[0,0,0,0,0,0,0,0,0,0,0,0,0,0,0,0,0,0,0,0,0,0,0,0,0,0,0,0,0,0,0],"sum_hessian":[4.4670903E3,2.5912966E3,1.8757937E3,1.4931671E3,1.0981295E3,9.334496E2,9.423442E2,1.2745991E3,2.1856796E2,9.249547E2,1.7317474E2,8.065993E2,1.26850266E2,4.5344583E2,4.8889835E2,2.6677676E2,1.0078224E3,1.2331387E2,9.52541E1,7.5155646E2,1.7339828E2,1.3320529E2,3.9969463E1,2.8365247E2,5.2294684E2,1.4201169E1,1.126491E2,4.4053653E2,1.2909303E1,2.754687E2,2.1342967E2],"tree_param":{"num_deleted":"0","num_feature":"40","num_nodes":"31","size_leaf_vector":"1"}},{"base_weights":[1.2308748E-3,-2.172635E-1,6.1337467E-2,-2.9897004E-1,-1.3627106E-1,-1.2288044E-2,1.2746817E-1,-3.3242658E-1,-3.6646973E-2,-4.508241E-2,-3.33081E-1,-1.5503234E-1,4.2009413E-2,3.0732813E-1,9.933299E-2,-1.2661418E-2,-6.9067404E-3,-5.247799E-3,1.056309E-2,-2.8327452E-3,8.15267E-3,6.8397406E-3,-1.1044085E-2,6.3056644E-4,-6.625383E-3,4.085306E-3,-1.1937252E-3,1.2361604E-2,1.0607095E-3,-2.3974138E-3,3.6079297E-3],"categories":[],"categories_nodes":[],"categories_segments":[],"categories_sizes":[],"default_left":[0,0,1,0,0,0,1,0,0,0,0,0,0,0,0,0,0,0,0,0,0,0,0,0,0,0,0,0,0,0,0],"id":16,"left_children":[1,3,5,7,9,11,13,15,17,19,21,23,25,27,29,-1,-1,-1,-1,-1,-1,-1,-1,-1,-1,-1,-1,-1,-1,-1,-1],"loss_changes":[4.529884E1,4.843071E0,1.3173828E1,3.2121315E0,6.7428794E0,9.947983E0,7.1512203E0,2.7990608E0,2.4863427E0,4.1193132E0,2.5119276E0,4.1068764E0,7.1758847E0,5.4347553E0,4.6543064E0,0E0,0E0,0E0,0E0,0E0,0E0,0E0,0E0,0E0,0E0,0E0,0E0,0E0,0E0,0E0,0E0],"parents":[2147483647,0,0,1,1,2,2,3,3,4,4,5,5,6,6,7,7,8,8,9,9,10,10,11,11,12,12,13,13,14,14],"right_children":[2,4,6,8,10,12,14,16,18,20,22,24,26,28,30,-1,-1,-1,-1,-1,-1,-1,-1,-1,-1,-1,-1,-1,-1,-1,-1],"split_conditions":[2.251704E-1,1.9217966E-1,2.6384372E-1,5.7583876E-2,6E-1,1.966213E-1,-1E0,-9.372457E-3,3.3333334E-1,2E0,1.9568017E-1,1.795574E-1,1.5592457E3,4.257483E-1,4.626771E-2,-1.2661418E-2,-6.9067404E-3,-5.247799E-3,1.056309E-2,-2.8327452E-3,8.15267E-3,6.8397406E-3,-1.1044085E-2,6.3056644E-4,-6.625383E-3,4.085306E-3,-1.1937252E-3,1.2361604E-2,1.0607095E-3,-2.3974138E-3,3.6079297E-3],"split_indices":[15,10,15,17,26,11,21,39,26,30,10,16,2,11,17,0,0,0,0,0,0,0,0,0,0,0,0,0,0,0,0],"split_type":[0,0,0,0,0,0,0,0,0,0,0,0,0,0,0,0,0,0,0,0,0,0,0,0,0,0,0,0,0,0,0],"sum_hessian":[3.4452207E3,7.421588E2,2.703062E3,3.6677124E2,3.7538757E2,1.279822E3,1.42324E3,3.2481058E2,4.196065E1,2.582089E2,1.17178696E2,3.5164938E2,9.2817267E2,1.898349E2,1.233405E3,1.6972224E2,1.5508833E2,3.1762632E1,1.0198018E1,2.2463028E2,3.35786E1,6.2433696E0,1.10935326E2,9.605757E1,2.5559183E2,4.3085178E2,4.9732086E2,1.3631519E2,5.351971E1,1.2837996E2,1.1050251E3],"tree_param":{"num_deleted":"0","num_feature":"40","num_nodes":"31","size_leaf_vector":"1"}},{"base_weights":[-7.551874E-3,3.4463102E-1,-2.4974781E-1,9.012281E-2,5.248041E-1,-1.9676322E-2,-3.8208726E-1,-2.1980751E-2,1.8624936E-1,7.899954E-1,4.3884963E-1,-6.614744E-2,3.0281806E-1,-2.5330535E-1,-4.567939E-1,-1.7449753E-3,7.3490175E-3,2.4122985E-3,1.0180619E-2,2.432876E-2,3.8990914E-3,1.46798175E-2,6.5170927E-3,2.5615392E-3,-2.8728617E-3,2.182516E-2,5.692399E-3,-4.092364E-3,-1.1212788E-2,-1.1112158E-2,-1.5405136E-2],"categories":[],"categories_nodes":[],"categories_segments":[],"categories_sizes":[],"default_left":[0,0,0,0,0,0,0,0,0,0,0,0,0,1,0,0,0,0,0,0,0,0,0,0,0,0,0,0,0,0,0],"id":17,"left_children":[1,3,5,7,9,11,13,15,17,19,21,23,25,27,29,-1,-1,-1,-1,-1,-1,-1,-1,-1,-1,-1,-1,-1,-1,-1,-1],"loss_changes":[3.3599155E2,7.350807E1,7.104796E1,7.2036176E0,2.0719177E1,1.28444195E1,1.4022522E1,3.0232656E0,5.7739725E0,2.936203E0,7.773834E0,3.3749137E0,4.908535E0,7.6198845E0,4.2010345E0,0E0,0E0,0E0,0E0,0E0,0E0,0E0,0E0,0E0,0E0,0E0,0E0,0E0,0E0,0E0,0E0],"parents":[2147483647,0,0,1,1,2,2,3,3,4,4,5,5,6,6,7,7,8,8,9,9,10,10,11,11,12,12,13,13,14,14],"right_children":[2,4,6,8,10,12,14,16,18,20,22,24,26,28,30,-1,-1,-1,-1,-1,-1,-1,-1,-1,-1,-1,-1,-1,-1,-1,-1],"split_conditions":[3.012001E-2,4.2890754E-1,4.8432398E-1,3.3233392E-1,1.6677484E-1,4.1836163E-1,7.87658E-1,1E0,4.726461E-2,2.5E0,2.974722E-1,4.7391824E-2,8E-1,4.960972E-2,6.4535034E-1,-1.7449753E-3,7.3490175E-3,2.4122985E-3,1.0180619E-2,2.432876E-2,3.8990914E-3,1.46798175E-2,6.5170927E-3,2.5615392E-3,-2.8728617E-3,2.182516E-2,5.692399E-3,-4.092364E-3,-1.1212788E-2,-1.1112158E-2,-1.5405136E-2],"split_indices":[7,16,14,16,14,16,7,36,34,38,9,17,20,17,14,0,0,0,0,0,0,0,0,0,0,0,0,0,0,0,0],"split_type":[0,0,0,0,0,0,0,0,0,0,0,0,0,0,0,0,0,0,0,0,0,0,0,0,0,0,0,0,0,0,0],"sum_hessian":[3.9350476E3,1.6030983E3,2.3319492E3,6.6571936E2,9.3737885E2,8.5238293E2,1.4795663E3,3.0803226E2,3.576871E2,2.2544447E2,7.119344E2,7.4641504E2,1.05967896E2,5.4641626E2,9.331501E2,2.7263986E2,3.5392414E1,2.1329155E2,1.4439555E2,2.1806119E2,7.383288E0,5.778902E2,1.3404419E2,1.2141129E2,6.250037E2,1.9996088E1,8.59718E1,2.7947174E2,2.6694452E2,3.757796E2,5.573705E2],"tree_param":{"num_deleted":"0","num_feature":"40","num_nodes":"31","size_leaf_vector":"1"}},{"base_weights":[-3.955326E-3,-2.7306905E-1,3.0564174E-1,-2.759067E-2,-3.9120334E-1,1.4364156E-1,5.593679E-1,-9.215689E-2,1.8960714E-1,-5.6493443E-1,-3.1547824E-1,2.6831076E-1,-3.5678703E-2,3.6035898E-1,6.359732E-1,-7.606019E-3,2.0232683E-4,3.661951E-3,1.8176014E-2,-1.9177144E-2,-1.4505792E-2,-1.4142E-2,-7.4674194E-3,5.0365073E-3,1.0539512E-2,-9.584578E-3,9.38969E-4,1.333677E-2,1.5232177E-3,5.894319E-3,1.953663E-2],"categories":[],"categories_nodes":[],"categories_segments":[],"categories_sizes":[],"default_left":[0,0,0,0,0,0,0,1,0,0,0,0,0,0,0,0,0,0,0,0,0,0,0,0,0,0,0,0,0,0,0],"id":18,"left_children":[1,3,5,7,9,11,13,15,17,19,21,23,25,27,29,-1,-1,-1,-1,-1,-1,-1,-1,-1,-1,-1,-1,-1,-1,-1,-1],"loss_changes":[3.7408978E2,6.963542E1,8.566173E1,1.1009058E1,2.0975342E1,2.8567581E1,1.1935028E1,9.652575E0,4.9120717E0,2.343872E0,1.1532677E1,6.1635284E0,1.0008707E1,5.965061E0,3.6601868E0,0E0,0E0,0E0,0E0,0E0,0E0,0E0,0E0,0E0,0E0,0E0,0E0,0E0,0E0,0E0,0E0],"parents":[2147483647,0,0,1,1,2,2,3,3,4,4,5,5,6,6,7,7,8,8,9,9,10,10,11,11,12,12,13,13,14,14],"right_children":[2,4,6,8,10,12,14,16,18,20,22,24,26,28,30,-1,-1,-1,-1,-1,-1,-1,-1,-1,-1,-1,-1,-1,-1,-1,-1],"split_conditions":[4.437672E-1,3.4535086E-1,6.4535034E-1,1.5669719E3,2.1790347E-1,2.499899E-1,6.1730695E-1,-1.0410045E-1,3.2062154E0,1.6677484E-1,2.4672139E-1,5.719182E-1,3.3807996E-1,5E-1,-3.9604977E-1,-7.606019E-3,2.0232683E-4,3.661951E-3,1.8176014E-2,-1.9177144E-2,-1.4505792E-2,-1.4142E-2,-7.4674194E-3,5.0365073E-3,1.0539512E-2,-9.584578E-3,9.38969E-4,1.333677E-2,1.5232177E-3,5.894319E-3,1.953663E-2],"split_indices":[9,16,14,1,14,16,9,39,8,14,10,9,14,37,34,0,0,0,0,0,0,0,0,0,0,0,0,0,0,0,0],"split_type":[0,0,0,0,0,0,0,0,0,0,0,0,0,0,0,0,0,0,0,0,0,0,0,0,0,0,0,0,0,0,0],"sum_hessian":[4.485964E3,2.4000146E3,2.0859495E3,7.805435E2,1.6194712E3,1.2750085E3,8.109408E2,6.025695E2,1.7797397E2,4.8768573E2,1.1317854E3,7.51529E2,5.2347955E2,2.2856702E2,5.823738E2,2.2777757E2,3.7479196E2,1.5535297E2,2.2620996E1,2.4780313E2,2.3988261E2,3.3497275E2,7.968126E2,3.4281332E2,4.0871567E2,9.851172E1,4.2496783E2,1.7900877E2,4.9558247E1,2.0458447E1,5.6191534E2],"tree_param":{"num_deleted":"0","num_feature":"40","num_nodes":"31","size_leaf_vector":"1"}},{"base_weights":[-4.630812E-3,-9.5338725E-2,1.19399056E-1,-2.3130225E-1,-2.634015E-2,-2.2438502E-1,1.2860483E-1,-1.2139024E-1,-2.900494E-1,-2.846401E-1,7.943159E-3,9.585554E-2,-3.6628032E-1,1.9114448E-1,8.625453E-2,-1.7642325E-3,-1.1232493E-2,-8.973232E-3,1.8571295E-2,1.2962364E-2,-9.5182685E-3,8.965497E-3,-1.674825E-4,1.4432012E-2,-1.0634446E-2,-1.2881904E-2,1.1637287E-2,2.2215853E-3,7.740923E-3,3.116886E-3,-4.0386557E-3],"categories":[],"categories_nodes":[],"categories_segments":[],"categories_sizes":[],"default_left":[1,0,0,0,0,0,1,0,0,0,0,0,0,0,0,0,0,0,0,0,0,0,0,0,0,0,0,0,0,0,0],"id":19,"left_children":[1,3,5,7,9,11,13,15,17,19,21,23,25,27,29,-1,-1,-1,-1,-1,-1,-1,-1,-1,-1,-1,-1,-1,-1,-1,-1],"loss_changes":[3.8740627E1,1.8645733E1,4.661209E0,4.2510605E0,1.1707568E1,1.8271194E0,3.722519E0,3.7018673E0,3.9500923E0,3.8975763E0,4.601777E0,2.6754315E0,1.6282408E0,4.432642E0,3.3364935E0,0E0,0E0,0E0,0E0,0E0,0E0,0E0,0E0,0E0,0E0,0E0,0E0,0E0,0E0,0E0,0E0],"parents":[2147483647,0,0,1,1,2,2,3,3,4,4,5,5,6,6,7,7,8,8,9,9,10,10,11,11,12,12,13,13,14,14],"right_children":[2,4,6,8,10,12,14,16,18,20,22,24,26,28,30,-1,-1,-1,-1,-1,-1,-1,-1,-1,-1,-1,-1,-1,-1,-1,-1],"split_conditions":[2.627641E-1,1.6479993E-1,4E-1,6.4535034E-1,1.2156887E-1,2.7226582E-1,-2E-1,2.640473E0,1.4E1,-3.8403675E-1,-1.3333334E0,6.2395835E0,2.2E1,-5.6622066E1,2.5E0,-1.7642325E-3,-1.1232493E-2,-8.973232E-3,1.8571295E-2,1.2962364E-2,-9.5182685E-3,8.965497E-3,-1.674825E-4,1.4432012E-2,-1.0634446E-2,-1.2881904E-2,1.1637287E-2,2.2215853E-3,7.740923E-3,3.116886E-3,-4.0386557E-3],"split_indices":[15,11,23,14,9,15,22,5,32,34,22,27,27,3,23,0,0,0,0,0,0,0,0,0,0,0,0,0,0,0,0],"split_type":[0,0,0,0,0,0,0,0,0,0,0,0,0,0,0,0,0,0,0,0,0,0,0,0,0,0,0,0,0,0,0],"sum_hessian":[3.4394377E3,1.9868438E3,1.4525941E3,6.672686E2,1.3195751E3,3.666362E1,1.4159305E3,2.3455835E2,4.327103E2,1.5290924E2,1.1666658E3,1.1456533E1,2.5207088E1,5.68858E2,8.470726E2,1.9002353E2,4.4534817E1,4.2976996E2,2.940319E0,5.5933223E0,1.4731592E2,4.996037E1,1.1167054E3,6.1011906E0,5.355343E0,2.405526E1,1.1518278E0,2.0834389E2,3.6051407E2,7.854009E2,6.1671715E1],"tree_param":{"num_deleted":"0","num_feature":"40","num_nodes":"31","size_leaf_vector":"1"}},{"base_weights":[-1.0882163E-3,3.5265204E-1,-2.5155824E-1,5.7749593E-1,1.7455038E-1,-4.0228364E-1,-5.599597E-2,7.3570395E-1,3.96814E-1,-1.5405878E-2,2.6889685E-1,-4.7807014E-1,-2.9468784E-1,-1.2380828E-1,1.4542714E-1,1.969887E-2,2.7281025E-2,2.0971002E-2,1.0092684E-2,3.4374546E-3,-2.789724E-3,8.776501E-3,-1.5607466E-3,-3.2214115E-3,-1.461538E-2,-7.116627E-3,-1.3585737E-2,-6.355913E-3,-1.8751969E-3,5.565814E-3,-9.07871E-3],"categories":[],"categories_nodes":[],"categories_segments":[],"categories_sizes":[],"default_left":[0,1,1,0,0,0,0,0,0,0,0,0,1,0,0,0,0,0,0,0,0,0,0,0,0,0,0,0,0,0,0],"id":20,"left_children":[1,3,5,7,9,11,13,15,17,19,21,23,25,27,29,-1,-1,-1,-1,-1,-1,-1,-1,-1,-1,-1,-1,-1,-1,-1,-1],"loss_changes":[3.498516E2,6.53466E1,6.809628E1,2.0072617E1,1.6428797E1,1.0361282E1,1.381153E1,4.0643616E0,5.766041E0,3.1068077E0,4.6782265E0,2.4704132E0,4.73547E0,4.0521755E0,4.6927347E0,0E0,0E0,0E0,0E0,0E0,0E0,0E0,0E0,0E0,0E0,0E0,0E0,0E0,0E0,0E0,0E0],"parents":[2147483647,0,0,1,1,2,2,3,3,4,4,5,5,6,6,7,7,8,8,9,9,10,10,11,11,12,12,13,13,14,14],"right_children":[2,4,6,8,10,12,14,16,18,20,22,24,26,28,30,-1,-1,-1,-1,-1,-1,-1,-1,-1,-1,-1,-1,-1,-1,-1,-1],"split_conditions":[3.012001E-2,2.4329135E-1,2.2032687E-1,-8.296774E-1,3.2941124E-1,1.6895035E-1,3.5579765E-1,7.0545685E-1,1.7076737E-1,-7.136121E-2,1.3333334E0,2.5E-1,6.0777986E-1,7E0,3.043323E-1,1.969887E-2,2.7281025E-2,2.0971002E-2,1.0092684E-2,3.4374546E-3,-2.789724E-3,8.776501E-3,-1.5607466E-3,-3.2214115E-3,-1.461538E-2,-7.116627E-3,-1.3585737E-2,-6.355913E-3,-1.8751969E-3,5.565814E-3,-9.07871E-3],"split_indices":[7,14,16,7,16,11,16,16,14,33,26,19,14,28,15,0,0,0,0,0,0,0,0,0,0,0,0,0,0,0,0],"split_type":[0,0,0,0,0,0,0,0,0,0,0,0,0,0,0,0,0,0,0,0,0,0,0,0,0,0,0,0,0,0,0],"sum_hessian":[3.9446018E3,1.6348615E3,2.3097402E3,7.206253E2,9.142362E2,1.3032072E3,1.006533E3,3.8093176E2,3.3969354E2,3.039466E2,6.102896E2,7.605898E2,5.4261743E2,7.535942E2,2.5293887E2,2.683191E2,1.1261266E2,5.3051987E1,2.8664154E2,1.1325038E2,1.9069621E2,5.685612E2,4.1728355E1,1.8855616E1,7.4173413E2,4.0167795E2,1.4093951E2,3.0728677E2,4.463074E2,2.3323634E2,1.970252E1],"tree_param":{"num_deleted":"0","num_feature":"40","num_nodes":"31","size_leaf_vector":"1"}},{"base_weights":[6.184026E-3,-2.5016806E-1,3.1209806E-1,-3.7143666E-1,-1.9040154E-2,4.1968524E-1,-6.888479E-3,-5.560581E-1,-2.9097447E-1,-6.71338E-2,2.4701168E-1,5.201247E-1,2.4228713E-1,6.485593E-2,-1.6311698E-1,-1.9489728E-2,-1.3650674E-2,-3.7126353E-3,-1.0522932E-2,-2.6761724E-3,7.9073785E-3,2.9058862E-3,1.4163902E-2,1.1911114E-2,1.7762974E-2,1.4542275E-2,5.419757E-3,1.1570877E-3,1.7527549E-2,-7.6256916E-3,2.1093364E-3],"categories":[],"categories_nodes":[],"categories_segments":[],"categories_sizes":[],"default_left":[0,1,1,0,0,0,0,0,0,0,0,0,0,0,0,0,0,0,0,0,0,0,0,0,0,0,0,0,0,0,0],"id":21,"left_children":[1,3,5,7,9,11,13,15,17,19,21,23,25,27,29,-1,-1,-1,-1,-1,-1,-1,-1,-1,-1,-1,-1,-1,-1,-1,-1],"loss_changes":[3.4685907E2,6.743553E1,6.921135E1,2.3121078E1,1.0656333E1,2.661679E1,5.743842E0,3.9183197E0,1.0944832E1,5.190989E0,4.219236E0,8.044312E0,8.02639E0,4.751488E0,3.463685E0,0E0,0E0,0E0,0E0,0E0,0E0,0E0,0E0,0E0,0E0,0E0,0E0,0E0,0E0,0E0,0E0],"parents":[2147483647,0,0,1,1,2,2,3,3,4,4,5,5,6,6,7,7,8,8,9,9,10,10,11,11,12,12,13,13,14,14],"right_children":[2,4,6,8,10,12,14,16,18,20,22,24,26,28,30,-1,-1,-1,-1,-1,-1,-1,-1,-1,-1,-1,-1,-1,-1,-1,-1],"split_conditions":[3.8599622E-1,3.5982776E-1,2.4665432E-1,2.1790347E-1,5.264642E-1,1.6895035E-1,3.3095577E-1,1.6677484E-1,3.6619914E-1,1.4444444E0,1.9976741E-1,6.4535034E-1,1.482591E-1,1.652723E3,1.5927604E3,-1.9489728E-2,-1.3650674E-2,-3.7126353E-3,-1.0522932E-2,-2.6761724E-3,7.9073785E-3,2.9058862E-3,1.4163902E-2,1.1911114E-2,1.7762974E-2,1.4542275E-2,5.419757E-3,1.1570877E-3,1.7527549E-2,-7.6256916E-3,2.1093364E-3],"split_indices":[7,14,16,14,14,11,16,14,11,26,7,14,16,2,2,0,0,0,0,0,0,0,0,0,0,0,0,0,0,0,0],"split_type":[0,0,0,0,0,0,0,0,0,0,0,0,0,0,0,0,0,0,0,0,0,0,0,0,0,0,0,0,0,0,0],"sum_hessian":[4.4190083E3,2.4044631E3,2.0145452E3,1.5762299E3,8.2823315E2,1.5059796E3,5.085655E2,4.7485272E2,1.1013772E3,7.0270245E2,1.2553075E2,9.5909454E2,5.4688513E2,3.4931854E2,1.5924695E2,2.4085988E2,2.3399284E2,2.9169806E2,8.096791E2,6.601071E2,4.259535E1,7.702044E1,4.851031E1,3.5869788E2,6.0039667E2,1.08054054E2,4.3883105E2,3.3453635E2,1.478219E1,1.1442556E2,4.482138E1],"tree_param":{"num_deleted":"0","num_feature":"40","num_nodes":"31","size_leaf_vector":"1"}},{"base_weights":[3.0317757E-4,-8.7274104E-2,1.2430984E-1,-2.1859337E-1,-1.4944398E-2,2.916177E-1,9.705805E-2,-3.5454333E-1,-1.2624757E-1,5.4013985E-3,-2.831327E-1,1.2810433E-1,4.262395E-1,3.19421E-2,1.4474268E-1,-6.206163E-3,-1.2528382E-2,-2.2660295E-4,-5.637407E-3,2.481621E-2,2.0721673E-5,-1.0262749E-2,3.8657726E-3,1.724237E-2,9.5798087E-4,7.753084E-3,2.1603601E-2,3.7849715E-3,-1.6655462E-3,-8.670017E-3,4.7896793E-3],"categories":[],"categories_nodes":[],"categories_segments":[],"categories_sizes":[],"default_left":[1,0,1,1,0,0,0,0,0,0,0,0,0,0,0,0,0,0,0,0,0,0,0,0,0,0,0,0,0,0,0],"id":22,"left_children":[1,3,5,7,9,11,13,15,17,19,21,23,25,27,29,-1,-1,-1,-1,-1,-1,-1,-1,-1,-1,-1,-1,-1,-1,-1,-1],"loss_changes":[3.7362713E1,1.9145292E1,6.436035E0,8.899387E0,7.109339E0,4.259403E0,3.8023014E0,2.514309E0,3.1407008E0,4.6926756E0,2.3197837E0,3.9354234E0,4.953083E0,4.31151E0,4.6723347E0,0E0,0E0,0E0,0E0,0E0,0E0,0E0,0E0,0E0,0E0,0E0,0E0,0E0,0E0,0E0,0E0],"parents":[2147483647,0,0,1,1,2,2,3,3,4,4,5,5,6,6,7,7,8,8,9,9,10,10,11,11,12,12,13,13,14,14],"right_children":[2,4,6,8,10,12,14,16,18,20,22,24,26,28,30,-1,-1,-1,-1,-1,-1,-1,-1,-1,-1,-1,-1,-1,-1,-1,-1],"split_conditions":[2.6384372E-1,2.097465E-1,-1E0,1.7538147E-1,2.6E0,-3.7340897E1,-1E-1,1.4351082E3,1E0,-3.65E0,3.1452837E0,4E-1,6E-1,-7.5E-1,-5.535398E-1,-6.206163E-3,-1.2528382E-2,-2.2660295E-4,-5.637407E-3,2.481621E-2,2.0721673E-5,-1.0262749E-2,3.8657726E-3,1.724237E-2,9.5798087E-4,7.753084E-3,2.1603601E-2,3.7849715E-3,-1.6655462E-3,-8.670017E-3,4.7896793E-3],"split_indices":[15,10,21,15,19,3,26,2,30,38,8,19,25,25,39,0,0,0,0,0,0,0,0,0,0,0,0,0,0,0,0],"split_type":[0,0,0,0,0,0,0,0,0,0,0,0,0,0,0,0,0,0,0,0,0,0,0,0,0,0,0,0,0,0,0],"sum_hessian":[3.4363464E3,2.0143462E3,1.4220004E3,7.13996E2,1.3003502E3,1.964607E2,1.2255397E3,2.8651495E2,4.2748102E2,1.2104784E3,8.9871826E1,9.047354E1,1.0598715E2,5.19489E2,7.060506E2,8.830865E1,1.982063E2,1.469254E2,2.8055563E2,4.9087715E0,1.2055697E3,7.891751E1,1.0954322E1,1.42661295E1,7.620741E1,6.985775E1,3.6129406E1,2.4964926E2,2.6983975E2,2.2247227E1,6.8380334E2],"tree_param":{"num_deleted":"0","num_feature":"40","num_nodes":"31","size_leaf_vector":"1"}},{"base_weights":[7.7648414E-3,-2.3275696E-1,3.524233E-1,-3.7131488E-1,-2.9259937E-2,1.2282271E-1,5.1267636E-1,-2.5529116E-1,-4.5082614E-1,-9.903678E-2,1.613426E-1,-1.4576731E-2,2.0859432E-1,7.5104463E-1,4.328456E-1,-1.3365007E-2,-5.710691E-3,-1.476618E-2,-1.1672673E-2,-1.5453093E-2,-2.6587814E-3,1.787935E-2,2.7143417E-3,9.8614115E-3,-1.8890633E-3,6.9439844E-3,-4.5257933E-3,2.478258E-2,1.3758664E-2,1.4613479E-2,6.537822E-3],"categories":[],"categories_nodes":[],"categories_segments":[],"categories_sizes":[],"default_left":[0,1,0,0,0,0,0,0,1,0,0,0,0,0,0,0,0,0,0,0,0,0,0,0,0,0,0,0,0,0,0],"id":23,"left_children":[1,3,5,7,9,11,13,15,17,19,21,23,25,27,29,-1,-1,-1,-1,-1,-1,-1,-1,-1,-1,-1,-1,-1,-1,-1,-1],"loss_changes":[3.2799658E2,6.568683E1,5.971042E1,1.2558212E1,1.2615579E1,7.9151335E0,1.7563217E1,6.849663E0,1.7116547E0,2.9141345E0,7.7251096E0,4.357319E0,3.4678497E0,4.451889E0,8.205658E0,0E0,0E0,0E0,0E0,0E0,0E0,0E0,0E0,0E0,0E0,0E0,0E0,0E0,0E0,0E0,0E0],"parents":[2147483647,0,0,1,1,2,2,3,3,4,4,5,5,6,6,7,7,8,8,9,9,10,10,11,11,12,12,13,13,14,14],"right_children":[2,4,6,8,10,12,14,16,18,20,22,24,26,28,30,-1,-1,-1,-1,-1,-1,-1,-1,-1,-1,-1,-1,-1,-1,-1,-1],"split_conditions":[3.5343686E-1,2.3270577E-1,4.3154904E-1,5.751378E-1,3.5579765E-1,3.2269433E-1,1.246396E-1,2.3454997E-1,1.3443066E-1,-3E0,8E-1,-2.3877296E-1,1.6273411E3,8.2563514E-1,2.974722E-1,-1.3365007E-2,-5.710691E-3,-1.476618E-2,-1.1672673E-2,-1.5453093E-2,-2.6587814E-3,1.787935E-2,2.7143417E-3,9.8614115E-3,-1.8890633E-3,6.9439844E-3,-4.5257933E-3,2.478258E-2,1.3758664E-2,1.4613479E-2,6.537822E-3],"split_indices":[11,16,16,9,16,16,9,15,16,35,20,33,1,5,9,0,0,0,0,0,0,0,0,0,0,0,0,0,0,0,0],"split_type":[0,0,0,0,0,0,0,0,0,0,0,0,0,0,0,0,0,0,0,0,0,0,0,0,0,0,0,0,0,0,0],"sum_hessian":[3.952655E3,2.3284104E3,1.6242446E3,1.3842482E3,9.4416223E2,6.6911334E2,9.5513135E2,5.663074E2,8.1794086E2,6.918476E2,2.5231464E2,2.577992E2,4.1131412E2,2.354074E2,7.1972394E2,1.4114359E2,4.2516376E2,4.813595E2,3.3658136E2,1.4521888E1,6.7732574E2,3.329362E1,2.1902103E2,3.0419508E1,2.273797E2,3.8737766E2,2.3936472E1,1.8442928E2,5.0978115E1,5.726E2,1.4712398E2],"tree_param":{"num_deleted":"0","num_feature":"40","num_nodes":"31","size_leaf_vector":"1"}},{"base_weights":[6.4487117E-3,-2.7612257E-1,2.6427516E-1,-1.12971306E-1,-4.290703E-1,3.922676E-1,-1.4415262E-2,7.487752E-2,-1.9418302E-1,-3.7197202E-1,-5.3503317E-1,2.3692822E-1,5.0483114E-1,5.7371907E-2,-1.4892378E-1,8.9438574E-4,1.2621943E-2,-6.4059845E-3,4.5304284E-3,-1.4940221E-2,-9.774226E-3,4.5023725E-4,-1.632297E-2,1.2660731E-2,6.037014E-3,1.7522546E-2,1.0766599E-2,-2.9256826E-4,9.15199E-3,-9.828732E-3,-9.566716E-4],"categories":[],"categories_nodes":[],"categories_segments":[],"categories_sizes":[],"default_left":[0,0,1,0,1,0,0,0,0,0,0,0,1,0,0,0,0,0,0,0,0,0,0,0,0,0,0,0,0,0,0],"id":24,"left_children":[1,3,5,7,9,11,13,15,17,19,21,23,25,27,29,-1,-1,-1,-1,-1,-1,-1,-1,-1,-1,-1,-1,-1,-1,-1,-1],"loss_changes":[3.2440417E2,5.2916107E1,8.3062744E1,1.57523155E1,6.2319183E0,2.7660828E1,7.1113563E0,4.8459654E0,4.8745804E0,3.8568878E0,1.9070129E0,4.284443E0,1.0261627E1,7.994591E0,5.337718E0,0E0,0E0,0E0,0E0,0E0,0E0,0E0,0E0,0E0,0E0,0E0,0E0,0E0,0E0,0E0,0E0],"parents":[2147483647,0,0,1,1,2,2,3,3,4,4,5,5,6,6,7,7,8,8,9,9,10,10,11,11,12,12,13,13,14,14],"right_children":[2,4,6,8,10,12,14,16,18,20,22,24,26,28,30,-1,-1,-1,-1,-1,-1,-1,-1,-1,-1,-1,-1,-1,-1,-1,-1],"split_conditions":[2.3043117E-1,4.2890754E-1,2.3827001E-1,2.8468543E-1,5.527E-1,6.010447E-1,3.2797801E-1,1.5834875E3,1.4444444E0,2.3416537E-1,-4E0,1.4609456E-1,1.4016134E-1,1.5641597E3,3.5E0,8.9438574E-4,1.2621943E-2,-6.4059845E-3,4.5304284E-3,-1.4940221E-2,-9.774226E-3,4.5023725E-4,-1.632297E-2,1.2660731E-2,6.037014E-3,1.7522546E-2,1.0766599E-2,-2.9256826E-4,9.15199E-3,-9.828732E-3,-9.566716E-4],"split_indices":[7,16,16,16,16,9,16,2,26,10,35,16,16,2,31,0,0,0,0,0,0,0,0,0,0,0,0,0,0,0,0],"split_type":[0,0,0,0,0,0,0,0,0,0,0,0,0,0,0,0,0,0,0,0,0,0,0,0,0,0,0,0,0,0,0],"sum_hessian":[4.448774E3,2.1224644E3,2.3263096E3,1.0286586E3,1.0938059E3,1.5936078E3,7.3270166E2,3.1053156E2,7.18127E2,7.1665564E2,3.7715024E2,6.7218787E2,9.2142E2,4.7848254E2,2.542191E2,2.766558E2,3.3875767E1,6.807319E2,3.7395123E1,1.8687793E2,5.297777E2,6.094216E0,3.71056E2,1.0517071E2,5.6701715E2,5.932545E2,3.2816547E2,3.779743E2,1.0050825E2,9.918085E1,1.5503825E2],"tree_param":{"num_deleted":"0","num_feature":"40","num_nodes":"31","size_leaf_vector":"1"}},{"base_weights":[-6.347574E-3,-1.8078966E-1,5.6838963E-2,-2.4676646E-1,-6.709107E-2,-2.5816312E-2,1.2130098E-1,-2.9438633E-1,-1.0827558E-1,-4.5313418E-1,-3.620389E-2,-1.3219573E-1,1.902452E-2,1.3271335E-1,-1.7571612E-1,-4.443839E-3,-1.0464358E-2,-6.43226E-3,6.648415E-3,-1.5370699E-2,-1.4406492E-3,-2.374958E-4,-1.3560117E-2,1.0435496E-2,-4.965214E-3,6.114262E-3,-5.0892064E-4,2.926235E-3,6.8232995E-3,-8.952457E-3,1.6200196E-2],"categories":[],"categories_nodes":[],"categories_segments":[],"categories_sizes":[],"default_left":[0,1,0,0,0,1,0,0,0,0,0,0,0,0,1,0,0,0,0,0,0,0,0,0,0,0,0,0,0,0,0],"id":25,"left_children":[1,3,5,7,9,11,13,15,17,19,21,23,25,27,29,-1,-1,-1,-1,-1,-1,-1,-1,-1,-1,-1,-1,-1,-1,-1,-1],"loss_changes":[3.7905342E1,6.8263264E0,1.3457984E1,3.7474098E0,4.003616E0,5.2897468E0,4.8558617E0,3.3105164E0,5.38286E0,5.482969E-1,3.7050636E0,5.3724337E0,5.201375E0,4.511713E0,5.0081067E0,0E0,0E0,0E0,0E0,0E0,0E0,0E0,0E0,0E0,0E0,0E0,0E0,0E0,0E0,0E0,0E0],"parents":[2147483647,0,0,1,1,2,2,3,3,4,4,5,5,6,6,7,7,8,8,9,9,10,10,11,11,12,12,13,13,14,14],"right_children":[2,4,6,8,10,12,14,16,18,20,22,24,26,28,30,-1,-1,-1,-1,-1,-1,-1,-1,-1,-1,-1,-1,-1,-1,-1,-1],"split_conditions":[2.1505037E-1,2.2581783E-1,2.6913372E-1,1.9217966E-1,-1.4E0,-8.020833E-1,9.690204E-1,1.4338007E3,2E0,1.6184238E3,2.3E0,-2.2583798E2,-1.55E0,5E-1,3.2941124E-1,-4.443839E-3,-1.0464358E-2,-6.43226E-3,6.648415E-3,-1.5370699E-2,-1.4406492E-3,-2.374958E-4,-1.3560117E-2,1.0435496E-2,-4.965214E-3,6.114262E-3,-5.0892064E-4,2.926235E-3,6.8232995E-3,-8.952457E-3,1.6200196E-2],"split_indices":[10,15,15,10,21,35,7,2,29,2,38,3,38,26,16,0,0,0,0,0,0,0,0,0,0,0,0,0,0,0,0],"split_type":[0,0,0,0,0,0,0,0,0,0,0,0,0,0,0,0,0,0,0,0,0,0,0,0,0,0,0,0,0,0,0],"sum_hessian":[3.4350752E3,9.1241235E2,2.5226628E3,5.758934E2,3.3651895E2,1.1058741E3,1.4167886E3,4.2686514E2,1.4902826E2,2.2904612E1,3.1361435E2,3.267658E2,7.791084E2,1.3654307E3,5.1357918E1,1.17784706E2,3.090804E2,1.132827E2,3.574556E1,1.9521376E1,3.383236E0,2.9554608E2,1.8068268E1,1.9978203E1,3.0678763E2,1.25483475E2,6.536249E2,9.986883E2,3.6674237E2,4.4837383E1,6.520533E0],"tree_param":{"num_deleted":"0","num_feature":"40","num_nodes":"31","size_leaf_vector":"1"}},{"base_weights":[1.1626032E-2,3.5488173E-1,-2.2402859E-1,1.8973874E-1,5.7271755E-1,-3.5595867E-1,-3.1635463E-2,4.8737243E-2,2.9661137E-1,6.2410766E-1,1.979973E-1,-4.51722E-1,-2.3954111E-1,-1.11749224E-1,1.4096613E-1,5.575788E-3,-2.866276E-3,-9.782632E-4,9.778947E-3,1.7506916E-2,2.721764E-2,1.2120978E-2,-5.750273E-3,-1.2731294E-2,-1.6132131E-2,-4.5936652E-3,-1.0435479E-2,-2.3245935E-3,-7.1481904E-3,2.609025E-3,1.3921996E-2],"categories":[],"categories_nodes":[],"categories_segments":[],"categories_sizes":[],"default_left":[0,0,1,0,0,0,0,0,0,1,0,0,1,0,0,0,0,0,0,0,0,0,0,0,0,0,0,0,0,0,0],"id":26,"left_children":[1,3,5,7,9,11,13,15,17,19,21,23,25,27,29,-1,-1,-1,-1,-1,-1,-1,-1,-1,-1,-1,-1,-1,-1,-1,-1],"loss_changes":[3.1749344E2,5.7258835E1,5.9050896E1,1.3710571E1,1.3000748E1,1.51731415E1,1.315297E1,7.8601685E0,5.0295563E0,5.87558E0,7.051366E0,1.3197784E0,5.764717E0,2.7774715E0,5.1831036E0,0E0,0E0,0E0,0E0,0E0,0E0,0E0,0E0,0E0,0E0,0E0,0E0,0E0,0E0,0E0,0E0],"parents":[2147483647,0,0,1,1,2,2,3,3,4,4,5,5,6,6,7,7,8,8,9,9,10,10,11,11,12,12,13,13,14,14],"right_children":[2,4,6,8,10,12,14,16,18,20,22,24,26,28,30,-1,-1,-1,-1,-1,-1,-1,-1,-1,-1,-1,-1,-1,-1,-1,-1],"split_conditions":[9.0010994E-4,5.062982E-1,2.3270577E-1,3.653802E-1,2.974722E-1,1.6895035E-1,3.4535086E-1,6.305027E-3,3.0389598E-1,7.0545685E-1,2E0,8.64697E-1,5.0269186E-2,8E-1,5.062982E-1,5.575788E-3,-2.866276E-3,-9.782632E-4,9.778947E-3,1.7506916E-2,2.721764E-2,1.2120978E-2,-5.750273E-3,-1.2731294E-2,-1.6132131E-2,-4.5936652E-3,-1.0435479E-2,-2.3245935E-3,-7.1481904E-3,2.609025E-3,1.3921996E-2],"split_indices":[7,16,16,16,9,11,16,39,4,16,29,4,17,26,16,0,0,0,0,0,0,0,0,0,0,0,0,0,0,0,0],"split_type":[0,0,0,0,0,0,0,0,0,0,0,0,0,0,0,0,0,0,0,0,0,0,0,0,0,0,0,0,0,0,0],"sum_hessian":[3.9210466E3,1.5957123E3,2.3253342E3,9.097591E2,6.8595325E2,1.3784126E3,9.469217E2,3.9350446E2,5.1625464E2,6.0205475E2,8.389845E1,7.5313495E2,6.252777E2,6.472179E2,2.997038E2,2.0146106E2,1.9204338E2,4.2243443E1,4.7401117E2,5.319997E2,7.005506E1,5.483261E1,2.9065838E1,5.804651E2,1.7266986E2,3.5046762E2,2.7481006E2,5.1183676E2,1.3538112E2,2.5896262E2,4.074118E1],"tree_param":{"num_deleted":"0","num_feature":"40","num_nodes":"31","size_leaf_vector":"1"}},{"base_weights":[1.2466245E-3,-2.4216907E-1,2.7643433E-1,-3.5760236E-1,-2.0353356E-2,1.0155838E-2,4.083094E-1,-1.4701991E-1,-4.061411E-1,-8.70502E-2,1.3442488E-1,-2.7308214E-1,6.1065372E-2,2.6172358E-1,5.103082E-1,-1.857866E-3,-1.048501E-2,-1.749841E-2,-1.0896835E-2,-2.2211245E-3,-1.9299563E-2,1.4259525E-3,9.242928E-3,1.7225146E-2,-9.370718E-3,-5.5165146E-3,2.7557998E-3,7.296133E-3,2.2316063E-2,1.1382868E-2,1.6998839E-2],"categories":[],"categories_nodes":[],"categories_segments":[],"categories_sizes":[],"default_left":[0,1,0,0,0,0,0,1,0,0,0,0,0,0,0,0,0,0,0,0,0,0,0,0,0,0,0,0,0,0,0],"id":27,"left_children":[1,3,5,7,9,11,13,15,17,19,21,23,25,27,29,-1,-1,-1,-1,-1,-1,-1,-1,-1,-1,-1,-1,-1,-1,-1,-1],"loss_changes":[2.9761987E2,6.0352814E1,7.322279E1,1.5729431E1,8.375862E0,1.0022925E1,2.058516E1,5.014975E0,9.146469E0,4.0064793E0,3.6595988E0,3.883133E0,4.4756722E0,4.7844276E0,5.6164703E0,0E0,0E0,0E0,0E0,0E0,0E0,0E0,0E0,0E0,0E0,0E0,0E0,0E0,0E0,0E0,0E0],"parents":[2147483647,0,0,1,1,2,2,3,3,4,4,5,5,6,6,7,7,8,8,9,9,10,10,11,11,12,12,13,13,14,14],"right_children":[2,4,6,8,10,12,14,16,18,20,22,24,26,28,30,-1,-1,-1,-1,-1,-1,-1,-1,-1,-1,-1,-1,-1,-1,-1,-1],"split_conditions":[4.437672E-1,3.5982776E-1,5.169817E-1,3.6619914E-1,4.726605E-1,3.4625083E-1,6.243191E-1,5.1903747E-2,1.7076737E-1,3E0,1.5794519E3,-5.7257676E-1,4.675212E-2,2.8368932E-1,6.4931697E-1,-1.857866E-3,-1.048501E-2,-1.749841E-2,-1.0896835E-2,-2.2211245E-3,-1.9299563E-2,1.4259525E-3,9.242928E-3,1.7225146E-2,-9.370718E-3,-5.5165146E-3,2.7557998E-3,7.296133E-3,2.2316063E-2,1.1382868E-2,1.6998839E-2],"split_indices":[9,14,14,11,14,14,9,17,14,20,1,39,17,11,14,0,0,0,0,0,0,0,0,0,0,0,0,0,0,0,0],"split_type":[0,0,0,0,0,0,0,0,0,0,0,0,0,0,0,0,0,0,0,0,0,0,0,0,0,0,0,0,0,0,0],"sum_hessian":[4.4390825E3,2.355648E3,2.0834348E3,1.5485536E3,8.0709436E2,6.907817E2,1.3926532E3,2.9158542E2,1.2569681E3,5.646509E2,2.4244348E2,1.03915276E2,5.868664E2,5.7435736E2,8.182958E2,2.0714558E2,8.4439835E1,2.4021494E2,1.01675323E3,5.539584E2,1.0692477E1,1.6329166E2,7.9151825E1,3.3969517E0,1.0051832E2,6.442991E1,5.224365E2,5.560099E2,1.834746E1,2.5084377E2,5.67452E2],"tree_param":{"num_deleted":"0","num_feature":"40","num_nodes":"31","size_leaf_vector":"1"}},{"base_weights":[1.457031E-4,-2.2364517E-1,5.083303E-2,-3.465976E-1,-1.1977205E-1,-8.469162E-2,8.794559E-2,-2.1174283E-1,-4.0323892E-1,-1.8493518E-1,4.112884E-2,-2.3140637E-2,-2.2502513E-1,1.5401289E-1,4.839058E-2,-7.6830285E-3,2.2037266E-2,-1.2444639E-2,7.196481E-3,-3.9159996E-3,-1.08094355E-2,3.8121408E-3,-1.0093817E-2,-2.5830613E-3,4.2431983E-3,4.1485797E-3,-8.008343E-3,5.2757007E-3,-3.572376E-3,8.080449E-4,5.6158635E-3],"categories":[],"categories_nodes":[],"categories_segments":[],"categories_sizes":[],"default_left":[0,1,0,0,0,0,1,0,1,0,0,0,0,0,1,0,0,0,0,0,0,0,0,0,0,0,0,0,0,0,0],"id":28,"left_children":[1,3,5,7,9,11,13,15,17,19,21,23,25,27,29,-1,-1,-1,-1,-1,-1,-1,-1,-1,-1,-1,-1,-1,-1,-1,-1],"loss_changes":[3.8960754E1,8.017584E0,1.4099951E1,2.039814E0,3.6520686E0,5.1983733E0,5.7326775E0,4.1463094E0,1.7006569E0,2.2649155E0,3.3832257E0,4.3910747E0,2.8704042E0,4.949793E0,4.0956984E0,0E0,0E0,0E0,0E0,0E0,0E0,0E0,0E0,0E0,0E0,0E0,0E0,0E0,0E0,0E0,0E0],"parents":[2147483647,0,0,1,1,2,2,3,3,4,4,5,5,6,6,7,7,8,8,9,9,10,10,11,11,12,12,13,13,14,14],"right_children":[2,4,6,8,10,12,14,16,18,20,22,24,26,28,30,-1,-1,-1,-1,-1,-1,-1,-1,-1,-1,-1,-1,-1,-1,-1,-1],"split_conditions":[1.9405308E-1,1.8317455E-1,2.4273266E-1,1.4338007E3,1.8E0,6E-1,-4.5E-1,6.127388E-1,6.40346E-2,1.8411522E-1,6.015857E-1,1.8864762E0,1.4278732E3,5.719544E-1,2.9973736E-1,-7.6830285E-3,2.2037266E-2,-1.2444639E-2,7.196481E-3,-3.9159996E-3,-1.08094355E-2,3.8121408E-3,-1.0093817E-2,-2.5830613E-3,4.2431983E-3,4.1485797E-3,-8.008343E-3,5.2757007E-3,-3.572376E-3,8.080449E-4,5.6158635E-3],"split_indices":[10,15,15,2,24,26,38,13,17,10,13,5,1,11,15,0,0,0,0,0,0,0,0,0,0,0,0,0,0,0,0],"split_type":[0,0,0,0,0,0,0,0,0,0,0,0,0,0,0,0,0,0,0,0,0,0,0,0,0,0,0,0,0,0,0],"sum_hessian":[3.4306702E3,6.322746E2,2.7983955E3,2.8740536E2,3.4486923E2,6.010318E2,2.1973638E3,8.781265E1,1.995927E2,2.4524777E2,9.962146E1,4.1940738E2,1.8162439E2,8.207341E2,1.3766296E3,8.5274216E1,2.5384378E0,1.9675912E2,2.8335848E0,1.8984676E2,5.5401005E1,8.223176E1,1.7389706E1,3.0404614E2,1.1536122E2,1.8312763E1,1.6331163E2,7.6060754E2,6.012657E1,1.1943944E3,1.8223526E2],"tree_param":{"num_deleted":"0","num_feature":"40","num_nodes":"31","size_leaf_vector":"1"}},{"base_weights":[7.613944E-3,3.2602733E-1,-2.2417948E-1,1.0002364E-1,4.8528692E-1,-3.5328314E-1,-3.6092885E-2,-1.0277824E-1,1.4891598E-1,6.908101E-1,3.9848283E-1,-4.4411492E-1,-2.349412E-1,-7.737786E-2,2.7857894E-1,1.2664799E-2,-5.124246E-3,1.8618027E-3,7.886413E-3,2.628899E-2,1.775485E-2,1.3429122E-2,4.3611187E-3,-1.4486521E-2,-1.0154736E-2,-4.1679223E-3,-9.239928E-3,-1.1735016E-3,-6.4877113E-3,4.4783913E-3,1.4831466E-2],"categories":[],"categories_nodes":[],"categories_segments":[],"categories_sizes":[],"default_left":[0,0,1,0,0,0,0,0,0,0,0,1,1,0,0,0,0,0,0,0,0,0,0,0,0,0,0,0,0,0,0],"id":29,"left_children":[1,3,5,7,9,11,13,15,17,19,21,23,25,27,29,-1,-1,-1,-1,-1,-1,-1,-1,-1,-1,-1,-1,-1,-1,-1,-1],"loss_changes":[2.8861807E2,5.91985E1,5.4928635E1,6.8080482E0,1.6681076E1,1.4213959E1,1.2038702E1,4.928115E0,5.4270077E0,4.178589E0,8.377441E0,2.7723694E0,4.030937E0,4.328778E0,2.8528032E0,0E0,0E0,0E0,0E0,0E0,0E0,0E0,0E0,0E0,0E0,0E0,0E0,0E0,0E0,0E0,0E0],"parents":[2147483647,0,0,1,1,2,2,3,3,4,4,5,5,6,6,7,7,8,8,9,9,10,10,11,11,12,12,13,13,14,14],"right_children":[2,4,6,8,10,12,14,16,18,20,22,24,26,28,30,-1,-1,-1,-1,-1,-1,-1,-1,-1,-1,-1,-1,-1,-1,-1,-1],"split_conditions":[4.5756463E-2,4.3154904E-1,2.3063993E-1,2.7427813E-1,-1.1550304E0,1.6895035E-1,4.1836163E-1,-2.4815579E-1,4.4769417E-2,4.4353864E-1,-1.9624387E-1,1.5938804E-1,4.8147723E-2,2E0,1.2903577E0,1.2664799E-2,-5.124246E-3,1.8618027E-3,7.886413E-3,2.628899E-2,1.775485E-2,1.3429122E-2,4.3611187E-3,-1.4486521E-2,-1.0154736E-2,-4.1679223E-3,-9.239928E-3,-1.1735016E-3,-6.4877113E-3,4.4783913E-3,1.4831466E-2],"split_indices":[7,16,16,16,7,11,16,33,34,13,7,16,17,20,6,0,0,0,0,0,0,0,0,0,0,0,0,0,0,0,0],"split_type":[0,0,0,0,0,0,0,0,0,0,0,0,0,0,0,0,0,0,0,0,0,0,0,0,0,0,0,0,0,0,0],"sum_hessian":[3.9065088E3,1.6454078E3,2.261101E3,6.815224E2,9.6388544E2,1.3397397E3,9.213613E2,1.3195952E2,5.4956287E2,2.8208524E2,6.8180023E2,7.5485516E2,5.848845E2,8.158323E2,1.0552908E2,1.3944999E1,1.1801453E2,3.1362698E2,2.3593587E2,9.2686424E1,1.893988E2,5.6963885E2,1.1216134E2,5.4695306E2,2.0790213E2,2.552454E2,3.2963913E2,6.416275E2,1.7420473E2,6.81064E1,3.7422688E1],"tree_param":{"num_deleted":"0","num_feature":"40","num_nodes":"31","size_leaf_vector":"1"}},{"base_weights":[-8.124295E-4,-2.396489E-1,2.660128E-1,-3.6581224E-1,-6.3480765E-2,9.558462E-3,3.9280474E-1,-1.1775112E-1,-4.1097018E-1,-1.0397977E-1,2.1938774E-1,7.8249864E-2,-1.790691E-1,2.3279598E-1,4.8783395E-1,-7.55593E-4,-1.2396856E-2,-1.6567899E-2,-1.0728162E-2,-6.0475105E-3,-1.3886367E-3,8.371067E-3,-5.7761515E-3,1.5088759E-2,1.3895989E-3,-6.293233E-3,2.040216E-2,4.9040355E-3,1.1703019E-2,1.6801413E-2,1.0269992E-2],"categories":[],"categories_nodes":[],"categories_segments":[],"categories_sizes":[],"default_left":[0,1,0,0,0,0,0,0,0,1,0,0,0,1,1,0,0,0,0,0,0,0,0,0,0,0,0,0,0,0,0],"id":30,"left_children":[1,3,5,7,9,11,13,15,17,19,21,23,25,27,29,-1,-1,-1,-1,-1,-1,-1,-1,-1,-1,-1,-1,-1,-1,-1,-1],"loss_changes":[2.828366E2,5.2005234E1,6.815584E1,1.5185104E1,1.1269093E1,9.040671E0,2.1101685E1,5.8022556E0,8.301132E0,4.814768E0,3.138063E0,6.88688E0,5.199762E0,5.614105E0,8.844101E0,0E0,0E0,0E0,0E0,0E0,0E0,0E0,0E0,0E0,0E0,0E0,0E0,0E0,0E0,0E0,0E0],"parents":[2147483647,0,0,1,1,2,2,3,3,4,4,5,5,6,6,7,7,8,8,9,9,10,10,11,11,12,12,13,13,14,14],"right_children":[2,4,6,8,10,12,14,16,18,20,22,24,26,28,30,-1,-1,-1,-1,-1,-1,-1,-1,-1,-1,-1,-1,-1,-1,-1,-1],"split_conditions":[4.437672E-1,3.3118173E-1,5.169817E-1,3.6183992E-1,5.264642E-1,3.3095577E-1,6.06554E-1,7.9618053E0,1.8700393E-1,-1.0759347E-1,1.6003062E0,1.389892E3,5.718724E-1,6.027554E-1,1.4016134E-1,-7.55593E-4,-1.2396856E-2,-1.6567899E-2,-1.0728162E-2,-6.0475105E-3,-1.3886367E-3,8.371067E-3,-5.7761515E-3,1.5088759E-2,1.3895989E-3,-6.293233E-3,2.040216E-2,4.9040355E-3,1.1703019E-2,1.6801413E-2,1.0269992E-2],"split_indices":[9,14,14,11,14,16,9,28,14,39,6,2,39,14,16,0,0,0,0,0,0,0,0,0,0,0,0,0,0,0,0],"split_type":[0,0,0,0,0,0,0,0,0,0,0,0,0,0,0,0,0,0,0,0,0,0,0,0,0,0,0,0,0,0,0],"sum_hessian":[4.434212E3,2.339932E3,2.0942798E3,1.3622205E3,9.7771136E2,6.9357635E2,1.4007035E3,2.1090335E2,1.1513171E3,8.563678E2,1.2134355E2,5.0928378E2,1.8429259E2,5.244842E2,8.7621936E2,1.6224658E2,4.865677E1,3.1050363E2,8.408135E2,3.1628473E2,5.400831E2,1.0655881E2,1.4784739E1,3.354802E1,4.7573575E2,1.7939282E2,4.8997564E0,3.6687262E2,1.576116E2,5.8177954E2,2.9443976E2],"tree_param":{"num_deleted":"0","num_feature":"40","num_nodes":"31","size_leaf_vector":"1"}},{"base_weights":[4.0574064E-3,-1.933557E-1,7.1325034E-2,-2.8714588E-1,-1.3101149E-1,8.7654985E-2,-1.0612177E-1,-3.4890014E-1,-2.7783275E-2,-9.993968E-2,-4.237469E-1,1.2231683E-1,6.689476E-3,-2.2412694E-1,5.094111E-2,-1.2277425E-2,-5.481513E-3,-5.468057E-3,1.1459685E-2,-1.1449622E-2,-2.2087952E-3,-1.5071969E-2,1.1951475E-3,3.3526826E-3,1.3670013E-2,-4.5918836E-4,9.477521E-3,-8.082102E-3,6.028928E-3,-1.7395299E-3,8.24206E-3],"categories":[],"categories_nodes":[],"categories_segments":[],"categories_sizes":[],"default_left":[0,1,1,0,0,0,0,1,0,0,0,0,0,1,1,0,0,0,0,0,0,0,0,0,0,0,0,0,0,0,0],"id":31,"left_children":[1,3,5,7,9,11,13,15,17,19,21,23,25,27,29,-1,-1,-1,-1,-1,-1,-1,-1,-1,-1,-1,-1,-1,-1,-1,-1],"loss_changes":[4.5669296E1,5.0355186E0,7.4510927E0,5.543627E0,4.7244024E0,6.5931664E0,4.0458603E0,2.6620712E0,4.50515E0,3.506383E0,1.8673954E0,5.6904964E0,4.815419E0,2.5008383E0,2.3415413E0,0E0,0E0,0E0,0E0,0E0,0E0,0E0,0E0,0E0,0E0,0E0,0E0,0E0,0E0,0E0,0E0],"parents":[2147483647,0,0,1,1,2,2,3,3,4,4,5,5,6,6,7,7,8,8,9,9,10,10,11,11,12,12,13,13,14,14],"right_children":[2,4,6,8,10,12,14,16,18,20,22,24,26,28,30,-1,-1,-1,-1,-1,-1,-1,-1,-1,-1,-1,-1,-1,-1,-1,-1],"split_conditions":[2.1090151E-1,1.3077182E-1,6.027554E-1,1.9217966E-1,6.925431E-1,1.5894016E3,1.6865656E2,2.0833334E-2,2E0,-2.1E0,2E0,6.676591E-1,4.4241932E1,2E0,1E0,-1.2277425E-2,-5.481513E-3,-5.468057E-3,1.1459685E-2,-1.1449622E-2,-2.2087952E-3,-1.5071969E-2,1.1951475E-3,3.3526826E-3,1.3670013E-2,-4.5918836E-4,9.477521E-3,-8.082102E-3,6.028928E-3,-1.7395299E-3,8.24206E-3],"split_indices":[10,16,14,10,16,2,3,35,29,38,24,13,3,35,35,0,0,0,0,0,0,0,0,0,0,0,0,0,0,0,0],"split_type":[0,0,0,0,0,0,0,0,0,0,0,0,0,0,0,0,0,0,0,0,0,0,0,0,0,0,0,0,0,0,0],"sum_hessian":[3.4350032E3,8.720405E2,2.5629626E3,3.4532477E2,5.2671576E2,2.3479033E3,2.1505923E2,2.7835742E2,6.6967354E1,4.785987E2,4.8117077E1,1.6433524E3,7.045509E2,1.2231045E2,9.274879E1,2.020574E2,7.630002E1,4.9439095E1,1.7528263E1,3.8576973E1,4.4002173E2,4.0994484E1,7.122591E0,1.5954772E3,4.787522E1,6.595382E2,4.5012745E1,1.1119912E2,1.1111326E1,6.3381477E1,2.936731E1],"tree_param":{"num_deleted":"0","num_feature":"40","num_nodes":"31","size_leaf_vector":"1"}},{"base_weights":[-2.2004545E-3,3.0887502E-1,-2.2963329E-1,4.206326E-1,2.8512947E-2,-5.8929797E-2,-3.7112924E-1,6.859252E-1,3.4927273E-1,2.8739056E-1,-1.2780862E-2,-1.0261914E-1,2.3799945E-1,-2.2467417E-1,-4.472453E-1,7.5677577E-3,2.1252442E-2,8.515991E-3,1.4303236E-2,1.4225987E-2,7.3359604E-4,1.4631372E-3,-5.6429286E-3,1.712282E-3,-3.8115517E-3,1.3766835E-3,1.234699E-2,-4.304993E-3,-9.906464E-3,-1.4558804E-2,-1.0124617E-2],"categories":[],"categories_nodes":[],"categories_segments":[],"categories_sizes":[],"default_left":[0,1,0,0,0,0,0,0,0,0,0,0,0,1,1,0,0,0,0,0,0,0,0,0,0,0,0,0,0,0,0],"id":32,"left_children":[1,3,5,7,9,11,13,15,17,19,21,23,25,27,29,-1,-1,-1,-1,-1,-1,-1,-1,-1,-1,-1,-1,-1,-1,-1,-1],"loss_changes":[2.7793808E2,5.1962173E1,5.476967E1,2.1976105E1,5.0853753E0,1.3422298E1,1.3627029E1,2.0745163E0,7.5583496E0,3.1908183E0,4.459876E0,3.526353E0,4.391308E0,3.5740166E0,3.0726929E0,0E0,0E0,0E0,0E0,0E0,0E0,0E0,0E0,0E0,0E0,0E0,0E0,0E0,0E0,0E0,0E0],"parents":[2147483647,0,0,1,1,2,2,3,3,4,4,5,5,6,6,7,7,8,8,9,9,10,10,11,11,12,12,13,13,14,14],"right_children":[2,4,6,8,10,12,14,16,18,20,22,24,26,28,30,-1,-1,-1,-1,-1,-1,-1,-1,-1,-1,-1,-1,-1,-1,-1,-1],"split_conditions":[3.012001E-2,3.361741E-1,5.219197E-1,1.7076737E-1,-2.2774452E-1,4.046354E-1,7.942522E-1,-1.2222222E0,5.622295E-1,2.783935E-1,4.573757E-1,4.710993E-2,1.4718633E3,4.9688034E-2,1.611935E-1,7.5677577E-3,2.1252442E-2,8.515991E-3,1.4303236E-2,1.4225987E-2,7.3359604E-4,1.4631372E-3,-5.6429286E-3,1.712282E-3,-3.8115517E-3,1.3766835E-3,1.234699E-2,-4.304993E-3,-9.906464E-3,-1.4558804E-2,-1.0124617E-2],"split_indices":[7,14,14,14,33,16,7,26,11,15,14,17,1,17,16,0,0,0,0,0,0,0,0,0,0,0,0,0,0,0,0],"split_type":[0,0,0,0,0,0,0,0,0,0,0,0,0,0,0,0,0,0,0,0,0,0,0,0,0,0,0,0,0,0,0],"sum_hessian":[3.9245166E3,1.6571724E3,2.2673442E3,1.1841481E3,4.7302426E2,1.0288965E3,1.2384479E3,2.4735158E2,9.3679645E2,6.343302E1,4.0959122E2,8.980663E2,1.3083017E2,4.2623383E2,8.12214E2,1.3399655E1,2.3395193E2,6.234364E2,3.1336008E2,3.6145676E1,2.7287348E1,3.0422446E2,1.0536678E2,1.18813126E2,7.792532E2,6.329823E1,6.753194E1,2.4359685E2,1.8263696E2,5.98053E2,2.1416101E2],"tree_param":{"num_deleted":"0","num_feature":"40","num_nodes":"31","size_leaf_vector":"1"}},{"base_weights":[-7.171664E-3,-2.463997E-1,2.6348832E-1,-3.5404703E-1,-3.177895E-2,4.4924676E-1,1.10748865E-1,-5.7382816E-1,-3.084846E-1,-7.49853E-2,1.3686424E-1,2.5526002E-1,5.2620196E-1,-1.5899453E-1,1.6931687E-1,-7.825641E-4,-1.7379599E-2,-1.0323286E-2,-3.23626E-3,-5.8419863E-3,-4.2856478E-5,-3.2521738E-3,7.3891114E-3,1.5655883E-4,9.992904E-3,1.4271919E-2,1.8904889E-2,-5.7408656E-3,1.2309798E-2,7.3645688E-3,3.2351376E-3],"categories":[],"categories_nodes":[],"categories_segments":[],"categories_sizes":[],"default_left":[0,1,1,0,0,0,0,0,0,1,0,0,0,0,0,0,0,0,0,0,0,0,0,0,0,0,0,0,0,0,0],"id":33,"left_children":[1,3,5,7,9,11,13,15,17,19,21,23,25,27,29,-1,-1,-1,-1,-1,-1,-1,-1,-1,-1,-1,-1,-1,-1,-1,-1],"loss_changes":[2.8716647E2,5.436711E1,5.8939636E1,1.53437195E1,5.7663894E0,1.37382965E1,1.8136093E1,7.7249146E-1,9.236244E0,5.5401144E0,4.3893566E0,5.2588234E0,2.91539E0,3.9386177E0,4.3552055E0,0E0,0E0,0E0,0E0,0E0,0E0,0E0,0E0,0E0,0E0,0E0,0E0,0E0,0E0,0E0,0E0],"parents":[2147483647,0,0,1,1,2,2,3,3,4,4,5,5,6,6,7,7,8,8,9,9,10,10,11,11,12,12,13,13,14,14],"right_children":[2,4,6,8,10,12,14,16,18,20,22,24,26,28,30,-1,-1,-1,-1,-1,-1,-1,-1,-1,-1,-1,-1,-1,-1,-1,-1],"split_conditions":[4.437672E-1,3.6218837E-1,1.5938804E-1,1.7442961E-1,2.935504E0,6.1033976E-1,3.9094356E-1,2E-1,6.4282306E-2,1.2E0,1.5093943E3,1E0,7.909512E-1,2.6E0,1.7598918E-1,-7.825641E-4,-1.7379599E-2,-1.0323286E-2,-3.23626E-3,-5.8419863E-3,-4.2856478E-5,-3.2521738E-3,7.3891114E-3,1.5655883E-4,9.992904E-3,1.4271919E-2,1.8904889E-2,-5.7408656E-3,1.2309798E-2,7.3645688E-3,3.2351376E-3],"split_indices":[9,14,16,14,8,9,14,20,7,19,1,20,14,20,11,0,0,0,0,0,0,0,0,0,0,0,0,0,0,0,0],"split_type":[0,0,0,0,0,0,0,0,0,0,0,0,0,0,0,0,0,0,0,0,0,0,0,0,0,0,0,0,0,0,0],"sum_hessian":[4.431035E3,2.352188E3,2.0788474E3,1.5656205E3,7.865674E2,9.362805E2,1.1425669E3,2.648525E2,1.3007681E3,6.270325E2,1.595349E2,2.6838245E2,6.678981E2,2.0321263E2,9.3935425E2,2.7432854E0,2.6210922E2,1.103393E3,1.9737508E2,2.373466E2,3.8968588E2,4.9227554E1,1.1030734E2,6.42194E1,2.0416304E2,4.5712402E2,2.1077406E2,1.935372E2,9.675434E0,4.1687946E2,5.224748E2],"tree_param":{"num_deleted":"0","num_feature":"40","num_nodes":"31","size_leaf_vector":"1"}},{"base_weights":[6.558414E-3,-1.749281E-1,6.209817E-2,-2.5818184E-1,-7.361192E-2,-8.214921E-2,9.6481E-2,-2.973623E-1,-5.9901025E-2,-9.1056764E-2,3.0163544E-1,-1.0839993E-1,2.8120276E-1,1.6679582E-1,4.224382E-2,-1.12974765E-2,-4.5340196E-3,-4.4370214E-3,1.257784E-2,-7.0431074E-3,-1.366949E-3,1.751686E-2,-1.3193589E-2,-1.5656727E-3,-9.740716E-3,8.805027E-4,2.0141272E-2,1.1839424E-2,4.2699124E-3,4.363737E-3,1.06452E-4],"categories":[],"categories_nodes":[],"categories_segments":[],"categories_sizes":[],"default_left":[0,1,0,0,1,0,0,1,0,0,0,0,0,0,1,0,0,0,0,0,0,0,0,0,0,0,0,0,0,0,0],"id":34,"left_children":[1,3,5,7,9,11,13,15,17,19,21,23,25,27,29,-1,-1,-1,-1,-1,-1,-1,-1,-1,-1,-1,-1,-1,-1,-1,-1],"loss_changes":[3.501251E1,6.8275356E0,1.320582E1,3.429226E0,2.4766116E0,4.9538517E0,8.179554E0,4.1944237E0,3.3325732E0,2.2997994E0,4.049861E0,5.8001337E0,3.4116776E0,5.0992413E0,4.8539305E0,0E0,0E0,0E0,0E0,0E0,0E0,0E0,0E0,0E0,0E0,0E0,0E0,0E0,0E0,0E0,0E0],"parents":[2147483647,0,0,1,1,2,2,3,3,4,4,5,5,6,6,7,7,8,8,9,9,10,10,11,11,12,12,13,13,14,14],"right_children":[2,4,6,8,10,12,14,16,18,20,22,24,26,28,30,-1,-1,-1,-1,-1,-1,-1,-1,-1,-1,-1,-1,-1,-1,-1,-1],"split_conditions":[2.097465E-1,2.1050178E-1,2.4273266E-1,1.9302319E-1,2E1,6.5369415E-1,1.5E3,5.164344E-2,2.202083E0,1E0,2.6493612E-1,1.5407771E-1,5.2429937E-2,-1.2E0,-8E-1,-1.12974765E-2,-4.5340196E-3,-4.4370214E-3,1.257784E-2,-7.0431074E-3,-1.366949E-3,1.751686E-2,-1.3193589E-2,-1.5656727E-3,-9.740716E-3,8.805027E-4,2.0141272E-2,1.1839424E-2,4.2699124E-3,4.363737E-3,1.06452E-4],"split_indices":[10,15,15,10,28,12,2,17,6,24,15,34,17,21,38,0,0,0,0,0,0,0,0,0,0,0,0,0,0,0,0],"split_type":[0,0,0,0,0,0,0,0,0,0,0,0,0,0,0,0,0,0,0,0,0,0,0,0,0,0,0,0,0,0,0],"sum_hessian":[3.4694053E3,8.119402E2,2.657465E3,4.4399942E2,3.6794077E2,5.1097534E2,2.1464897E3,3.6990625E2,7.409316E1,3.5304288E2,1.4897889E1,4.7785553E2,3.3119812E1,9.32899E2,1.2135907E3,2.3788156E2,1.3202469E2,6.3765156E1,1.0328004E1,8.28835E1,2.701594E2,1.10978565E1,3.8000329E0,3.812553E2,9.660023E1,2.1434504E1,1.1685307E1,8.7522385E1,8.453766E2,3.294133E2,8.841774E2],"tree_param":{"num_deleted":"0","num_feature":"40","num_nodes":"31","size_leaf_vector":"1"}},{"base_weights":[-1.8057958E-3,2.95581E-1,-2.1920799E-1,8.4964335E-2,4.4122323E-1,-3.3192623E-1,1.1369067E-2,1.8717772E-1,-1.8122014E-2,6.5817994E-1,3.6703902E-1,-4.2217472E-1,-2.3748457E-1,-7.56381E-2,1.803563E-1,2.4178703E-3,9.907674E-3,3.3961174E-3,-2.900466E-3,1.432359E-2,2.3284258E-2,8.765837E-3,1.4591798E-2,-1.41983E-2,-1.02105765E-2,-6.0329624E-3,-1.0949767E-2,-2.8021454E-3,8.050496E-3,-2.2268698E-3,7.867912E-3],"categories":[],"categories_nodes":[],"categories_segments":[],"categories_sizes":[],"default_left":[0,0,1,0,0,0,0,0,0,0,0,1,0,0,0,0,0,0,0,0,0,0,0,0,0,0,0,0,0,0,0],"id":35,"left_children":[1,3,5,7,9,11,13,15,17,19,21,23,25,27,29,-1,-1,-1,-1,-1,-1,-1,-1,-1,-1,-1,-1,-1,-1,-1,-1],"loss_changes":[2.5222893E2,5.0463852E1,5.8582268E1,7.129899E0,1.5185959E1,1.2701874E1,1.0935872E1,5.1258945E0,3.5131311E0,4.4936066E0,6.2369156E0,2.9037476E0,3.3062897E0,3.051933E0,5.3095036E0,0E0,0E0,0E0,0E0,0E0,0E0,0E0,0E0,0E0,0E0,0E0,0E0,0E0,0E0,0E0,0E0],"parents":[2147483647,0,0,1,1,2,2,3,3,4,4,5,5,6,6,7,7,8,8,9,9,10,10,11,11,12,12,13,13,14,14],"right_children":[2,4,6,8,10,12,14,16,18,20,22,24,26,28,30,-1,-1,-1,-1,-1,-1,-1,-1,-1,-1,-1,-1,-1,-1,-1,-1],"split_conditions":[3.012001E-2,4.2603573E-1,2.608398E-1,3.7085918E-1,1.7076737E-1,1.6895035E-1,3.5579765E-1,4.248899E-2,-1.0410045E-1,0E0,1.8428752E0,1.4609456E-1,8E-1,1.477126E0,-1.9783203E-1,2.4178703E-3,9.907674E-3,3.3961174E-3,-2.900466E-3,1.432359E-2,2.3284258E-2,8.765837E-3,1.4591798E-2,-1.41983E-2,-1.02105765E-2,-6.0329624E-3,-1.0949767E-2,-2.8021454E-3,8.050496E-3,-2.2268698E-3,7.867912E-3],"split_indices":[7,16,16,14,14,11,16,34,39,25,6,16,25,6,39,0,0,0,0,0,0,0,0,0,0,0,0,0,0,0,0],"split_type":[0,0,0,0,0,0,0,0,0,0,0,0,0,0,0,0,0,0,0,0,0,0,0,0,0,0,0,0,0,0,0],"sum_hessian":[3.897295E3,1.6455753E3,2.2517197E3,6.740223E2,9.7155304E2,1.5117953E3,7.399244E2,3.3762494E2,3.363973E2,2.4354494E2,7.280081E2,7.695102E2,7.422851E2,4.8916876E2,2.5075558E2,1.952818E2,1.4234315E2,1.2558311E2,2.1081421E2,1.00170685E2,1.4337425E2,4.516712E2,2.7633694E2,4.677862E2,3.01724E2,5.8150116E2,1.6078389E2,4.6652975E2,2.2639032E1,6.1083363E1,1.8967223E2],"tree_param":{"num_deleted":"0","num_feature":"40","num_nodes":"31","size_leaf_vector":"1"}},{"base_weights":[7.519233E-6,-2.2959171E-1,2.6029214E-1,-3.5516638E-1,-6.1940547E-2,2.0724233E-2,3.7736097E-1,-1.025062E-1,-4.0345448E-1,5.983452E-2,-1.4128332E-1,-2.2480796E-1,5.6952924E-2,2.8375503E-1,5.100885E-1,-4.4826395E-3,1.1016826E-2,-1.6845448E-2,-1.0676009E-2,-1.7876443E-3,5.2205375E-3,-5.587015E-3,6.486457E-4,4.7167754E-3,-9.584968E-3,5.9703976E-4,7.5693554E-3,1.142465E-2,5.1415153E-3,1.1217591E-2,1.6900077E-2],"categories":[],"categories_nodes":[],"categories_segments":[],"categories_sizes":[],"default_left":[0,1,0,0,0,0,1,0,0,0,0,0,0,0,0,0,0,0,0,0,0,0,0,0,0,0,0,0,0,0,0],"id":36,"left_children":[1,3,5,7,9,11,13,15,17,19,21,23,25,27,29,-1,-1,-1,-1,-1,-1,-1,-1,-1,-1,-1,-1,-1,-1,-1,-1],"loss_changes":[2.6373517E2,4.9320305E1,5.799347E1,1.6268463E1,9.742509E0,6.0839543E0,1.6971146E1,4.9078097E0,8.058411E0,5.4548807E0,4.4754143E0,3.2830195E0,4.297476E0,8.805115E0,3.726593E0,0E0,0E0,0E0,0E0,0E0,0E0,0E0,0E0,0E0,0E0,0E0,0E0,0E0,0E0,0E0,0E0],"parents":[2147483647,0,0,1,1,2,2,3,3,4,4,5,5,6,6,7,7,8,8,9,9,10,10,11,11,12,12,13,13,14,14],"right_children":[2,4,6,8,10,12,14,16,18,20,22,24,26,28,30,-1,-1,-1,-1,-1,-1,-1,-1,-1,-1,-1,-1,-1,-1,-1,-1],"split_conditions":[4.437672E-1,3.2950395E-1,5.169817E-1,3.6183992E-1,2.7958533E-1,3.3807996E-1,6.4535034E-1,4.3707755E-1,1.7442961E-1,1.25E0,1.4082487E0,4.6966407E-2,5.5E0,1.7157054E-1,-1.1950849E-1,-4.4826395E-3,1.1016826E-2,-1.6845448E-2,-1.0676009E-2,-1.7876443E-3,5.2205375E-3,-5.587015E-3,6.486457E-4,4.7167754E-3,-9.584968E-3,5.9703976E-4,7.5693554E-3,1.142465E-2,5.1415153E-3,1.1217591E-2,1.6900077E-2],"split_indices":[9,14,14,11,16,14,14,39,14,19,5,17,31,11,34,0,0,0,0,0,0,0,0,0,0,0,0,0,0,0,0],"split_type":[0,0,0,0,0,0,0,0,0,0,0,0,0,0,0,0,0,0,0,0,0,0,0,0,0,0,0,0,0,0,0],"sum_hessian":[4.409154E3,2.3427927E3,2.066361E3,1.3382073E3,1.0045856E3,6.790721E2,1.3872891E3,2.1572166E2,1.1224856E3,3.965119E2,6.0807367E2,8.597621E1,5.930959E2,8.172208E2,5.700683E2,1.9737268E2,1.8348988E1,2.5474812E2,8.677374E2,1.9427693E2,2.0223499E2,4.76348E2,1.317257E2,1.6814943E1,6.916127E1,5.003951E2,9.270075E1,4.3590588E2,3.8131497E2,1.6476436E2,4.0530392E2],"tree_param":{"num_deleted":"0","num_feature":"40","num_nodes":"31","size_leaf_vector":"1"}},{"base_weights":[2.1774124E-3,-2.0640917E-1,4.8020776E-2,-2.7611047E-1,-4.4626527E-2,-4.4372488E-2,1.0129632E-1,-3.414332E-1,-1.681642E-1,-8.804471E-2,7.0823854E-1,-6.031283E-2,2.6559734E-1,1.261569E-1,-1.3657886E-2,-1.0638606E-2,2.338308E-2,-2.9705658E-3,-1.4140171E-2,2.8060204E-3,-4.7767847E-3,-1.0325073E-2,3.2109275E-2,-9.535567E-4,-6.441537E-3,9.741114E-4,2.0574711E-2,3.480618E-3,1.2698994E-2,-7.938451E-3,1.3119167E-3],"categories":[],"categories_nodes":[],"categories_segments":[],"categories_sizes":[],"default_left":[0,1,0,1,0,0,0,0,0,0,1,0,0,0,0,0,0,0,0,0,0,0,0,0,0,0,0,0,0,0,0],"id":37,"left_children":[1,3,5,7,9,11,13,15,17,19,21,23,25,27,29,-1,-1,-1,-1,-1,-1,-1,-1,-1,-1,-1,-1,-1,-1,-1,-1],"loss_changes":[3.2682903E1,6.9198685E0,1.3801144E1,2.9173965E0,6.264158E0,5.102311E0,5.084137E0,4.4839573E0,3.3877964E0,2.3479838E0,4.723305E0,4.2924814E0,4.9086046E0,4.304901E0,4.6018314E0,0E0,0E0,0E0,0E0,0E0,0E0,0E0,0E0,0E0,0E0,0E0,0E0,0E0,0E0,0E0,0E0],"parents":[2147483647,0,0,1,1,2,2,3,3,4,4,5,5,6,6,7,7,8,8,9,9,10,10,11,11,12,12,13,13,14,14],"right_children":[2,4,6,8,10,12,14,16,18,20,22,24,26,28,30,-1,-1,-1,-1,-1,-1,-1,-1,-1,-1,-1,-1,-1,-1,-1,-1],"split_conditions":[1.9405308E-1,2.2581783E-1,2.6067227E-1,5.164344E-2,6.1790633E-1,6.676591E-1,1.5708792E3,5.138622E-1,1.9046627E-1,1.4622076E3,3.7604167E0,2.2E0,1.8201337E0,2.5E0,-5.2943527E1,-1.0638606E-2,2.338308E-2,-2.9705658E-3,-1.4140171E-2,2.8060204E-3,-4.7767847E-3,-1.0325073E-2,3.2109275E-2,-9.535567E-4,-6.441537E-3,9.741114E-4,2.0574711E-2,3.480618E-3,1.2698994E-2,-7.938451E-3,1.3119167E-3],"split_indices":[10,15,15,17,14,13,1,33,33,1,27,19,5,37,3,0,0,0,0,0,0,0,0,0,0,0,0,0,0,0,0],"split_type":[0,0,0,0,0,0,0,0,0,0,0,0,0,0,0,0,0,0,0,0,0,0,0,0,0,0,0,0,0,0,0],"sum_hessian":[3.4138145E3,6.1384125E2,2.7999731E3,4.2802194E2,1.8581932E2,1.0241581E3,1.7758151E3,2.6396185E2,1.640601E2,1.7735713E2,8.462185E0,9.755983E2,4.8559753E1,1.4598956E3,3.159194E2,2.622438E2,1.7180493E0,1.357522E2,2.8307905E1,4.976984E1,1.2758729E2,2.1914167E0,6.2707686E0,8.254934E2,1.5010498E2,3.2618618E1,1.5941135E1,1.4144269E3,4.5468784E1,5.7453945E1,2.5846545E2],"tree_param":{"num_deleted":"0","num_feature":"40","num_nodes":"31","size_leaf_vector":"1"}},{"base_weights":[-7.3594805E-3,2.7813366E-1,-2.1975586E-1,1.5866481E-1,5.3430694E-1,-3.2771346E-1,9.409895E-4,-6.679403E-2,2.387444E-1,6.5973777E-1,4.272134E-1,-2.1595053E-1,-4.1845536E-1,5.4451875E-2,-1.6234168E-1,1.2079725E-2,-2.8806042E-3,2.073054E-2,6.3434797E-3,4.834177E-3,2.0506877E-2,1.841295E-2,1.1026878E-2,-4.558233E-3,-9.199131E-3,-1.40187275E-2,-9.401007E-3,5.5484273E-3,-4.969023E-4,-5.8805197E-3,7.3533976E-3],"categories":[],"categories_nodes":[],"categories_segments":[],"categories_sizes":[],"default_left":[0,1,1,0,0,0,0,0,0,0,0,1,1,0,1,0,0,0,0,0,0,0,0,0,0,0,0,0,0,0,0],"id":38,"left_children":[1,3,5,7,9,11,13,15,17,19,21,23,25,27,29,-1,-1,-1,-1,-1,-1,-1,-1,-1,-1,-1,-1,-1,-1,-1,-1],"loss_changes":[2.375514E2,5.0977814E1,5.352101E1,2.066032E1,6.5646973E0,1.5117233E1,6.482227E0,4.2073774E0,1.01210785E1,2.639412E0,2.7974396E0,3.8544617E0,3.968689E0,5.1841426E0,2.60879E0,0E0,0E0,0E0,0E0,0E0,0E0,0E0,0E0,0E0,0E0,0E0,0E0,0E0,0E0,0E0,0E0],"parents":[2147483647,0,0,1,1,2,2,3,3,4,4,5,5,6,6,7,7,8,8,9,9,10,10,11,11,12,12,13,13,14,14],"right_children":[2,4,6,8,10,12,14,16,18,20,22,24,26,28,30,-1,-1,-1,-1,-1,-1,-1,-1,-1,-1,-1,-1,-1,-1,-1,-1],"split_conditions":[3.012001E-2,5.0080097E-1,2.608398E-1,3.2941124E-1,1.6677484E-1,8.756218E-1,2.9476285E-1,1.3971302E3,1.9014348E-1,-3.305544E-1,4.335471E-1,5.10115E-2,1.611935E-1,3.5982776E-1,2.6E0,1.2079725E-2,-2.8806042E-3,2.073054E-2,6.3434797E-3,4.834177E-3,2.0506877E-2,1.841295E-2,1.1026878E-2,-4.558233E-3,-9.199131E-3,-1.40187275E-2,-9.401007E-3,5.5484273E-3,-4.969023E-4,-5.8805197E-3,7.3533976E-3],"split_indices":[7,16,16,16,14,7,15,1,10,34,13,17,16,14,20,0,0,0,0,0,0,0,0,0,0,0,0,0,0,0,0],"split_type":[0,0,0,0,0,0,0,0,0,0,0,0,0,0,0,0,0,0,0,0,0,0,0,0,0,0,0,0,0,0,0],"sum_hessian":[3.9135364E3,1.6692246E3,2.2443115E3,1.1405548E3,5.2866986E2,1.5064408E3,7.3787085E2,2.9901877E2,8.415361E2,2.3873557E2,2.899343E2,6.780613E2,8.283795E2,5.5674713E2,1.8112375E2,1.6026972E1,2.829918E2,4.5128735E1,7.964073E2,1.159552E1,2.2714005E2,6.574505E1,2.2418924E2,4.0063403E2,2.7742722E2,5.608527E2,2.6752682E2,1.9507468E2,3.6167245E2,1.6825548E2,1.2868257E1],"tree_param":{"num_deleted":"0","num_feature":"40","num_nodes":"31","size_leaf_vector":"1"}},{"base_weights":[-5.2282605E-3,2.5539142E-1,-2.2093774E-1,3.559554E-1,-1.5124461E-2,-2.2968194E-2,-3.1925198E-1,4.445357E-1,1.7414284E-1,6.269123E-2,-2.2146478E-1,2.1815751E-1,-6.8199135E-2,-3.9253792E-1,-1.662306E-1,1.5329888E-2,1.061592E-2,-3.6136124E-3,6.5423017E-3,9.850182E-5,9.379039E-3,7.115242E-3,-9.096375E-3,-6.90241E-3,8.305736E-3,-5.667609E-3,2.0501897E-4,-9.670451E-3,-1.4419761E-2,-2.957195E-3,-9.962828E-3],"categories":[],"categories_nodes":[],"categories_segments":[],"categories_sizes":[],"default_left":[0,1,0,0,0,0,0,1,0,0,0,0,1,0,1,0,0,0,0,0,0,0,0,0,0,0,0,0,0,0,0],"id":39,"left_children":[1,3,5,7,9,11,13,15,17,19,21,23,25,27,29,-1,-1,-1,-1,-1,-1,-1,-1,-1,-1,-1,-1,-1,-1,-1,-1],"loss_changes":[2.484137E2,5.4448563E1,4.704071E1,2.3340195E1,8.766032E0,8.802737E0,1.7983566E1,5.5418396E0,6.2807264E0,5.889045E0,5.7480493E0,3.4830046E0,6.1517525E0,6.436371E0,5.843378E0,0E0,0E0,0E0,0E0,0E0,0E0,0E0,0E0,0E0,0E0,0E0,0E0,0E0,0E0,0E0,0E0],"parents":[2147483647,0,0,1,1,2,2,3,3,4,4,5,5,6,6,7,7,8,8,9,9,10,10,11,11,12,12,13,13,14,14],"right_children":[2,4,6,8,10,12,14,16,18,20,22,24,26,28,30,-1,-1,-1,-1,-1,-1,-1,-1,-1,-1,-1,-1,-1,-1,-1,-1],"split_conditions":[2.70675E-1,2.3827001E-1,3.4535086E-1,1.7598918E-1,3.3095577E-1,2.4900362E-1,3.0652046E-1,1.3443066E-1,1.8736318E-1,1.5641597E3,4.6381444E-1,-8.888889E-1,-1.1039578E-1,5.527E-1,4.3154904E-1,1.5329888E-2,1.061592E-2,-3.6136124E-3,6.5423017E-3,9.850182E-5,9.379039E-3,7.115242E-3,-9.096375E-3,-6.90241E-3,8.305736E-3,-5.667609E-3,2.0501897E-4,-9.670451E-3,-1.4419761E-2,-2.957195E-3,-9.962828E-3],"split_indices":[11,16,16,11,16,15,9,16,11,2,9,26,39,16,16,0,0,0,0,0,0,0,0,0,0,0,0,0,0,0,0],"split_type":[0,0,0,0,0,0,0,0,0,0,0,0,0,0,0,0,0,0,0,0,0,0,0,0,0,0,0,0,0,0,0],"sum_hessian":[4.4147393E3,1.9990835E3,2.4156558E3,1.4568641E3,5.422193E2,8.023925E2,1.6132632E3,9.776543E2,4.7920987E2,3.9474442E2,1.4747487E2,1.2553269E2,6.7685986E2,1.0887173E3,5.2454584E2,5.5879626E2,4.18858E2,6.1738945E1,4.1747095E2,3.2057483E2,7.41696E1,2.173419E1,1.2574068E2,1.3859786E1,1.11672905E2,2.582785E2,4.1858133E2,6.112018E2,4.7751553E2,3.7483542E2,1.4971045E2],"tree_param":{"num_deleted":"0","num_feature":"40","num_nodes":"31","size_leaf_vector":"1"}},{"base_weights":[1.0949703E-2,-1.5607387E-1,6.974032E-2,-6.264993E-2,-2.7826127E-1,9.913377E-2,-2.4450857E-2,-3.4056388E-2,-3.5364577E-1,-3.1346074E-1,-7.1922675E-2,8.878278E-2,4.9069744E-1,-2.5388372E-1,1.6057698E-2,2.4265435E-3,-2.7648401E-3,-1.5146055E-2,-9.1705006E-4,-1.0270946E-2,-1.8153709E-3,1.7915782E-2,-5.202643E-3,3.031442E-4,3.488207E-3,-7.876583E-3,1.974507E-2,-9.945916E-3,2.2298142E-3,-5.678349E-4,1.2128005E-2],"categories":[],"categories_nodes":[],"categories_segments":[],"categories_sizes":[],"default_left":[0,0,0,0,0,0,0,0,0,0,0,0,0,0,1,0,0,0,0,0,0,0,0,0,0,0,0,0,0,0,0],"id":40,"left_children":[1,3,5,7,9,11,13,15,17,19,21,23,25,27,29,-1,-1,-1,-1,-1,-1,-1,-1,-1,-1,-1,-1,-1,-1,-1,-1],"loss_changes":[3.4005177E1,1.0257622E1,7.0957737E0,4.2489195E0,2.788206E0,7.826212E0,5.684554E0,3.152618E0,2.2035236E0,2.3906898E0,4.2442985E0,4.1171255E0,6.6330166E0,2.3880553E0,7.091205E0,0E0,0E0,0E0,0E0,0E0,0E0,0E0,0E0,0E0,0E0,0E0,0E0,0E0,0E0,0E0,0E0],"parents":[2147483647,0,0,1,1,2,2,3,3,4,4,5,5,6,6,7,7,8,8,9,9,10,10,11,11,12,12,13,13,14,14],"right_children":[2,4,6,8,10,12,14,16,18,20,22,24,26,28,30,-1,-1,-1,-1,-1,-1,-1,-1,-1,-1,-1,-1,-1,-1,-1,-1],"split_conditions":[2.1505037E-1,6.4535034E-1,1.5688822E3,7.0545685E-1,5.94504E-1,2.5E0,-5.2943527E1,1E0,2.0419152E-2,1.8854166E0,4.8818126E-2,-4.4617012E-1,4.0480182E-1,1.6528271E3,2E0,2.4265435E-3,-2.7648401E-3,-1.5146055E-2,-9.1705006E-4,-1.0270946E-2,-1.8153709E-3,1.7915782E-2,-5.202643E-3,3.031442E-4,3.488207E-3,-7.876583E-3,1.974507E-2,-9.945916E-3,2.2298142E-3,-5.678349E-4,1.2128005E-2],"split_indices":[10,14,1,16,13,37,3,30,39,35,17,7,13,1,35,0,0,0,0,0,0,0,0,0,0,0,0,0,0,0,0],"split_type":[0,0,0,0,0,0,0,0,0,0,0,0,0,0,0,0,0,0,0,0,0,0,0,0,0,0,0,0,0,0,0],"sum_hessian":[3.4588374E3,8.996451E2,2.5591924E3,5.1154535E2,3.880997E2,1.9504324E3,6.087601E2,4.6781177E2,4.3733585E1,3.3065475E2,5.744494E1,1.9025908E3,4.7841507E1,8.977222E1,5.1898785E2,1.5681728E2,3.1099448E2,2.9023293E1,1.4710294E1,2.9611145E2,3.454333E1,6.2796702E0,5.116527E1,4.933552E2,1.4092357E3,8.495433E0,3.9346073E1,7.258105E1,1.719117E1,4.7782828E2,4.1159546E1],"tree_param":{"num_deleted":"0","num_feature":"40","num_nodes":"31","size_leaf_vector":"1"}},{"base_weights":[4.768974E-3,2.9240745E-1,-1.9607753E-1,1.4688373E-1,4.816951E-1,-3.243648E-1,-3.8080342E-2,2.6666912E-1,8.9471E-3,7.032506E-1,3.87818E-1,-4.2332837E-1,-2.0477262E-1,-9.179543E-2,9.9664375E-2,1.9775175E-2,6.897006E-3,3.5099168E-3,-2.9844602E-3,4.842329E-3,2.1848217E-2,1.10498015E-2,2.6046745E-2,-1.1046475E-2,-1.4766326E-2,-6.697597E-3,1.4908304E-2,4.5789247E-3,-3.3147328E-3,7.863544E-3,-7.049655E-4],"categories":[],"categories_nodes":[],"categories_segments":[],"categories_sizes":[],"default_left":[0,0,1,0,1,0,0,0,0,0,0,0,0,0,0,0,0,0,0,0,0,0,0,0,0,0,0,0,0,0,0],"id":41,"left_children":[1,3,5,7,9,11,13,15,17,19,21,23,25,27,29,-1,-1,-1,-1,-1,-1,-1,-1,-1,-1,-1,-1,-1,-1,-1,-1],"loss_changes":[2.2588374E2,4.414171E1,4.6642075E1,1.5059959E1,1.3969406E1,1.4861969E1,7.6687093E0,6.738468E0,5.012321E0,2.5476074E0,3.9920044E0,2.269394E0,7.731909E0,3.4378643E0,5.8357134E0,0E0,0E0,0E0,0E0,0E0,0E0,0E0,0E0,0E0,0E0,0E0,0E0,0E0,0E0,0E0,0E0],"parents":[2147483647,0,0,1,1,2,2,3,3,4,4,5,5,6,6,7,7,8,8,9,9,10,10,11,11,12,12,13,13,14,14],"right_children":[2,4,6,8,10,12,14,16,18,20,22,24,26,28,30,-1,-1,-1,-1,-1,-1,-1,-1,-1,-1,-1,-1,-1,-1,-1,-1],"split_conditions":[-3.9101242E1,5.103756E-1,2.2032687E-1,3.361741E-1,1.4128992E-1,1.6895035E-1,3.3095577E-1,1.7442961E-1,3.707372E-1,-5.5E0,2.4364305E-1,1.991343E2,4.7863322E-1,2.4787109E-1,4E0,1.9775175E-2,6.897006E-3,3.5099168E-3,-2.9844602E-3,4.842329E-3,2.1848217E-2,1.10498015E-2,2.6046745E-2,-1.1046475E-2,-1.4766326E-2,-6.697597E-3,1.4908304E-2,4.5789247E-3,-3.3147328E-3,7.863544E-3,-7.049655E-4],"split_indices":[3,11,16,14,14,11,16,14,9,37,9,3,11,9,31,0,0,0,0,0,0,0,0,0,0,0,0,0,0,0,0],"split_type":[0,0,0,0,0,0,0,0,0,0,0,0,0,0,0,0,0,0,0,0,0,0,0,0,0,0,0,0,0,0,0],"sum_hessian":[3.905988E3,1.6056193E3,2.3003687E3,9.097547E2,6.9586456E2,1.2683854E3,1.0319833E3,4.8591513E2,4.238396E2,2.0323512E2,4.9262943E2,6.912723E2,5.771131E2,7.4293475E2,2.8904855E2,3.87208E1,4.4719434E2,2.1221164E2,2.1162796E2,9.629283E0,1.9360583E2,4.7681717E2,1.5812255E1,3.910702E2,3.0020206E2,5.636328E2,1.3480314E1,5.1769867E1,6.911649E2,1.2366997E2,1.6537859E2],"tree_param":{"num_deleted":"0","num_feature":"40","num_nodes":"31","size_leaf_vector":"1"}},{"base_weights":[2.0815113E-3,-2.4353729E-1,2.2340095E-1,-3.3895862E-1,-2.6578117E-2,2.30225E-2,3.4667337E-1,-4.843878E-1,-2.7402106E-1,-8.456974E-2,1.7141882E-1,-2.2026025E-1,6.313293E-2,4.2506066E-1,2.0499276E-1,-1.5781438E-2,-1.12509E-2,-1.162849E-2,-6.8011144E-3,-1.4130205E-2,-2.1050652E-3,1.595272E-2,2.925148E-3,3.3384222E-3,-9.431726E-3,7.8207906E-4,7.5968024E-3,9.028276E-3,1.5116829E-2,1.0878155E-2,4.3237484E-3],"categories":[],"categories_nodes":[],"categories_segments":[],"categories_sizes":[],"default_left":[0,1,0,0,0,0,0,0,0,0,0,0,0,0,1,0,0,0,0,0,0,0,0,0,0,0,0,0,0,0,0],"id":42,"left_children":[1,3,5,7,9,11,13,15,17,19,21,23,25,27,29,-1,-1,-1,-1,-1,-1,-1,-1,-1,-1,-1,-1,-1,-1,-1,-1],"loss_changes":[2.3998106E2,4.330126E1,5.7344566E1,1.345752E1,7.3930125E0,8.679571E0,1.579126E1,1.6371231E0,5.2485275E0,2.7019165E0,3.7835584E0,4.0001416E0,5.3603287E0,8.734299E0,4.844944E0,0E0,0E0,0E0,0E0,0E0,0E0,0E0,0E0,0E0,0E0,0E0,0E0,0E0,0E0,0E0,0E0],"parents":[2147483647,0,0,1,1,2,2,3,3,4,4,5,5,6,6,7,7,8,8,9,9,10,10,11,11,12,12,13,13,14,14],"right_children":[2,4,6,8,10,12,14,16,18,20,22,24,26,28,30,-1,-1,-1,-1,-1,-1,-1,-1,-1,-1,-1,-1,-1,-1,-1,-1],"split_conditions":[2.3043117E-1,3.6218837E-1,5.2446586E-1,2.1790347E-1,1.5640437E3,3.3807996E-1,1.7157054E-1,5.557702E-1,-6.8614346E-1,2.7604167E0,2.330111E-1,-6.666667E-1,5.5E0,6.6390294E-1,-8.020833E-1,-1.5781438E-2,-1.12509E-2,-1.162849E-2,-6.8011144E-3,-1.4130205E-2,-2.1050652E-3,1.595272E-2,2.925148E-3,3.3384222E-3,-9.431726E-3,7.8207906E-4,7.5968024E-3,9.028276E-3,1.5116829E-2,1.0878155E-2,4.3237484E-3],"split_indices":[7,14,14,14,1,14,11,13,7,28,15,22,31,14,35,0,0,0,0,0,0,0,0,0,0,0,0,0,0,0,0],"split_type":[0,0,0,0,0,0,0,0,0,0,0,0,0,0,0,0,0,0,0,0,0,0,0,0,0,0,0,0,0,0,0],"sum_hessian":[4.4106436E3,2.0904622E3,2.3201814E3,1.4511179E3,6.3934424E2,8.846167E2,1.4355647E3,4.439541E2,1.00716376E3,4.9539346E2,1.4395079E2,1.23934006E2,7.6068274E2,9.2164703E2,5.139177E2,3.1596545E2,1.27988655E2,2.9193265E2,7.152311E2,1.5519739E1,4.7987372E2,2.239314E1,1.2155765E2,2.7325495E1,9.6608505E1,6.384709E2,1.2221183E2,3.617429E2,5.599041E2,1.4041344E2,3.7350427E2],"tree_param":{"num_deleted":"0","num_feature":"40","num_nodes":"31","size_leaf_vector":"1"}},{"base_weights":[7.05439E-3,-1.4086741E-1,5.8208313E-2,-2.6587254E-1,-9.067886E-2,8.529392E-2,-2.6203949E-2,-8.277739E-2,-3.6058593E-1,-1.9851638E-1,-1.7762482E-2,7.659688E-2,3.9483947E-1,-5.325949E-2,2.8045195E-1,-4.020315E-3,2.562066E-2,-1.2010557E-2,1.6789617E-3,-4.5688017E-3,-1.3307284E-2,5.229104E-4,-1.042137E-2,2.5917909E-3,-4.634487E-3,-8.30608E-3,1.6351787E-2,-5.6498137E-4,-7.0307106E-3,1.1750713E-2,-1.4602502E-2],"categories":[],"categories_nodes":[],"categories_segments":[],"categories_sizes":[],"default_left":[0,1,0,0,0,0,0,0,0,0,0,1,0,0,0,0,0,0,0,0,0,0,0,0,0,0,0,0,0,0,0],"id":43,"left_children":[1,3,5,7,9,11,13,15,17,19,21,23,25,27,29,-1,-1,-1,-1,-1,-1,-1,-1,-1,-1,-1,-1,-1,-1,-1,-1],"loss_changes":[2.595218E1,5.4810753E0,5.8307E0,4.3007126E0,4.961532E0,5.134494E0,5.178542E0,4.467847E0,2.7799911E0,2.7500534E0,4.4106255E0,4.2811623E0,5.574458E0,3.5569549E0,4.7023077E0,0E0,0E0,0E0,0E0,0E0,0E0,0E0,0E0,0E0,0E0,0E0,0E0,0E0,0E0,0E0,0E0],"parents":[2147483647,0,0,1,1,2,2,3,3,4,4,5,5,6,6,7,7,8,8,9,9,10,10,11,11,12,12,13,13,14,14],"right_children":[2,4,6,8,10,12,14,16,18,20,22,24,26,28,30,-1,-1,-1,-1,-1,-1,-1,-1,-1,-1,-1,-1,-1,-1,-1,-1],"split_conditions":[2.1505037E-1,1.0218595E-1,1.5688822E3,1.4338007E3,-8.584455E-2,2.5E0,2.9997623E-1,6.0786605E-1,4.0161392E-1,1.3333334E0,2.3E0,6.063243E-1,4.0480182E-1,7.777778E-1,1.2E0,-4.020315E-3,2.562066E-2,-1.2010557E-2,1.6789617E-3,-4.5688017E-3,-1.3307284E-2,5.229104E-4,-1.042137E-2,2.5917909E-3,-4.634487E-3,-8.30608E-3,1.6351787E-2,-5.6498137E-4,-7.0307106E-3,1.1750713E-2,-1.4602502E-2],"split_indices":[10,16,1,2,39,37,10,13,39,26,38,16,13,26,21,0,0,0,0,0,0,0,0,0,0,0,0,0,0,0,0],"split_type":[0,0,0,0,0,0,0,0,0,0,0,0,0,0,0,0,0,0,0,0,0,0,0,0,0,0,0,0,0,0,0],"sum_hessian":[3.4255852E3,8.793272E2,2.546258E3,2.494427E2,6.2988446E2,1.9276927E3,6.1856525E2,8.6320404E1,1.631223E2,2.5270656E2,3.7717792E2,1.877439E3,5.02539E1,5.6993396E2,4.8631306E1,8.34694E1,2.8510048E0,1.4897794E2,1.414437E1,2.1533345E2,3.737312E1,3.4250342E2,3.4674507E1,1.802287E3,7.515194E1,8.876498E0,4.1377403E1,4.8075085E2,8.91831E1,4.3327988E1,5.3033185E0],"tree_param":{"num_deleted":"0","num_feature":"40","num_nodes":"31","size_leaf_vector":"1"}},{"base_weights":[-9.542506E-5,-1.8710686E-1,2.9475597E-1,-3.269552E-1,-3.051254E-2,6.5218054E-2,3.982348E-1,-2.1581945E-1,-4.0831265E-1,