{"learner":{"attributes":{"best_iteration":"68","best_score":"0.9994137517682143","scikit_learn":"{\"_estimator_type\": \"classifier\"}"},"feature_names":["is_neutral","elo_home_pre","elo_away_pre","elo_diff_pre","elo_p_home_implied","dc_lambda_home","dc_lambda_away","dc_lambda_diff","dc_lambda_sum","dc_p_home","dc_p_draw","dc_p_away","dc_p_over25","dc_p_btts","market_p_home","market_p_draw","market_p_away","market_overround","has_market","home_gf_roll5","home_ga_roll5","home_gd_roll5","home_gd_roll10","away_gf_roll5","away_ga_roll5","away_gd_roll5","away_gd_roll10","home_rest_days","away_rest_days","home_matches_last_7d","away_matches_last_7d","home_fatigue_idx","away_fatigue_idx","home_momentum","away_momentum","rest_diff","congestion_diff","fatigue_diff","gd5_diff","momentum_diff"],"feature_types":["float","float","float","float","float","float","float","float","float","float","float","float","float","float","float","float","float","float","float","float","float","float","float","float","float","float","float","float","float","float","float","float","float","float","float","float","float","float","float","float"],"gradient_booster":{"model":{"cats":{"enc":[],"feature_segments":[],"sorted_idx":[]},"gbtree_model_param":{"num_parallel_tree":"1","num_trees":"507"},"iteration_indptr":[0,3,6,9,12,15,18,21,24,27,30,33,36,39,42,45,48,51,54,57,60,63,66,69,72,75,78,81,84,87,90,93,96,99,102,105,108,111,114,117,120,123,126,129,132,135,138,141,144,147,150,153,156,159,162,165,168,171,174,177,180,183,186,189,192,195,198,201,204,207,210,213,216,219,222,225,228,231,234,237,240,243,246,249,252,255,258,261,264,267,270,273,276,279,282,285,288,291,294,297,300,303,306,309,312,315,318,321,324,327,330,333,336,339,342,345,348,351,354,357,360,363,366,369,372,375,378,381,384,387,390,393,396,399,402,405,408,411,414,417,420,423,426,429,432,435,438,441,444,447,450,453,456,459,462,465,468,471,474,477,480,483,486,489,492,495,498,501,504,507],"tree_info":[0,1,2,0,1,2,0,1,2,0,1,2,0,1,2,0,1,2,0,1,2,0,1,2,0,1,2,0,1,2,0,1,2,0,1,2,0,1,2,0,1,2,0,1,2,0,1,2,0,1,2,0,1,2,0,1,2,0,1,2,0,1,2,0,1,2,0,1,2,0,1,2,0,1,2,0,1,2,0,1,2,0,1,2,0,1,2,0,1,2,0,1,2,0,1,2,0,1,2,0,1,2,0,1,2,0,1,2,0,1,2,0,1,2,0,1,2,0,1,2,0,1,2,0,1,2,0,1,2,0,1,2,0,1,2,0,1,2,0,1,2,0,1,2,0,1,2,0,1,2,0,1,2,0,1,2,0,1,2,0,1,2,0,1,2,0,1,2,0,1,2,0,1,2,0,1,2,0,1,2,0,1,2,0,1,2,0,1,2,0,1,2,0,1,2,0,1,2,0,1,2,0,1,2,0,1,2,0,1,2,0,1,2,0,1,2,0,1,2,0,1,2,0,1,2,0,1,2,0,1,2,0,1,2,0,1,2,0,1,2,0,1,2,0,1,2,0,1,2,0,1,2,0,1,2,0,1,2,0,1,2,0,1,2,0,1,2,0,1,2,0,1,2,0,1,2,0,1,2,0,1,2,0,1,2,0,1,2,0,1,2,0,1,2,0,1,2,0,1,2,0,1,2,0,1,2,0,1,2,0,1,2,0,1,2,0,1,2,0,1,2,0,1,2,0,1,2,0,1,2,0,1,2,0,1,2,0,1,2,0,1,2,0,1,2,0,1,2,0,1,2,0,1,2,0,1,2,0,1,2,0,1,2,0,1,2,0,1,2,0,1,2,0,1,2,0,1,2,0,1,2,0,1,2,0,1,2,0,1,2,0,1,2,0,1,2,0,1,2,0,1,2,0,1,2,0,1,2,0,1,2,0,1,2,0,1,2,0,1,2,0,1,2,0,1,2,0,1,2,0,1,2,0,1,2,0,1,2,0,1,2,0,1,2,0,1,2,0,1,2,0,1,2,0,1,2,0,1,2,0,1,2,0,1,2,0,1,2,0,1,2,0,1,2,0,1,2,0,1,2,0,1,2,0,1,2,0,1,2,0,1,2,0,1,2,0,1,2,0,1,2,0,1,2,0,1,2],"trees":[{"base_weights":[-5.0969822E-3,-2.7269426E-1,3.74205E-1,-4.4246435E-1,-6.176881E-2,1.8663393E-1,6.346274E-1,-5.1503384E-1,-2.105201E-1,2.0815752E-1,-1.161817E-1,-4.992379E-2,3.184743E-1,3.1525615E-1,6.993282E-1,-2.0964643E-2,-1.3657042E-2,-1.0400789E-2,-1.3846222E-3,1.2297468E-3,1.3547002E-2,-4.3383203E-3,3.8421548E-3,-1.1471298E-2,9.55045E-4,6.1400523E-3,1.1797662E-2,1.9674364E-2,5.502039E-3,2.1241898E-2,-7.0636827E-3],"categories":[],"categories_nodes":[],"categories_segments":[],"categories_sizes":[],"default_left":[0,1,0,0,0,0,0,0,0,0,0,0,0,0,0,0,0,0,0,0,0,0,0,0,0,0,0,0,0,0,0],"id":0,"left_children":[1,3,5,7,9,11,13,15,17,19,21,23,25,27,29,-1,-1,-1,-1,-1,-1,-1,-1,-1,-1,-1,-1,-1,-1,-1,-1],"loss_changes":[4.5035764E2,9.310451E1,8.941977E1,2.403952E1,1.7122368E1,3.339612E1,1.5421387E1,1.1412201E1,7.7303867E0,7.9276533E0,6.763896E0,1.0477521E1,5.6875305E0,5.7298546E0,5.532257E0,0E0,0E0,0E0,0E0,0E0,0E0,0E0,0E0,0E0,0E0,0E0,0E0,0E0,0E0,0E0,0E0],"parents":[2147483647,0,0,1,1,2,2,3,3,4,4,5,5,6,6,7,7,8,8,9,9,10,10,11,11,12,12,13,13,14,14],"right_children":[2,4,6,8,10,12,14,16,18,20,22,24,26,28,30,-1,-1,-1,-1,-1,-1,-1,-1,-1,-1,-1,-1,-1,-1,-1,-1],"split_conditions":[4.7546613E-1,3.2950395E-1,6.4535034E-1,3.3044177E-1,2.536199E-1,4.7393137E-1,5.7043797E-1,1.7442961E-1,3.043323E-1,1.579304E3,2.25E0,3.4625083E-1,5.7043797E-1,1.9833523E-1,1.4E1,-2.0964643E-2,-1.3657042E-2,-1.0400789E-2,-1.3846222E-3,1.2297468E-3,1.3547002E-2,-4.3383203E-3,3.8421548E-3,-1.1471298E-2,9.55045E-4,6.1400523E-3,1.1797662E-2,1.9674364E-2,5.502039E-3,2.1241898E-2,-7.0636827E-3],"split_indices":[9,14,14,9,15,14,9,14,15,1,23,14,9,15,32,0,0,0,0,0,0,0,0,0,0,0,0,0,0,0,0],"split_type":[0,0,0,0,0,0,0,0,0,0,0,0,0,0,0,0,0,0,0,0,0,0,0,0,0,0,0,0,0,0,0],"sum_hessian":[4.4330024E3,2.5995698E3,1.8334325E3,1.4390826E3,1.1604873E3,1.0677856E3,7.656469E2,1.0942719E3,3.4481088E2,1.9374153E2,9.667457E2,3.8257822E2,6.852074E2,1.3095947E2,6.3468744E2,2.6339038E2,8.308814E2,1.8736523E2,1.5744565E2,1.1624492E2,7.749661E1,8.666868E2,1.0005892E2,7.406322E1,3.0851498E2,2.7467154E2,4.1053586E2,3.4333942E1,9.662553E1,6.292921E2,5.395334E0],"tree_param":{"num_deleted":"0","num_feature":"40","num_nodes":"31","size_leaf_vector":"1"}},{"base_weights":[6.5072724E-3,-2.0856926E-1,7.7917874E-2,-2.9680744E-1,-5.593491E-2,-2.8481288E-3,1.5977392E-1,-3.3909833E-1,-1.261666E-1,9.344443E-2,-1.3908705E-1,2.4132226E-2,-1.2790695E-1,1.9051298E-1,6.911491E-2,-1.1673849E-2,-4.353626E-3,-5.1154275E-3,2.0574044E-2,1.0048879E-2,-1.5353165E-3,3.475327E-4,-7.9164235E-3,2.695416E-3,-2.3208377E-3,-5.137084E-3,9.004817E-3,5.459194E-3,1.8314887E-2,2.1814305E-2,1.4725482E-3],"categories":[],"categories_nodes":[],"categories_segments":[],"categories_sizes":[],"default_left":[0,1,1,0,0,1,0,1,0,0,0,0,1,0,0,0,0,0,0,0,0,0,0,0,0,0,0,0,0,0,0],"id":1,"left_children":[1,3,5,7,9,11,13,15,17,19,21,23,25,27,29,-1,-1,-1,-1,-1,-1,-1,-1,-1,-1,-1,-1,-1,-1,-1,-1],"loss_changes":[5.2898777E1,1.1529636E1,1.709456E1,3.8370895E0,3.9631157E0,4.40406E0,3.5523071E0,4.1029587E0,4.2360296E0,4.035109E0,3.8498929E0,7.1757393E0,4.398781E0,3.2132454E0,4.255671E0,0E0,0E0,0E0,0E0,0E0,0E0,0E0,0E0,0E0,0E0,0E0,0E0,0E0,0E0,0E0,0E0],"parents":[2147483647,0,0,1,1,2,2,3,3,4,4,5,5,6,6,7,7,8,8,9,9,10,10,11,11,12,12,13,13,14,14],"right_children":[2,4,6,8,10,12,14,16,18,20,22,24,26,28,30,-1,-1,-1,-1,-1,-1,-1,-1,-1,-1,-1,-1,-1,-1,-1,-1],"split_conditions":[2.0985073E-1,2.2252902E-1,2.6384372E-1,1.9040568E-1,1E0,6.027554E-1,4.3499282E-1,5.4377757E-2,6.9260156E-1,1.0758901E0,1.854008E-1,1.5928494E3,2E0,2E0,2.5E-1,-1.1673849E-2,-4.353626E-3,-5.1154275E-3,2.0574044E-2,1.0048879E-2,-1.5353165E-3,3.475327E-4,-7.9164235E-3,2.695416E-3,-2.3208377E-3,-5.137084E-3,9.004817E-3,5.459194E-3,1.8314887E-2,2.1814305E-2,1.4725482E-3],"split_indices":[10,15,15,10,30,14,11,17,13,7,10,2,35,36,24,0,0,0,0,0,0,0,0,0,0,0,0,0,0,0,0],"split_type":[0,0,0,0,0,0,0,0,0,0,0,0,0,0,0,0,0,0,0,0,0,0,0,0,0,0,0,0,0,0,0],"sum_hessian":[3.440096E3,8.5653064E2,2.5835654E3,5.4156305E2,3.1496762E2,1.301413E3,1.2821523E3,4.324196E2,1.09143456E2,1.1254239E2,2.0242523E2,1.0717963E3,2.2961668E2,9.55855E2,3.262974E2,3.421591E2,9.0260506E1,1.0498921E2,4.154249E0,4.1164833E1,7.1377556E1,9.252646E1,1.0989877E2,6.507065E2,4.210898E2,2.0960075E2,2.0015928E1,9.3961566E2,1.6239338E1,7.5531807E0,3.187442E2],"tree_param":{"num_deleted":"0","num_feature":"40","num_nodes":"31","size_leaf_vector":"1"}},{"base_weights":[1.1396668E-3,-2.5800323E-1,4.278473E-1,6.912565E-3,-4.0168166E-1,6.3320845E-1,1.738044E-1,2.3258127E-1,-7.250488E-2,-2.7281827E-1,-4.9660558E-1,9.3589765E-1,5.1541084E-1,3.5715288E-1,5.930876E-2,1.7250352E-2,4.650574E-3,-4.467583E-4,-6.7748134E-3,-6.220807E-3,-1.1872667E-2,-1.2059468E-2,-1.663105E-2,2.9297704E-2,1.2210525E-2,1.15677845E-2,1.9687383E-2,9.334802E-3,2.4364734E-2,6.3166227E-3,-8.8239077E-4],"categories":[],"categories_nodes":[],"categories_segments":[],"categories_sizes":[],"default_left":[0,0,1,0,0,0,0,0,0,1,0,0,0,0,0,0,0,0,0,0,0,0,0,0,0,0,0,0,0,0,0],"id":2,"left_children":[1,3,5,7,9,11,13,15,17,19,21,23,25,27,29,-1,-1,-1,-1,-1,-1,-1,-1,-1,-1,-1,-1,-1,-1,-1,-1],"loss_changes":[4.3613834E2,9.34075E1,7.752789E1,1.5533721E1,1.919101E1,2.8392181E1,1.4000219E1,5.813777E0,5.6576495E0,5.302433E0,4.5484924E0,4.116272E0,1.0411285E1,4.8675385E0,5.5701904E0,0E0,0E0,0E0,0E0,0E0,0E0,0E0,0E0,0E0,0E0,0E0,0E0,0E0,0E0,0E0,0E0],"parents":[2147483647,0,0,1,1,2,2,3,3,4,4,5,5,6,6,7,7,8,8,9,9,10,10,11,11,12,12,13,13,14,14],"right_children":[2,4,6,8,10,12,14,16,18,20,22,24,26,28,30,-1,-1,-1,-1,-1,-1,-1,-1,-1,-1,-1,-1,-1,-1,-1,-1],"split_conditions":[3.639693E-1,4.7393137E-1,2.7908993E-1,3.4208548E-1,5.743352E-1,1.7076737E-1,3.361741E-1,2.3650473E-1,2.9726624E-1,5.1856637E-2,6.4535034E-1,2.4E0,5.457123E-1,2.175577E0,-9.936521E-2,1.7250352E-2,4.650574E-3,-4.467583E-4,-6.7748134E-3,-6.220807E-3,-1.1872667E-2,-1.2059468E-2,-1.663105E-2,2.9297704E-2,1.2210525E-2,1.15677845E-2,1.9687383E-2,9.334802E-3,2.4364734E-2,6.3166227E-3,-8.8239077E-4],"split_indices":[11,14,14,14,9,14,14,14,15,17,14,24,11,6,39,0,0,0,0,0,0,0,0,0,0,0,0,0,0,0,0],"split_type":[0,0,0,0,0,0,0,0,0,0,0,0,0,0,0,0,0,0,0,0,0,0,0,0,0,0,0,0,0,0,0],"sum_hessian":[3.9401638E3,2.4518977E3,1.488266E3,8.6285693E2,1.5890408E3,8.21336E2,6.6693005E2,2.2360754E2,6.392494E2,6.7731024E2,9.117305E2,2.262026E2,5.951334E2,2.5474825E2,4.121818E2,3.8925877E1,1.8468166E2,4.662455E2,1.730039E2,4.4548505E2,2.3182523E2,3.5163043E2,5.601001E2,2.084697E2,1.77329E1,3.1356958E2,2.8156384E2,2.3442029E2,2.032796E1,1.5137842E2,2.6080338E2],"tree_param":{"num_deleted":"0","num_feature":"40","num_nodes":"31","size_leaf_vector":"1"}},{"base_weights":[-7.835785E-3,-2.6825535E-1,3.6681876E-1,-4.77128E-1,-1.0245522E-1,1.9599634E-1,6.097703E-1,-6.058217E-1,-3.8118288E-1,-1.4366218E-1,2.3323955E-1,2.7316973E-1,-9.0440445E-2,2.7155483E-1,6.786407E-1,-2.0596894E-2,-1.5517142E-2,-1.1891153E-2,1.7065965E-3,-6.637973E-3,-8.280041E-4,-4.687712E-3,8.801366E-3,6.983759E-3,1.3259301E-2,-4.989627E-3,4.646042E-3,5.6974456E-4,1.1813581E-2,2.0952424E-2,9.053211E-3],"categories":[],"categories_nodes":[],"categories_segments":[],"categories_sizes":[],"default_left":[0,0,0,0,1,0,0,0,0,0,0,0,0,0,0,0,0,0,0,0,0,0,0,0,0,0,0,0,0,0,0],"id":3,"left_children":[1,3,5,7,9,11,13,15,17,19,21,23,25,27,29,-1,-1,-1,-1,-1,-1,-1,-1,-1,-1,-1,-1,-1,-1,-1,-1],"loss_changes":[4.395832E2,9.194801E1,7.643605E1,1.4054169E1,2.0598848E1,2.4094212E1,1.7375732E1,2.8568268E0,4.56234E0,1.1905899E1,3.9107141E0,5.638111E0,4.376815E0,4.066581E0,4.2848816E0,0E0,0E0,0E0,0E0,0E0,0E0,0E0,0E0,0E0,0E0,0E0,0E0,0E0,0E0,0E0,0E0],"parents":[2147483647,0,0,1,1,2,2,3,3,4,4,5,5,6,6,7,7,8,8,9,9,10,10,11,11,12,12,13,13,14,14],"right_children":[2,4,6,8,10,12,14,16,18,20,22,24,26,28,30,-1,-1,-1,-1,-1,-1,-1,-1,-1,-1,-1,-1,-1,-1,-1,-1],"split_conditions":[4.880132E-1,3.2950395E-1,6.4535034E-1,2.1790347E-1,5.264642E-1,2.920695E-1,8.622774E-1,1.6677484E-1,5.4230684E-1,3.7445116E-1,8E-1,2.2760034E0,1.55104E3,1.5585873E3,4.8456374E-1,-2.0596894E-2,-1.5517142E-2,-1.1891153E-2,1.7065965E-3,-6.637973E-3,-8.280041E-4,-4.687712E-3,8.801366E-3,6.983759E-3,1.3259301E-2,-4.989627E-3,4.646042E-3,5.6974456E-4,1.1813581E-2,2.0952424E-2,9.053211E-3],"split_indices":[7,14,14,14,14,16,7,14,39,9,24,5,1,1,39,0,0,0,0,0,0,0,0,0,0,0,0,0,0,0,0],"split_type":[0,0,0,0,0,0,0,0,0,0,0,0,0,0,0,0,0,0,0,0,0,0,0,0,0,0,0,0,0,0,0],"sum_hessian":[4.501415E3,2.655892E3,1.8455228E3,1.173623E3,1.4822689E3,1.085739E3,7.597839E2,4.9672467E2,6.7689844E2,1.3212303E3,1.6103862E2,8.5537244E2,2.3036655E2,1.3021213E2,6.295717E2,2.5280206E2,2.439226E2,6.543993E2,2.2499166E1,7.9071484E2,5.305155E2,2.1111576E1,1.3992705E2,6.941043E2,1.6126814E2,1.764346E2,5.393194E1,4.3219498E1,8.699263E1,5.965648E2,3.3006905E1],"tree_param":{"num_deleted":"0","num_feature":"40","num_nodes":"31","size_leaf_vector":"1"}},{"base_weights":[-8.970616E-3,-2.4323905E-1,5.6400858E-2,-3.2878762E-1,-1.1594396E-1,-2.8300008E-2,1.3610892E-1,-1.7620286E-1,-3.816825E-1,-1.8144014E-1,2.0652056E-2,-1.3969561E-2,-3.627956E-1,1.4188206E-1,-3.5190207E-1,1.8241437E-2,-6.3690376E-3,-1.30182635E-2,-7.015025E-3,-6.36304E-3,7.6471833E-3,6.367848E-3,-4.942311E-3,9.593481E-4,-3.0031474E-3,-1.27681475E-2,1.4534847E-2,3.7188034E-3,8.507278E-3,-1.369838E-2,1.18324915E-2],"categories":[],"categories_nodes":[],"categories_segments":[],"categories_sizes":[],"default_left":[0,1,1,0,1,0,1,0,0,0,0,0,0,0,0,0,0,0,0,0,0,0,0,0,0,0,0,0,0,0,0],"id":4,"left_children":[1,3,5,7,9,11,13,15,17,19,21,23,25,27,29,-1,-1,-1,-1,-1,-1,-1,-1,-1,-1,-1,-1,-1,-1,-1,-1],"loss_changes":[5.267535E1,8.095413E0,1.8164762E1,3.4788094E0,2.7334447E0,6.247836E0,4.004387E0,3.6259875E0,2.3524666E0,2.866188E0,3.6416247E0,4.969267E0,3.2623868E0,3.4115143E0,1.6713417E0,0E0,0E0,0E0,0E0,0E0,0E0,0E0,0E0,0E0,0E0,0E0,0E0,0E0,0E0,0E0,0E0],"parents":[2147483647,0,0,1,1,2,2,3,3,4,4,5,5,6,6,7,7,8,8,9,9,10,10,11,11,12,12,13,13,14,14],"right_children":[2,4,6,8,10,12,14,16,18,20,22,24,26,28,30,-1,-1,-1,-1,-1,-1,-1,-1,-1,-1,-1,-1,-1,-1,-1,-1],"split_conditions":[2.0198435E-1,2.0954159E-1,2.6067227E-1,1.4338007E3,8E0,1.269112E0,4.720241E-1,1.400433E0,2.2047942E0,2.6866956E0,5.1376443E-2,1.5875992E3,5.298337E-1,5.843764E-2,3E0,1.8241437E-2,-6.3690376E-3,-1.30182635E-2,-7.015025E-3,-6.36304E-3,7.6471833E-3,6.367848E-3,-4.942311E-3,9.593481E-4,-3.0031474E-3,-1.27681475E-2,1.4534847E-2,3.7188034E-3,8.507278E-3,-1.369838E-2,1.18324915E-2],"split_indices":[10,15,15,2,28,7,33,7,6,6,17,2,39,17,35,0,0,0,0,0,0,0,0,0,0,0,0,0,0,0,0],"split_type":[0,0,0,0,0,0,0,0,0,0,0,0,0,0,0,0,0,0,0,0,0,0,0,0,0,0,0,0,0,0,0],"sum_hessian":[3.435788E3,7.483877E2,2.6874006E3,4.4569373E2,3.0269397E2,1.3035198E3,1.3838807E3,1.16961E2,3.2873273E2,2.0414989E2,9.854407E1,1.2519667E3,5.155318E1,1.3691028E3,1.4777903E1,3.7523105E0,1.1320869E2,2.4002238E2,8.871033E1,1.9170686E2,1.24430275E1,4.831741E1,5.0226654E1,8.172645E2,4.3470212E2,4.8921986E1,2.6311953E0,1.2187062E3,1.5039662E2,1.3640466E1,1.1374366E0],"tree_param":{"num_deleted":"0","num_feature":"40","num_nodes":"31","size_leaf_vector":"1"}},{"base_weights":[-9.931421E-3,-2.551698E-1,4.263351E-1,-3.9832237E-1,-1.2602202E-2,2.146783E-1,6.83763E-1,-4.943613E-1,-2.8405908E-1,5.8270794E-1,-4.1794173E-2,3.5358852E-1,5.0899975E-2,9.1194E-1,5.5461967E-1,-1.6113184E-2,-1.1627364E-2,-6.1415993E-3,-1.2222961E-2,-3.5587214E-3,2.0482218E-2,-2.8253093E-3,2.5277555E-3,8.141171E-4,1.1634899E-2,-1.1730643E-3,4.8754145E-3,2.4023449E-2,3.547946E-2,1.796013E-2,2.9328628E-3],"categories":[],"categories_nodes":[],"categories_segments":[],"categories_sizes":[],"default_left":[0,1,0,0,0,0,0,1,1,0,0,0,0,0,0,0,0,0,0,0,0,0,0,0,0,0,0,0,0,0,0],"id":5,"left_children":[1,3,5,7,9,11,13,15,17,19,21,23,25,27,29,-1,-1,-1,-1,-1,-1,-1,-1,-1,-1,-1,-1,-1,-1,-1,-1],"loss_changes":[4.2469894E2,8.82262E1,7.753754E1,1.7254395E1,1.6473455E1,1.786481E1,1.7954346E1,3.5341492E0,7.0219955E0,3.2708368E0,5.977169E0,4.7341614E0,3.6635418E0,5.012329E0,8.257172E0,0E0,0E0,0E0,0E0,0E0,0E0,0E0,0E0,0E0,0E0,0E0,0E0,0E0,0E0,0E0,0E0],"parents":[2147483647,0,0,1,1,2,2,3,3,4,4,5,5,6,6,7,7,8,8,9,9,10,10,11,11,12,12,13,13,14,14],"right_children":[2,4,6,8,10,12,14,16,18,20,22,24,26,28,30,-1,-1,-1,-1,-1,-1,-1,-1,-1,-1,-1,-1,-1,-1,-1,-1],"split_conditions":[3.7701058E-1,2.499899E-1,5.062982E-1,1.716306E-1,2.3650473E-1,3.361741E-1,1.7076737E-1,1.611935E-1,5.518762E-1,-1E0,3.5579765E-1,-2.0574501E2,3.2442078E-1,1.05679184E-1,-1.9809876E-1,-1.6113184E-2,-1.1627364E-2,-6.1415993E-3,-1.2222961E-2,-3.5587214E-3,2.0482218E-2,-2.8253093E-3,2.5277555E-3,8.141171E-4,1.1634899E-2,-1.1730643E-3,4.8754145E-3,2.4023449E-2,3.547946E-2,1.796013E-2,2.9328628E-3],"split_indices":[11,16,16,11,14,14,14,16,14,21,16,3,16,33,7,0,0,0,0,0,0,0,0,0,0,0,0,0,0,0,0],"split_type":[0,0,0,0,0,0,0,0,0,0,0,0,0,0,0,0,0,0,0,0,0,0,0,0,0,0,0,0,0,0,0],"sum_hessian":[3.9655127E3,2.539061E3,1.4264515E3,1.5959302E3,9.43131E2,7.8483203E2,6.416195E2,8.6350024E2,7.324299E2,4.231342E1,9.0081757E2,4.2340176E2,3.6143027E2,2.2751387E2,4.1410565E2,6.108986E2,2.5260165E2,4.4900244E2,2.8342746E2,5.2354975E0,3.7077923E1,6.3672437E2,2.6409317E2,4.0534935E1,3.8286682E2,2.0080576E2,1.6062451E2,1.6689832E2,6.0615562E1,3.7712177E2,3.6983875E1],"tree_param":{"num_deleted":"0","num_feature":"40","num_nodes":"31","size_leaf_vector":"1"}},{"base_weights":[-4.2058676E-3,-2.5553313E-1,3.5119262E-1,-9.040384E-3,-3.8916236E-1,1.7807776E-1,5.888173E-1,-6.521535E-2,2.1379195E-1,-1.4645958E-1,-4.6090162E-1,-2.1859367E-1,2.4600199E-1,3.6918908E-1,6.689081E-1,-2.5816082E-3,5.772504E-3,7.9790605E-3,-8.05621E-3,-2.603036E-3,-1.0126421E-2,-1.9388245E-2,-1.2045026E-2,3.078698E-4,-8.675919E-3,1.0518737E-2,4.1938717E-3,8.092231E-3,1.6288672E-2,2.7275076E-2,1.9381555E-2],"categories":[],"categories_nodes":[],"categories_segments":[],"categories_sizes":[],"default_left":[0,0,0,0,0,0,0,0,0,1,0,0,0,1,0,0,0,0,0,0,0,0,0,0,0,0,0,0,0,0,0],"id":6,"left_children":[1,3,5,7,9,11,13,15,17,19,21,23,25,27,29,-1,-1,-1,-1,-1,-1,-1,-1,-1,-1,-1,-1,-1,-1,-1,-1],"loss_changes":[3.995449E2,8.629797E1,7.6013245E1,1.1583532E1,2.9447205E1,2.9067692E1,1.3228058E1,3.9995418E0,4.832219E0,4.396289E0,1.391095E1,2.56217E0,1.0109516E1,3.3864899E0,1.950882E0,0E0,0E0,0E0,0E0,0E0,0E0,0E0,0E0,0E0,0E0,0E0,0E0,0E0,0E0,0E0,0E0],"parents":[2147483647,0,0,1,1,2,2,3,3,4,4,5,5,6,6,7,7,8,8,9,9,10,10,11,11,12,12,13,13,14,14],"right_children":[2,4,6,8,10,12,14,16,18,20,22,24,26,28,30,-1,-1,-1,-1,-1,-1,-1,-1,-1,-1,-1,-1,-1,-1,-1,-1],"split_conditions":[4.880132E-1,3.4535086E-1,6.4535034E-1,5.169817E-1,3.6630175E-1,3.9909163E-1,6.21123E-1,6.363191E-1,1.6025919E0,4.3154904E-1,1.8452187E-1,-1.3106892E-1,1.716306E-1,6.708038E-1,1.11230776E-1,-2.5816082E-3,5.772504E-3,7.9790605E-3,-8.05621E-3,-2.603036E-3,-1.0126421E-2,-1.9388245E-2,-1.2045026E-2,3.078698E-4,-8.675919E-3,1.0518737E-2,4.1938717E-3,8.092231E-3,1.6288672E-2,2.7275076E-2,1.9381555E-2],"split_indices":[7,16,14,14,11,14,9,13,6,16,14,33,11,14,15,0,0,0,0,0,0,0,0,0,0,0,0,0,0,0,0],"split_type":[0,0,0,0,0,0,0,0,0,0,0,0,0,0,0,0,0,0,0,0,0,0,0,0,0,0,0,0,0,0,0],"sum_hessian":[4.4691094E3,2.6181755E3,1.850934E3,9.211521E2,1.6970233E3,1.0728429E3,7.7809106E2,7.3681836E2,1.8433371E2,3.885599E2,1.3084635E3,1.5620184E2,9.1664105E2,2.1091925E2,5.671718E2,6.829137E2,5.3904686E1,1.6714934E2,1.718438E1,2.98289E2,9.0270905E1,3.127372E2,9.9572626E2,3.7230717E1,1.1897112E2,4.5944458E2,4.5719644E2,1.3739287E2,7.352639E1,4.253165E1,5.2464014E2],"tree_param":{"num_deleted":"0","num_feature":"40","num_nodes":"31","size_leaf_vector":"1"}},{"base_weights":[4.9987864E-3,-1.9819097E-1,7.228097E-2,-2.4022962E-1,1.6107345E-2,-2.8392065E-2,1.3579677E-1,-1.8594095E-1,-3.323121E-1,1.7211415E-1,-1.24505684E-1,-3.540639E-2,5.8493435E-1,1.7350651E-1,-2.9793546E-2,-7.815806E-3,-2.2932764E-3,-1.1723757E-2,-2.3442905E-3,1.4966091E-2,-2.1603515E-3,-4.9384926E-3,2.1099918E-2,-3.872373E-3,9.658663E-5,-1.06608085E-2,2.6843429E-2,4.755158E-3,1.7471515E-2,1.2051525E-2,-2.1003135E-3],"categories":[],"categories_nodes":[],"categories_segments":[],"categories_sizes":[],"default_left":[0,1,0,0,0,0,0,0,1,0,0,1,0,0,0,0,0,0,0,0,0,0,0,0,0,0,0,0,0,0,0],"id":7,"left_children":[1,3,5,7,9,11,13,15,17,19,21,23,25,27,29,-1,-1,-1,-1,-1,-1,-1,-1,-1,-1,-1,-1,-1,-1,-1,-1],"loss_changes":[4.70251E1,7.716423E0,1.6530525E1,3.4531136E0,3.1623318E0,4.3488965E0,9.905941E0,3.6733112E0,3.845539E0,5.5162396E0,2.7535737E0,3.5894346E0,3.9676604E0,7.7343674E0,5.187045E0,0E0,0E0,0E0,0E0,0E0,0E0,0E0,0E0,0E0,0E0,0E0,0E0,0E0,0E0,0E0,0E0],"parents":[2147483647,0,0,1,1,2,2,3,3,4,4,5,5,6,6,7,7,8,8,9,9,10,10,11,11,12,12,13,13,14,14],"right_children":[2,4,6,8,10,12,14,16,18,20,22,24,26,28,30,-1,-1,-1,-1,-1,-1,-1,-1,-1,-1,-1,-1,-1,-1,-1,-1],"split_conditions":[2.0985073E-1,2.589436E-1,2.6384372E-1,2.5383794E0,9.7757727E-1,2.1666782E0,1.5688822E3,1.5E0,5.449503E-2,6.2083335E0,1.6461849E3,-9.0625E-1,3.125E0,2.5E0,-1.8E0,-7.815806E-3,-2.2932764E-3,-1.1723757E-2,-2.3442905E-3,1.4966091E-2,-2.1603515E-3,-4.9384926E-3,2.1099918E-2,-3.872373E-3,9.658663E-5,-1.06608085E-2,2.6843429E-2,4.755158E-3,1.7471515E-2,1.2051525E-2,-2.1003135E-3],"split_indices":[10,15,15,5,6,5,1,24,17,28,1,35,27,37,38,0,0,0,0,0,0,0,0,0,0,0,0,0,0,0,0],"split_type":[0,0,0,0,0,0,0,0,0,0,0,0,0,0,0,0,0,0,0,0,0,0,0,0,0,0,0,0,0,0,0],"sum_hessian":[3.4356619E3,8.53682E2,2.58198E3,7.1347784E2,1.4020412E2,9.992565E2,1.5827235E3,4.5264975E2,2.6082812E2,6.625155E1,7.395257E1,9.898209E2,9.435571E0,1.2890691E3,2.9365433E2,2.6760764E2,1.8504211E2,2.1116724E2,4.9660892E1,2.7438673E1,3.8812874E1,7.2063225E1,1.8893459E0,2.8762088E2,7.022E2,2.265786E0,7.1697845E0,1.2461255E3,4.294362E1,2.3502674E1,2.7015164E2],"tree_param":{"num_deleted":"0","num_feature":"40","num_nodes":"31","size_leaf_vector":"1"}},{"base_weights":[-7.14961E-3,3.6717767E-1,-2.651495E-1,2.094691E-1,7.289348E-1,-4.1755658E-1,-5.9224967E-2,-3.615559E-2,3.108589E-1,8.852369E-1,5.9171283E-1,-5.1137334E-1,-2.860313E-1,-1.214188E-1,1.3704793E-1,-3.899435E-4,-1.2118125E-2,6.7078904E-3,1.5174382E-2,2.049323E-2,2.8897826E-2,1.8439407E-2,-5.455339E-4,-9.674118E-3,-1.587874E-2,-6.050737E-3,-1.22198695E-2,3.4827485E-3,-4.3369858E-3,-2.3397836E-3,7.1713994E-3],"categories":[],"categories_nodes":[],"categories_segments":[],"categories_sizes":[],"default_left":[0,1,1,0,0,0,0,0,0,0,0,0,1,0,0,0,0,0,0,0,0,0,0,0,0,0,0,0,0,0,0],"id":8,"left_children":[1,3,5,7,9,11,13,15,17,19,21,23,25,27,29,-1,-1,-1,-1,-1,-1,-1,-1,-1,-1,-1,-1,-1,-1,-1,-1],"loss_changes":[3.858277E2,9.269331E1,7.417369E1,2.8362698E1,9.549408E0,1.6473602E1,1.2340467E1,2.836575E0,1.348053E1,2.263153E0,3.7867813E0,2.3343964E0,5.669323E0,4.248521E0,5.3790927E0,0E0,0E0,0E0,0E0,0E0,0E0,0E0,0E0,0E0,0E0,0E0,0E0,0E0,0E0,0E0,0E0],"parents":[2147483647,0,0,1,1,2,2,3,3,4,4,5,5,6,6,7,7,8,8,9,9,10,10,11,11,12,12,13,13,14,14],"right_children":[2,4,6,8,10,12,14,16,18,20,22,24,26,28,30,-1,-1,-1,-1,-1,-1,-1,-1,-1,-1,-1,-1,-1,-1,-1,-1],"split_conditions":[4.2253062E-2,5.062982E-1,2.2032687E-1,3.3233392E-1,1.6677484E-1,1.6895135E-1,3.5579765E-1,1.6E1,1.7688931E0,1.8429003E0,6.2440198E-2,4.712936E1,5.0603256E-2,4.626771E-2,-1.3545027E-1,-3.899435E-4,-1.2118125E-2,6.7078904E-3,1.5174382E-2,2.049323E-2,2.8897826E-2,1.8439407E-2,-5.455339E-4,-9.674118E-3,-1.587874E-2,-6.050737E-3,-1.22198695E-2,3.4827485E-3,-4.3369858E-3,-2.3397836E-3,7.1713994E-3],"split_indices":[7,16,16,16,14,11,16,28,6,6,17,3,17,17,39,0,0,0,0,0,0,0,0,0,0,0,0,0,0,0,0],"split_type":[0,0,0,0,0,0,0,0,0,0,0,0,0,0,0,0,0,0,0,0,0,0,0,0,0,0,0,0,0,0,0],"sum_hessian":[3.9910354E3,1.6280629E3,2.3629727E3,1.1359861E3,4.9207675E2,1.3567622E3,1.0062105E3,3.3228546E2,8.037006E2,2.2494826E2,2.671285E2,7.885294E2,5.682328E2,7.6466925E2,2.4154126E2,3.145504E2,1.7735054E1,5.5815906E2,2.4554155E2,6.808284E1,1.5686542E2,2.5743262E2,9.695869E0,7.16064E1,7.1692303E2,3.3831967E2,2.2991309E2,6.719235E1,6.9747687E2,7.7860695E1,1.6368056E2],"tree_param":{"num_deleted":"0","num_feature":"40","num_nodes":"31","size_leaf_vector":"1"}},{"base_weights":[4.9565053E-3,-2.453971E-1,3.573416E-1,9.95325E-3,-3.8514635E-1,5.652818E-1,1.5205508E-1,-4.4592552E-2,2.683677E-1,-5.8879495E-1,-3.0172628E-1,4.0809077E-1,6.3253605E-1,2.3786981E-1,-1.2583318E-1,-2.5571699E-3,3.8459594E-3,-7.9526E-3,9.080568E-3,-1.9618409E-2,-1.52595E-2,-3.961336E-3,-1.1087897E-2,1.5520607E-2,8.948055E-3,1.714455E-2,2.284937E-2,9.426012E-3,4.5147557E-3,-9.964936E-3,-5.5022485E-4],"categories":[],"categories_nodes":[],"categories_segments":[],"categories_sizes":[],"default_left":[0,0,1,0,0,0,0,0,0,0,0,0,0,0,0,0,0,0,0,0,0,0,0,0,0,0,0,0,0,0,0],"id":9,"left_children":[1,3,5,7,9,11,13,15,17,19,21,23,25,27,29,-1,-1,-1,-1,-1,-1,-1,-1,-1,-1,-1,-1,-1,-1,-1,-1],"loss_changes":[3.950866E2,9.344043E1,7.923201E1,1.3105135E1,2.8392715E1,9.245239E0,2.2446695E1,5.4158707E0,3.1268387E0,1.8914642E0,1.3774673E1,3.0790367E0,4.1980896E0,4.693966E0,4.9295053E0,0E0,0E0,0E0,0E0,0E0,0E0,0E0,0E0,0E0,0E0,0E0,0E0,0E0,0E0,0E0,0E0],"parents":[2147483647,0,0,1,1,2,2,3,3,4,4,5,5,6,6,7,7,8,8,9,9,10,10,11,11,12,12,13,13,14,14],"right_children":[2,4,6,8,10,12,14,16,18,20,22,24,26,28,30,-1,-1,-1,-1,-1,-1,-1,-1,-1,-1,-1,-1,-1,-1,-1,-1],"split_conditions":[4.880132E-1,3.4535086E-1,1.6445905E-1,5.264642E-1,2.1790347E-1,6.2391365E-1,2.920695E-1,2.9313648E0,3.8357067E-1,1.7076737E-1,3.6630175E-1,5.480894E-2,7.909512E-1,1.7651998E-1,3.4625083E-1,-2.5571699E-3,3.8459594E-3,-7.9526E-3,9.080568E-3,-1.9618409E-2,-1.52595E-2,-3.961336E-3,-1.1087897E-2,1.5520607E-2,8.948055E-3,1.714455E-2,2.284937E-2,9.426012E-3,4.5147557E-3,-9.964936E-3,-5.5022485E-4],"split_indices":[7,16,16,14,14,9,16,8,13,14,11,17,14,11,14,0,0,0,0,0,0,0,0,0,0,0,0,0,0,0,0],"split_type":[0,0,0,0,0,0,0,0,0,0,0,0,0,0,0,0,0,0,0,0,0,0,0,0,0,0,0,0,0,0,0],"sum_hessian":[4.474392E3,2.6162632E3,1.8581289E3,9.2604596E2,1.6902172E3,9.213558E2,9.3677313E2,7.6601196E2,1.6003398E2,4.8764386E2,1.2025732E3,2.803169E2,6.410389E2,7.159641E2,2.2080899E2,6.2095526E2,1.450567E2,8.860054E0,1.5117392E2,2.61083E2,2.2656084E2,3.4526675E2,8.573065E2,1.3679607E2,1.4352083E2,4.426018E2,1.9843707E2,3.7936832E2,3.3659583E2,7.4200676E1,1.466083E2],"tree_param":{"num_deleted":"0","num_feature":"40","num_nodes":"31","size_leaf_vector":"1"}},{"base_weights":[1.127402E-4,-2.2838706E-1,5.726136E-2,-3.8395205E-1,-1.276738E-1,-4.0048335E-2,1.2310866E-1,1.3645646E-2,-3.9315552E-1,2.5104778E-2,-1.7228246E-1,-1.418144E-1,-6.211459E-3,1.5672123E-1,-3.0606324E-2,-1.2134635E-2,8.17401E-3,-2.371047E-3,2.022554E-2,-6.1794864E-3,2.6405787E-3,1.6365776E-2,-4.7409087E-3,7.0797495E-4,-5.9408154E-3,4.241957E-3,1.7460497E-2,-5.678389E-3,2.427988E-3],"categories":[],"categories_nodes":[],"categories_segments":[],"categories_sizes":[],"default_left":[0,1,0,0,0,0,0,0,0,0,0,0,0,0,0,0,0,0,0,0,0,0,0,0,0,0,0,0,0],"id":10,"left_children":[1,3,5,7,9,11,13,-1,15,17,19,21,23,25,27,-1,-1,-1,-1,-1,-1,-1,-1,-1,-1,-1,-1,-1,-1],"loss_changes":[4.5143692E1,1.073819E1,1.7729427E1,2.4482613E0,2.890357E0,3.8465605E0,8.533855E0,0E0,2.2490463E0,6.683824E0,2.9094324E0,3.279622E0,4.8171763E0,8.659763E0,5.299518E0,0E0,0E0,0E0,0E0,0E0,0E0,0E0,0E0,0E0,0E0,0E0,0E0,0E0,0E0],"parents":[2147483647,0,0,1,1,2,2,3,3,4,4,5,5,6,6,8,8,9,9,10,10,11,11,12,12,13,13,14,14],"right_children":[2,4,6,8,10,12,14,-1,16,18,20,22,24,26,28,-1,-1,-1,-1,-1,-1,-1,-1,-1,-1,-1,-1,-1,-1],"split_conditions":[1.9794863E-1,1.7355387E-1,2.6384372E-1,-8E0,1.4687505E3,2.16837E-1,1.5688822E3,1.3645646E-2,2.1E0,7.302867E-1,3.378315E-1,-1.5555556E0,2.2497837E-1,2.5E0,-3E-1,-1.2134635E-2,8.17401E-3,-2.371047E-3,2.022554E-2,-6.1794864E-3,2.6405787E-3,1.6365776E-2,-4.7409087E-3,7.0797495E-4,-5.9408154E-3,4.241957E-3,1.7460497E-2,-5.678389E-3,2.427988E-3],"split_indices":[10,15,15,37,1,15,1,0,26,9,39,22,33,37,26,0,0,0,0,0,0,0,0,0,0,0,0,0,0],"split_type":[0,0,0,0,0,0,0,0,0,0,0,0,0,0,0,0,0,0,0,0,0,0,0,0,0,0,0,0,0],"sum_hessian":[3.4530461E3,6.8963916E2,2.763407E3,2.6880676E2,4.208324E2,1.1155789E3,1.6478281E3,1.8663119E0,2.6694046E2,9.530392E1,3.255285E2,2.767768E2,8.3880206E2,1.3521228E3,2.9570532E2,2.6324335E2,3.6971216E0,8.364088E1,1.1663038E1,2.8858383E2,3.6944668E1,4.874616E0,2.719022E2,7.274941E2,1.11307976E2,1.3076744E3,4.4448357E1,1.2148684E2,1.7421849E2],"tree_param":{"num_deleted":"0","num_feature":"40","num_nodes":"29","size_leaf_vector":"1"}},{"base_weights":[-7.3182113E-3,-2.3582385E-1,3.9401495E-1,-3.7920555E-1,-1.6959157E-2,6.016983E-1,1.5460174E-1,-2.4564062E-1,-4.7931924E-1,-9.854395E-2,1.6749328E-1,8.7990385E-1,4.9482733E-1,2.7757806E-1,3.9123543E-2,-1.3554263E-2,-6.2131924E-3,-1.5766421E-2,-1.1830619E-2,3.402383E-3,-3.6994107E-3,6.4119226E-3,-5.84989E-3,3.208613E-2,2.0899305E-2,2.146304E-2,1.3198806E-2,-1.6896784E-3,1.0408343E-2,6.813843E-4,1.7292367E-2],"categories":[],"categories_nodes":[],"categories_segments":[],"categories_sizes":[],"default_left":[0,1,1,0,0,0,0,0,1,0,0,1,0,0,0,0,0,0,0,0,0,0,0,0,0,0,0,0,0,0,0],"id":11,"left_children":[1,3,5,7,9,11,13,15,17,19,21,23,25,27,29,-1,-1,-1,-1,-1,-1,-1,-1,-1,-1,-1,-1,-1,-1,-1,-1],"loss_changes":[3.6457895E2,7.947995E1,7.152911E1,2.022844E1,1.5152863E1,2.20719E1,9.530939E0,5.054344E0,3.0130157E0,3.691915E0,5.2600546E0,5.862961E0,6.173706E0,7.5765934E0,3.0531673E0,0E0,0E0,0E0,0E0,0E0,0E0,0E0,0E0,0E0,0E0,0E0,0E0,0E0,0E0,0E0,0E0],"parents":[2147483647,0,0,1,1,2,2,3,3,4,4,5,5,6,6,7,7,8,8,9,9,10,10,11,11,12,12,13,13,14,14],"right_children":[2,4,6,8,10,12,14,16,18,20,22,24,26,28,30,-1,-1,-1,-1,-1,-1,-1,-1,-1,-1,-1,-1,-1,-1,-1,-1],"split_conditions":[3.7701058E-1,2.3976018E-1,2.6663247E-1,5.743352E-1,3.5579765E-1,1.2157739E-1,-5.395551E1,1.540538E-1,1.4609456E-1,4.6532035E-2,3.043323E-1,1.3580553E-1,1.7076737E-1,-1.45E0,3E0,-1.3554263E-2,-6.2131924E-3,-1.5766421E-2,-1.1830619E-2,3.402383E-3,-3.6994107E-3,6.4119226E-3,-5.84989E-3,3.208613E-2,2.0899305E-2,2.146304E-2,1.3198806E-2,-1.6896784E-3,1.0408343E-2,6.813843E-4,1.7292367E-2],"split_indices":[11,16,14,9,16,9,3,16,16,17,15,14,14,38,24,0,0,0,0,0,0,0,0,0,0,0,0,0,0,0,0],"split_type":[0,0,0,0,0,0,0,0,0,0,0,0,0,0,0,0,0,0,0,0,0,0,0,0,0,0,0,0,0,0,0],"sum_hessian":[3.9714536E3,2.531135E3,1.4403186E3,1.5283945E3,1.0027405E3,7.6964746E2,6.7067114E2,6.5776117E2,8.706334E2,6.958791E2,3.068614E2,2.0958667E2,5.600608E2,3.234315E2,3.4723965E2,1.0020239E2,5.575588E2,5.5713495E2,3.1349844E2,7.206402E1,6.2381506E2,2.7287546E2,3.3985943E1,9.824871E1,1.1133796E2,1.06753235E2,4.533076E2,5.5698704E1,2.677328E2,3.389708E2,8.268844E0],"tree_param":{"num_deleted":"0","num_feature":"40","num_nodes":"31","size_leaf_vector":"1"}},{"base_weights":[2.161541E-3,-2.7669546E-1,2.9098225E-1,-3.9725116E-1,-2.7001163E-2,1.0519075E-2,4.4955662E-1,-5.5327296E-1,-3.1868246E-1,2.3049487E-1,-7.737683E-2,-2.981052E-1,5.866878E-2,2.8004107E-1,5.6796044E-1,-1.9353518E-2,-1.41836265E-2,-1.473913E-2,-7.970882E-3,-4.216027E-3,8.885305E-3,-3.0237003E-3,9.7191045E-3,-1.5839504E-2,-5.0307615E-3,-7.756312E-3,2.4587836E-3,1.341036E-2,6.7632776E-3,1.1856444E-2,1.9279558E-2],"categories":[],"categories_nodes":[],"categories_segments":[],"categories_sizes":[],"default_left":[0,1,0,0,0,0,0,0,0,0,0,0,0,0,0,0,0,0,0,0,0,0,0,0,0,0,0,0,0,0,0],"id":12,"left_children":[1,3,5,7,9,11,13,15,17,19,21,23,25,27,29,-1,-1,-1,-1,-1,-1,-1,-1,-1,-1,-1,-1,-1,-1,-1,-1],"loss_changes":[3.6024857E2,6.8482666E1,9.770964E1,1.8459045E1,9.675299E0,1.1858449E1,2.7853088E1,3.1691895E0,9.117363E0,3.058785E0,5.9198785E0,3.0519295E0,5.139722E0,5.0963554E0,1.012912E1,0E0,0E0,0E0,0E0,0E0,0E0,0E0,0E0,0E0,0E0,0E0,0E0,0E0,0E0,0E0,0E0],"parents":[2147483647,0,0,1,1,2,2,3,3,4,4,5,5,6,6,7,7,8,8,9,9,10,10,11,11,12,12,13,13,14,14],"right_children":[2,4,6,8,10,12,14,16,18,20,22,24,26,28,30,-1,-1,-1,-1,-1,-1,-1,-1,-1,-1,-1,-1,-1,-1,-1,-1],"split_conditions":[2.917164E-1,3.5982776E-1,5.2446586E-1,2.531306E-1,2.531306E-1,3.3807996E-1,1.0758901E0,5.182652E-1,2.4154058E-1,0E0,2.75E0,-9.0625E-1,5E-1,1.4973961E-1,6.4931697E-1,-1.9353518E-2,-1.41836265E-2,-1.473913E-2,-7.970882E-3,-4.216027E-3,8.885305E-3,-3.0237003E-3,9.7191045E-3,-1.5839504E-2,-5.0307615E-3,-7.756312E-3,2.4587836E-3,1.341036E-2,6.7632776E-3,1.1856444E-2,1.9279558E-2],"split_indices":[7,14,14,15,15,14,7,13,10,36,23,35,24,16,14,0,0,0,0,0,0,0,0,0,0,0,0,0,0,0,0],"split_type":[0,0,0,0,0,0,0,0,0,0,0,0,0,0,0,0,0,0,0,0,0,0,0,0,0,0,0,0,0,0,0],"sum_hessian":[4.468933E3,2.273728E3,2.195205E3,1.5325911E3,7.411371E2,7.9364844E2,1.4015568E3,5.0924594E2,1.02334515E3,1.2009884E2,6.210382E2,1.0570845E2,6.8794E2,5.791431E2,8.2241364E2,2.312868E2,2.7795914E2,2.3645746E2,7.868877E2,1.772024E1,1.023786E2,5.882212E2,3.281703E1,3.60559E1,6.965256E1,4.5673824E1,6.422662E2,1.3916858E2,4.3997455E2,2.5205252E2,5.7036115E2],"tree_param":{"num_deleted":"0","num_feature":"40","num_nodes":"31","size_leaf_vector":"1"}},{"base_weights":[-5.6608184E-3,-2.1710269E-1,5.1861763E-2,-2.9032806E-1,-1.4270124E-1,-4.3600474E-2,1.0469122E-1,-3.66694E-1,-1.9093603E-1,-2.995408E-2,-2.432123E-1,4.9595605E-3,-1.6643663E-1,-3.0015413E-2,1.30879E-1,-1.6910454E-2,-7.503687E-3,1.5854604E-3,-7.995226E-3,2.5401355E-3,-7.7808076E-3,8.149693E-3,-8.122397E-3,-1.516056E-3,3.7709465E-3,-1.5825326E-2,-3.5232366E-3,-1.2263194E-2,3.229094E-4,1.1966857E-2,3.4176179E-3],"categories":[],"categories_nodes":[],"categories_segments":[],"categories_sizes":[],"default_left":[0,0,0,0,0,0,0,0,0,0,0,0,0,0,0,0,0,0,0,0,0,0,0,0,0,0,0,0,0,0,0],"id":13,"left_children":[1,3,5,7,9,11,13,15,17,19,21,23,25,27,29,-1,-1,-1,-1,-1,-1,-1,-1,-1,-1,-1,-1,-1,-1,-1,-1],"loss_changes":[4.237666E1,3.9766922E0,1.3823353E1,2.695671E0,4.2184267E0,5.830881E0,6.2303715E0,4.5196285E0,3.0956478E0,4.7332706E0,2.9427328E0,4.718489E0,4.7753124E0,4.4683275E0,6.623127E0,0E0,0E0,0E0,0E0,0E0,0E0,0E0,0E0,0E0,0E0,0E0,0E0,0E0,0E0,0E0,0E0],"parents":[2147483647,0,0,1,1,2,2,3,3,4,4,5,5,6,6,7,7,8,8,9,9,10,10,11,11,12,12,13,13,14,14],"right_children":[2,4,6,8,10,12,14,16,18,20,22,24,26,28,30,-1,-1,-1,-1,-1,-1,-1,-1,-1,-1,-1,-1,-1,-1,-1,-1],"split_conditions":[2.2252902E-1,1.8912664E-1,2.4465977E-1,5.164344E-2,5.0778482E-2,1.5914243E3,4.7634564E-2,-7.5408354E-2,-1.913819E-1,4.4444445E-1,-3.5873464E-1,7.9618053E0,1.538107E-1,2.3374656E-1,4.837436E-2,-1.6910454E-2,-7.503687E-3,1.5854604E-3,-7.995226E-3,2.5401355E-3,-7.7808076E-3,8.149693E-3,-8.122397E-3,-1.516056E-3,3.7709465E-3,-1.5825326E-2,-3.5232366E-3,-1.2263194E-2,3.229094E-4,1.1966857E-2,3.4176179E-3],"split_indices":[15,10,10,17,17,1,17,33,39,26,34,28,10,14,17,0,0,0,0,0,0,0,0,0,0,0,0,0,0,0,0],"split_type":[0,0,0,0,0,0,0,0,0,0,0,0,0,0,0,0,0,0,0,0,0,0,0,0,0,0,0,0,0,0,0],"sum_hessian":[3.4803032E3,7.431349E2,2.7371685E3,3.7160226E2,3.715326E2,9.7525073E2,1.7619176E3,2.0710126E2,1.6450102E2,1.7633115E2,1.9520145E2,7.003178E2,2.749329E2,2.8672882E2,1.4751888E3,7.4141716E1,1.3295953E2,3.9069344E1,1.2543168E2,1.184221E2,5.7909054E1,9.008954E0,1.8619249E2,4.80589E2,2.1972882E2,3.0515352E1,2.4441756E2,2.6115812E1,2.60613E2,8.510575E1,1.3900831E3],"tree_param":{"num_deleted":"0","num_feature":"40","num_nodes":"31","size_leaf_vector":"1"}},{"base_weights":[-3.6565838E-3,3.6442032E-1,-2.6015237E-1,9.244538E-2,5.4845554E-1,-3.96436E-1,-5.0671916E-2,2.101605E-1,-2.0244883E-2,8.44895E-1,4.446185E-1,-2.5983053E-1,-4.7282374E-1,-9.8607354E-2,2.4863926E-1,-6.903584E-3,6.891591E-3,2.3593674E-3,-4.6152547E-3,2.0556128E-2,2.8503725E-2,1.6596397E-2,7.9170745E-3,-1.2394733E-2,-6.1438205E-3,-1.5791656E-2,-1.1343176E-2,-6.139456E-3,-1.3080839E-3,1.645876E-2,4.550163E-3],"categories":[],"categories_nodes":[],"categories_segments":[],"categories_sizes":[],"default_left":[0,0,1,0,0,0,0,0,0,0,0,0,1,0,0,0,0,0,0,0,0,0,0,0,0,0,0,0,0,0,0],"id":14,"left_children":[1,3,5,7,9,11,13,15,17,19,21,23,25,27,29,-1,-1,-1,-1,-1,-1,-1,-1,-1,-1,-1,-1,-1,-1,-1,-1],"loss_changes":[3.7333224E2,8.118274E1,6.648964E1,8.734449E0,2.905011E1,1.4484009E1,1.3260639E1,2.877798E0,4.4883113E0,2.8810577E0,1.3862015E1,4.140236E0,4.182785E0,4.6200056E0,3.5477004E0,0E0,0E0,0E0,0E0,0E0,0E0,0E0,0E0,0E0,0E0,0E0,0E0,0E0,0E0,0E0,0E0],"parents":[2147483647,0,0,1,1,2,2,3,3,4,4,5,5,6,6,7,7,8,8,9,9,10,10,11,11,12,12,13,13,14,14],"right_children":[2,4,6,8,10,12,14,16,18,20,22,24,26,28,30,-1,-1,-1,-1,-1,-1,-1,-1,-1,-1,-1,-1,-1,-1,-1,-1],"split_conditions":[4.2253062E-2,4.2603573E-1,2.3270577E-1,3.7085918E-1,1.7076737E-1,5.533172E-1,4.046354E-1,-1.4E0,2.8058472E-1,-1.1111111E-1,-5.2163696E-1,2.3533027E-1,1.4609456E-1,9.255485E-1,2.2394872E-1,-6.903584E-3,6.891591E-3,2.3593674E-3,-4.6152547E-3,2.0556128E-2,2.8503725E-2,1.6596397E-2,7.9170745E-3,-1.2394733E-2,-6.1438205E-3,-1.5791656E-2,-1.1343176E-2,-6.139456E-3,-1.3080839E-3,1.645876E-2,4.550163E-3],"split_indices":[7,16,16,14,14,9,16,26,15,26,7,15,16,6,14,0,0,0,0,0,0,0,0,0,0,0,0,0,0,0,0],"split_type":[0,0,0,0,0,0,0,0,0,0,0,0,0,0,0,0,0,0,0,0,0,0,0,0,0,0,0,0,0,0,0],"sum_hessian":[3.9503562E3,1.621963E3,2.328393E3,6.5579956E2,9.6616345E2,1.4095707E3,9.188225E2,3.1990262E2,3.358969E2,2.4693292E2,7.192305E2,5.086845E2,9.0088617E2,7.931402E2,1.256823E2,1.2691213E1,3.072114E2,1.9349307E2,1.4240385E2,1.04051895E2,1.4288103E2,4.4668744E2,2.7254312E2,1.3092476E2,3.7775974E2,5.696328E2,3.3125333E2,2.6903558E2,5.241046E2,2.8425863E1,9.725644E1],"tree_param":{"num_deleted":"0","num_feature":"40","num_nodes":"31","size_leaf_vector":"1"}},{"base_weights":[2.0807507E-3,-3.038496E-1,2.812009E-1,-4.2492226E-1,-2.2577653E-2,2.105822E-2,4.4382015E-1,-5.7027304E-1,-3.5477388E-1,-8.596004E-2,2.1113896E-1,9.763121E-2,-1.660025E-1,6.217742E-1,3.3443797E-1,-1.899534E-2,-1.4395386E-2,-1.4497873E-2,-8.942034E-3,-3.4770078E-3,6.414605E-3,1.0974078E-2,9.922324E-4,3.682865E-3,-5.8117933E-3,1.6111E-3,-7.5216987E-3,7.2634914E-3,1.9363988E-2,7.8597E-3,1.4054573E-2],"categories":[],"categories_nodes":[],"categories_segments":[],"categories_sizes":[],"default_left":[0,1,0,0,0,0,0,0,0,0,0,0,0,0,1,0,0,0,0,0,0,0,0,0,0,0,0,0,0,0,0],"id":15,"left_children":[1,3,5,7,9,11,13,15,17,19,21,23,25,27,29,-1,-1,-1,-1,-1,-1,-1,-1,-1,-1,-1,-1,-1,-1,-1,-1],"loss_changes":[3.8173834E2,7.261211E1,9.887381E1,1.4796692E1,9.57489E0,1.2942438E1,2.7581696E1,2.134201E0,7.07724E0,4.6087713E0,3.7749362E0,4.739375E0,4.913478E0,4.591629E0,8.447601E0,0E0,0E0,0E0,0E0,0E0,0E0,0E0,0E0,0E0,0E0,0E0,0E0,0E0,0E0,0E0,0E0],"parents":[2147483647,0,0,1,1,2,2,3,3,4,4,5,5,6,6,7,7,8,8,9,9,10,10,11,11,12,12,13,13,14,14],"right_children":[2,4,6,8,10,12,14,16,18,20,22,24,26,28,30,-1,-1,-1,-1,-1,-1,-1,-1,-1,-1,-1,-1,-1,-1,-1,-1],"split_conditions":[2.3013149E-1,3.5982776E-1,5.2446586E-1,2.1790347E-1,1.5707218E3,3.2797801E-1,1.9233926E-1,1.7442961E-1,2.4694286E-1,5.289764E-1,3.002044E-2,1.5E1,-1.08022325E-1,5.6951594E-1,6.1790633E-1,-1.899534E-2,-1.4395386E-2,-1.4497873E-2,-8.942034E-3,-3.4770078E-3,6.414605E-3,1.0974078E-2,9.922324E-4,3.682865E-3,-5.8117933E-3,1.6111E-3,-7.5216987E-3,7.2634914E-3,1.9363988E-2,7.8597E-3,1.4054573E-2],"split_indices":[7,14,14,14,1,16,10,14,10,14,34,27,34,14,14,0,0,0,0,0,0,0,0,0,0,0,0,0,0,0,0],"split_type":[0,0,0,0,0,0,0,0,0,0,0,0,0,0,0,0,0,0,0,0,0,0,0,0,0,0,0,0,0,0,0],"sum_hessian":[4.4664575E3,2.1308054E3,2.3356519E3,1.488894E3,6.419113E2,8.9929895E2,1.436353E3,4.80017E2,1.0088771E3,5.0596216E2,1.3594914E2,6.3877405E2,2.6052493E2,5.432195E2,8.931335E2,2.7600858E2,2.0400842E2,3.043087E2,7.0456836E2,4.611337E2,4.482847E1,7.162678E1,6.4322365E1,5.8911725E2,4.965682E1,7.27069E1,1.8781802E2,3.3225746E1,5.0999374E2,5.836181E2,3.0951538E2],"tree_param":{"num_deleted":"0","num_feature":"40","num_nodes":"31","size_leaf_vector":"1"}},{"base_weights":[6.818109E-3,-1.2756674E-1,1.0318977E-1,-2.69957E-1,-5.6623023E-2,1.7275979E-1,5.368375E-2,-3.1071824E-1,8.178189E-2,-9.828798E-2,1.4535011E-1,-6.8281926E-2,2.1520711E-1,1.3926812E-1,-2.1563524E-3,-1.1530483E-2,-6.2677097E-3,-2.4841528E-3,2.3791995E-2,-1.3278176E-2,-2.4354972E-3,8.599807E-3,-4.0459167E-3,-8.719153E-3,1.6518825E-3,7.736306E-3,1.6132246E-3,8.366667E-3,7.751113E-4,-2.5759144E-3,2.0404626E-3],"categories":[],"categories_nodes":[],"categories_segments":[],"categories_sizes":[],"default_left":[1,0,0,1,0,0,0,1,0,0,1,1,0,0,0,0,0,0,0,0,0,0,0,0,0,0,0,0,0,0,0],"id":16,"left_children":[1,3,5,7,9,11,13,15,17,19,21,23,25,27,29,-1,-1,-1,-1,-1,-1,-1,-1,-1,-1,-1,-1,-1,-1,-1,-1],"loss_changes":[4.4691822E1,1.4528431E1,6.902752E0,6.9148293E0,8.14497E0,8.568544E0,5.6255445E0,3.058239E0,6.1371417E0,4.644105E0,6.640388E0,3.500984E0,4.863693E0,7.3461323E0,4.2070794E0,0E0,0E0,0E0,0E0,0E0,0E0,0E0,0E0,0E0,0E0,0E0,0E0,0E0,0E0,0E0,0E0],"parents":[2147483647,0,0,1,1,2,2,3,3,4,4,5,5,6,6,7,7,8,8,9,9,10,10,11,11,12,12,13,13,14,14],"right_children":[2,4,6,8,10,12,14,16,18,20,22,24,26,28,30,-1,-1,-1,-1,-1,-1,-1,-1,-1,-1,-1,-1,-1,-1,-1,-1],"split_conditions":[2.4273266E-1,1.9040568E-1,4E0,2.2581783E-1,2.8009942E-1,4.7502894E-2,1.4911887E3,1.7355387E-1,6.1790633E-1,1.24364085E-1,4.7329143E-2,-1.25E-1,4.8432398E-1,2.7235252E-1,-1.4586559E-2,-1.1530483E-2,-6.2677097E-3,-2.4841528E-3,2.3791995E-2,-1.3278176E-2,-2.4354972E-3,8.599807E-3,-4.0459167E-3,-8.719153E-3,1.6518825E-3,7.736306E-3,1.6132246E-3,8.366667E-3,7.751113E-4,-2.5759144E-3,2.0404626E-3],"split_indices":[15,10,32,15,10,17,2,15,14,9,17,35,14,7,34,0,0,0,0,0,0,0,0,0,0,0,0,0,0,0,0],"split_type":[0,0,0,0,0,0,0,0,0,0,0,0,0,0,0,0,0,0,0,0,0,0,0,0,0,0,0,0,0,0,0],"sum_hessian":[3.4468357E3,1.4392438E3,2.0075918E3,4.767514E2,9.6249243E2,8.325887E2,1.1750032E3,4.2744968E2,4.9301743E1,7.987461E2,1.6374629E2,1.2448273E2,7.0810596E2,4.6275897E2,7.122442E2,2.4481548E2,1.826342E2,4.1472435E1,7.8293047E0,3.5446983E1,7.6329913E2,1.0882203E2,5.4924255E1,4.3447044E1,8.103568E1,5.591241E2,1.4898187E2,2.0612506E2,2.566339E2,3.2459256E2,3.8765164E2],"tree_param":{"num_deleted":"0","num_feature":"40","num_nodes":"31","size_leaf_vector":"1"}},{"base_weights":[4.2586974E-3,3.4308392E-1,-2.3947857E-1,5.3459626E-1,1.2319109E-1,-3.836964E-1,-4.210013E-2,7.9679686E-1,4.4174796E-1,2.5074857E-1,-2.321367E-3,-2.513641E-1,-4.6250305E-1,-8.977214E-2,2.944577E-1,2.0921072E-2,3.014983E-2,1.52907455E-2,4.828965E-3,9.746549E-3,2.7215492E-3,1.8863061E-2,-7.1013364E-4,-4.27276E-3,-1.155436E-2,-1.5111733E-2,-1.0170997E-2,-5.5749584E-3,-1.1639664E-3,6.0857646E-3,1.9355694E-2],"categories":[],"categories_nodes":[],"categories_segments":[],"categories_sizes":[],"default_left":[0,1,1,0,0,0,0,0,0,0,0,1,1,0,0,0,0,0,0,0,0,0,0,0,0,0,0,0,0,0,0],"id":17,"left_children":[1,3,5,7,9,11,13,15,17,19,21,23,25,27,29,-1,-1,-1,-1,-1,-1,-1,-1,-1,-1,-1,-1,-1,-1,-1,-1],"loss_changes":[3.252065E2,6.925017E1,6.516313E1,2.071962E1,1.2321632E1,1.356604E1,1.5603051E1,3.3105927E0,1.2319443E1,4.4693527E0,5.2826447E0,7.151556E0,3.867035E0,4.1499405E0,3.616477E0,0E0,0E0,0E0,0E0,0E0,0E0,0E0,0E0,0E0,0E0,0E0,0E0,0E0,0E0,0E0,0E0],"parents":[2147483647,0,0,1,1,2,2,3,3,4,4,5,5,6,6,7,7,8,8,9,9,10,10,11,11,12,12,13,13,14,14],"right_children":[2,4,6,8,10,12,14,16,18,20,22,24,26,28,30,-1,-1,-1,-1,-1,-1,-1,-1,-1,-1,-1,-1,-1,-1,-1,-1],"split_conditions":[5.510842E-2,2.8135952E-1,2.2032687E-1,1.6677484E-1,3.640377E-1,5.7043797E-1,4.046354E-1,9.8856404E-2,2.972138E-1,1.2536041E-1,1.5625E-1,4.9688034E-2,1.611935E-1,9.255485E-1,2E0,2.0921072E-2,3.014983E-2,1.52907455E-2,4.828965E-3,9.746549E-3,2.7215492E-3,1.8863061E-2,-7.1013364E-4,-4.27276E-3,-1.155436E-2,-1.5111733E-2,-1.0170997E-2,-5.5749584E-3,-1.1639664E-3,6.0857646E-3,1.9355694E-2],"split_indices":[7,14,16,14,14,9,16,33,9,39,28,17,16,6,24,0,0,0,0,0,0,0,0,0,0,0,0,0,0,0,0],"split_type":[0,0,0,0,0,0,0,0,0,0,0,0,0,0,0,0,0,0,0,0,0,0,0,0,0,0,0,0,0,0,0],"sum_hessian":[3.933882E3,1.6455487E3,2.2883333E3,8.780029E2,7.6754584E2,1.3211357E3,9.671975E2,2.2563992E2,6.52363E2,3.7968198E2,3.878639E2,4.9623538E2,8.249003E2,8.4848035E2,1.1871717E2,1.5859819E2,6.704173E1,5.239479E2,1.2841508E2,2.5806793E2,1.2161405E2,1.0830058E1,3.770338E2,2.757885E2,2.2044687E2,6.1381396E2,2.1108633E2,2.9231586E2,5.561645E2,9.663601E1,2.2081158E1],"tree_param":{"num_deleted":"0","num_feature":"40","num_nodes":"31","size_leaf_vector":"1"}},{"base_weights":[1.0984911E-3,-2.7554104E-1,2.8705364E-1,-3.928634E-1,-3.1373806E-2,1.7965185E-2,4.290237E-1,-5.542384E-1,-3.1941643E-1,-1.0305168E-1,1.389717E-1,-2.3807074E-1,6.2934645E-2,2.5499952E-1,5.351578E-1,-1.7208012E-2,-1.01787215E-2,-1.563407E-2,-8.30802E-3,-8.655663E-3,-1.5214722E-3,1.462644E-3,9.393032E-3,7.0848577E-3,-9.599667E-3,-8.19686E-3,2.6391484E-3,1.4399922E-2,5.886419E-3,1.1411625E-2,1.876123E-2],"categories":[],"categories_nodes":[],"categories_segments":[],"categories_sizes":[],"default_left":[0,1,0,0,0,0,0,0,0,0,0,0,0,0,0,0,0,0,0,0,0,0,0,0,0,0,0,0,0,0,0],"id":18,"left_children":[1,3,5,7,9,11,13,15,17,19,21,23,25,27,29,-1,-1,-1,-1,-1,-1,-1,-1,-1,-1,-1,-1,-1,-1,-1,-1],"loss_changes":[3.551716E2,6.534819E1,8.432501E1,1.7913559E1,9.098543E0,8.833214E0,2.641861E1,1.6057129E0,8.828468E0,5.056869E0,3.4388533E0,4.6048937E0,5.535112E0,7.103348E0,1.2032806E1,0E0,0E0,0E0,0E0,0E0,0E0,0E0,0E0,0E0,0E0,0E0,0E0,0E0,0E0,0E0,0E0],"parents":[2147483647,0,0,1,1,2,2,3,3,4,4,5,5,6,6,7,7,8,8,9,9,10,10,11,11,12,12,13,13,14,14],"right_children":[2,4,6,8,10,12,14,16,18,20,22,24,26,28,30,-1,-1,-1,-1,-1,-1,-1,-1,-1,-1,-1,-1,-1,-1,-1,-1],"split_conditions":[2.917164E-1,3.5982776E-1,5.169817E-1,2.1790347E-1,4.726605E-1,3.4051543E-1,6.007157E-1,6.2093365E-1,1.6818638E-1,1.4510219E3,1.5782222E3,-8E-1,5E-1,1.482591E-1,6.6390294E-1,-1.7208012E-2,-1.01787215E-2,-1.563407E-2,-8.30802E-3,-8.655663E-3,-1.5214722E-3,1.462644E-3,9.393032E-3,7.0848577E-3,-9.599667E-3,-8.19686E-3,2.6391484E-3,1.4399922E-2,5.886419E-3,1.1411625E-2,1.876123E-2],"split_indices":[7,14,14,14,14,14,9,13,9,2,1,21,24,16,14,0,0,0,0,0,0,0,0,0,0,0,0,0,0,0,0],"split_type":[0,0,0,0,0,0,0,0,0,0,0,0,0,0,0,0,0,0,0,0,0,0,0,0,0,0,0,0,0,0,0],"sum_hessian":[4.4857905E3,2.280071E3,2.2057197E3,1.5392455E3,7.4082544E2,7.625825E2,1.4431372E3,4.7734607E2,1.0618994E3,5.21978E2,2.1884746E2,1.126449E2,6.499376E2,5.492905E2,8.938467E2,4.3483954E2,4.2506535E1,1.8081271E2,8.8108673E2,1.1288947E2,4.0908853E2,1.4584483E2,7.300263E1,1.6037329E1,9.660757E1,4.3676834E1,6.062608E2,1.1081661E2,4.3847394E2,3.3300153E2,5.6084515E2],"tree_param":{"num_deleted":"0","num_feature":"40","num_nodes":"31","size_leaf_vector":"1"}},{"base_weights":[-3.2961594E-3,-2.0241815E-1,5.520286E-2,-4.2708835E-1,-1.7136951E-1,-1.1479339E-1,9.0536855E-2,9.240727E-3,-4.4524354E-1,-4.1793033E-1,-1.4941482E-1,-2.1212192E-1,4.2664282E-2,1.6497632E-2,1.5081756E-1,-1.3895879E-2,6.4694686E-3,-2.1606837E-3,-1.5352698E-2,-3.6831133E-3,-1.2117106E-2,1.0915451E-2,-7.008297E-3,5.45517E-3,-1.623423E-3,1.2302097E-3,-6.341257E-3,8.9761004E-4,5.9315693E-3],"categories":[],"categories_nodes":[],"categories_segments":[],"categories_sizes":[],"default_left":[0,0,0,0,0,1,0,0,0,0,0,0,0,0,0,0,0,0,0,0,0,0,0,0,0,0,0,0,0],"id":19,"left_children":[1,3,5,7,9,11,13,-1,15,17,19,21,23,25,27,-1,-1,-1,-1,-1,-1,-1,-1,-1,-1,-1,-1,-1,-1],"loss_changes":[4.0126778E1,5.310169E0,1.6014557E1,1.5239525E0,3.613371E0,7.053644E0,9.838892E0,0E0,1.293642E0,1.7227335E0,4.2217197E0,3.6855192E0,2.404199E0,5.558131E0,6.8804207E0,0E0,0E0,0E0,0E0,0E0,0E0,0E0,0E0,0E0,0E0,0E0,0E0,0E0,0E0],"parents":[2147483647,0,0,1,1,2,2,3,3,4,4,5,5,6,6,8,8,9,9,10,10,11,11,12,12,13,13,14,14],"right_children":[2,4,6,8,10,12,14,-1,16,18,20,22,24,26,28,-1,-1,-1,-1,-1,-1,-1,-1,-1,-1,-1,-1,-1,-1],"split_conditions":[2.2667599E-1,1.3571471E-1,1.783993E-1,2.5E-1,5.2283174E-1,2.617182E-1,-4.9932663E1,9.240727E-3,3.2E0,1.0640903E2,1.5E0,1.3443066E-1,3.5E0,1.5688822E3,2.6384372E-1,-1.3895879E-2,6.4694686E-3,-2.1606837E-3,-1.5352698E-2,-3.6831133E-3,-1.2117106E-2,1.0915451E-2,-7.008297E-3,5.45517E-3,-1.623423E-3,1.2302097E-3,-6.341257E-3,8.9761004E-4,5.9315693E-3],"split_indices":[15,15,11,20,6,15,3,0,23,3,25,16,31,1,15,0,0,0,0,0,0,0,0,0,0,0,0,0,0],"split_type":[0,0,0,0,0,0,0,0,0,0,0,0,0,0,0,0,0,0,0,0,0,0,0,0,0,0,0,0,0],"sum_hessian":[3.440901E3,7.802217E2,2.6606792E3,9.163481E1,6.8858685E2,4.5708566E2,2.2035938E3,1.4389453E0,9.019587E1,5.335169E1,6.3523517E2,2.8204947E2,1.750362E2,9.90082E2,1.2135117E3,8.839304E1,1.8028247E0,1.2137996E1,4.1213696E1,5.7771466E2,5.7520546E1,8.998037E0,2.7305142E2,7.107174E1,1.0396445E2,8.954139E2,9.466808E1,3.401044E2,8.734073E2],"tree_param":{"num_deleted":"0","num_feature":"40","num_nodes":"29","size_leaf_vector":"1"}},{"base_weights":[-7.7701703E-4,3.3743295E-1,-2.4152122E-1,6.325167E-1,1.9456351E-1,-3.560875E-1,2.007205E-2,8.206221E-1,5.375742E-1,3.2134935E-1,2.7607309E-2,-2.4573676E-1,-4.4307667E-1,-3.9340746E-2,2.5267544E-1,2.2290958E-2,3.31974E-2,1.3645016E-2,1.901789E-2,1.9105723E-2,8.1606805E-3,1.9571893E-3,-5.8869203E-3,-9.871439E-3,-4.920313E-3,-1.5210914E-2,-1.0827243E-2,-1.599357E-3,1.54124675E-2,4.9690194E-3,1.7168585E-2],"categories":[],"categories_nodes":[],"categories_segments":[],"categories_sizes":[],"default_left":[0,0,1,0,1,0,0,0,0,0,0,0,1,1,0,0,0,0,0,0,0,0,0,0,0,0,0,0,0,0,0],"id":20,"left_children":[1,3,5,7,9,11,13,15,17,19,21,23,25,27,29,-1,-1,-1,-1,-1,-1,-1,-1,-1,-1,-1,-1,-1,-1,-1,-1],"loss_changes":[3.214428E2,6.896214E1,6.913153E1,8.666016E0,2.3456795E1,1.5178925E1,9.753017E0,2.2502594E0,2.3022614E0,9.460228E0,4.0760617E0,4.736595E0,4.3341675E0,4.4031963E0,3.8042831E0,0E0,0E0,0E0,0E0,0E0,0E0,0E0,0E0,0E0,0E0,0E0,0E0,0E0,0E0,0E0,0E0],"parents":[2147483647,0,0,1,1,2,2,3,3,4,4,5,5,6,6,7,7,8,8,9,9,10,10,11,11,12,12,13,13,14,14],"right_children":[2,4,6,8,10,12,14,16,18,20,22,24,26,28,30,-1,-1,-1,-1,-1,-1,-1,-1,-1,-1,-1,-1,-1,-1,-1,-1],"split_conditions":[4.2253062E-2,2.4329135E-1,2.6465678E-1,1.2157739E-1,3.361741E-1,5.743352E-1,3.9537647E-1,7.314238E-1,1.4695917E3,2.1109396E-1,5.730109E-2,2.2032687E-1,1.3625413E-1,3E0,2E0,2.2290958E-2,3.31974E-2,1.3645016E-2,1.901789E-2,1.9105723E-2,8.1606805E-3,1.9571893E-3,-5.8869203E-3,-9.871439E-3,-4.920313E-3,-1.5210914E-2,-1.0827243E-2,-1.599357E-3,1.54124675E-2,4.9690194E-3,1.7168585E-2],"split_indices":[7,14,16,9,14,9,16,16,1,10,17,16,16,38,24,0,0,0,0,0,0,0,0,0,0,0,0,0,0,0,0],"split_type":[0,0,0,0,0,0,0,0,0,0,0,0,0,0,0,0,0,0,0,0,0,0,0,0,0,0,0,0,0,0,0],"sum_hessian":[3.9438552E3,1.6396235E3,2.3042317E3,5.326434E2,1.1069802E3,1.6019332E3,7.022984E2,1.735364E2,3.5910696E2,6.281308E2,4.7884943E2,7.0951825E2,8.9241504E2,5.607344E2,1.4156401E2,1.421603E2,3.137612E1,1.9935872E2,1.5974825E2,8.170419E1,5.464266E2,4.1114374E2,6.770569E1,3.483551E2,3.6116315E2,4.960139E2,3.9640112E2,5.486818E2,1.2052589E1,1.1364962E2,2.7914392E1],"tree_param":{"num_deleted":"0","num_feature":"40","num_nodes":"31","size_leaf_vector":"1"}},{"base_weights":[2.3076371E-3,-2.3366666E-1,3.3077678E-1,-1.21822536E-1,-4.6056798E-1,-3.3570733E-2,4.223427E-1,3.82516E-2,-1.9956498E-1,-5.565321E-1,-3.409327E-1,-5.7771176E-2,6.558356E-1,3.0134532E-1,5.4192996E-1,-4.0194739E-4,8.278968E-3,-9.053466E-3,-2.687554E-3,-1.8608361E-2,-1.4597548E-2,-1.324126E-2,-8.347971E-3,8.85242E-4,-6.589934E-3,-5.4489602E-3,2.5213053E-2,1.145226E-2,6.03813E-3,1.1623171E-2,1.8402655E-2],"categories":[],"categories_nodes":[],"categories_segments":[],"categories_sizes":[],"default_left":[0,1,0,0,0,0,0,0,0,0,0,0,0,0,0,0,0,0,0,0,0,0,0,0,0,0,0,0,0,0,0],"id":21,"left_children":[1,3,5,7,9,11,13,15,17,19,21,23,25,27,29,-1,-1,-1,-1,-1,-1,-1,-1,-1,-1,-1,-1,-1,-1,-1,-1],"loss_changes":[3.4280362E2,6.520271E1,6.1713226E1,2.1502954E1,9.368225E0,6.302227E0,2.1056274E1,6.958271E0,1.301506E1,1.4830017E0,2.1656303E0,5.133395E0,2.286943E0,5.792534E0,7.7056885E0,0E0,0E0,0E0,0E0,0E0,0E0,0E0,0E0,0E0,0E0,0E0,0E0,0E0,0E0,0E0,0E0],"parents":[2147483647,0,0,1,1,2,2,3,3,4,4,5,5,6,6,7,7,8,8,9,9,10,10,11,11,12,12,13,13,14,14],"right_children":[2,4,6,8,10,12,14,16,18,20,22,24,26,28,30,-1,-1,-1,-1,-1,-1,-1,-1,-1,-1,-1,-1,-1,-1,-1,-1],"split_conditions":[4.880132E-1,4.3154904E-1,4.7393137E-1,2.920695E-1,2.1790347E-1,7.5E0,6.565941E-1,1.6024581E3,3.3044177E-1,1.6677484E-1,4.5954832E-1,3.2941124E-1,4.5173573E-1,1.6895135E-1,2.0272934E0,-4.0194739E-4,8.278968E-3,-9.053466E-3,-2.687554E-3,-1.8608361E-2,-1.4597548E-2,-1.324126E-2,-8.347971E-3,8.85242E-4,-6.589934E-3,-5.4489602E-3,2.5213053E-2,1.145226E-2,6.03813E-3,1.1623171E-2,1.8402655E-2],"split_indices":[7,16,14,16,14,32,14,1,9,14,16,16,13,11,5,0,0,0,0,0,0,0,0,0,0,0,0,0,0,0,0],"split_type":[0,0,0,0,0,0,0,0,0,0,0,0,0,0,0,0,0,0,0,0,0,0,0,0,0,0,0,0,0,0,0],"sum_hessian":[4.418692E3,2.5717256E3,1.8469666E3,1.7246738E3,8.4705176E2,3.7120026E2,1.4757662E3,5.6412946E2,1.1605443E3,4.659729E2,3.8107886E2,3.6038205E2,1.0818199E1,7.3705756E2,7.3870874E2,4.6498587E2,9.9143585E1,5.99692E2,5.6085236E2,2.355593E2,2.304136E2,1.417675E2,2.3931134E2,2.3521136E2,1.251707E2,1.9597237E0,8.858476E0,4.055897E2,3.3146786E2,2.3775946E2,5.0094928E2],"tree_param":{"num_deleted":"0","num_feature":"40","num_nodes":"31","size_leaf_vector":"1"}},{"base_weights":[-6.675038E-3,-1.2766421E-1,8.161341E-2,-2.5074834E-1,-4.448598E-2,4.776573E-3,1.2364925E-1,-3.5294434E-1,-1.5548441E-1,7.416294E-2,-1.01798624E-1,-1.2540667E-1,5.6323636E-2,1.370338E-1,-1.1281194E-1,-1.1523488E-2,-2.7615249E-3,-3.445919E-3,-1.0683977E-2,-5.4258393E-4,6.992298E-3,3.5422826E-3,-3.777548E-3,7.2579505E-3,-5.468382E-3,-1.7586045E-3,4.9858876E-3,1.8984008E-3,5.9175417E-3,1.410953E-3,-1.6509669E-2],"categories":[],"categories_nodes":[],"categories_segments":[],"categories_sizes":[],"default_left":[1,0,0,1,0,0,0,0,0,0,0,0,0,0,1,0,0,0,0,0,0,0,0,0,0,0,0,0,0,0,0],"id":22,"left_children":[1,3,5,7,9,11,13,15,17,19,21,23,25,27,29,-1,-1,-1,-1,-1,-1,-1,-1,-1,-1,-1,-1,-1,-1,-1,-1],"loss_changes":[3.6759068E1,1.484026E1,6.4249153E0,5.585514E0,5.922492E0,4.7493124E0,4.1007996E0,2.2117195E0,2.414991E0,4.173381E0,3.1407237E0,4.282581E0,6.4207363E0,5.3842754E0,4.9461145E0,0E0,0E0,0E0,0E0,0E0,0E0,0E0,0E0,0E0,0E0,0E0,0E0,0E0,0E0,0E0,0E0],"parents":[2147483647,0,0,1,1,2,2,3,3,4,4,5,5,6,6,7,7,8,8,9,9,10,10,11,11,12,12,13,13,14,14],"right_children":[2,4,6,8,10,12,14,16,18,20,22,24,26,28,30,-1,-1,-1,-1,-1,-1,-1,-1,-1,-1,-1,-1,-1,-1,-1,-1],"split_conditions":[2.4273266E-1,2.0493221E-1,2.6719657E-1,1.7538147E-1,4E0,-9.0625E-1,2.75E0,2.3333333E0,2.2E0,6.619234E-2,-1.2E0,-1.6470955E2,7E0,-1.1111111E-1,8E0,-1.1523488E-2,-2.7615249E-3,-3.445919E-3,-1.0683977E-2,-5.4258393E-4,6.992298E-3,3.5422826E-3,-3.777548E-3,7.2579505E-3,-5.468382E-3,-1.7586045E-3,4.9858876E-3,1.8984008E-3,5.9175417E-3,1.410953E-3,-1.6509669E-2],"split_indices":[15,10,15,15,28,35,23,19,20,34,25,3,28,26,27,0,0,0,0,0,0,0,0,0,0,0,0,0,0,0,0],"split_type":[0,0,0,0,0,0,0,0,0,0,0,0,0,0,0,0,0,0,0,0,0,0,0,0,0,0,0,0,0,0,0],"sum_hessian":[3.4372825E3,1.4497181E3,1.9875643E3,5.829947E2,8.667235E2,7.036316E2,1.2839327E3,2.78654E2,3.043407E2,2.8211E2,5.8461346E2,1.9876941E2,5.048622E2,1.2159468E3,6.7985985E1,2.4806966E2,3.0584333E1,2.5571677E2,4.8623943E1,1.7961578E2,1.0249422E2,5.7020817E1,5.2759265E2,2.5775951E1,1.7299345E2,2.4719298E2,2.5766922E2,5.4838873E2,6.67558E2,5.110123E1,1.688475E1],"tree_param":{"num_deleted":"0","num_feature":"40","num_nodes":"31","size_leaf_vector":"1"}},{"base_weights":[6.6254362E-3,3.243046E-1,-2.3566006E-1,1.0883656E-1,4.9023882E-1,-3.7133905E-1,-2.6811851E-2,-1.8614398E-2,2.1308246E-1,5.5425096E-1,1.546944E-1,-2.723155E-1,-4.5998907E-1,-7.850013E-2,3.315078E-1,1.5798569E-4,-1.5240399E-2,7.223429E-3,-7.242317E-3,2.2736384E-2,1.4276466E-2,-4.830058E-3,8.874838E-3,-6.749998E-3,-1.203596E-2,2.2423645E-3,-1.4004393E-2,1.9173286E-3,-3.4767154E-3,1.2124993E-2,-1.1200261E-3],"categories":[],"categories_nodes":[],"categories_segments":[],"categories_sizes":[],"default_left":[0,0,1,0,0,0,0,0,0,0,0,1,0,0,0,0,0,0,0,0,0,0,0,0,0,0,0,0,0,0,0],"id":23,"left_children":[1,3,5,7,9,11,13,15,17,19,21,23,25,27,29,-1,-1,-1,-1,-1,-1,-1,-1,-1,-1,-1,-1,-1,-1,-1,-1],"loss_changes":[3.0451843E2,6.1097107E1,6.3582703E1,9.9370575E0,2.0587936E1,1.1692276E1,1.646328E1,3.9565144E0,5.2933407E0,1.2218903E1,7.1178756E0,3.768261E0,2.6786041E0,4.146874E0,3.0341234E0,0E0,0E0,0E0,0E0,0E0,0E0,0E0,0E0,0E0,0E0,0E0,0E0,0E0,0E0,0E0,0E0],"parents":[2147483647,0,0,1,1,2,2,3,3,4,4,5,5,6,6,7,7,8,8,9,9,10,10,11,11,12,12,13,13,14,14],"right_children":[2,4,6,8,10,12,14,16,18,20,22,24,26,28,30,-1,-1,-1,-1,-1,-1,-1,-1,-1,-1,-1,-1,-1,-1,-1,-1],"split_conditions":[3.7229577E-1,4.3154904E-1,2.3270577E-1,3.2941124E-1,2.972138E-1,1.9147638E0,4.1581532E-1,1.9916666E1,1.6341543E3,1.6677484E-1,3.7916667E0,6.0777986E-1,-3.6004414E1,-1.25E0,1E0,1.5798569E-4,-1.5240399E-2,7.223429E-3,-7.242317E-3,2.2736384E-2,1.4276466E-2,-4.830058E-3,8.874838E-3,-6.749998E-3,-1.203596E-2,2.2423645E-3,-1.4004393E-2,1.9173286E-3,-3.4767154E-3,1.2124993E-2,-1.1200261E-3],"split_indices":[9,16,16,16,9,5,16,27,1,14,28,14,3,38,36,0,0,0,0,0,0,0,0,0,0,0,0,0,0,0,0],"split_type":[0,0,0,0,0,0,0,0,0,0,0,0,0,0,0,0,0,0,0,0,0,0,0,0,0,0,0,0,0,0,0],"sum_hessian":[3.9523884E3,1.7098264E3,2.242562E3,7.45324E2,9.6450244E2,1.3584707E3,8.840914E2,3.3607803E2,4.092459E2,8.0888684E2,1.5561562E2,6.455379E2,7.1293286E2,7.7400195E2,1.10089386E2,3.2232828E2,1.3749771E1,3.8662402E2,2.2621895E1,2.1997511E2,5.8891174E2,4.7989086E1,1.0762653E2,4.762051E2,1.693328E2,8.732617E0,7.0420026E2,1.6066159E2,6.1334033E2,9.1811745E1,1.8277645E1],"tree_param":{"num_deleted":"0","num_feature":"40","num_nodes":"31","size_leaf_vector":"1"}},{"base_weights":[3.2698826E-3,-2.5808123E-1,2.7602607E-1,-8.364356E-2,-4.0349498E-1,3.9703092E-1,2.6860725E-2,8.079949E-2,-1.6830008E-1,-1.4282367E-1,-4.394463E-1,2.3767054E-1,4.9630716E-1,1.0210632E-1,-1.5887405E-1,-1.3584313E-2,3.0531704E-3,-6.197001E-3,2.7463585E-4,-7.298697E-3,3.3127652E-3,-1.5864434E-2,-1.1473268E-2,1.4193313E-2,5.4877494E-3,1.7110262E-2,1.1254438E-2,1.4546752E-3,9.420687E-3,-8.992808E-3,-1.6606068E-3],"categories":[],"categories_nodes":[],"categories_segments":[],"categories_sizes":[],"default_left":[0,0,1,0,0,0,0,0,0,0,0,0,1,0,0,0,0,0,0,0,0,0,0,0,0,0,0,0,0,0,0],"id":24,"left_children":[1,3,5,7,9,11,13,15,17,19,21,23,25,27,29,-1,-1,-1,-1,-1,-1,-1,-1,-1,-1,-1,-1,-1,-1,-1,-1],"loss_changes":[3.1736356E2,5.760283E1,6.566E1,1.4451622E1,1.14895935E1,2.296048E1,1.0014809E1,4.048153E0,4.6530495E0,3.9511464E0,5.1393127E0,7.1304016E0,7.659195E0,5.759193E0,2.9817238E0,0E0,0E0,0E0,0E0,0E0,0E0,0E0,0E0,0E0,0E0,0E0,0E0,0E0,0E0,0E0,0E0],"parents":[2147483647,0,0,1,1,2,2,3,3,4,4,5,5,6,6,7,7,8,8,9,9,10,10,11,11,12,12,13,13,14,14],"right_children":[2,4,6,8,10,12,14,16,18,20,22,24,26,28,30,-1,-1,-1,-1,-1,-1,-1,-1,-1,-1,-1,-1,-1,-1,-1,-1],"split_conditions":[2.917164E-1,4.0177497E-1,2.2914262E-1,2.7958533E-1,3.619507E-1,6.007157E-1,3.2941124E-1,7.1379775E-1,1.4216752E0,2E0,1.6818638E-1,1.4609456E-1,1.3443066E-1,1.5644286E3,3.5E0,-1.3584313E-2,3.0531704E-3,-6.197001E-3,2.7463585E-4,-7.298697E-3,3.3127652E-3,-1.5864434E-2,-1.1473268E-2,1.4193313E-2,5.4877494E-3,1.7110262E-2,1.1254438E-2,1.4546752E-3,9.420687E-3,-8.992808E-3,-1.6606068E-3],"split_indices":[7,16,16,16,11,9,16,6,5,29,9,16,16,2,31,0,0,0,0,0,0,0,0,0,0,0,0,0,0,0,0],"split_type":[0,0,0,0,0,0,0,0,0,0,0,0,0,0,0,0,0,0,0,0,0,0,0,0,0,0,0,0,0,0,0],"sum_hessian":[4.4480312E3,2.271561E3,2.17647E3,1.0341499E3,1.2374111E3,1.4642053E3,7.122646E2,3.5148694E2,6.82663E2,1.5118231E2,1.0862288E3,5.646328E2,8.995726E2,5.0754608E2,2.0471852E2,1.1734963E1,3.3975198E2,5.61296E2,1.21367E2,1.0829813E2,4.2884186E1,4.1658026E2,6.6964856E2,1.0363858E2,4.6099426E2,5.5377264E2,3.4579987E2,4.0702267E2,1.0052342E2,8.510437E1,1.1961416E2],"tree_param":{"num_deleted":"0","num_feature":"40","num_nodes":"31","size_leaf_vector":"1"}},{"base_weights":[-2.9473153E-3,-2.0794955E-1,5.3995464E-2,-2.9439792E-1,-9.3218215E-2,-3.5217915E-2,1.12129964E-1,-1.5955667E-1,-3.4548536E-1,-1.7225601E-1,5.955829E-2,-2.3882147E-3,-1.8194462E-1,1.4046414E-1,-1.8844534E-2,-6.178608E-3,1.8263161E-2,-6.183094E-3,-1.2578509E-2,1.3230745E-2,-5.618905E-3,8.445083E-3,-5.2451217E-3,-1.4315132E-3,3.1201944E-3,-3.3815255E-4,-9.44588E-3,1.8905264E-3,6.687995E-3,-3.4833022E-3,7.698039E-3],"categories":[],"categories_nodes":[],"categories_segments":[],"categories_sizes":[],"default_left":[0,1,0,0,1,0,0,0,0,0,0,1,0,0,0,0,0,0,0,0,0,0,0,0,0,0,0,0,0,0,0],"id":25,"left_children":[1,3,5,7,9,11,13,15,17,19,21,23,25,27,29,-1,-1,-1,-1,-1,-1,-1,-1,-1,-1,-1,-1,-1,-1,-1,-1],"loss_changes":[4.0159462E1,7.362568E0,1.3972105E1,2.8213577E0,3.9362874E0,5.123499E0,6.056797E0,4.551673E0,2.984188E0,2.1413398E0,5.927688E0,4.212147E0,4.4047356E0,8.536024E0,7.8770328E0,0E0,0E0,0E0,0E0,0E0,0E0,0E0,0E0,0E0,0E0,0E0,0E0,0E0,0E0,0E0,0E0],"parents":[2147483647,0,0,1,1,2,2,3,3,4,4,5,5,6,6,7,7,8,8,9,9,10,10,11,11,12,12,13,13,14,14],"right_children":[2,4,6,8,10,12,14,16,18,20,22,24,26,28,30,-1,-1,-1,-1,-1,-1,-1,-1,-1,-1,-1,-1,-1,-1,-1,-1],"split_conditions":[2.0279701E-1,2.0861948E-1,2.6384372E-1,1.4338007E3,8E0,9E-1,1.5707218E3,6.2351394E-1,6.3613975E-1,-2.0104167E0,5.141642E-2,8.402778E-1,1.509379E3,3.376813E-3,1.75E0,-6.178608E-3,1.8263161E-2,-6.183094E-3,-1.2578509E-2,1.3230745E-2,-5.618905E-3,8.445083E-3,-5.2451217E-3,-1.4315132E-3,3.1201944E-3,-3.3815255E-4,-9.44588E-3,1.8905264E-3,6.687995E-3,-3.4833022E-3,7.698039E-3],"split_indices":[10,15,15,2,28,26,1,13,12,35,17,35,1,33,23,0,0,0,0,0,0,0,0,0,0,0,0,0,0,0,0],"split_type":[0,0,0,0,0,0,0,0,0,0,0,0,0,0,0,0,0,0,0,0,0,0,0,0,0,0,0,0,0,0,0],"sum_hessian":[3.4363315E3,7.458522E2,2.6904795E3,4.23568E2,3.2228418E2,1.0618104E3,1.6286691E3,1.1864925E2,3.0491876E2,2.1223236E2,1.1005183E2,8.693322E2,1.9247815E2,1.3388795E3,2.8978946E2,1.1327294E2,5.376302E0,1.0818192E2,1.9673683E2,3.7245E0,2.0850786E2,5.6320835E1,5.3730995E1,6.103843E2,2.5894794E2,8.522059E1,1.0725756E2,6.922843E2,6.465953E2,2.1501884E2,7.4770615E1],"tree_param":{"num_deleted":"0","num_feature":"40","num_nodes":"31","size_leaf_vector":"1"}},{"base_weights":[4.8690435E-4,3.5636353E-1,-2.2601399E-1,1.0752366E-1,5.243888E-1,-3.4348252E-1,-5.0719324E-3,-3.6426906E-2,2.1187384E-1,6.672064E-1,4.0059614E-1,-2.237091E-1,-4.4208217E-1,-6.4601146E-2,2.4339141E-1,2.7841253E-3,-4.240474E-3,2.325368E-2,5.6037703E-3,2.2937289E-2,1.4312868E-2,-9.427302E-3,1.2517541E-2,-4.397627E-3,-9.144796E-3,-1.4819852E-2,-9.9698985E-3,-1.232448E-3,-1.2748436E-2,-7.541287E-3,8.694775E-3],"categories":[],"categories_nodes":[],"categories_segments":[],"categories_sizes":[],"default_left":[0,0,1,0,0,0,0,0,0,1,0,0,1,0,0,0,0,0,0,0,0,0,0,0,0,0,0,0,0,0,0],"id":26,"left_children":[1,3,5,7,9,11,13,15,17,19,21,23,25,27,29,-1,-1,-1,-1,-1,-1,-1,-1,-1,-1,-1,-1,-1,-1,-1,-1],"loss_changes":[3.163169E2,6.3700714E1,6.2233467E1,9.2939E0,1.5563446E1,1.8291061E1,1.237318E1,3.5691845E0,4.7735023E0,7.0409546E0,6.128952E0,4.358185E0,4.552429E0,5.6834755E0,3.8605785E0,0E0,0E0,0E0,0E0,0E0,0E0,0E0,0E0,0E0,0E0,0E0,0E0,0E0,0E0,0E0,0E0],"parents":[2147483647,0,0,1,1,2,2,3,3,4,4,5,5,6,6,7,7,8,8,9,9,10,10,11,11,12,12,13,13,14,14],"right_children":[2,4,6,8,10,12,14,16,18,20,22,24,26,28,30,-1,-1,-1,-1,-1,-1,-1,-1,-1,-1,-1,-1,-1,-1,-1,-1],"split_conditions":[3.4809265E-1,4.3154904E-1,2.577049E-1,3.2941124E-1,1.7635934E-1,5.743352E-1,4.046354E-1,-5.076811E-2,-1.4171187E0,2.4030417E-1,2.0833334E-2,6.843941E-1,1.611935E-1,3.1518328E-1,4.5457475E-2,2.7841253E-3,-4.240474E-3,2.325368E-2,5.6037703E-3,2.2937289E-2,1.4312868E-2,-9.427302E-3,1.2517541E-2,-4.397627E-3,-9.144796E-3,-1.4819852E-2,-9.9698985E-3,-1.232448E-3,-1.2748436E-2,-7.541287E-3,8.694775E-3],"split_indices":[9,16,16,16,9,9,16,39,7,15,27,4,16,15,17,0,0,0,0,0,0,0,0,0,0,0,0,0,0,0,0],"split_type":[0,0,0,0,0,0,0,0,0,0,0,0,0,0,0,0,0,0,0,0,0,0,0,0,0,0,0,0,0,0,0],"sum_hessian":[3.920218E3,1.5242229E3,2.395995E3,6.1568835E2,9.0853455E2,1.5635769E3,8.3241815E2,2.592946E2,3.5639377E2,4.177748E2,4.9075974E2,7.0893695E2,8.5464E2,6.7272125E2,1.5969696E2,1.1629134E2,1.4300327E2,1.2643935E1,3.4374985E2,2.7227762E2,1.4549718E2,1.0360354E1,4.8039938E2,3.6629755E2,3.4263937E2,5.754497E2,2.7919028E2,6.3359503E2,3.912622E1,1.2944435E1,1.4675252E2],"tree_param":{"num_deleted":"0","num_feature":"40","num_nodes":"31","size_leaf_vector":"1"}},{"base_weights":[-6.1470354E-3,-2.6057607E-1,2.6181653E-1,-3.855722E-1,-5.8378365E-2,1.2838213E-2,4.030949E-1,-1.3787256E-1,-4.300816E-1,1.0169812E-1,-1.2833914E-1,-1.6204569E-1,9.218965E-2,5.000497E-1,2.1778217E-1,1.1882398E-2,-5.1997397E-3,-1.761041E-2,-1.15535185E-2,-3.5530378E-3,5.2325362E-3,-2.619727E-3,-8.956312E-3,-1.1609835E-2,-1.0497546E-3,1.1871954E-3,8.042359E-3,1.06218215E-2,1.7184395E-2,5.83099E-3,1.9152267E-2],"categories":[],"categories_nodes":[],"categories_segments":[],"categories_sizes":[],"default_left":[0,1,0,0,0,0,0,0,0,0,0,0,0,0,0,0,0,0,0,0,0,0,0,0,0,0,0,0,0,0,0],"id":27,"left_children":[1,3,5,7,9,11,13,15,17,19,21,23,25,27,29,-1,-1,-1,-1,-1,-1,-1,-1,-1,-1,-1,-1,-1,-1,-1,-1],"loss_changes":[3.0279047E2,5.7531662E1,7.607678E1,1.5398544E1,9.798971E0,1.0925401E1,2.457576E1,4.2512627E0,7.959915E0,4.307653E0,4.1932154E0,6.997448E0,4.9888268E0,9.201706E0,4.4552517E0,0E0,0E0,0E0,0E0,0E0,0E0,0E0,0E0,0E0,0E0,0E0,0E0,0E0,0E0,0E0,0E0],"parents":[2147483647,0,0,1,1,2,2,3,3,4,4,5,5,6,6,7,7,8,8,9,9,10,10,11,11,12,12,13,13,14,14],"right_children":[2,4,6,8,10,12,14,16,18,20,22,24,26,28,30,-1,-1,-1,-1,-1,-1,-1,-1,-1,-1,-1,-1,-1,-1,-1,-1],"split_conditions":[2.917164E-1,3.361741E-1,5.2446586E-1,3.695358E-1,2.6465678E-1,3.9909163E-1,1.716306E-1,5.2083332E-2,1.7442961E-1,-6E-1,9E0,1.2E0,5.480894E-2,6.4535034E-1,2.9457784E-1,1.1882398E-2,-5.1997397E-3,-1.761041E-2,-1.15535185E-2,-3.5530378E-3,5.2325362E-3,-2.619727E-3,-8.956312E-3,-1.1609835E-2,-1.0497546E-3,1.1871954E-3,8.042359E-3,1.06218215E-2,1.7184395E-2,5.83099E-3,1.9152267E-2],"split_indices":[7,14,14,11,16,14,11,28,14,26,27,20,17,14,11,0,0,0,0,0,0,0,0,0,0,0,0,0,0,0,0],"split_type":[0,0,0,0,0,0,0,0,0,0,0,0,0,0,0,0,0,0,0,0,0,0,0,0,0,0,0,0,0,0,0],"sum_hessian":[4.4371924E3,2.2761055E3,2.161087E3,1.405456E3,8.706495E2,7.831334E2,1.3779535E3,2.1532802E2,1.190128E3,2.6451297E2,6.0613654E2,2.4377954E2,5.393539E2,9.0241626E2,4.755373E2,1.2140001E1,2.0318802E2,2.5968372E2,9.3044434E2,6.537042E1,1.9914256E2,4.9087457E2,1.1526195E2,8.651426E1,1.5726527E2,4.1704617E2,1.22307686E2,3.0407245E2,5.9834375E2,4.5323062E2,2.2306694E1],"tree_param":{"num_deleted":"0","num_feature":"40","num_nodes":"31","size_leaf_vector":"1"}},{"base_weights":[3.4530242E-3,-1.9694991E-1,5.8763146E-2,-3.2874918E-1,-1.22701906E-1,-4.677963E-2,1.2259137E-1,-1.6044039E-1,-3.8749346E-1,-2.4695823E-2,-2.2296253E-1,-1.7322558E-1,-1.269256E-2,7.289568E-2,1.9465439E-1,-6.656638E-3,1.9601917E-2,-1.2239047E-2,2.3007526E-3,3.259382E-3,-4.446335E-3,-1.589214E-2,-5.499889E-3,-5.505039E-4,-1.08837355E-2,-4.0668002E-3,1.0361603E-3,2.983433E-3,-2.800138E-3,5.142027E-3,1.621537E-2],"categories":[],"categories_nodes":[],"categories_segments":[],"categories_sizes":[],"default_left":[0,1,0,0,0,1,0,0,0,0,0,1,0,0,0,0,0,0,0,0,0,0,0,0,0,0,0,0,0,0,0],"id":28,"left_children":[1,3,5,7,9,11,13,15,17,19,21,23,25,27,29,-1,-1,-1,-1,-1,-1,-1,-1,-1,-1,-1,-1,-1,-1,-1,-1],"loss_changes":[3.8101864E1,7.195307E0,1.8158873E1,2.5128956E0,4.6936393E0,4.3774805E0,5.9852524E0,3.911753E0,1.928318E0,4.0568542E0,2.680294E0,6.319764E0,4.6688857E0,4.4193516E0,5.317089E0,0E0,0E0,0E0,0E0,0E0,0E0,0E0,0E0,0E0,0E0,0E0,0E0,0E0,0E0,0E0,0E0],"parents":[2147483647,0,0,1,1,2,2,3,3,4,4,5,5,6,6,7,7,8,8,9,9,10,10,11,11,12,12,13,13,14,14],"right_children":[2,4,6,8,10,12,14,16,18,20,22,24,26,28,30,-1,-1,-1,-1,-1,-1,-1,-1,-1,-1,-1,-1,-1,-1,-1,-1],"split_conditions":[2.0375504E-1,1.7355387E-1,2.627641E-1,1.427325E3,1.667348E-3,4.1041665E0,2E-1,1.8782604E-1,1.9899859E-1,3.2707534E0,3.7305534E-1,3.2083333E0,4.681067E-1,5.1047516E-1,3.2262248E-1,-6.656638E-3,1.9601917E-2,-1.2239047E-2,2.3007526E-3,3.259382E-3,-4.446335E-3,-1.589214E-2,-5.499889E-3,-5.505039E-4,-1.08837355E-2,-4.0668002E-3,1.0361603E-3,2.983433E-3,-2.800138E-3,5.142027E-3,1.621537E-2],"split_indices":[10,15,15,2,34,27,26,10,10,8,13,28,13,11,39,0,0,0,0,0,0,0,0,0,0,0,0,0,0,0,0],"split_type":[0,0,0,0,0,0,0,0,0,0,0,0,0,0,0,0,0,0,0,0,0,0,0,0,0,0,0,0,0,0,0],"sum_hessian":[3.4333706E3,7.4152203E2,2.6918486E3,2.647331E2,4.7678897E2,1.01463654E3,1.677212E3,7.042375E1,1.9430936E2,2.423658E2,2.3442316E2,2.1371123E2,8.0092535E2,9.950408E2,6.8217126E2,6.683238E1,3.591364E0,1.8633261E2,7.976743E0,1.1666262E2,1.25703186E2,2.3990917E1,2.1043224E2,1.1882477E2,9.488646E1,2.2135406E2,5.795712E2,8.586882E2,1.3635262E2,6.4199817E2,4.017307E1],"tree_param":{"num_deleted":"0","num_feature":"40","num_nodes":"31","size_leaf_vector":"1"}},{"base_weights":[7.523429E-3,4.023301E-1,-1.7955516E-1,2.0074098E-1,5.8903223E-1,-3.1289673E-1,3.0858323E-2,2.8633064E-1,-3.653808E-2,7.5545776E-1,5.109311E-1,-4.1370636E-1,-2.156681E-1,-3.399812E-2,2.5326273E-1,7.469916E-3,1.8401295E-2,3.647705E-3,-5.0650127E-3,2.3215352E-2,-2.1898118E-3,1.5038814E-3,1.5930098E-2,-1.3144104E-2,-4.508724E-3,-1.2358873E-2,-5.5232486E-3,-1.3584038E-3,1.3847606E-2,3.500745E-3,1.3679057E-2],"categories":[],"categories_nodes":[],"categories_segments":[],"categories_sizes":[],"default_left":[0,0,1,0,0,0,0,0,0,0,0,1,0,1,0,0,0,0,0,0,0,0,0,0,0,0,0,0,0,0,0],"id":29,"left_children":[1,3,5,7,9,11,13,15,17,19,21,23,25,27,29,-1,-1,-1,-1,-1,-1,-1,-1,-1,-1,-1,-1,-1,-1,-1,-1],"loss_changes":[2.8892963E2,4.7098495E1,7.448888E1,1.2363674E1,7.701584E0,1.574762E1,1.4894376E1,5.150757E0,3.4485636E0,3.2210922E0,4.1077423E0,4.9879913E0,4.998169E0,4.5163884E0,6.3466644E0,0E0,0E0,0E0,0E0,0E0,0E0,0E0,0E0,0E0,0E0,0E0,0E0,0E0,0E0,0E0,0E0],"parents":[2147483647,0,0,1,1,2,2,3,3,4,4,5,5,6,6,7,7,8,8,9,9,10,10,11,11,12,12,13,13,14,14],"right_children":[2,4,6,8,10,12,14,16,18,20,22,24,26,28,30,-1,-1,-1,-1,-1,-1,-1,-1,-1,-1,-1,-1,-1,-1,-1,-1],"split_conditions":[-2.0552067E-1,4.9743167E-1,2.608398E-1,3.7614793E-1,1.5915784E-1,1.6895135E-1,4.046354E-1,3.3490803E0,2.747591E-1,1.2987646E0,-2E0,2.2032687E-1,1.540538E-1,3E0,4.1007172E-2,7.469916E-3,1.8401295E-2,3.647705E-3,-5.0650127E-3,2.3215352E-2,-2.1898118E-3,1.5038814E-3,1.5930098E-2,-1.3144104E-2,-4.508724E-3,-1.2358873E-2,-5.5232486E-3,-1.3584038E-3,1.3847606E-2,3.500745E-3,1.3679057E-2],"split_indices":[7,16,16,14,14,11,16,8,15,5,36,16,16,38,33,0,0,0,0,0,0,0,0,0,0,0,0,0,0,0,0],"split_type":[0,0,0,0,0,0,0,0,0,0,0,0,0,0,0,0,0,0,0,0,0,0,0,0,0,0,0,0,0,0,0],"sum_hessian":[3.9079055E3,1.2556683E3,2.652237E3,6.057587E2,6.4990967E2,1.622846E3,1.0293912E3,4.4487357E2,1.6088518E2,2.0203914E2,4.4787048E2,7.935543E2,8.292916E2,7.982917E2,2.310995E2,4.0245465E2,4.2418922E1,7.336112E1,8.7524055E1,1.9778127E2,4.2578773E0,1.8986557E1,4.2888394E2,7.249887E2,6.8565575E1,1.11525246E2,7.1776636E2,7.8229987E2,1.59918165E1,1.3995645E2,9.114305E1],"tree_param":{"num_deleted":"0","num_feature":"40","num_nodes":"31","size_leaf_vector":"1"}},{"base_weights":[-1.373316E-3,-2.1506123E-1,2.9558098E-1,-3.4628344E-1,-3.0489458E-2,4.6726415E-1,1.13322005E-1,-1.06487274E-1,-4.04687E-1,-8.082572E-2,2.3730597E-1,5.3131974E-1,3.0603376E-1,-2.0803782E-1,1.8095663E-1,3.4852498E-3,-5.805432E-3,-1.4728596E-2,-9.253838E-3,-3.335298E-3,4.437622E-3,-1.3839527E-2,8.110516E-3,2.5585159E-3,1.6473226E-2,5.1158597E-3,1.3026666E-2,-1.7612828E-2,-4.0160595E-3,1.4208809E-2,4.7367243E-3],"categories":[],"categories_nodes":[],"categories_segments":[],"categories_sizes":[],"default_left":[0,1,1,0,0,0,0,0,1,0,0,0,1,0,0,0,0,0,0,0,0,0,0,0,0,0,0,0,0,0,0],"id":30,"left_children":[1,3,5,7,9,11,13,15,17,19,21,23,25,27,29,-1,-1,-1,-1,-1,-1,-1,-1,-1,-1,-1,-1,-1,-1,-1,-1],"loss_changes":[2.8158344E2,6.247914E1,5.7999756E1,2.103395E1,1.4522215E1,9.543762E0,1.9710209E1,5.8208833E0,9.757767E0,6.322702E0,4.1859627E0,5.3106995E0,4.653324E0,4.2848926E0,4.895729E0,0E0,0E0,0E0,0E0,0E0,0E0,0E0,0E0,0E0,0E0,0E0,0E0,0E0,0E0,0E0,0E0],"parents":[2147483647,0,0,1,1,2,2,3,3,4,4,5,5,6,6,7,7,8,8,9,9,10,10,11,11,12,12,13,13,14,14],"right_children":[2,4,6,8,10,12,14,16,18,20,22,24,26,28,30,-1,-1,-1,-1,-1,-1,-1,-1,-1,-1,-1,-1,-1,-1,-1,-1],"split_conditions":[4.7546613E-1,3.4208548E-1,1.6636452E-1,3.619507E-1,5.264642E-1,1.5635192E-1,3.9909163E-1,-5.555556E-1,2.1790347E-1,2.25E0,7.243437E-1,-1.8E0,6.0777986E-1,7.5E-1,1.3846249E3,3.4852498E-3,-5.805432E-3,-1.4728596E-2,-9.253838E-3,-3.335298E-3,4.437622E-3,-1.3839527E-2,8.110516E-3,2.5585159E-3,1.6473226E-2,5.1158597E-3,1.3026666E-2,-1.7612828E-2,-4.0160595E-3,1.4208809E-2,4.7367243E-3],"split_indices":[9,14,16,11,14,11,14,22,14,23,6,25,14,20,2,0,0,0,0,0,0,0,0,0,0,0,0,0,0,0,0],"split_type":[0,0,0,0,0,0,0,0,0,0,0,0,0,0,0,0,0,0,0,0,0,0,0,0,0,0,0,0,0,0,0],"sum_hessian":[4.4334883E3,2.5785317E3,1.8549565E3,1.5060476E3,1.072484E3,9.535809E2,9.013756E2,2.9607108E2,1.2099766E3,9.039661E2,1.6851794E2,6.791636E2,2.744173E2,1.5600069E2,7.4537494E2,8.3011955E1,2.1305913E2,6.336793E2,5.7629724E2,7.989823E2,1.0498381E2,6.440156E0,1.6207779E2,2.6490644E1,6.52673E2,1.3566718E2,1.387501E2,2.3265661E1,1.3273503E2,5.1598663E1,6.9377625E2],"tree_param":{"num_deleted":"0","num_feature":"40","num_nodes":"31","size_leaf_vector":"1"}},{"base_weights":[-1.7340548E-3,-1.8588401E-1,5.765411E-2,-1.4207926E-1,-3.2194543E-1,8.672841E-2,-2.9738165E-2,-1.0583306E-1,-3.52321E-1,-1.9226618E-1,-4.1022027E-1,7.6205306E-2,4.825971E-1,7.845122E-1,-4.1246705E-2,-8.723511E-3,-1.9476312E-3,-1.3667761E-2,-2.557488E-3,-8.726284E-3,6.950472E-3,-1.7036373E-2,-9.690853E-3,-4.681146E-3,2.6804677E-3,-8.349097E-3,1.9800058E-2,-2.0581638E-3,3.0746054E-2,8.50984E-5,-6.272414E-3],"categories":[],"categories_nodes":[],"categories_segments":[],"categories_sizes":[],"default_left":[0,0,0,0,0,0,0,0,0,0,0,0,0,0,0,0,0,0,0,0,0,0,0,0,0,0,0,0,0,0,0],"id":31,"left_children":[1,3,5,7,9,11,13,15,17,19,21,23,25,27,29,-1,-1,-1,-1,-1,-1,-1,-1,-1,-1,-1,-1,-1,-1,-1,-1],"loss_changes":[3.7640415E1,4.910816E0,6.617834E0,4.7908688E0,2.1640472E0,8.063653E0,6.166764E0,4.1045747E0,2.4881248E0,3.7263165E0,1.267746E0,5.843383E0,7.1444054E0,2.0220323E0,4.7659235E0,0E0,0E0,0E0,0E0,0E0,0E0,0E0,0E0,0E0,0E0,0E0,0E0,0E0,0E0,0E0,0E0],"parents":[2147483647,0,0,1,1,2,2,3,3,4,4,5,5,6,6,7,7,8,8,9,9,10,10,11,11,12,12,13,13,14,14],"right_children":[2,4,6,8,10,12,14,16,18,20,22,24,26,28,30,-1,-1,-1,-1,-1,-1,-1,-1,-1,-1,-1,-1,-1,-1,-1,-1],"split_conditions":[2.0985073E-1,2.674167E0,1.5707218E3,2.0573145E-1,3.5E0,2E0,-1.625E0,8.27035E-1,5.578799E-1,1.7999361E-1,2.0769083E0,1.7442961E-1,4.0636134E-1,-2.1111112E0,3.1097076E0,-8.723511E-3,-1.9476312E-3,-1.3667761E-2,-2.557488E-3,-8.726284E-3,6.950472E-3,-1.7036373E-2,-9.690853E-3,-4.681146E-3,2.6804677E-3,-8.349097E-3,1.9800058E-2,-2.0581638E-3,3.0746054E-2,8.50984E-5,-6.272414E-3],"split_indices":[10,5,1,34,31,36,22,5,13,34,7,14,13,22,8,0,0,0,0,0,0,0,0,0,0,0,0,0,0,0,0],"split_type":[0,0,0,0,0,0,0,0,0,0,0,0,0,0,0,0,0,0,0,0,0,0,0,0,0,0,0,0,0,0,0],"sum_hessian":[3.4378186E3,8.372929E2,2.6005256E3,6.364707E2,2.0082224E2,1.9513512E3,6.4917456E2,5.454419E2,9.1028755E1,8.391048E1,1.1691176E2,1.9031461E3,4.820501E1,7.17527E0,6.4199927E2,9.658694E1,4.4885498E2,6.462704E1,2.6401718E1,6.858537E1,1.5325105E1,3.7706135E1,7.920562E1,1.0077323E2,1.8023729E3,8.899028E0,3.930598E1,1.8913326E0,5.2839375E0,5.1000677E2,1.3199251E2],"tree_param":{"num_deleted":"0","num_feature":"40","num_nodes":"31","size_leaf_vector":"1"}},{"base_weights":[3.666016E-3,3.1221655E-1,-2.275145E-1,4.3118405E-1,4.230829E-2,-3.3686915E-1,1.4698121E-2,5.962524E-1,2.9973236E-1,5.468666E-1,2.1381047E-2,-2.262648E-1,-4.2697662E-1,-3.9022602E-2,2.537896E-1,2.2494828E-2,1.4195702E-2,1.5965411E-2,7.5351405E-3,-8.729203E-3,2.2624968E-2,1.0616183E-2,-2.632282E-4,-4.844689E-3,-1.07853925E-2,-1.4496266E-2,-1.064263E-2,-2.6623283E-3,3.7892137E-3,6.2462706E-3,2.5922352E-2],"categories":[],"categories_nodes":[],"categories_segments":[],"categories_sizes":[],"default_left":[0,1,1,0,1,0,0,1,0,0,0,1,1,0,0,0,0,0,0,0,0,0,0,0,0,0,0,0,0,0,0],"id":32,"left_children":[1,3,5,7,9,11,13,15,17,19,21,23,25,27,29,-1,-1,-1,-1,-1,-1,-1,-1,-1,-1,-1,-1,-1,-1,-1,-1],"loss_changes":[2.8026102E2,5.4001724E1,5.9503677E1,2.4982803E1,5.4362545E0,1.5230286E1,9.018136E0,9.036667E0,7.116497E0,4.0011826E0,5.0048604E0,5.9172325E0,3.1114197E0,4.7391543E0,3.22299E0,0E0,0E0,0E0,0E0,0E0,0E0,0E0,0E0,0E0,0E0,0E0,0E0,0E0,0E0,0E0,0E0],"parents":[2147483647,0,0,1,1,2,2,3,3,4,4,5,5,6,6,7,7,8,8,9,9,10,10,11,11,12,12,13,13,14,14],"right_children":[2,4,6,8,10,12,14,16,18,20,22,24,26,28,30,-1,-1,-1,-1,-1,-1,-1,-1,-1,-1,-1,-1,-1,-1,-1,-1],"split_conditions":[4.2253062E-2,3.2950395E-1,2.6465678E-1,2.4066782E-1,2.0833333E-1,5.743352E-1,4.046354E-1,1.5915784E-1,1.9442947E-1,-8E-1,1.401213E3,5.518762E-1,1.3625413E-1,2.600243E1,2.75E0,2.2494828E-2,1.4195702E-2,1.5965411E-2,7.5351405E-3,-8.729203E-3,2.2624968E-2,1.0616183E-2,-2.632282E-4,-4.844689E-3,-1.07853925E-2,-1.4496266E-2,-1.064263E-2,-2.6623283E-3,3.7892137E-3,6.2462706E-3,2.5922352E-2],"split_indices":[7,14,16,10,28,9,16,14,14,25,1,14,16,3,23,0,0,0,0,0,0,0,0,0,0,0,0,0,0,0,0],"split_type":[0,0,0,0,0,0,0,0,0,0,0,0,0,0,0,0,0,0,0,0,0,0,0,0,0,0,0,0,0,0,0],"sum_hessian":[3.9250361E3,1.6808925E3,2.2441438E3,1.165833E3,5.150595E2,1.5455667E3,6.9857715E2,5.136959E2,6.52137E2,1.8510303E1,4.965492E2,6.970184E2,8.485482E2,5.717794E2,1.2679776E2,2.2398648E2,2.8970947E2,1.09253395E2,5.4288367E2,3.511321E0,1.4998983E1,3.950443E1,4.5704477E2,4.719945E2,2.250239E2,4.7068887E2,3.778593E2,4.402915E2,1.314879E2,1.2048169E2,6.3160725E0],"tree_param":{"num_deleted":"0","num_feature":"40","num_nodes":"31","size_leaf_vector":"1"}},{"base_weights":[-5.08915E-3,-2.2193211E-1,2.92849E-1,-1.1620133E-1,-4.374256E-1,3.785472E-1,-1.830894E-2,-2.334096E-2,-2.2487883E-1,-5.6676257E-1,-3.775822E-1,4.669267E-1,1.9664064E-1,-2.0914757E-1,7.012989E-2,-1.9019727E-3,5.2246195E-3,-4.730793E-3,-1.4089733E-2,-4.1253236E-3,-1.7387476E-2,-1.2835286E-2,-8.122728E-3,1.0354335E-2,1.6452307E-2,1.23059E-2,4.399764E-3,1.2103314E-2,-7.5752055E-3,7.854678E-3,-4.3178716E-4],"categories":[],"categories_nodes":[],"categories_segments":[],"categories_sizes":[],"default_left":[0,1,1,0,0,0,0,0,0,0,0,0,0,0,0,0,0,0,0,0,0,0,0,0,0,0,0,0,0,0,0],"id":33,"left_children":[1,3,5,7,9,11,13,15,17,19,21,23,25,27,29,-1,-1,-1,-1,-1,-1,-1,-1,-1,-1,-1,-1,-1,-1,-1,-1],"loss_changes":[2.8658514E2,5.8393105E1,4.9840424E1,1.7398079E1,6.1069183E0,2.3371368E1,6.8716774E0,7.3988066E0,1.2919346E1,1.2883759E0,2.8996735E0,9.392029E0,5.030266E0,3.627092E0,4.5203476E0,0E0,0E0,0E0,0E0,0E0,0E0,0E0,0E0,0E0,0E0,0E0,0E0,0E0,0E0,0E0,0E0],"parents":[2147483647,0,0,1,1,2,2,3,3,4,4,5,5,6,6,7,7,8,8,9,9,10,10,11,11,12,12,13,13,14,14],"right_children":[2,4,6,8,10,12,14,16,18,20,22,24,26,28,30,-1,-1,-1,-1,-1,-1,-1,-1,-1,-1,-1,-1,-1,-1,-1,-1],"split_conditions":[4.880132E-1,4.3154904E-1,2.499899E-1,3.4535086E-1,1.7442961E-1,1.716306E-1,3.8317323E-1,5.3204393E-1,1.7543021E0,-3E0,1.8E0,6.565941E-1,1.482591E-1,6.6790056E-1,-1.2939303E-1,-1.9019727E-3,5.2246195E-3,-4.730793E-3,-1.4089733E-2,-4.1253236E-3,-1.7387476E-2,-1.2835286E-2,-8.122728E-3,1.0354335E-2,1.6452307E-2,1.23059E-2,4.399764E-3,1.2103314E-2,-7.5752055E-3,7.854678E-3,-4.3178716E-4],"split_indices":[7,16,16,16,14,11,14,14,6,35,23,14,16,6,33,0,0,0,0,0,0,0,0,0,0,0,0,0,0,0,0],"split_type":[0,0,0,0,0,0,0,0,0,0,0,0,0,0,0,0,0,0,0,0,0,0,0,0,0,0,0,0,0,0,0],"sum_hessian":[4.431893E3,2.5653274E3,1.8665658E3,1.7230166E3,8.423107E2,1.4631549E3,4.0341095E2,9.3043134E2,7.925852E2,2.6108905E2,5.812217E2,9.8261615E2,4.8053876E2,1.2688376E2,2.765272E2,7.7466345E2,1.5576793E2,6.2447174E2,1.6811348E2,8.251632E0,2.5283742E2,3.91168E2,1.9005371E2,3.9810117E2,5.8451495E2,8.840391E1,3.9213483E2,7.289296E0,1.1959447E2,8.333439E1,1.931928E2],"tree_param":{"num_deleted":"0","num_feature":"40","num_nodes":"31","size_leaf_vector":"1"}},{"base_weights":[5.2092196E-3,-1.6542166E-1,6.1762154E-2,-2.9650676E-1,-9.702771E-2,-6.9089666E-2,9.283146E-2,-3.392942E-1,6.5222513E-3,-4.808269E-1,-8.3701454E-2,-9.1037706E-2,2.6383385E-1,1.5959287E-1,4.179935E-2,-1.2072978E-2,-4.7658323E-3,-1.5808871E-2,5.977307E-3,-1.5775444E-2,2.456174E-3,-2.739341E-3,1.6202671E-2,-3.7943881E-3,2.991219E-3,-6.6418294E-4,2.0515168E-2,-2.3733533E-3,5.7082996E-3,2.5013578E-3,-1.8646753E-3],"categories":[],"categories_nodes":[],"categories_segments":[],"categories_sizes":[],"default_left":[0,1,0,0,0,0,0,1,0,0,0,0,0,0,0,0,0,0,0,0,0,0,0,0,0,0,0,0,0,0,0],"id":34,"left_children":[1,3,5,7,9,11,13,15,17,19,21,23,25,27,29,-1,-1,-1,-1,-1,-1,-1,-1,-1,-1,-1,-1,-1,-1,-1,-1],"loss_changes":[3.352441E1,7.6960964E0,1.06204405E1,3.8364525E0,2.8414297E0,3.7146761E0,7.173319E0,2.8229332E0,4.1714106E0,5.610838E-1,2.7310312E0,3.217795E0,3.8195324E0,6.718363E0,5.1896315E0,0E0,0E0,0E0,0E0,0E0,0E0,0E0,0E0,0E0,0E0,0E0,0E0,0E0,0E0,0E0,0E0],"parents":[2147483647,0,0,1,1,2,2,3,3,4,4,5,5,6,6,7,7,8,8,9,9,10,10,11,11,12,12,13,13,14,14],"right_children":[2,4,6,8,10,12,14,16,18,20,22,24,26,28,30,-1,-1,-1,-1,-1,-1,-1,-1,-1,-1,-1,-1,-1,-1,-1,-1],"split_conditions":[2.1190536E-1,1.7538147E-1,2.4273266E-1,9.5E0,2.8333333E0,3.368122E0,1.5E3,5.2137285E-2,1.2E0,5.7713494E-2,3.1466077E2,6E0,5.2229986E-2,1.6848958E-1,1.5688822E3,-1.2072978E-2,-4.7658323E-3,-1.5808871E-2,5.977307E-3,-1.5775444E-2,2.456174E-3,-2.739341E-3,1.6202671E-2,-3.7943881E-3,2.991219E-3,-6.6418294E-4,2.0515168E-2,-2.3733533E-3,5.7082996E-3,2.5013578E-3,-1.8646753E-3],"split_indices":[10,15,15,32,27,8,2,17,24,17,3,31,17,11,1,0,0,0,0,0,0,0,0,0,0,0,0,0,0,0,0],"split_type":[0,0,0,0,0,0,0,0,0,0,0,0,0,0,0,0,0,0,0,0,0,0,0,0,0,0,0,0,0,0,0],"sum_hessian":[3.4700305E3,8.628373E2,2.6071934E3,2.935478E2,5.692895E2,4.9979678E2,2.1073965E3,2.5701773E2,3.6530045E1,1.6749107E1,5.5254034E2,4.7024866E2,2.9548126E1,9.1115186E2,1.1962446E3,1.8857097E2,6.844677E1,8.7738695E0,2.7756174E1,1.5629576E1,1.1195322E0,5.4756757E2,4.9727964E0,3.9713226E2,7.311642E1,1.870609E1,1.0842035E1,1.0342219E2,8.077297E2,8.547599E2,3.4148474E2],"tree_param":{"num_deleted":"0","num_feature":"40","num_nodes":"31","size_leaf_vector":"1"}},{"base_weights":[2.2909846E-3,-1.9514455E-1,3.253532E-1,-3.5098535E-1,-1.7770194E-2,4.7259992E-1,1.3099164E-1,-4.526409E-1,-2.504112E-1,-9.875369E-2,1.9666748E-1,6.427829E-1,3.967167E-1,4.7250555E-4,1.9370449E-1,-1.2059453E-2,-1.5160137E-2,-2.7786125E-3,-8.77795E-3,-5.736745E-3,-1.0770535E-3,1.3393203E-2,4.477169E-3,2.400802E-2,1.5678598E-2,1.2999186E-2,4.9904454E-3,4.9030534E-3,-2.6340357E-3,3.4416798E-3,1.0324354E-2],"categories":[],"categories_nodes":[],"categories_segments":[],"categories_sizes":[],"default_left":[0,1,1,0,0,0,0,0,0,0,0,0,0,0,0,0,0,0,0,0,0,0,0,0,0,0,0,0,0,0,0],"id":35,"left_children":[1,3,5,7,9,11,13,15,17,19,21,23,25,27,29,-1,-1,-1,-1,-1,-1,-1,-1,-1,-1,-1,-1,-1,-1,-1,-1],"loss_changes":[2.4874098E2,6.689547E1,4.2210907E1,1.2945358E1,1.9734352E1,1.0348953E1,5.24148E0,1.2976074E0,4.2866516E0,4.778698E0,3.5577278E0,4.009651E0,4.8018417E0,3.0472927E0,5.060543E0,0E0,0E0,0E0,0E0,0E0,0E0,0E0,0E0,0E0,0E0,0E0,0E0,0E0,0E0,0E0,0E0],"parents":[2147483647,0,0,1,1,2,2,3,3,4,4,5,5,6,6,7,7,8,8,9,9,10,10,11,11,12,12,13,13,14,14],"right_children":[2,4,6,8,10,12,14,16,18,20,22,24,26,28,30,-1,-1,-1,-1,-1,-1,-1,-1,-1,-1,-1,-1,-1,-1,-1,-1],"split_conditions":[3.7701058E-1,2.2032687E-1,2.7655736E-1,1.509475E-1,3.5579765E-1,2.2667599E-1,3.2442078E-1,1.991343E2,1.3565649E0,7E0,2.398586E-1,8.03468E-1,2.972138E-1,2.6689425E-1,7.7916665E0,-1.2059453E-2,-1.5160137E-2,-2.7786125E-3,-8.77795E-3,-5.736745E-3,-1.0770535E-3,1.3393203E-2,4.477169E-3,2.400802E-2,1.5678598E-2,1.2999186E-2,4.9904454E-3,4.9030534E-3,-2.6340357E-3,3.4416798E-3,1.0324354E-2],"split_indices":[11,16,14,11,16,15,16,3,5,28,14,5,9,15,27,0,0,0,0,0,0,0,0,0,0,0,0,0,0,0,0],"split_type":[0,0,0,0,0,0,0,0,0,0,0,0,0,0,0,0,0,0,0,0,0,0,0,0,0,0,0,0,0,0,0],"sum_hessian":[3.8957505E3,2.4185037E3,1.477247E3,1.286356E3,1.1321477E3,8.38866E2,6.38381E2,6.3625684E2,6.5009906E2,8.225764E2,3.0957126E2,2.5408623E2,5.847798E2,2.0783856E2,4.3054242E2,3.3319934E2,3.030575E2,1.384924E2,5.1160666E2,3.3120483E2,4.9137158E2,4.6717457E1,2.6285382E2,1.0506689E2,1.4901935E2,5.03109E2,8.16708E1,7.242725E1,1.354113E2,2.8463388E2,1.4590852E2],"tree_param":{"num_deleted":"0","num_feature":"40","num_nodes":"31","size_leaf_vector":"1"}},{"base_weights":[2.7565572E-3,-2.4387014E-1,2.5260678E-1,-3.4216082E-1,-4.236292E-2,1.4190843E-2,3.7943405E-1,-5.5994236E-1,-2.948662E-1,1.7686366E-1,-7.531942E-2,7.34844E-2,-1.4364013E-1,4.669548E-1,2.1118705E-1,7.506884E-3,-1.698647E-2,-1.0785178E-2,-5.6635397E-3,-6.6408613E-3,7.6604583E-3,-3.451646E-3,2.795025E-3,7.010385E-3,8.4436423E-4,-1.1465444E-2,-1.8202021E-3,9.846146E-3,1.6481072E-2,4.4109686E-3,1.2129449E-2],"categories":[],"categories_nodes":[],"categories_segments":[],"categories_sizes":[],"default_left":[0,1,0,0,0,0,0,0,0,0,0,0,0,0,1,0,0,0,0,0,0,0,0,0,0,0,0,0,0,0,0],"id":36,"left_children":[1,3,5,7,9,11,13,15,17,19,21,23,25,27,29,-1,-1,-1,-1,-1,-1,-1,-1,-1,-1,-1,-1,-1,-1,-1,-1],"loss_changes":[2.719442E2,4.396019E1,6.627904E1,1.5042664E1,5.3040442E0,7.1646395E0,2.0873856E1,1.6255035E0,8.301613E0,3.1152241E0,4.2819896E0,4.0265646E0,4.092545E0,1.0384293E1,5.9932556E0,0E0,0E0,0E0,0E0,0E0,0E0,0E0,0E0,0E0,0E0,0E0,0E0,0E0,0E0,0E0,0E0],"parents":[2147483647,0,0,1,1,2,2,3,3,4,4,5,5,6,6,7,7,8,8,9,9,10,10,11,11,12,12,13,13,14,14],"right_children":[2,4,6,8,10,12,14,16,18,20,22,24,26,28,30,-1,-1,-1,-1,-1,-1,-1,-1,-1,-1,-1,-1,-1,-1,-1,-1],"split_conditions":[2.917164E-1,3.5982776E-1,5.169817E-1,1.7442961E-1,2.4900362E-1,3.3095577E-1,1.716306E-1,3.031574E-1,-2.7205464E-1,1E0,1.5710332E3,-1.7023061E-1,1E0,6.565941E-1,6.1790633E-1,7.506884E-3,-1.698647E-2,-1.0785178E-2,-5.6635397E-3,-6.6408613E-3,7.6604583E-3,-3.451646E-3,2.795025E-3,7.010385E-3,8.4436423E-4,-1.1465444E-2,-1.8202021E-3,9.846146E-3,1.6481072E-2,4.4109686E-3,1.2129449E-2],"split_indices":[7,14,14,14,15,16,11,11,7,23,2,33,20,14,14,0,0,0,0,0,0,0,0,0,0,0,0,0,0,0,0],"split_type":[0,0,0,0,0,0,0,0,0,0,0,0,0,0,0,0,0,0,0,0,0,0,0,0,0,0,0,0,0,0,0],"sum_hessian":[4.409265E3,2.218971E3,2.1902942E3,1.4905286E3,7.2844226E2,7.6133124E2,1.4289629E3,2.6207056E2,1.2284581E3,9.405505E1,6.343872E2,5.5419965E2,2.0713155E2,9.3765265E2,4.913102E2,1.4160657E0,2.6065448E2,7.603615E2,4.680966E2,1.4885663E1,7.916939E1,5.138392E2,1.2054803E2,1.2041868E2,4.33781E2,5.158999E1,1.5554156E2,3.531187E2,5.84534E2,3.7144376E2,1.1986647E2],"tree_param":{"num_deleted":"0","num_feature":"40","num_nodes":"31","size_leaf_vector":"1"}},{"base_weights":[-1.9480314E-3,-1.8600923E-1,4.988315E-2,-4.231405E-1,-1.4645557E-1,8.4728E-2,-7.159013E-2,1.6132735E-1,-4.3791124E-1,-8.932383E-2,-2.6650944E-1,1.0950143E-1,-1.0482897E-2,-1.6109872E-1,4.5450464E-2,-6.573287E-3,1.3031309E-2,-1.6124355E-2,-1.014209E-2,-5.6296363E-3,8.0491614E-4,-4.794536E-3,-1.16477795E-2,-3.1952532E-3,3.7893099E-3,-2.021536E-3,3.235081E-3,6.529554E-3,-5.586899E-3,-8.016804E-3,2.7005721E-3],"categories":[],"categories_nodes":[],"categories_segments":[],"categories_sizes":[],"default_left":[0,0,0,0,0,0,0,0,0,0,0,0,0,0,0,0,0,0,0,0,0,0,0,0,0,0,0,0,0,0,0],"id":37,"left_children":[1,3,5,7,9,11,13,15,17,19,21,23,25,27,29,-1,-1,-1,-1,-1,-1,-1,-1,-1,-1,-1,-1,-1,-1,-1,-1],"loss_changes":[3.261575E1,6.9217587E0,1.1303625E1,1.059227E0,4.389127E0,4.894088E0,6.255636E0,6.144303E-1,6.728878E-1,5.050338E0,2.5721073E0,6.0029907E0,2.9097638E0,3.2984161E0,3.6674988E0,0E0,0E0,0E0,0E0,0E0,0E0,0E0,0E0,0E0,0E0,0E0,0E0,0E0,0E0,0E0,0E0],"parents":[2147483647,0,0,1,1,2,2,3,3,4,4,5,5,6,6,7,7,8,8,9,9,10,10,11,11,12,12,13,13,14,14],"right_children":[2,4,6,8,10,12,14,16,18,20,22,24,26,28,30,-1,-1,-1,-1,-1,-1,-1,-1,-1,-1,-1,-1,-1,-1,-1,-1],"split_conditions":[2.2581783E-1,1.4238268E-1,1.5728937E3,-5.411362E-1,4.4444445E-1,5.1047516E-1,2.5114897E-1,5.2283174E-1,2.7031488E0,2.0493221E-1,1.4E0,-3.0550456E-1,5.3917575E-1,-3.1195876E-1,1.5824368E3,-6.573287E-3,1.3031309E-2,-1.6124355E-2,-1.014209E-2,-5.6296363E-3,8.0491614E-4,-4.794536E-3,-1.16477795E-2,-3.1952532E-3,3.7893099E-3,-2.021536E-3,3.235081E-3,6.529554E-3,-5.586899E-3,-8.016804E-3,2.7005721E-3],"split_indices":[15,15,1,34,26,11,10,6,5,10,19,33,13,33,1,0,0,0,0,0,0,0,0,0,0,0,0,0,0,0,0],"split_type":[0,0,0,0,0,0,0,0,0,0,0,0,0,0,0,0,0,0,0,0,0,0,0,0,0,0,0,0,0,0,0],"sum_hessian":[3.4148577E3,7.4918805E2,2.6656697E3,1.0432788E2,6.4486017E2,2.0719358E3,5.937339E2,2.082456E0,1.0224543E2,4.392948E2,2.0556535E2,1.6439004E3,4.2803537E2,3.3601123E2,2.5772263E2,1.035207E0,1.047249E0,4.680369E1,5.5441734E1,2.3723332E2,2.020615E2,1.12022995E2,9.3542366E1,1.1791471E2,1.5259856E3,2.896153E2,1.3842007E2,1.9954708E1,3.1605655E2,3.0905947E1,2.268167E2],"tree_param":{"num_deleted":"0","num_feature":"40","num_nodes":"31","size_leaf_vector":"1"}},{"base_weights":[-4.0677977E-3,2.9174423E-1,-2.2494654E-1,1.7290604E-1,5.5792576E-1,-3.4609085E-1,-3.930587E-2,2.6321974E-1,-2.9837513E-2,7.4162424E-1,4.9407172E-1,-2.1718676E-1,-4.2693383E-1,-1.02536894E-1,1.21817775E-1,6.9338162E-3,1.7749831E-2,1.9134548E-2,-1.4038115E-3,-1.0233506E-2,2.2771653E-2,1.22176865E-2,1.843966E-2,-3.3321073E-3,-1.0111558E-2,-1.0379192E-2,-1.4349192E-2,-6.9922727E-4,-4.641155E-3,1.6674105E-2,2.4413143E-3],"categories":[],"categories_nodes":[],"categories_segments":[],"categories_sizes":[],"default_left":[0,1,1,1,0,0,0,0,0,0,0,1,0,0,0,0,0,0,0,0,0,0,0,0,0,0,0,0,0,0,0],"id":38,"left_children":[1,3,5,7,9,11,13,15,17,19,21,23,25,27,29,-1,-1,-1,-1,-1,-1,-1,-1,-1,-1,-1,-1,-1,-1,-1,-1],"loss_changes":[2.5596835E2,5.2782776E1,5.0412643E1,2.1268898E1,5.3199463E0,1.3955017E1,9.071074E0,8.1927185E0,4.1295695E0,2.9545593E0,3.57061E0,6.629286E0,3.12883E0,2.6329284E0,4.31756E0,0E0,0E0,0E0,0E0,0E0,0E0,0E0,0E0,0E0,0E0,0E0,0E0,0E0,0E0,0E0,0E0],"parents":[2147483647,0,0,1,1,2,2,3,3,4,4,5,5,6,6,7,7,8,8,9,9,10,10,11,11,12,12,13,13,14,14],"right_children":[2,4,6,8,10,12,14,16,18,20,22,24,26,28,30,-1,-1,-1,-1,-1,-1,-1,-1,-1,-1,-1,-1,-1,-1,-1,-1],"split_conditions":[4.2253062E-2,5.062982E-1,2.3827001E-1,3.6663178E-1,4.2693585E-1,7.965361E-1,3.5579765E-1,3.4642723E0,1.04166664E-1,6.205858E-1,6.174054E-1,4.9688034E-2,6.4535034E-1,4.1544628E-1,-2.15E0,6.9338162E-3,1.7749831E-2,1.9134548E-2,-1.4038115E-3,-1.0233506E-2,2.2771653E-2,1.22176865E-2,1.843966E-2,-3.3321073E-3,-1.0111558E-2,-1.0379192E-2,-1.4349192E-2,-6.9922727E-4,-4.641155E-3,1.6674105E-2,2.4413143E-3],"split_indices":[7,16,16,14,13,7,16,8,28,6,16,17,14,14,38,0,0,0,0,0,0,0,0,0,0,0,0,0,0,0,0],"split_type":[0,0,0,0,0,0,0,0,0,0,0,0,0,0,0,0,0,0,0,0,0,0,0,0,0,0,0,0,0,0,0],"sum_hessian":[3.9135586E3,1.6727223E3,2.2408364E3,1.1587092E3,5.14013E2,1.3549211E3,8.8591516E2,8.0120825E2,3.5750104E2,1.27109436E2,3.8690356E2,5.2507E2,8.298511E2,6.3675543E2,2.4915976E2,7.329937E2,6.821454E1,7.0406833E0,3.5046036E2,1.4254707E0,1.2568397E2,2.3003908E2,1.5686449E2,2.8055142E2,2.445186E2,3.281583E2,5.016928E2,2.5395732E2,3.827981E2,1.9066082E1,2.3009367E2],"tree_param":{"num_deleted":"0","num_feature":"40","num_nodes":"31","size_leaf_vector":"1"}},{"base_weights":[-5.0429166E-3,-2.4848233E-1,2.173932E-1,-7.3500246E-2,-3.6717957E-1,3.2285184E-1,-3.203148E-2,6.1970145E-2,-1.3725857E-1,-3.3127254E-1,-5.656205E-1,4.2280337E-1,1.730949E-1,-5.3636257E-2,4.0844935E-1,-1.4306651E-4,9.690087E-3,-1.0988229E-3,-6.244285E-3,-4.3903436E-3,-1.0863263E-2,-4.1668882E-4,-1.7325653E-2,1.5204784E-2,1.0291221E-2,1.24814855E-2,3.8070343E-3,3.559834E-3,-2.9267487E-3,1.4124897E-2,-1.1421003E-2],"categories":[],"categories_nodes":[],"categories_segments":[],"categories_sizes":[],"default_left":[0,0,1,0,1,0,0,1,1,0,0,1,0,0,0,0,0,0,0,0,0,0,0,0,0,0,0,0,0,0,0],"id":39,"left_children":[1,3,5,7,9,11,13,15,17,19,21,23,25,27,29,-1,-1,-1,-1,-1,-1,-1,-1,-1,-1,-1,-1,-1,-1,-1,-1],"loss_changes":[2.3924297E2,4.3759583E1,6.074884E1,7.4027643E0,8.577499E0,2.4144714E1,6.5900574E0,4.7943945E0,4.1367073E0,5.9882736E0,1.2294273E0,6.1656036E0,7.222538E0,4.998809E0,1.9531746E0,0E0,0E0,0E0,0E0,0E0,0E0,0E0,0E0,0E0,0E0,0E0,0E0,0E0,0E0,0E0,0E0],"parents":[2147483647,0,0,1,1,2,2,3,3,4,4,5,5,6,6,7,7,8,8,9,9,10,10,11,11,12,12,13,13,14,14],"right_children":[2,4,6,8,10,12,14,16,18,20,22,24,26,28,30,-1,-1,-1,-1,-1,-1,-1,-1,-1,-1,-1,-1,-1,-1,-1,-1],"split_conditions":[2.3013149E-1,3.895883E-1,2.4665432E-1,2.7673703E-1,6.2559724E-1,1.716306E-1,8E0,8.895833E0,6.829861E0,3.695358E-1,-4E0,1.2068634E-1,1.482591E-1,-1.6766347E-1,5.5E0,-1.4306651E-4,9.690087E-3,-1.0988229E-3,-6.244285E-3,-4.3903436E-3,-1.0863263E-2,-4.1668882E-4,-1.7325653E-2,1.5204784E-2,1.0291221E-2,1.24814855E-2,3.8070343E-3,3.559834E-3,-2.9267487E-3,1.4124897E-2,-1.1421003E-2],"split_indices":[7,16,16,16,16,11,31,28,27,11,35,16,16,33,37,0,0,0,0,0,0,0,0,0,0,0,0,0,0,0,0],"split_type":[0,0,0,0,0,0,0,0,0,0,0,0,0,0,0,0,0,0,0,0,0,0,0,0,0,0,0,0,0,0,0],"sum_hessian":[4.41418E3,2.1074749E3,2.306705E3,8.5309326E2,1.2543817E3,1.620821E3,6.8588416E2,2.730298E2,5.800635E2,1.0667048E3,1.8767683E2,9.698634E2,6.5095764E2,6.5549005E2,3.0394117E1,2.1900069E2,5.4029106E1,2.4098357E2,3.390799E2,1.5409203E2,9.1261285E2,4.05437E0,1.8362247E2,4.6710355E2,5.0275983E2,1.0143742E2,5.4952026E2,1.3246255E2,5.2302747E2,2.8915176E1,1.4789423E0],"tree_param":{"num_deleted":"0","num_feature":"40","num_nodes":"31","size_leaf_vector":"1"}},{"base_weights":[5.467544E-3,-2.0885496E-1,5.241629E-2,-1.0503493E-1,-3.1337032E-1,8.185347E-2,-3.197192E-2,5.4537255E-1,-1.2966223E-1,-3.42038E-1,1.6037828E-1,-5.618708E-2,1.0493837E-1,2.5070727E-1,-5.8400657E-2,5.0792255E-4,3.16286E-2,-2.854301E-3,-1.0405277E-2,-1.2022367E-2,-6.6715083E-3,-7.947232E-3,1.8772395E-2,-5.705788E-3,8.679932E-4,2.8381357E-3,1.3934857E-2,1.20020425E-2,-1.4109639E-2,-1.0053128E-3,-9.116184E-3],"categories":[],"categories_nodes":[],"categories_segments":[],"categories_sizes":[],"default_left":[0,0,0,0,0,0,0,0,0,1,0,0,0,0,0,0,0,0,0,0,0,0,0,0,0,0,0,0,0,0,0],"id":40,"left_children":[1,3,5,7,9,11,13,15,17,19,21,23,25,27,29,-1,-1,-1,-1,-1,-1,-1,-1,-1,-1,-1,-1,-1,-1,-1,-1],"loss_changes":[3.485493E1,6.688362E0,7.0635037E0,5.191474E0,4.308819E0,6.726282E0,5.5297127E0,3.160936E0,2.2234616E0,1.8742065E0,4.092592E0,3.4693532E0,6.622055E0,7.196268E0,4.103327E0,0E0,0E0,0E0,0E0,0E0,0E0,0E0,0E0,0E0,0E0,0E0,0E0,0E0,0E0,0E0,0E0],"parents":[2147483647,0,0,1,1,2,2,3,3,4,4,5,5,6,6,7,7,8,8,9,9,10,10,11,11,12,12,13,13,14,14],"right_children":[2,4,6,8,10,12,14,16,18,20,22,24,26,28,30,-1,-1,-1,-1,-1,-1,-1,-1,-1,-1,-1,-1,-1,-1,-1,-1],"split_conditions":[1.940962E-1,6.4931697E-1,1.5707218E3,1.441606E-1,4.8456374E-1,2.3374656E-1,2.2124205E0,1.5E0,6.925431E-1,5.1695853E-2,1.2E0,1.2E0,2E0,2.2E0,1.25E0,5.0792255E-4,3.16286E-2,-2.854301E-3,-1.0405277E-2,-1.2022367E-2,-6.6715083E-3,-7.947232E-3,1.8772395E-2,-5.705788E-3,8.679932E-4,2.8381357E-3,1.3934857E-2,1.20020425E-2,-1.4109639E-2,-1.0053128E-3,-9.116184E-3],"split_indices":[10,14,1,16,39,14,8,20,16,17,20,19,36,19,25,0,0,0,0,0,0,0,0,0,0,0,0,0,0,0,0],"split_type":[0,0,0,0,0,0,0,0,0,0,0,0,0,0,0,0,0,0,0,0,0,0,0,0,0,0,0,0,0,0,0],"sum_hessian":[3.4597805E3,6.2046075E2,2.8393198E3,3.1327744E2,3.071833E2,2.1050679E3,7.342519E2,9.886434E0,3.0339102E2,2.901798E2,1.7003456E1,3.0118817E2,1.8038799E3,6.1327427E1,6.729245E2,5.8639812E0,4.022453E0,2.6426468E2,3.912633E1,1.9151567E2,9.8664154E1,9.334475E0,7.6689806E0,1.1603845E2,1.8514972E2,1.7559395E3,4.7940376E1,5.1541008E1,9.786418E0,6.130372E2,5.988732E1],"tree_param":{"num_deleted":"0","num_feature":"40","num_nodes":"31","size_leaf_vector":"1"}},{"base_weights":[-2.718781E-3,-1.903622E-1,2.980628E-1,-2.6163464E-2,-3.3629045E-1,1.009359E-1,4.157882E-1,-9.8376185E-2,1.5966626E-1,-1.9679917E-1,-4.1812775E-1,-1.9797416E-2,1.7699373E-1,6.38534E-1,3.3677152E-1,7.7646493E-4,-4.2027645E-3,1.3518699E-2,3.1762626E-3,-2.9281855E-3,-9.91529E-3,-1.0119318E-2,-1.3958325E-2,4.101729E-3,-3.735285E-3,4.092091E-3,1.7807217E-2,2.5592776E-2,1.38256885E-2,-4.977947E-3,1.0479584E-2],"categories":[],"categories_nodes":[],"categories_segments":[],"categories_sizes":[],"default_left":[0,0,0,0,0,0,0,0,0,1,0,0,0,1,0,0,0,0,0,0,0,0,0,0,0,0,0,0,0,0,0],"id":41,"left_children":[1,3,5,7,9,11,13,15,17,19,21,23,25,27,29,-1,-1,-1,-1,-1,-1,-1,-1,-1,-1,-1,-1,-1,-1,-1,-1],"loss_changes":[2.2069115E2,5.768026E1,3.4778183E1,1.52652645E1,1.4387405E1,5.1891527E0,1.6112732E1,4.2513905E0,4.8886213E0,6.2370853E0,2.7406921E0,3.6383004E0,5.6959076E0,8.510986E0,4.5189514E0,0E0,0E0,0E0,0E0,0E0,0E0,0E0,0E0,0E0,0E0,0E0,0E0,0E0,0E0,0E0,0E0],"parents":[2147483647,0,0,1,1,2,2,3,3,4,4,5,5,6,6,7,7,8,8,9,9,10,10,11,11,12,12,13,13,14,14],"right_children":[2,4,6,8,10,12,14,16,18,20,22,24,26,28,30,-1,-1,-1,-1,-1,-1,-1,-1,-1,-1,-1,-1,-1,-1,-1,-1],"split_conditions":[3.7701058E-1,5.169817E-1,4.3154904E-1,3.5579765E-1,5.533172E-1,3.2941124E-1,1.24364085E-1,-5.555556E-1,2.3650473E-1,4.9775377E-2,6.4535034E-1,-7.328643E-2,2.175577E0,1.3580553E-1,-5.5E0,7.7646493E-4,-4.2027645E-3,1.3518699E-2,3.1762626E-3,-2.9281855E-3,-9.91529E-3,-1.0119318E-2,-1.3958325E-2,4.101729E-3,-3.735285E-3,4.092091E-3,1.7807217E-2,2.5592776E-2,1.38256885E-2,-4.977947E-3,1.0479584E-2],"split_indices":[11,14,16,16,9,16,9,22,14,17,14,39,6,14,37,0,0,0,0,0,0,0,0,0,0,0,0,0,0,0,0],"split_type":[0,0,0,0,0,0,0,0,0,0,0,0,0,0,0,0,0,0,0,0,0,0,0,0,0,0,0,0,0,0,0],"sum_hessian":[3.9062014E3,2.4059668E3,1.5002347E3,1.133222E3,1.2727448E3,5.623369E2,9.378978E2,8.1676965E2,3.1645236E2,4.7312128E2,7.996235E2,2.1790944E2,3.444275E2,2.418808E2,6.96017E2,2.0547755E2,6.112921E2,4.7073734E1,2.6937863E2,2.7360654E2,1.9951474E2,3.0063217E2,4.9899133E2,8.7101006E1,1.3080843E2,3.1626608E2,2.8161417E1,1.06124825E2,1.3575598E2,1.6354828E1,6.7966223E2],"tree_param":{"num_deleted":"0","num_feature":"40","num_nodes":"31","size_leaf_vector":"1"}},{"base_weights":[1.8819462E-3,-2.2982623E-1,2.4115752E-1,-3.2478315E-1,-3.627394E-2,3.5652637E-1,7.7024015E-4,-4.7508377E-1,-2.6009908E-1,-1.1350541E-1,8.720268E-2,4.3629014E-1,2.0844774E-1,-2.4361596E-1,4.2428683E-2,-1.5290351E-2,-9.152803E-3,-1.1965858E-2,-6.2905555E-3,-4.660581E-3,2.6985682E-3,1.6611788E-4,9.14169E-3,9.508273E-3,1.529581E-2,1.3774744E-2,4.2960914E-3,5.41697E-3,-9.497037E-3,6.888152E-5,7.4568097E-3],"categories":[],"categories_nodes":[],"categories_segments":[],"categories_sizes":[],"default_left":[0,1,1,0,0,0,0,0,0,0,0,0,0,0,0,0,0,0,0,0,0,0,0,0,0,0,0,0,0,0,0],"id":42,"left_children":[1,3,5,7,9,11,13,15,17,19,21,23,25,27,29,-1,-1,-1,-1,-1,-1,-1,-1,-1,-1,-1,-1,-1,-1,-1,-1],"loss_changes":[2.4469772E2,4.118708E1,6.0217133E1,1.4374924E1,7.0789595E0,1.7147385E1,7.2097707E0,2.3359451E0,7.219391E0,3.912702E0,5.0766125E0,8.033249E0,8.332905E0,3.3058882E0,5.0038614E0,0E0,0E0,0E0,0E0,0E0,0E0,0E0,0E0,0E0,0E0,0E0,0E0,0E0,0E0,0E0,0E0],"parents":[2147483647,0,0,1,1,2,2,3,3,4,4,5,5,6,6,7,7,8,8,9,9,10,10,11,11,12,12,13,13,14,14],"right_children":[2,4,6,8,10,12,14,16,18,20,22,24,26,28,30,-1,-1,-1,-1,-1,-1,-1,-1,-1,-1,-1,-1,-1,-1,-1,-1],"split_conditions":[2.917164E-1,3.5982776E-1,2.2914262E-1,2.1790347E-1,1.5220637E3,1.716306E-1,3.3807996E-1,1.1749989E0,-7.28665E-1,2.2E0,6.0665995E-1,6.565941E-1,1.4973961E-1,1.4543209E0,6E0,-1.5290351E-2,-9.152803E-3,-1.1965858E-2,-6.2905555E-3,-4.660581E-3,2.6985682E-3,1.6611788E-4,9.14169E-3,9.508273E-3,1.529581E-2,1.3774744E-2,4.2960914E-3,5.41697E-3,-9.497037E-3,6.888152E-5,7.4568097E-3],"split_indices":[7,14,16,14,1,11,14,5,7,23,13,14,16,5,32,0,0,0,0,0,0,0,0,0,0,0,0,0,0,0,0],"split_type":[0,0,0,0,0,0,0,0,0,0,0,0,0,0,0,0,0,0,0,0,0,0,0,0,0,0,0,0,0,0,0],"sum_hessian":[4.4095728E3,2.2402515E3,2.1693215E3,1.5020085E3,7.382428E2,1.4651752E3,7.0414636E2,4.4810287E2,1.0539056E3,4.5427005E2,2.8397278E2,9.4971216E2,5.15463E2,1.011371E2,6.030093E2,3.6900946E2,7.9093414E1,2.771724E2,7.767333E2,3.77167E2,7.710304E1,2.0795096E2,7.602181E1,3.6622592E2,5.834862E2,1.0394956E2,4.1151343E2,1.4408446E1,8.672866E1,5.0643216E2,9.657712E1],"tree_param":{"num_deleted":"0","num_feature":"40","num_nodes":"31","size_leaf_vector":"1"}},{"base_weights":[4.0569324E-3,-1.9296762E-1,4.826837E-2,-1.04515955E-1,-2.8772664E-1,8.248371E-2,-4.8954047E-2,6.2736756E-1,-1.369051E-1,-1.2894726E-1,-3.748111E-1,-1.839632E-2,1.0811219E-1,6.6551375E-1,-5.9434693E-2,-5.297895E-3,2.5764387E-2,-3.0703212E-3,-1.0634165E-2,-5.594539E-3,1.4555408E-2,-1.170159E-2,6.6136345E-3,-2.0317358E-3,3.2030966E-3,2.918027E-3,1.4015534E-2,2.6656905E-2,-3.1810445E-3,-3.651616E-3,1.6246146E-3],"categories":[],"categories_nodes":[],"categories_segments":[],"categories_sizes":[],"default_left":[0,0,0,0,0,0,0,0,0,0,1,0,0,0,0,0,0,0,0,0,0,0,0,0,0,0,0,0,0,0,0],"id":43,"left_children":[1,3,5,7,9,11,13,15,17,19,21,23,25,27,29,-1,-1,-1,-1,-1,-1,-1,-1,-1,-1,-1,-1,-1,-1,-1,-1],"loss_changes":[2.9887604E1,5.2104664E0,9.329426E0,7.9560785E0,4.0853863E0,5.364683E0,5.5506506E0,2.9594817E0,2.304357E0,4.074067E0,1.9346275E0,2.6184747E0,6.3486137E0,2.034618E0,5.121103E0,0E0,0E0,0E0,0E0,0E0,0E0,0E0,0E0,0E0,0E0,0E0,0E0,0E0,0E0,0E0,0E0],"parents":[2147483647,0,0,1,1,2,2,3,3,4,4,5,5,6,6,7,7,8,8,9,9,10,10,11,11,12,12,13,13,14,14],"right_children":[2,4,6,8,10,12,14,16,18,20,22,24,26,28,30,-1,-1,-1,-1,-1,-1,-1,-1,-1,-1,-1,-1,-1,-1,-1,-1],"split_conditions":[1.9579755E-1,6.565941E-1,1.5707218E3,1.441606E-1,1.4330221E3,-6.333523E-1,-1.625E0,-7.732541E-2,6.925431E-1,5.939005E-1,6.40346E-2,1.8E0,4E0,1.283445E2,2.5772086E-1,-5.297895E-3,2.5764387E-2,-3.0703212E-3,-1.0634165E-2,-5.594539E-3,1.4555408E-2,-1.170159E-2,6.6136345E-3,-2.0317358E-3,3.2030966E-3,2.918027E-3,1.4015534E-2,2.6656905E-2,-3.1810445E-3,-3.651616E-3,1.6246146E-3],"split_indices":[10,14,1,16,2,7,22,33,16,13,17,24,37,3,10,0,0,0,0,0,0,0,0,0,0,0,0,0,0,0,0],"split_type":[0,0,0,0,0,0,0,0,0,0,0,0,0,0,0,0,0,0,0,0,0,0,0,0,0,0,0,0,0,0,0],"sum_hessian":[3.426983E3,6.268315E2,2.8001514E3,3.2638098E2,3.004505E2,2.0714517E3,7.286997E2,1.2274737E1,3.1410626E2,1.0817626E2,1.9227425E2,4.197554E2,1.6516963E3,8.727762E0,7.199719E2,2.8497224E0,9.4250145E0,2.735871E2,4.0519165E1,1.0018285E2,7.9934096E0,1.881462E2,4.128047E0,3.017522E2,1.18003204E2,1.6057417E3,4.5954475E1,6.5351634E0,2.1925986E0,4.6490164E2,2.5507028E2],"tree_param":{"num_deleted":"0","num_feature":"40","num_nodes":"31","size_leaf_vector":"1"}},{"base_weights":[4.018329E-3,-1.8938407E-1,2.983792E-1,-7.3708385E-2,-3.6385676E-1,1.9970092E-1,5.419623E-1,2.11494E-1,-1.3573828E-1,-3.7775165E-1,1.1466761E-1,1.5846929E-1,3.393397E-1,6.7619437E-1,4.4557393E-1,-3.8639418E-4,1.24338055E-2,-7.7290167E-3,-2.881021E-3,-8.928799E-3,-1.3078887E-2,-7.2295847E-3,1.4248383E-2,4.359896E-3,2.1092225E-2,