{"learner":{"attributes":{"best_iteration":"77","best_score":"0.9998431462783868","scikit_learn":"{\"_estimator_type\": \"classifier\"}"},"feature_names":["is_neutral","elo_home_pre","elo_away_pre","elo_diff_pre","elo_p_home_implied","dc_lambda_home","dc_lambda_away","dc_lambda_diff","dc_lambda_sum","dc_p_home","dc_p_draw","dc_p_away","dc_p_over25","dc_p_btts","market_p_home","market_p_draw","market_p_away","market_overround","has_market","home_gf_roll5","home_ga_roll5","home_gd_roll5","home_gd_roll10","away_gf_roll5","away_ga_roll5","away_gd_roll5","away_gd_roll10","home_rest_days","away_rest_days","home_matches_last_7d","away_matches_last_7d","home_fatigue_idx","away_fatigue_idx","home_momentum","away_momentum","rest_diff","congestion_diff","fatigue_diff","gd5_diff","momentum_diff"],"feature_types":["float","float","float","float","float","float","float","float","float","float","float","float","float","float","float","float","float","float","float","float","float","float","float","float","float","float","float","float","float","float","float","float","float","float","float","float","float","float","float","float"],"gradient_booster":{"model":{"cats":{"enc":[],"feature_segments":[],"sorted_idx":[]},"gbtree_model_param":{"num_parallel_tree":"1","num_trees":"534"},"iteration_indptr":[0,3,6,9,12,15,18,21,24,27,30,33,36,39,42,45,48,51,54,57,60,63,66,69,72,75,78,81,84,87,90,93,96,99,102,105,108,111,114,117,120,123,126,129,132,135,138,141,144,147,150,153,156,159,162,165,168,171,174,177,180,183,186,189,192,195,198,201,204,207,210,213,216,219,222,225,228,231,234,237,240,243,246,249,252,255,258,261,264,267,270,273,276,279,282,285,288,291,294,297,300,303,306,309,312,315,318,321,324,327,330,333,336,339,342,345,348,351,354,357,360,363,366,369,372,375,378,381,384,387,390,393,396,399,402,405,408,411,414,417,420,423,426,429,432,435,438,441,444,447,450,453,456,459,462,465,468,471,474,477,480,483,486,489,492,495,498,501,504,507,510,513,516,519,522,525,528,531,534],"tree_info":[0,1,2,0,1,2,0,1,2,0,1,2,0,1,2,0,1,2,0,1,2,0,1,2,0,1,2,0,1,2,0,1,2,0,1,2,0,1,2,0,1,2,0,1,2,0,1,2,0,1,2,0,1,2,0,1,2,0,1,2,0,1,2,0,1,2,0,1,2,0,1,2,0,1,2,0,1,2,0,1,2,0,1,2,0,1,2,0,1,2,0,1,2,0,1,2,0,1,2,0,1,2,0,1,2,0,1,2,0,1,2,0,1,2,0,1,2,0,1,2,0,1,2,0,1,2,0,1,2,0,1,2,0,1,2,0,1,2,0,1,2,0,1,2,0,1,2,0,1,2,0,1,2,0,1,2,0,1,2,0,1,2,0,1,2,0,1,2,0,1,2,0,1,2,0,1,2,0,1,2,0,1,2,0,1,2,0,1,2,0,1,2,0,1,2,0,1,2,0,1,2,0,1,2,0,1,2,0,1,2,0,1,2,0,1,2,0,1,2,0,1,2,0,1,2,0,1,2,0,1,2,0,1,2,0,1,2,0,1,2,0,1,2,0,1,2,0,1,2,0,1,2,0,1,2,0,1,2,0,1,2,0,1,2,0,1,2,0,1,2,0,1,2,0,1,2,0,1,2,0,1,2,0,1,2,0,1,2,0,1,2,0,1,2,0,1,2,0,1,2,0,1,2,0,1,2,0,1,2,0,1,2,0,1,2,0,1,2,0,1,2,0,1,2,0,1,2,0,1,2,0,1,2,0,1,2,0,1,2,0,1,2,0,1,2,0,1,2,0,1,2,0,1,2,0,1,2,0,1,2,0,1,2,0,1,2,0,1,2,0,1,2,0,1,2,0,1,2,0,1,2,0,1,2,0,1,2,0,1,2,0,1,2,0,1,2,0,1,2,0,1,2,0,1,2,0,1,2,0,1,2,0,1,2,0,1,2,0,1,2,0,1,2,0,1,2,0,1,2,0,1,2,0,1,2,0,1,2,0,1,2,0,1,2,0,1,2,0,1,2,0,1,2,0,1,2,0,1,2,0,1,2,0,1,2,0,1,2,0,1,2,0,1,2,0,1,2,0,1,2,0,1,2,0,1,2,0,1,2,0,1,2,0,1,2,0,1,2,0,1,2,0,1,2,0,1,2,0,1,2,0,1,2,0,1,2,0,1,2,0,1,2,0,1,2,0,1,2,0,1,2,0,1,2],"trees":[{"base_weights":[-4.202424E-3,-2.775099E-1,3.70237E-1,-4.2564023E-1,-1.692998E-2,1.5934458E-1,5.9802324E-1,-6.2416065E-1,-3.390933E-1,2.51505E-1,-7.424699E-2,-1.9877538E-1,2.361385E-1,3.8549444E-1,6.853295E-1,-2.0981273E-2,-1.6179634E-2,-1.1749154E-2,-3.6615233E-3,3.5968402E-3,1.4965892E-2,-2.4343536E-3,1.8366646E-2,-8.091261E-3,3.1012136E-3,2.9035194E-3,8.894668E-3,1.8355656E-2,9.224388E-3,1.2424865E-2,2.173683E-2],"categories":[],"categories_nodes":[],"categories_segments":[],"categories_sizes":[],"default_left":[0,1,0,0,0,0,0,0,0,0,0,0,0,0,0,0,0,0,0,0,0,0,0,0,0,0,0,0,0,0,0],"id":0,"left_children":[1,3,5,7,9,11,13,15,17,19,21,23,25,27,29,-1,-1,-1,-1,-1,-1,-1,-1,-1,-1,-1,-1,-1,-1,-1,-1],"loss_changes":[4.5396732E2,9.8966064E1,8.972363E1,2.7665009E1,1.4368728E1,2.6897467E1,1.6154297E1,2.3976288E0,1.2938171E1,5.230752E0,3.7413797E0,3.7673912E0,6.6996803E0,4.32769E0,6.1522217E0,0E0,0E0,0E0,0E0,0E0,0E0,0E0,0E0,0E0,0E0,0E0,0E0,0E0,0E0,0E0,0E0],"parents":[2147483647,0,0,1,1,2,2,3,3,4,4,5,5,6,6,7,7,8,8,9,9,10,10,11,11,12,12,13,13,14,14],"right_children":[2,4,6,8,10,12,14,16,18,20,22,24,26,28,30,-1,-1,-1,-1,-1,-1,-1,-1,-1,-1,-1,-1,-1,-1,-1,-1],"split_conditions":[4.6952054E-1,3.5986125E-1,6.0777986E-1,2.1790347E-1,2.523516E-1,3.9925826E-1,6.2163293E-1,1.6677484E-1,3.7903455E-1,1.6024207E3,1.2E1,1.5509398E3,4.7393137E-1,1.945301E-1,6.4535034E-1,-2.0981273E-2,-1.6179634E-2,-1.1749154E-2,-3.6615233E-3,3.5968402E-3,1.4965892E-2,-2.4343536E-3,1.8366646E-2,-8.091261E-3,3.1012136E-3,2.9035194E-3,8.894668E-3,1.8355656E-2,9.224388E-3,1.2424865E-2,2.173683E-2],"split_indices":[9,14,14,14,15,14,9,14,9,1,31,1,14,15,14,0,0,0,0,0,0,0,0,0,0,0,0,0,0,0,0],"split_type":[0,0,0,0,0,0,0,0,0,0,0,0,0,0,0,0,0,0,0,0,0,0,0,0,0,0,0,0,0,0,0],"sum_hessian":[4.4319917E3,2.562276E3,1.869716E3,1.6328134E3,9.2946265E2,9.7262506E2,8.970909E2,4.9195306E2,1.1408602E3,1.6234941E2,7.671132E2,1.7117809E2,8.0144696E2,2.643696E2,6.327213E2,2.5308852E2,2.3886455E2,9.172006E2,2.2365962E2,1.0790595E2,5.444346E1,7.612275E2,5.8857794E0,1.3880629E2,3.2371788E1,2.4376936E2,5.576776E2,6.425309E1,2.001165E2,8.2891396E1,5.498299E2],"tree_param":{"num_deleted":"0","num_feature":"40","num_nodes":"31","size_leaf_vector":"1"}},{"base_weights":[-2.2521694E-3,-1.7612438E-1,7.673156E-2,-2.75224E-1,-1.098167E-1,-1.0838052E-1,1.10675626E-1,-3.0893174E-1,2.6414534E-2,-1.268722E-1,2.5536093E-1,-2.7284557E-1,4.031302E-2,2.0324506E-1,3.6205374E-2,-1.0904518E-2,-3.627544E-3,-3.504612E-3,2.0320037E-2,-4.5624664E-3,4.462994E-3,-2.664647E-3,2.7470523E-2,-8.873356E-3,2.08723E-2,3.5202075E-3,-5.5701723E-3,5.5722063E-3,1.8148566E-2,-8.195346E-4,2.9970147E-3],"categories":[],"categories_nodes":[],"categories_segments":[],"categories_sizes":[],"default_left":[0,0,0,0,0,1,0,0,0,1,0,0,0,0,0,0,0,0,0,0,0,0,0,0,0,0,0,0,0,0,0],"id":1,"left_children":[1,3,5,7,9,11,13,15,17,19,21,23,25,27,29,-1,-1,-1,-1,-1,-1,-1,-1,-1,-1,-1,-1,-1,-1,-1,-1],"loss_changes":[4.729789E1,7.008766E0,1.490515E1,4.3877296E0,4.099926E0,9.021255E0,1.3788578E1,3.8801422E0,4.359225E0,4.355625E0,6.8836145E0,4.2985115E0,3.4380527E0,6.049389E0,4.5050187E0,0E0,0E0,0E0,0E0,0E0,0E0,0E0,0E0,0E0,0E0,0E0,0E0,0E0,0E0,0E0,0E0],"parents":[2147483647,0,0,1,1,2,2,3,3,4,4,5,5,6,6,7,7,8,8,9,9,10,10,11,11,12,12,13,13,14,14],"right_children":[2,4,6,8,10,12,14,16,18,20,22,24,26,28,30,-1,-1,-1,-1,-1,-1,-1,-1,-1,-1,-1,-1,-1,-1,-1,-1],"split_conditions":[2.4273266E-1,1.8928105E-1,1.7655581E-1,2.2581649E-1,6.6713756E-1,2.589436E-1,1.5120026E3,5.4377757E-2,6.1790633E-1,2E0,5.460518E-1,1.4E1,1.8E0,7.9678E-1,2.5745007E-1,-1.0904518E-2,-3.627544E-3,-3.504612E-3,2.0320037E-2,-4.5624664E-3,4.462994E-3,-2.664647E-3,2.7470523E-2,-8.873356E-3,2.08723E-2,3.5202075E-3,-5.5701723E-3,5.5722063E-3,1.8148566E-2,-8.195346E-4,2.9970147E-3],"split_indices":[15,10,11,15,13,15,2,17,14,35,14,32,20,7,10,0,0,0,0,0,0,0,0,0,0,0,0,0,0,0,0],"split_type":[0,0,0,0,0,0,0,0,0,0,0,0,0,0,0,0,0,0,0,0,0,0,0,0,0,0,0,0,0,0,0],"sum_hessian":[3.440118E3,1.0738093E3,2.3663086E3,4.2793738E2,6.4587195E2,3.659941E2,2.0003146E3,3.8487924E2,4.305813E1,6.182996E2,2.7572311E1,1.7298793E2,1.9300618E2,8.902457E2,1.1100688E3,2.9687448E2,8.8004776E1,3.663718E1,6.420949E0,5.6730975E2,5.098989E1,1.9262848E1,8.3094635E0,1.7034401E2,2.6439202E0,1.446602E2,4.834597E1,8.5587476E2,3.4370964E1,5.563564E2,5.5371246E2],"tree_param":{"num_deleted":"0","num_feature":"40","num_nodes":"31","size_leaf_vector":"1"}},{"base_weights":[6.1375723E-4,-2.6589322E-1,4.2525217E-1,9.207479E-2,-3.628581E-1,6.9545346E-1,2.0480673E-1,5.1623917E-1,4.56828E-2,-2.9109505E-1,-5.4771274E-1,4.8947936E-1,8.639885E-1,3.7200004E-1,5.641296E-2,2.248184E-2,7.1957707E-3,3.9730775E-3,-3.3756814E-3,-1.1117258E-2,-6.088248E-3,-1.062376E-2,-1.735663E-2,2.730011E-2,1.1953664E-2,3.1178745E-2,2.1550845E-2,1.6574625E-2,8.302347E-3,1.7905386E-2,1.1090979E-3],"categories":[],"categories_nodes":[],"categories_segments":[],"categories_sizes":[],"default_left":[0,0,1,0,1,0,0,0,0,0,0,0,1,0,0,0,0,0,0,0,0,0,0,0,0,0,0,0,0,0,0],"id":2,"left_children":[1,3,5,7,9,11,13,15,17,19,21,23,25,27,29,-1,-1,-1,-1,-1,-1,-1,-1,-1,-1,-1,-1,-1,-1,-1,-1],"loss_changes":[4.4623502E2,8.415689E1,9.02807E1,1.0145081E1,2.4974457E1,2.2839478E1,2.0802723E1,2.918601E0,6.4679117E0,9.502655E0,2.7601929E0,1.1204445E1,8.019928E0,6.4799843E0,4.6576347E0,0E0,0E0,0E0,0E0,0E0,0E0,0E0,0E0,0E0,0E0,0E0,0E0,0E0,0E0,0E0,0E0],"parents":[2147483647,0,0,1,1,2,2,3,3,4,4,5,5,6,6,7,7,8,8,9,9,10,10,11,11,12,12,13,13,14,14],"right_children":[2,4,6,8,10,12,14,16,18,20,22,24,26,28,30,-1,-1,-1,-1,-1,-1,-1,-1,-1,-1,-1,-1,-1,-1,-1,-1],"split_conditions":[3.5975075E-1,4.1544628E-1,2.4318713E-1,2.5670582E-1,6.4535034E-1,5.6189936E-1,3.331243E-1,3.1756616E-1,2.956448E-1,9.688747E-1,7.5E-1,1.7076737E-1,1.414155E-1,2.4380071E-1,1.04166664E-1,2.248184E-2,7.1957707E-3,3.9730775E-3,-3.3756814E-3,-1.1117258E-2,-6.088248E-3,-1.062376E-2,-1.735663E-2,2.730011E-2,1.1953664E-2,3.1178745E-2,2.1550845E-2,1.6574625E-2,8.302347E-3,1.7905386E-2,1.1090979E-3],"split_indices":[11,14,14,14,14,11,14,11,15,6,20,14,14,10,28,0,0,0,0,0,0,0,0,0,0,0,0,0,0,0,0],"split_type":[0,0,0,0,0,0,0,0,0,0,0,0,0,0,0,0,0,0,0,0,0,0,0,0,0,0,0,0,0,0,0],"sum_hessian":[3.9390833E3,2.4206245E3,1.5184586E3,5.159559E2,1.9046687E3,6.803006E2,8.38158E2,4.887093E1,4.6708496E2,1.3757383E3,5.289305E2,3.0966003E2,3.7064056E2,3.9269736E2,4.4546066E2,2.4651707E1,2.4219221E1,3.0187527E2,1.6520969E2,7.2008936E2,6.556489E2,7.611755E1,4.5281293E2,5.189833E1,2.5776172E2,1.6261476E2,2.080258E2,1.3234074E2,2.6035663E2,1.3407068E1,4.320536E2],"tree_param":{"num_deleted":"0","num_feature":"40","num_nodes":"31","size_leaf_vector":"1"}},{"base_weights":[-3.056393E-4,-2.734612E-1,3.701166E-1,-4.214923E-1,-8.929719E-3,5.8698213E-1,1.5338576E-1,-3.263579E-1,-6.0868424E-1,-5.8860626E-2,2.6106668E-1,3.6758843E-1,6.792761E-1,2.3832242E-1,-8.493158E-2,-1.2644022E-2,-5.986225E-3,-2.0961624E-2,-1.5452148E-2,-3.0060178E-3,2.5042465E-3,4.814294E-3,1.7504618E-2,8.436738E-3,1.9705309E-2,1.3698618E-2,2.1540862E-2,5.7238536E-3,1.4004323E-2,-7.164567E-3,1.0249371E-3],"categories":[],"categories_nodes":[],"categories_segments":[],"categories_sizes":[],"default_left":[0,1,1,1,0,0,0,0,0,0,0,1,0,0,0,0,0,0,0,0,0,0,0,0,0,0,0,0,0,0,0],"id":3,"left_children":[1,3,5,7,9,11,13,15,17,19,21,23,25,27,29,-1,-1,-1,-1,-1,-1,-1,-1,-1,-1,-1,-1,-1,-1,-1,-1],"loss_changes":[4.55799E2,1.0152205E2,8.968414E1,2.920755E1,1.25998745E1,1.8837463E1,1.9451982E1,1.3178429E1,3.9822235E0,4.6561966E0,4.543932E0,6.8035316E0,5.123932E0,7.505207E0,4.6614075E0,0E0,0E0,0E0,0E0,0E0,0E0,0E0,0E0,0E0,0E0,0E0,0E0,0E0,0E0,0E0,0E0],"parents":[2147483647,0,0,1,1,2,2,3,3,4,4,5,5,6,6,7,7,8,8,9,9,10,10,11,11,12,12,13,13,14,14],"right_children":[2,4,6,8,10,12,14,16,18,20,22,24,26,28,30,-1,-1,-1,-1,-1,-1,-1,-1,-1,-1,-1,-1,-1,-1,-1,-1],"split_conditions":[4.4946983E-1,3.5986125E-1,1.6445905E-1,5.109322E-1,5.264642E-1,6.2163293E-1,2.8897902E-1,-2.0733331E-1,1.7442961E-1,1.5626768E3,6.0610926E-1,6.7789143E-1,6.4931697E-1,2.2757635E0,4E0,-1.2644022E-2,-5.986225E-3,-2.0961624E-2,-1.5452148E-2,-3.0060178E-3,2.5042465E-3,4.814294E-3,1.7504618E-2,8.436738E-3,1.9705309E-2,1.3698618E-2,2.1540862E-2,5.7238536E-3,1.4004323E-2,-7.164567E-3,1.0249371E-3],"split_indices":[7,14,16,16,14,9,16,7,14,2,13,14,14,5,31,0,0,0,0,0,0,0,0,0,0,0,0,0,0,0,0],"split_type":[0,0,0,0,0,0,0,0,0,0,0,0,0,0,0,0,0,0,0,0,0,0,0,0,0,0,0,0,0,0,0],"sum_hessian":[4.5007046E3,2.590759E3,1.9099454E3,1.6604106E3,9.303483E2,9.5296826E2,9.569771E2,1.1045464E3,5.558643E2,7.8646924E2,1.4387914E2,2.8513483E2,6.6783344E2,7.055264E2,2.5145071E2,6.2852325E2,4.7602307E2,2.7675418E2,2.791101E2,6.099168E2,1.7655238E2,1.1194842E2,3.193072E1,2.2261302E2,6.2521797E1,1.02793465E2,5.6504E2,5.870795E2,1.1844692E2,1.0882479E2,1.4262593E2],"tree_param":{"num_deleted":"0","num_feature":"40","num_nodes":"31","size_leaf_vector":"1"}},{"base_weights":[4.8089917E-3,-2.103291E-1,7.775998E-2,-3.506488E-1,-1.1466619E-1,-1.1728935E-2,1.6746448E-1,-4.1063207E-1,-1.8886793E-1,-1.5549891E-2,-2.0571105E-1,-1.579017E-1,2.028478E-2,-2.7733982E-1,1.774281E-1,-1.4029517E-2,-6.813252E-3,1.279863E-2,-7.0530265E-3,1.5046999E-2,-1.1933774E-3,-1.4544571E-2,-4.90207E-3,-1.0461624E-2,-2.5425346E-3,1.1609683E-3,-9.2475135E-3,1.734698E-2,-1.1820524E-2,9.239128E-3,4.4005024E-3],"categories":[],"categories_nodes":[],"categories_segments":[],"categories_sizes":[],"default_left":[0,1,1,0,0,0,0,1,0,0,0,1,0,0,1,0,0,0,0,0,0,0,0,0,0,0,0,0,0,0,0],"id":4,"left_children":[1,3,5,7,9,11,13,15,17,19,21,23,25,27,29,-1,-1,-1,-1,-1,-1,-1,-1,-1,-1,-1,-1,-1,-1,-1,-1],"loss_changes":[5.397742E1,1.1610168E1,2.0620731E1,3.2615204E0,4.6936064E0,6.031495E0,5.7832146E0,2.4574814E0,3.0158668E0,3.1913764E0,3.04533E0,3.1730213E0,6.4243727E0,3.339002E0,4.9499207E0,0E0,0E0,0E0,0E0,0E0,0E0,0E0,0E0,0E0,0E0,0E0,0E0,0E0,0E0,0E0,0E0],"parents":[2147483647,0,0,1,1,2,2,3,3,4,4,5,5,6,6,7,7,8,8,9,9,10,10,11,11,12,12,13,13,14,14],"right_children":[2,4,6,8,10,12,14,16,18,20,22,24,26,28,30,-1,-1,-1,-1,-1,-1,-1,-1,-1,-1,-1,-1,-1,-1,-1,-1],"split_conditions":[2.1050256E-1,1.8317455E-1,2.638918E-1,1.8184306E-1,4.9158257E-1,-1.8235368E-1,-1.6E0,5.2893423E-2,1.8301101E-1,1.9191138E-1,5.3087854E-1,-9.0625E-1,2E0,1.9994963E0,-7E-1,-1.4029517E-2,-6.813252E-3,1.279863E-2,-7.0530265E-3,1.5046999E-2,-1.1933774E-3,-1.4544571E-2,-4.90207E-3,-1.0461624E-2,-2.5425346E-3,1.1609683E-3,-9.2475135E-3,1.734698E-2,-1.1820524E-2,9.239128E-3,4.4005024E-3],"split_indices":[10,15,15,10,14,33,26,17,10,15,6,35,21,8,22,0,0,0,0,0,0,0,0,0,0,0,0,0,0,0,0],"split_type":[0,0,0,0,0,0,0,0,0,0,0,0,0,0,0,0,0,0,0,0,0,0,0,0,0,0,0,0,0,0,0],"sum_hessian":[3.435165E3,8.689115E2,2.5662534E3,3.5007935E2,5.1883215E2,1.2855408E3,1.2807126E3,2.5314478E2,9.693457E1,2.4952618E2,2.69306E2,2.2955254E2,1.0559883E3,2.6883543E1,1.2538291E3,1.9077655E2,6.236823E1,5.6228986E0,9.131167E1,9.404681E0,2.401215E2,3.2695774E1,2.3661021E2,6.1525078E1,1.6802745E2,1.001613E3,5.4375282E1,2.2767794E0,2.4606764E1,2.3556764E2,1.0182615E3],"tree_param":{"num_deleted":"0","num_feature":"40","num_nodes":"31","size_leaf_vector":"1"}},{"base_weights":[-4.548239E-4,-2.6019093E-1,4.0451494E-1,-3.8480222E-1,-7.5544557E-3,6.525107E-2,5.787194E-1,-2.5999996E-1,-4.8067874E-1,-1.06482625E-1,1.9885583E-1,-5.822951E-2,1.8143533E-1,9.339064E-1,4.7116047E-1,-5.542403E-3,-1.063291E-2,-1.1891067E-2,-1.6055467E-2,-6.398997E-3,-1.5328276E-3,1.666884E-2,4.4205952E-3,-2.5194199E-3,2.5850503E-2,7.7200294E-3,-2.0242655E-3,2.8604833E-2,1.1141222E-2,1.8668013E-2,1.0767756E-2],"categories":[],"categories_nodes":[],"categories_segments":[],"categories_sizes":[],"default_left":[0,1,0,0,0,0,0,1,0,0,0,0,0,0,0,0,0,0,0,0,0,0,0,0,0,0,0,0,0,0,0],"id":5,"left_children":[1,3,5,7,9,11,13,15,17,19,21,23,25,27,29,-1,-1,-1,-1,-1,-1,-1,-1,-1,-1,-1,-1,-1,-1,-1,-1],"loss_changes":[4.174459E2,7.61129E1,9.157712E1,1.9124588E1,1.6392735E1,7.601608E0,3.825522E1,4.8990173E0,3.772766E0,3.1883903E0,4.615965E0,6.248476E0,5.187005E0,1.8930054E0,1.2956711E1,0E0,0E0,0E0,0E0,0E0,0E0,0E0,0E0,0E0,0E0,0E0,0E0,0E0,0E0,0E0,0E0],"parents":[2147483647,0,0,1,1,2,2,3,3,4,4,5,5,6,6,7,7,8,8,9,9,10,10,11,11,12,12,13,13,14,14],"right_children":[2,4,6,8,10,12,14,16,18,20,22,24,26,28,30,-1,-1,-1,-1,-1,-1,-1,-1,-1,-1,-1,-1,-1,-1,-1,-1],"split_conditions":[3.5975075E-1,2.577049E-1,4.0201998E-1,8.7044704E-1,3.5598952E-1,3.2776976E-1,1.7076737E-1,5.0713487E-2,6.4535034E-1,-8.2643025E-2,2.2394872E-1,8E0,-1.6693841E-1,2E0,-7.688001E-1,-5.542403E-3,-1.063291E-2,-1.1891067E-2,-1.6055467E-2,-6.398997E-3,-1.5328276E-3,1.666884E-2,4.4205952E-3,-2.5194199E-3,2.5850503E-2,7.7200294E-3,-2.0242655E-3,2.8604833E-2,1.1141222E-2,1.8668013E-2,1.0767756E-2],"split_indices":[11,16,16,7,16,16,14,17,14,34,14,31,7,21,7,0,0,0,0,0,0,0,0,0,0,0,0,0,0,0,0],"split_type":[0,0,0,0,0,0,0,0,0,0,0,0,0,0,0,0,0,0,0,0,0,0,0,0,0,0,0,0,0,0,0],"sum_hessian":[3.9646716E3,2.4158982E3,1.5487734E3,1.6171857E3,7.987125E2,5.263852E2,1.02238824E3,7.058309E2,9.1135474E2,5.4058813E2,2.5812442E2,2.5566364E2,2.7072156E2,2.3406853E2,7.883197E2,3.960916E2,3.0973926E2,3.643294E2,5.470253E2,1.8264758E2,3.5794052E2,3.0092096E1,2.2803233E2,2.5046964E2,5.1939883E0,2.0740962E2,6.331194E1,2.24849E2,9.219539E0,3.321052E2,4.5621454E2],"tree_param":{"num_deleted":"0","num_feature":"40","num_nodes":"31","size_leaf_vector":"1"}},{"base_weights":[-3.186606E-4,-2.6636872E-1,3.6254323E-1,-2.262965E-2,-3.9654875E-1,5.6959015E-1,1.471476E-1,2.919189E-1,-8.0197014E-2,-3.0375618E-1,-5.760818E-1,3.7950414E-1,6.507264E-1,2.2349015E-1,-2.2401646E-1,-1.6352894E-3,1.1509708E-2,-3.2737441E-3,2.7319172E-3,-4.3164114E-3,-1.1117928E-2,-1.986407E-2,-1.5183985E-2,2.3436211E-2,1.0129077E-2,2.3363505E-2,1.7387906E-2,9.8770335E-3,3.6047013E-3,-1.139033E-2,-2.9605455E-3],"categories":[],"categories_nodes":[],"categories_segments":[],"categories_sizes":[],"default_left":[0,0,1,0,1,0,0,0,1,0,0,0,1,0,0,0,0,0,0,0,0,0,0,0,0,0,0,0,0,0,0],"id":6,"left_children":[1,3,5,7,9,11,13,15,17,19,21,23,25,27,29,-1,-1,-1,-1,-1,-1,-1,-1,-1,-1,-1,-1,-1,-1,-1,-1],"loss_changes":[4.3174405E2,8.185538E1,8.4204834E1,1.6352087E1,2.766861E1,1.4372864E1,2.6450712E1,4.482685E0,3.7985644E0,1.1787361E1,2.7658844E0,4.403042E0,5.225342E0,8.359772E0,3.039587E0,0E0,0E0,0E0,0E0,0E0,0E0,0E0,0E0,0E0,0E0,0E0,0E0,0E0,0E0,0E0,0E0],"parents":[2147483647,0,0,1,1,2,2,3,3,4,4,5,5,6,6,7,7,8,8,9,9,10,10,11,11,12,12,13,13,14,14],"right_children":[2,4,6,8,10,12,14,16,18,20,22,24,26,28,30,-1,-1,-1,-1,-1,-1,-1,-1,-1,-1,-1,-1,-1,-1,-1,-1],"split_conditions":[4.5824757E-1,3.453333E-1,1.6636452E-1,2.4897894E-1,5.065538E-1,6.2163293E-1,3.1905934E-1,1E0,1E0,3.6742827E-1,1.6677484E-1,-2.15E0,1.4241445E-1,1.7655581E-1,3.5E0,-1.6352894E-3,1.1509708E-2,-3.2737441E-3,2.7319172E-3,-4.3164114E-3,-1.1117928E-2,-1.986407E-2,-1.5183985E-2,2.3436211E-2,1.0129077E-2,2.3363505E-2,1.7387906E-2,9.8770335E-3,3.6047013E-3,-1.139033E-2,-2.9605455E-3],"split_indices":[7,16,16,15,16,9,16,20,22,11,14,38,15,11,31,0,0,0,0,0,0,0,0,0,0,0,0,0,0,0,0],"split_type":[0,0,0,0,0,0,0,0,0,0,0,0,0,0,0,0,0,0,0,0,0,0,0,0,0,0,0,0,0,0,0],"sum_hessian":[4.4682036E3,2.5783162E3,1.8898875E3,8.9845886E2,1.6798574E3,9.6194183E2,9.279457E2,1.3773453E2,7.6072437E2,1.1110101E3,5.688473E2,2.911621E2,6.707797E2,7.703024E2,1.5764325E2,2.900713E1,1.08727394E2,6.5141846E2,1.09305885E2,3.294101E2,7.816E2,2.4746928E2,3.21378E2,2.4148905E1,2.670132E2,2.3242995E2,4.3834976E2,3.7854907E2,3.9175336E2,6.850349E1,8.913976E1],"tree_param":{"num_deleted":"0","num_feature":"40","num_nodes":"31","size_leaf_vector":"1"}},{"base_weights":[3.8287523E-3,-2.4333295E-1,6.3692614E-2,-3.1887978E-1,-1.2440619E-1,-4.1986972E-2,1.3505687E-1,-3.5415688E-3,-3.3611175E-1,6.586645E-2,-1.8239707E-1,-1.8649601E-3,-1.7214032E-1,1.6826943E-1,-1.0779558E-2,-9.249012E-3,1.3347218E-2,-6.9405613E-3,-1.1577929E-2,1.9000346E-2,-2.165867E-3,-1.0057378E-2,-2.482344E-3,8.309937E-3,-9.996415E-4,-5.5153156E-3,2.1083854E-2,4.6408577E-3,1.687149E-2,-1.626675E-3,1.1659088E-2],"categories":[],"categories_nodes":[],"categories_segments":[],"categories_sizes":[],"default_left":[0,1,0,0,0,0,0,0,0,0,0,0,0,0,0,0,0,0,0,0,0,0,0,0,0,0,0,0,0,0,0],"id":7,"left_children":[1,3,5,7,9,11,13,15,17,19,21,23,25,27,29,-1,-1,-1,-1,-1,-1,-1,-1,-1,-1,-1,-1,-1,-1,-1,-1],"loss_changes":[5.0893177E1,5.946312E0,2.0893543E1,2.2192955E0,2.9349604E0,5.835631E0,8.011324E0,3.4458606E0,1.8445969E0,5.034563E0,3.0323071E0,7.52998E0,2.9548178E0,7.0305443E0,5.396015E0,0E0,0E0,0E0,0E0,0E0,0E0,0E0,0E0,0E0,0E0,0E0,0E0,0E0,0E0,0E0,0E0],"parents":[2147483647,0,0,1,1,2,2,3,3,4,4,5,5,6,6,7,7,8,8,9,9,10,10,11,11,12,12,13,13,14,14],"right_children":[2,4,6,8,10,12,14,16,18,20,22,24,26,28,30,-1,-1,-1,-1,-1,-1,-1,-1,-1,-1,-1,-1,-1,-1,-1,-1],"split_conditions":[1.9703868E-1,2.0954159E-1,2.638918E-1,1.3502244E3,1.4612156E3,6.0777986E-1,1.5688331E3,5.2947715E-2,3.2787714E0,9.6540265E-2,-3.3333334E-1,1.4245542E3,1.6009682E0,2.5E0,3.0560744E-1,-9.249012E-3,1.3347218E-2,-6.9405613E-3,-1.1577929E-2,1.9000346E-2,-2.165867E-3,-1.0057378E-2,-2.482344E-3,8.309937E-3,-9.996415E-4,-5.5153156E-3,2.1083854E-2,4.6408577E-3,1.687149E-2,-1.626675E-3,1.1659088E-2],"split_indices":[10,15,15,2,1,14,1,17,8,11,22,2,6,37,10,0,0,0,0,0,0,0,0,0,0,0,0,0,0,0,0],"split_type":[0,0,0,0,0,0,0,0,0,0,0,0,0,0,0,0,0,0,0,0,0,0,0,0,0,0,0,0,0,0,0],"sum_hessian":[3.4355503E3,6.686687E2,2.7668818E3,4.068557E2,2.6181296E2,1.1156288E3,1.6512529E3,2.1205965E1,3.8564975E2,6.1092396E1,2.0072058E2,8.5430365E2,2.6132516E2,1.3447045E3,3.065484E2,1.2997859E1,8.208106E0,1.279289E2,2.5772083E2,1.0550739E1,5.0541656E1,7.735043E1,1.2337015E2,8.501649E1,7.692872E2,2.594346E2,1.8905638E0,1.3026243E3,4.2080284E1,2.7803598E2,2.8512428E1],"tree_param":{"num_deleted":"0","num_feature":"40","num_nodes":"31","size_leaf_vector":"1"}},{"base_weights":[-3.992808E-3,3.7748754E-1,-2.6828143E-1,1.1312985E-1,5.672222E-1,-4.1632366E-1,-6.830419E-2,-3.9049946E-2,2.365297E-1,8.841702E-1,4.5819464E-1,-2.870105E-1,-4.946857E-1,4.6293756E-1,-9.652575E-2,-3.8708285E-3,3.1153525E-3,8.0198245E-3,-8.925873E-3,3.278251E-2,2.0982277E-2,1.583553E-2,5.327565E-3,-5.3078327E-3,-1.2502526E-2,-1.4923631E-2,5.0897608E-3,-3.2421996E-4,1.7206358E-2,-5.9643824E-4,-4.8463107E-3],"categories":[],"categories_nodes":[],"categories_segments":[],"categories_sizes":[],"default_left":[0,0,1,0,0,0,0,0,0,0,0,1,0,0,0,0,0,0,0,0,0,0,0,0,0,0,0,0,0,0,0],"id":8,"left_children":[1,3,5,7,9,11,13,15,17,19,21,23,25,27,29,-1,-1,-1,-1,-1,-1,-1,-1,-1,-1,-1,-1,-1,-1,-1,-1],"loss_changes":[4.0271765E2,8.186757E1,6.9799835E1,1.2892464E1,3.205963E1,1.3451462E1,1.5173882E1,3.9958124E0,6.3904667E0,7.7708282E0,1.3727417E1,7.2253647E0,1.716156E0,2.6899614E0,4.762761E0,0E0,0E0,0E0,0E0,0E0,0E0,0E0,0E0,0E0,0E0,0E0,0E0,0E0,0E0,0E0,0E0],"parents":[2147483647,0,0,1,1,2,2,3,3,4,4,5,5,6,6,7,7,8,8,9,9,10,10,11,11,12,12,13,13,14,14],"right_children":[2,4,6,8,10,12,14,16,18,20,22,24,26,28,30,-1,-1,-1,-1,-1,-1,-1,-1,-1,-1,-1,-1,-1,-1,-1,-1],"split_conditions":[4.2738948E-2,4.2601898E-1,2.2032687E-1,3.2933593E-1,2.2666664E-1,5.748725E-1,2.5924012E-1,1.502424E3,1.625124E3,8.2617086E-1,2.9710096E-1,4.9694877E-2,7.8722626E-1,-6.666667E-1,4.1544628E-1,-3.8708285E-3,3.1153525E-3,8.0198245E-3,-8.925873E-3,3.278251E-2,2.0982277E-2,1.583553E-2,5.327565E-3,-5.3078327E-3,-1.2502526E-2,-1.4923631E-2,5.0897608E-3,-3.2421996E-4,1.7206358E-2,-5.9643824E-4,-4.8463107E-3],"split_indices":[7,16,16,16,15,9,14,2,1,5,9,17,39,22,14,0,0,0,0,0,0,0,0,0,0,0,0,0,0,0,0],"split_type":[0,0,0,0,0,0,0,0,0,0,0,0,0,0,0,0,0,0,0,0,0,0,0,0,0,0,0,0,0,0,0],"sum_hessian":[3.9903772E3,1.6327587E3,2.3576187E3,6.8355383E2,9.492048E2,1.3534799E3,1.00413873E3,3.066959E2,3.7685794E2,2.3930751E2,7.098973E2,5.1422687E2,8.392529E2,4.909873E1,9.5504E2,1.883134E2,1.1838248E2,3.5725485E2,1.960308E1,1.0779116E2,1.3151636E2,5.673102E2,1.4258707E2,2.807458E2,2.3348112E2,8.3627014E2,2.9827697E0,9.635106E0,3.9463623E1,4.395275E2,5.155125E2],"tree_param":{"num_deleted":"0","num_feature":"40","num_nodes":"31","size_leaf_vector":"1"}},{"base_weights":[1.8418642E-3,-2.5256076E-1,3.4911722E-1,-4.0318003E-1,-3.925822E-2,1.8281676E-1,5.8714104E-1,-1.4337122E-1,-4.6365157E-1,-8.713682E-2,2.3264743E-1,-6.972515E-3,2.9539332E-1,6.600905E-1,3.639509E-1,8.25235E-3,-6.4187516E-3,-1.7409837E-2,-1.1803177E-2,-1.0889564E-2,-2.184151E-3,4.337203E-3,1.7526826E-2,-7.9441955E-3,2.1705204E-3,2.0902911E-2,8.156716E-3,1.8767772E-2,2.6183544E-2,1.2352E-2,8.94581E-4],"categories":[],"categories_nodes":[],"categories_segments":[],"categories_sizes":[],"default_left":[0,1,0,0,0,0,0,0,0,1,0,0,0,0,0,0,0,0,0,0,0,0,0,0,0,0,0,0,0,0,0],"id":9,"left_children":[1,3,5,7,9,11,13,15,17,19,21,23,25,27,29,-1,-1,-1,-1,-1,-1,-1,-1,-1,-1,-1,-1,-1,-1,-1,-1],"loss_changes":[3.955818E2,8.29971E1,7.472482E1,2.3661911E1,1.3994035E1,2.3878796E1,1.2183014E1,8.649548E0,9.600647E0,3.5558267E0,4.817068E0,8.587182E0,6.237953E0,3.1911163E0,3.1055336E0,0E0,0E0,0E0,0E0,0E0,0E0,0E0,0E0,0E0,0E0,0E0,0E0,0E0,0E0,0E0,0E0],"parents":[2147483647,0,0,1,1,2,2,3,3,4,4,5,5,6,6,7,7,8,8,9,9,10,10,11,11,12,12,13,13,14,14],"right_children":[2,4,6,8,10,12,14,16,18,20,22,24,26,28,30,-1,-1,-1,-1,-1,-1,-1,-1,-1,-1,-1,-1,-1,-1,-1,-1],"split_conditions":[4.5824757E-1,3.4211951E-1,6.4535034E-1,3.5975075E-1,5.264642E-1,4.7393137E-1,1.6747418E-1,-2.3584093E-1,2.1790347E-1,-1.3333334E0,6.087837E-1,3.6423612E-1,-4.9774718E-1,1.2E0,2.4035126E-1,8.25235E-3,-6.4187516E-3,-1.7409837E-2,-1.1803177E-2,-1.0889564E-2,-2.184151E-3,4.337203E-3,1.7526826E-2,-7.9441955E-3,2.1705204E-3,2.0902911E-2,8.156716E-3,1.8767772E-2,2.6183544E-2,1.2352E-2,8.94581E-4],"split_indices":[7,14,14,11,14,14,11,34,14,22,13,14,39,25,34,0,0,0,0,0,0,0,0,0,0,0,0,0,0,0,0],"split_type":[0,0,0,0,0,0,0,0,0,0,0,0,0,0,0,0,0,0,0,0,0,0,0,0,0,0,0,0,0,0,0],"sum_hessian":[4.4735566E3,2.5823538E3,1.8912029E3,1.5125306E3,1.0698231E3,1.115424E3,7.75779E2,2.868509E2,1.2256797E3,9.1080316E2,1.5902003E2,4.1599207E2,6.994319E2,5.817269E2,1.9405205E2,4.056753E1,2.4628336E2,4.550173E2,7.706624E2,4.258086E1,8.682223E2,1.2942125E2,2.9598774E1,9.6770454E1,3.1922162E2,3.5521385E1,6.6391046E2,5.073237E2,7.440324E1,1.6936723E2,2.468482E1],"tree_param":{"num_deleted":"0","num_feature":"40","num_nodes":"31","size_leaf_vector":"1"}},{"base_weights":[6.8634725E-3,-2.2486982E-1,6.1429977E-2,-2.9711515E-1,-6.578674E-2,-7.709029E-2,1.1088125E-1,-2.5807837E-1,-4.2884892E-1,4.4928962E-1,-9.365966E-2,-2.5331628E-1,-3.7066124E-2,1.4798862E-1,8.602698E-3,-3.6715695E-3,-9.245995E-3,-1.33931E-2,1.2345063E-2,2.6583493E-2,-7.825211E-3,-3.6384987E-3,1.6899187E-2,-8.939799E-3,6.9959573E-3,1.06621344E-4,-6.2327352E-3,-1.550335E-3,5.3090737E-3,-2.848564E-4,2.0922273E-2],"categories":[],"categories_nodes":[],"categories_segments":[],"categories_sizes":[],"default_left":[0,1,0,0,0,0,0,0,0,0,0,0,0,0,0,0,0,0,0,0,0,0,0,0,0,0,0,0,0,0,0],"id":10,"left_children":[1,3,5,7,9,11,13,15,17,19,21,23,25,27,29,-1,-1,-1,-1,-1,-1,-1,-1,-1,-1,-1,-1,-1,-1,-1,-1],"loss_changes":[4.370874E1,7.5327377E0,1.9180878E1,2.1056023E0,3.0749824E0,5.180746E0,7.8250637E0,2.3327274E0,1.8515453E0,3.8867598E0,3.7531881E0,3.097166E0,4.182952E0,8.774693E0,6.884368E0,0E0,0E0,0E0,0E0,0E0,0E0,0E0,0E0,0E0,0E0,0E0,0E0,0E0,0E0,0E0,0E0],"parents":[2147483647,0,0,1,1,2,2,3,3,4,4,5,5,6,6,7,7,8,8,9,9,10,10,11,11,12,12,13,13,14,14],"right_children":[2,4,6,8,10,12,14,16,18,20,22,24,26,28,30,-1,-1,-1,-1,-1,-1,-1,-1,-1,-1,-1,-1,-1,-1,-1,-1],"split_conditions":[1.9594654E-1,2.2254097E-1,2.4897894E-1,1.750329E3,-2.0104167E0,-2.7476114E-1,1.5925573E3,1.4273019E3,7.1745324E-1,1.7834167E-1,1.8E0,1.7335856E3,2.980088E-1,1.7655581E-1,3E0,-3.6715695E-3,-9.245995E-3,-1.33931E-2,1.2345063E-2,2.6583493E-2,-7.825211E-3,-3.6384987E-3,1.6899187E-2,-8.939799E-3,6.9959573E-3,1.06621344E-4,-6.2327352E-3,-1.550335E-3,5.3090737E-3,-2.848564E-4,2.0922273E-2],"split_indices":[10,15,15,1,35,39,2,2,39,10,22,2,39,11,20,0,0,0,0,0,0,0,0,0,0,0,0,0,0,0,0],"split_type":[0,0,0,0,0,0,0,0,0,0,0,0,0,0,0,0,0,0,0,0,0,0,0,0,0,0,0,0,0,0,0],"sum_hessian":[3.452452E3,6.568207E2,2.795631E3,4.5049805E2,2.0632265E2,7.3517633E2,2.0604548E3,3.5208313E2,9.8414925E1,9.039483E0,1.9728317E2,1.340958E2,6.010805E2,1.5112638E3,5.4919104E2,9.6827644E1,2.5525548E2,9.731569E1,1.0992302E0,5.289855E0,3.7496283E0,1.9088763E2,6.3955293E0,1.2352719E2,1.0568604E1,4.8711758E2,1.13962906E2,1.9135083E2,1.319913E3,5.3705273E2,1.2138258E1],"tree_param":{"num_deleted":"0","num_feature":"40","num_nodes":"31","size_leaf_vector":"1"}},{"base_weights":[1.4808681E-4,-2.4420528E-1,3.796259E-1,-3.9873183E-1,-2.5699262E-2,1.952263E-1,6.297604E-1,-4.8590106E-1,-2.8692946E-1,-1.035223E-1,1.9123182E-1,6.5777004E-3,3.326586E-1,8.95602E-1,5.023791E-1,-6.5121865E-3,-1.51832765E-2,-5.954488E-3,-1.199651E-2,-1.8997698E-3,-6.441412E-3,7.468578E-3,-2.6103738E-3,-6.274339E-4,8.386168E-3,9.009198E-3,2.4816286E-2,2.880458E-2,1.3745442E-2,1.6871719E-2,5.8985283E-3],"categories":[],"categories_nodes":[],"categories_segments":[],"categories_sizes":[],"default_left":[0,1,0,0,0,0,0,0,1,0,0,0,0,1,0,0,0,0,0,0,0,0,0,0,0,0,0,0,0,0,0],"id":11,"left_children":[1,3,5,7,9,11,13,15,17,19,21,23,25,27,29,-1,-1,-1,-1,-1,-1,-1,-1,-1,-1,-1,-1,-1,-1,-1,-1],"loss_changes":[3.685439E2,8.161339E1,7.156154E1,1.3521622E1,1.6983612E1,2.3304985E1,2.1441467E1,4.087143E0,6.0877953E0,3.2800913E0,4.310521E0,2.8705564E0,7.8245163E0,5.0825653E0,8.046753E0,0E0,0E0,0E0,0E0,0E0,0E0,0E0,0E0,0E0,0E0,0E0,0E0,0E0,0E0,0E0,0E0],"parents":[2147483647,0,0,1,1,2,2,3,3,4,4,5,5,6,6,7,7,8,8,9,9,10,10,11,11,12,12,13,13,14,14],"right_children":[2,4,6,8,10,12,14,16,18,20,22,24,26,28,30,-1,-1,-1,-1,-1,-1,-1,-1,-1,-1,-1,-1,-1,-1,-1,-1],"split_conditions":[3.5975075E-1,2.2914262E-1,5.065538E-1,1.6887312E-1,3.5598952E-1,3.6536604E-1,1.23186156E-1,5E-1,5.0432265E-2,2.9476285E-1,2.9613215E-1,2E0,2.2739098E0,2.4983522E-1,3.0157986E-1,-6.5121865E-3,-1.51832765E-2,-5.954488E-3,-1.199651E-2,-1.8997698E-3,-6.441412E-3,7.468578E-3,-2.6103738E-3,-6.274339E-4,8.386168E-3,9.009198E-3,2.4816286E-2,2.880458E-2,1.3745442E-2,1.6871719E-2,5.8985283E-3],"split_indices":[11,16,16,11,16,16,9,20,17,15,15,30,6,15,9,0,0,0,0,0,0,0,0,0,0,0,0,0,0,0,0],"split_type":[0,0,0,0,0,0,0,0,0,0,0,0,0,0,0,0,0,0,0,0,0,0,0,0,0,0,0,0,0,0,0],"sum_hessian":[3.9705193E3,2.415709E3,1.5548104E3,1.4140494E3,1.0016595E3,8.9705835E2,6.577521E2,7.907957E2,6.232537E2,7.3796387E2,2.6369562E2,3.7896368E2,5.1809467E2,2.0916597E2,4.485861E2,5.6930897E1,7.338648E2,3.5264035E2,2.706134E2,5.443249E2,1.9363899E2,2.1856554E2,4.5130085E1,3.4596542E2,3.2998257E1,4.8930066E2,2.8794048E1,1.8018568E2,2.8980293E1,3.7358444E2,7.5001656E1],"tree_param":{"num_deleted":"0","num_feature":"40","num_nodes":"31","size_leaf_vector":"1"}},{"base_weights":[-4.41301E-3,-3.0284536E-1,2.680634E-1,-4.222414E-1,-2.6375586E-2,4.361773E-1,-4.3739688E-2,-5.804474E-1,-3.4611267E-1,-7.963523E-2,1.9113767E-1,6.320595E-1,3.2239595E-1,-2.6718184E-1,4.9459594E-3,-1.9692307E-2,-1.4975678E-2,-1.428457E-2,-8.573889E-3,7.2811934E-4,-5.23734E-3,3.1453208E-4,9.82515E-3,1.251628E-2,2.1135801E-2,8.05385E-3,1.5033379E-2,-5.103576E-3,-1.8464794E-2,-6.576594E-4,1.0129102E-2],"categories":[],"categories_nodes":[],"categories_segments":[],"categories_sizes":[],"default_left":[0,1,1,0,0,0,0,0,0,0,0,0,1,1,0,0,0,0,0,0,0,0,0,0,0,0,0,0,0,0,0],"id":12,"left_children":[1,3,5,7,9,11,13,15,17,19,21,23,25,27,29,-1,-1,-1,-1,-1,-1,-1,-1,-1,-1,-1,-1,-1,-1,-1,-1],"loss_changes":[3.6359308E2,7.0420715E1,1.2255829E2,1.7546844E1,7.511502E0,3.34422E1,8.929322E0,2.3148193E0,7.658165E0,5.139946E0,3.1367865E0,8.068283E0,9.030571E0,4.755128E0,6.055055E0,0E0,0E0,0E0,0E0,0E0,0E0,0E0,0E0,0E0,0E0,0E0,0E0,0E0,0E0,0E0,0E0],"parents":[2147483647,0,0,1,1,2,2,3,3,4,4,5,5,6,6,7,7,8,8,9,9,10,10,11,11,12,12,13,13,14,14],"right_children":[2,4,6,8,10,12,14,16,18,20,22,24,26,28,30,-1,-1,-1,-1,-1,-1,-1,-1,-1,-1,-1,-1,-1,-1,-1,-1],"split_conditions":[2.1495122E-1,3.5986125E-1,2.2914262E-1,2.1790347E-1,1.4217235E0,1.9232461E-1,3.405445E-1,1.6677484E-1,2.475717E-1,2.8468543E-1,0E0,6.4931697E-1,6.529609E-1,9E0,7.5E0,-1.9692307E-2,-1.4975678E-2,-1.428457E-2,-8.573889E-3,7.2811934E-4,-5.23734E-3,3.1453208E-4,9.82515E-3,1.251628E-2,2.1135801E-2,8.05385E-3,1.5033379E-2,-5.103576E-3,-1.8464794E-2,-6.576594E-4,1.0129102E-2],"split_indices":[7,14,16,14,5,10,14,14,10,16,26,14,14,28,32,0,0,0,0,0,0,0,0,0,0,0,0,0,0,0,0],"split_type":[0,0,0,0,0,0,0,0,0,0,0,0,0,0,0,0,0,0,0,0,0,0,0,0,0,0,0,0,0,0,0],"sum_hessian":[4.4673755E3,2.1320283E3,2.3353472E3,1.4882565E3,6.437718E2,1.5167615E3,8.185856E2,4.7918814E2,1.0090684E3,5.1816364E2,1.25608215E2,5.5396454E2,9.62797E2,1.448451E2,6.737405E2,2.4034695E2,2.3884117E2,3.1536523E2,6.937032E2,2.481145E2,2.700491E2,5.4957184E1,7.065103E1,1.4312947E2,4.1083505E2,7.434409E2,2.1935611E2,1.1560632E2,2.9238766E1,6.25124E2,4.861648E1],"tree_param":{"num_deleted":"0","num_feature":"40","num_nodes":"31","size_leaf_vector":"1"}},{"base_weights":[4.777404E-3,-9.221108E-2,1.3934268E-1,-2.6267764E-1,-2.2934731E-2,3.0758327E-1,1.0904575E-1,-3.9268622E-1,-1.575718E-1,-8.240407E-3,-2.9624286E-1,3.614748E-1,-6.005765E-2,1.9388355E-1,5.8181573E-2,-6.080038E-4,-1.2494384E-2,-5.2545476E-3,9.073927E-3,-1.164488E-3,4.1318475E-3,7.915897E-3,-1.1499397E-2,1.3827919E-2,4.607509E-3,8.875272E-3,-9.669801E-3,-7.329057E-3,6.729488E-3,1.507145E-3,2.6483849E-2],"categories":[],"categories_nodes":[],"categories_segments":[],"categories_sizes":[],"default_left":[1,0,1,1,0,0,0,0,0,0,0,0,0,0,0,0,0,0,0,0,0,0,0,0,0,0,0,0,0,0,0],"id":13,"left_children":[1,3,5,7,9,11,13,15,17,19,21,23,25,27,29,-1,-1,-1,-1,-1,-1,-1,-1,-1,-1,-1,-1,-1,-1,-1,-1],"loss_changes":[4.548048E1,2.3904024E1,7.372713E0,7.8702087E0,5.7870264E0,4.434637E0,5.328108E0,2.28862E0,2.7491121E0,6.1280875E0,3.788001E0,3.8609943E0,2.9956777E0,6.2958717E0,5.007718E0,0E0,0E0,0E0,0E0,0E0,0E0,0E0,0E0,0E0,0E0,0E0,0E0,0E0,0E0,0E0,0E0],"parents":[2147483647,0,0,1,1,2,2,3,3,4,4,5,5,6,6,7,7,8,8,9,9,10,10,11,11,12,12,13,13,14,14],"right_children":[2,4,6,8,10,12,14,16,18,20,22,24,26,28,30,-1,-1,-1,-1,-1,-1,-1,-1,-1,-1,-1,-1,-1,-1,-1,-1],"split_conditions":[2.627625E-1,1.9594654E-1,-2.1200615E-1,1.7538147E-1,2.75E0,6.124556E-1,1.4849869E3,-4.507586E-1,4.3711877E0,2.8236276E-1,1.4191663E3,2.893002E-1,3.5E0,-7.0649895E1,5.376707E-1,-6.080038E-4,-1.2494384E-2,-5.2545476E-3,9.073927E-3,-1.164488E-3,4.1318475E-3,7.915897E-3,-1.1499397E-2,1.3827919E-2,4.607509E-3,8.875272E-3,-9.669801E-3,-7.329057E-3,6.729488E-3,1.507145E-3,2.6483849E-2],"split_indices":[15,10,33,15,19,12,2,39,8,10,1,10,31,3,14,0,0,0,0,0,0,0,0,0,0,0,0,0,0,0,0],"split_type":[0,0,0,0,0,0,0,0,0,0,0,0,0,0,0,0,0,0,0,0,0,0,0,0,0,0,0,0,0,0,0],"sum_hessian":[3.4807827E3,2.0231897E3,1.4575929E3,5.830095E2,1.4401802E3,2.1963618E2,1.2379568E3,2.58183E2,3.248265E2,1.3686552E3,7.152501E1,1.9158566E2,2.8050508E1,4.619064E2,7.760504E2,1.572676E1,2.4245627E2,3.1406342E2,1.076308E1,1.1328308E3,2.358244E2,9.076542E0,6.2448463E1,1.2794298E2,6.3642693E1,1.1792297E1,1.6258211E1,2.9084074E1,4.3282233E2,7.707477E2,5.30268E0],"tree_param":{"num_deleted":"0","num_feature":"40","num_nodes":"31","size_leaf_vector":"1"}},{"base_weights":[-3.634973E-4,-2.3682222E-1,3.6142746E-1,-3.6169118E-1,2.323561E-2,7.862766E-2,5.076833E-1,-2.4163544E-1,-4.593786E-1,-6.450255E-2,2.0152257E-1,1.5666698E-1,-7.9485126E-2,8.0208325E-1,4.1868675E-1,-5.630978E-3,-1.0381291E-2,-1.1149728E-2,-1.5500645E-2,-3.470976E-3,1.7685317E-3,1.7523706E-2,4.5118635E-3,9.575345E-3,2.569496E-3,-4.8778187E-3,2.2548174E-3,2.723375E-2,1.9629713E-2,1.6280191E-2,9.828625E-3],"categories":[],"categories_nodes":[],"categories_segments":[],"categories_sizes":[],"default_left":[0,1,0,0,0,0,0,1,0,1,0,0,0,0,0,0,0,0,0,0,0,0,0,0,0,0,0,0,0,0,0],"id":14,"left_children":[1,3,5,7,9,11,13,15,17,19,21,23,25,27,29,-1,-1,-1,-1,-1,-1,-1,-1,-1,-1,-1,-1,-1,-1,-1,-1],"loss_changes":[3.381935E2,7.765077E1,6.45477E1,1.8722061E1,1.2186816E1,6.6262226E0,2.630246E1,3.9747734E0,4.0821075E0,3.3162563E0,4.84933E0,4.087105E0,2.3137484E0,2.51062E0,8.61763E0,0E0,0E0,0E0,0E0,0E0,0E0,0E0,0E0,0E0,0E0,0E0,0E0,0E0,0E0,0E0,0E0],"parents":[2147483647,0,0,1,1,2,2,3,3,4,4,5,5,6,6,7,7,8,8,9,9,10,10,11,11,12,12,13,13,14,14],"right_children":[2,4,6,8,10,12,14,16,18,20,22,24,26,28,30,-1,-1,-1,-1,-1,-1,-1,-1,-1,-1,-1,-1,-1,-1,-1,-1],"split_conditions":[3.5975075E-1,2.608398E-1,4.0201998E-1,5.748725E-1,3.5598952E-1,3.142464E-1,1.7076737E-1,5.516443E-1,6.4535034E-1,1.8E0,2.2394872E-1,-3E-1,2.7543488E-1,1.23186156E-1,-7.688001E-1,-5.630978E-3,-1.0381291E-2,-1.1149728E-2,-1.5500645E-2,-3.470976E-3,1.7685317E-3,1.7523706E-2,4.5118635E-3,9.575345E-3,2.569496E-3,-4.8778187E-3,2.2548174E-3,2.723375E-2,1.9629713E-2,1.6280191E-2,9.828625E-3],"split_indices":[11,16,16,9,16,9,14,14,14,19,14,26,10,9,7,0,0,0,0,0,0,0,0,0,0,0,0,0,0,0,0],"split_type":[0,0,0,0,0,0,0,0,0,0,0,0,0,0,0,0,0,0,0,0,0,0,0,0,0,0,0,0,0,0,0],"sum_hessian":[3.9492307E3,2.3887117E3,1.5605192E3,1.6132933E3,7.7541815E2,5.329956E2,1.0275236E3,7.2689825E2,8.8639514E2,5.2053174E2,2.5488643E2,3.5687302E2,1.7612259E2,2.3479568E2,7.9272784E2,4.8298654E2,2.4391168E2,3.56179E2,5.302162E2,3.6803284E2,1.5249889E2,2.7587831E1,2.272986E2,1.0640153E2,2.5047148E2,1.1449079E2,6.1631798E1,1.3087746E2,1.03918236E2,3.3148816E2,4.612397E2],"tree_param":{"num_deleted":"0","num_feature":"40","num_nodes":"31","size_leaf_vector":"1"}},{"base_weights":[-3.404387E-3,-2.4587503E-1,3.2704148E-1,-4.0555024E-1,-4.7157183E-2,1.3713893E-1,5.52133E-1,-4.84638E-1,-2.1270056E-1,-1.0058071E-1,2.6286623E-1,-1.9204235E-1,2.011457E-1,6.6887885E-1,4.2694944E-1,-1.7503887E-2,-1.2581163E-2,-3.3390804E-3,-1.2010132E-2,-4.2849076E-3,2.7598973E-4,9.644715E-3,-4.0312414E-3,1.9375354E-2,-6.364822E-3,2.3288988E-3,7.5555323E-3,2.03316E-2,-2.4258124E-3,1.5182081E-2,9.148709E-3],"categories":[],"categories_nodes":[],"categories_segments":[],"categories_sizes":[],"default_left":[0,1,0,0,0,0,0,1,1,0,0,0,0,1,0,0,0,0,0,0,0,0,0,0,0,0,0,0,0,0,0],"id":15,"left_children":[1,3,5,7,9,11,13,15,17,19,21,23,25,27,29,-1,-1,-1,-1,-1,-1,-1,-1,-1,-1,-1,-1,-1,-1,-1,-1],"loss_changes":[3.5809628E2,8.175568E1,8.0702286E1,2.15896E1,1.911216E1,2.1749977E1,1.2069122E1,6.0370636E0,7.8860645E0,4.562149E0,4.0384426E0,3.1139421E0,5.360428E0,3.0526886E0,3.7731705E0,0E0,0E0,0E0,0E0,0E0,0E0,0E0,0E0,0E0,0E0,0E0,0E0,0E0,0E0,0E0,0E0],"parents":[2147483647,0,0,1,1,2,2,3,3,4,4,5,5,6,6,7,7,8,8,9,9,10,10,11,11,12,12,13,13,14,14],"right_children":[2,4,6,8,10,12,14,16,18,20,22,24,26,28,30,-1,-1,-1,-1,-1,-1,-1,-1,-1,-1,-1,-1,-1,-1,-1,-1],"split_conditions":[4.5824757E-1,3.2956105E-1,6.2400913E-1,-2.0733331E-1,5.219197E-1,3.9925826E-1,1.9232461E-1,1.7076737E-1,4.2897224E-1,1.5306865E3,4.12187E-1,1.3102138E-1,4.7823438E-1,2.2581649E-1,1.5186019E-1,-1.7503887E-2,-1.2581163E-2,-3.3390804E-3,-1.2010132E-2,-4.2849076E-3,2.7598973E-4,9.644715E-3,-4.0312414E-3,1.9375354E-2,-6.364822E-3,2.3288988E-3,7.5555323E-3,2.03316E-2,-2.4258124E-3,1.5182081E-2,9.148709E-3],"split_indices":[7,14,14,7,14,14,10,14,16,1,7,6,14,15,16,0,0,0,0,0,0,0,0,0,0,0,0,0,0,0,0],"split_type":[0,0,0,0,0,0,0,0,0,0,0,0,0,0,0,0,0,0,0,0,0,0,0,0,0,0,0,0,0,0,0],"sum_hessian":[4.4653013E3,2.5757847E3,1.8895168E3,1.4270386E3,1.1487461E3,1.0266139E3,8.6290295E2,1.0098659E3,4.1717258E2,9.8104297E2,1.6770311E2,1.6647038E2,8.601435E2,4.4200436E2,4.2089856E2,3.9535056E2,6.145154E2,2.7289066E2,1.4428194E2,7.079735E2,2.7306946E2,1.4646881E2,2.1234293E1,2.4448092E0,1.6402557E2,2.5180975E2,6.0833374E2,4.370428E2,4.9615984E0,2.5149272E2,1.6940584E2],"tree_param":{"num_deleted":"0","num_feature":"40","num_nodes":"31","size_leaf_vector":"1"}},{"base_weights":[6.2159533E-3,-2.0767032E-1,6.785536E-2,-2.8613767E-1,-4.389895E-2,-1.0682167E-2,1.4758235E-1,-1.8594083E-1,-3.4689593E-1,-7.461025E-2,5.559369E-1,3.407493E-2,-1.1970602E-1,1.2872626E-1,3.1385207E-1,-7.142133E-3,9.533101E-3,-5.6110704E-3,-1.2042329E-2,-2.692167E-3,2.4123194E-2,3.0750738E-2,-2.06433E-3,-9.949513E-4,3.6569552E-3,-2.124849E-3,-1.3025414E-2,7.7391886E-3,2.8540497E-3,5.5232723E-3,2.0988535E-2],"categories":[],"categories_nodes":[],"categories_segments":[],"categories_sizes":[],"default_left":[0,1,1,0,1,0,0,0,0,0,0,0,1,0,0,0,0,0,0,0,0,0,0,0,0,0,0,0,0,0,0],"id":16,"left_children":[1,3,5,7,9,11,13,15,17,19,21,23,25,27,29,-1,-1,-1,-1,-1,-1,-1,-1,-1,-1,-1,-1,-1,-1,-1,-1],"loss_changes":[4.5495464E1,9.895943E0,1.6775951E1,3.04628E0,4.7333612E0,6.60184E0,4.087181E0,5.4345527E0,2.6593437E0,3.36021E0,3.8137133E0,5.674488E0,5.990362E0,5.1494904E0,6.4500265E0,0E0,0E0,0E0,0E0,0E0,0E0,0E0,0E0,0E0,0E0,0E0,0E0,0E0,0E0,0E0,0E0],"parents":[2147483647,0,0,1,1,2,2,3,3,4,4,5,5,6,6,7,7,8,8,9,9,10,10,11,11,12,12,13,13,14,14],"right_children":[2,4,6,8,10,12,14,16,18,20,22,24,26,28,30,-1,-1,-1,-1,-1,-1,-1,-1,-1,-1,-1,-1,-1,-1,-1,-1],"split_conditions":[2.0377526E-1,2.2581649E-1,2.638918E-1,3.2692914E0,1.6E1,1.596974E3,3.7398994E-1,3.213341E0,1.4338007E3,3.0706558E-1,-2.2222222E-1,2.5967145E-1,2.4861777E-1,-8E-1,4.3514127E-1,-7.142133E-3,9.533101E-3,-5.6110704E-3,-1.2042329E-2,-2.692167E-3,2.4123194E-2,3.0750738E-2,-2.06433E-3,-9.949513E-4,3.6569552E-3,-2.124849E-3,-1.3025414E-2,7.7391886E-3,2.8540497E-3,5.5232723E-3,2.0988535E-2],"split_indices":[10,15,15,8,27,1,39,8,2,15,26,10,16,21,14,0,0,0,0,0,0,0,0,0,0,0,0,0,0,0,0],"split_type":[0,0,0,0,0,0,0,0,0,0,0,0,0,0,0,0,0,0,0,0,0,0,0,0,0,0,0,0,0,0,0],"sum_hessian":[3.4467178E3,7.700247E2,2.676693E3,5.1958356E2,2.5044113E2,1.3492776E3,1.3274154E3,1.992008E2,3.2038275E2,2.3990913E2,1.0531999E1,9.575526E2,3.9172504E2,1.1953977E3,1.3201764E2,1.8147432E2,1.7726496E1,8.372599E1,2.3665677E2,2.3761394E2,2.2951906E0,5.283509E0,5.24849E0,5.430355E2,4.145171E2,3.4115146E2,5.0573578E1,2.438385E2,9.5155927E2,1.01002426E2,3.1015217E1],"tree_param":{"num_deleted":"0","num_feature":"40","num_nodes":"31","size_leaf_vector":"1"}},{"base_weights":[2.9265895E-3,3.455208E-1,-2.4590807E-1,1.1941051E-1,5.146734E-1,-3.631844E-1,3.3900738E-2,5.382371E-3,2.363633E-1,8.0648804E-1,4.228535E-1,-2.4549666E-1,-4.545791E-1,-3.958552E-2,3.4279054E-1,-4.8727724E-3,1.6591605E-3,9.523385E-3,3.7305055E-3,3.231213E-2,2.1090113E-2,1.4407407E-2,6.403519E-3,-1.1658164E-3,-8.396775E-3,-1.0853363E-2,-1.5524171E-2,-1.1414872E-2,-7.0872164E-4,1.1947523E-2,7.331576E-4],"categories":[],"categories_nodes":[],"categories_segments":[],"categories_sizes":[],"default_left":[0,0,1,0,0,0,0,0,0,1,0,0,0,0,0,0,0,0,0,0,0,0,0,0,0,0,0,0,0,0,0],"id":17,"left_children":[1,3,5,7,9,11,13,15,17,19,21,23,25,27,29,-1,-1,-1,-1,-1,-1,-1,-1,-1,-1,-1,-1,-1,-1,-1,-1],"loss_changes":[3.3567365E2,6.3239548E1,7.4872314E1,9.486896E0,2.4694565E1,1.7066315E1,1.5359912E1,3.0534356E0,3.1110764E0,4.7711334E0,8.503647E0,5.003128E0,4.892639E0,2.9609587E0,2.2761955E0,0E0,0E0,0E0,0E0,0E0,0E0,0E0,0E0,0E0,0E0,0E0,0E0,0E0,0E0,0E0,0E0],"parents":[2147483647,0,0,1,1,2,2,3,3,4,4,5,5,6,6,7,7,8,8,9,9,10,10,11,11,12,12,13,13,14,14],"right_children":[2,4,6,8,10,12,14,16,18,20,22,24,26,28,30,-1,-1,-1,-1,-1,-1,-1,-1,-1,-1,-1,-1,-1,-1,-1,-1],"split_conditions":[3.6986053E-1,4.2897224E-1,2.6465678E-1,3.394207E-1,1.205203E-1,5.748725E-1,4.0483359E-1,1E0,-3.0095717E-1,1.0730513E-1,2.9710096E-1,2.0833333E-1,6.4535034E-1,1.04166664E-1,1.55E0,-4.8727724E-3,1.6591605E-3,9.523385E-3,3.7305055E-3,3.231213E-2,2.1090113E-2,1.4407407E-2,6.403519E-3,-1.1658164E-3,-8.396775E-3,-1.0853363E-2,-1.5524171E-2,-1.1414872E-2,-7.0872164E-4,1.1947523E-2,7.331576E-4],"split_indices":[9,16,16,16,9,9,16,23,7,14,9,28,14,28,38,0,0,0,0,0,0,0,0,0,0,0,0,0,0,0,0],"split_type":[0,0,0,0,0,0,0,0,0,0,0,0,0,0,0,0,0,0,0,0,0,0,0,0,0,0,0,0,0,0,0],"sum_hessian":[3.9335593E3,1.6546581E3,2.2789014E3,7.095705E2,9.450876E2,1.6054237E3,6.734776E2,3.6033676E2,3.492337E2,2.2247356E2,7.226141E2,7.0498975E2,9.0043396E2,5.454551E2,1.2802249E2,8.1587234E1,2.7874954E2,2.0045932E2,1.4877438E2,5.6341057E1,1.6613249E2,5.651345E2,1.5747955E2,1.01211685E2,6.037781E2,3.6919052E2,5.3124347E2,2.2353115E1,5.23102E2,1.08601105E2,1.942139E1],"tree_param":{"num_deleted":"0","num_feature":"40","num_nodes":"31","size_leaf_vector":"1"}},{"base_weights":[1.0276622E-3,-2.4212955E-1,3.2205853E-1,-6.933535E-2,-4.0834373E-1,4.347029E-1,-4.5161257E-3,9.636064E-2,-1.4014243E-1,-4.5503289E-1,-1.3295288E-1,2.2846982E-1,5.1725966E-1,-1.6362685E-1,8.4578775E-2,2.145283E-3,1.855087E-2,-2.2883841E-3,-8.017259E-3,-1.1759558E-2,-1.6983753E-2,-1.6213683E-2,-2.3202691E-3,1.3453541E-2,4.191077E-3,1.1068075E-2,1.8241946E-2,-6.761976E-3,4.285376E-3,4.0622157E-4,1.05180815E-2],"categories":[],"categories_nodes":[],"categories_segments":[],"categories_sizes":[],"default_left":[0,0,1,0,0,0,0,0,0,1,0,1,0,0,0,0,0,0,0,0,0,0,0,0,0,0,0,0,0,0,0],"id":18,"left_children":[1,3,5,7,9,11,13,15,17,19,21,23,25,27,29,-1,-1,-1,-1,-1,-1,-1,-1,-1,-1,-1,-1,-1,-1,-1,-1],"loss_changes":[3.503585E2,7.3293304E1,7.116348E1,1.47461815E1,1.66111E1,2.4251953E1,7.088435E0,4.7994614E0,7.1003323E0,7.343704E0,4.2553263E0,7.9735966E0,1.3364014E1,3.4620433E0,6.049328E0,0E0,0E0,0E0,0E0,0E0,0E0,0E0,0E0,0E0,0E0,0E0,0E0,0E0,0E0,0E0,0E0],"parents":[2147483647,0,0,1,1,2,2,3,3,4,4,5,5,6,6,7,7,8,8,9,9,10,10,11,11,12,12,13,13,14,14],"right_children":[2,4,6,8,10,12,14,16,18,20,22,24,26,28,30,-1,-1,-1,-1,-1,-1,-1,-1,-1,-1,-1,-1,-1,-1,-1,-1],"split_conditions":[4.4946983E-1,4.0201998E-1,2.3803632E-1,2.678367E-1,5.546276E-2,5.708005E-1,3.9925826E-1,1.7252223E2,3.453333E-1,5.451464E-1,2.1790347E-1,-9.0625E-1,6.4931697E-1,1.5509398E3,1.5639576E3,2.145283E-3,1.855087E-2,-2.2883841E-3,-8.017259E-3,-1.1759558E-2,-1.6983753E-2,-1.6213683E-2,-2.3202691E-3,1.3453541E-2,4.191077E-3,1.1068075E-2,1.8241946E-2,-6.761976E-3,4.285376E-3,4.0622157E-4,1.05180815E-2],"split_indices":[7,16,16,15,7,9,14,3,16,16,14,35,14,1,2,0,0,0,0,0,0,0,0,0,0,0,0,0,0,0,0],"split_type":[0,0,0,0,0,0,0,0,0,0,0,0,0,0,0,0,0,0,0,0,0,0,0,0,0,0,0,0,0,0,0],"sum_hessian":[4.4842686E3,2.551891E3,1.9323777E3,1.2525695E3,1.2993215E3,1.4362979E3,4.960798E2,3.7479294E2,8.777765E2,1.1098545E3,1.8946703E2,4.1275043E2,1.0235475E3,1.7747026E2,3.1860956E2,3.5993146E2,1.4861465E1,5.863546E2,2.9142188E2,7.138076E2,3.9604694E2,2.0657295E1,1.6880974E2,1.16338425E2,2.96412E2,3.925202E2,6.310273E2,1.4814032E2,2.9329948E1,2.531193E2,6.549025E1],"tree_param":{"num_deleted":"0","num_feature":"40","num_nodes":"31","size_leaf_vector":"1"}},{"base_weights":[-7.482603E-3,-1.989649E-1,4.9649775E-2,-3.700921E-1,-1.687661E-1,8.7598726E-2,-7.765584E-2,-4.04307E-1,4.020074E-1,-1.367827E-1,-2.9565603E-1,-1.5405148E-2,1.23725146E-1,2.9923546E-1,-1.12943426E-1,-1.2592124E-2,1.2552841E-2,2.5636047E-2,-9.255457E-3,5.233086E-4,-5.713124E-3,1.2047628E-2,-9.52931E-3,-5.257131E-3,1.1259642E-3,7.5915437E-3,2.9935197E-3,-6.093246E-3,1.346048E-2,3.0867339E-3,-4.762228E-3],"categories":[],"categories_nodes":[],"categories_segments":[],"categories_sizes":[],"default_left":[0,0,0,0,0,0,0,0,0,0,0,0,0,0,0,0,0,0,0,0,0,0,0,0,0,0,0,0,0,0,0],"id":19,"left_children":[1,3,5,7,9,11,13,15,17,19,21,23,25,27,29,-1,-1,-1,-1,-1,-1,-1,-1,-1,-1,-1,-1,-1,-1,-1,-1],"loss_changes":[3.76851E1,3.9659405E0,1.28322525E1,3.4175568E0,2.6647568E0,7.6135054E0,8.185318E0,1.786993E0,2.4469008E0,4.508748E0,2.3167143E0,4.52102E0,4.637808E0,4.146432E0,5.563846E0,0E0,0E0,0E0,0E0,0E0,0E0,0E0,0E0,0E0,0E0,0E0,0E0,0E0,0E0,0E0,0E0],"parents":[2147483647,0,0,1,1,2,2,3,3,4,4,5,5,6,6,7,7,8,8,9,9,10,10,11,11,12,12,13,13,14,14],"right_children":[2,4,6,8,10,12,14,16,18,20,22,24,26,28,30,-1,-1,-1,-1,-1,-1,-1,-1,-1,-1,-1,-1,-1,-1,-1,-1],"split_conditions":[2.2666664E-1,1.4241445E-1,1.570739E3,3.881461E-1,5.969381E-1,2.617182E-1,2.211897E0,3.2E0,4.5142884E0,6.2129354E-1,1.459409E0,2.1019027E-1,2.608398E-1,1.5914929E3,1.9329911E-1,-1.2592124E-2,1.2552841E-2,2.5636047E-2,-9.255457E-3,5.233086E-4,-5.713124E-3,1.2047628E-2,-9.52931E-3,-5.257131E-3,1.1259642E-3,7.5915437E-3,2.9935197E-3,-6.093246E-3,1.346048E-2,3.0867339E-3,-4.762228E-3],"split_indices":[15,15,1,33,11,15,8,20,8,14,6,11,16,1,16,0,0,0,0,0,0,0,0,0,0,0,0,0,0,0,0],"split_type":[0,0,0,0,0,0,0,0,0,0,0,0,0,0,0,0,0,0,0,0,0,0,0,0,0,0,0,0,0,0,0],"sum_hessian":[3.440952E3,7.8959985E2,2.651352E3,1.1506303E2,6.745368E2,2.0429779E3,6.0837427E2,1.11092766E2,3.9702678E0,5.420625E2,1.3247432E2,5.3077527E2,1.5122026E3,5.080359E1,5.575707E2,1.10009186E2,1.0835761E0,2.1778429E0,1.7924249E0,1.4025644E2,4.0180606E2,2.994305E0,1.2948001E2,1.3090767E2,3.998676E2,2.332241E2,1.2789785E3,1.1483949E1,3.9319637E1,9.716377E1,4.604069E2],"tree_param":{"num_deleted":"0","num_feature":"40","num_nodes":"31","size_leaf_vector":"1"}},{"base_weights":[-1.480537E-3,3.4504083E-1,-2.477679E-1,7.212446E-2,4.9463347E-1,-3.9215168E-1,-5.7830956E-2,-2.353407E-2,2.0175718E-1,7.6239294E-1,4.113001E-1,-4.6921545E-1,-2.8241268E-1,-1.1193259E-1,3.0800733E-1,2.2236987E-3,-4.292689E-3,1.7816184E-2,4.8563047E-3,2.9020166E-2,1.8079424E-2,9.879124E-3,1.6219378E-2,-7.3277564E-3,-1.4582406E-2,-1.0723472E-2,-5.213979E-3,1.931534E-3,-4.176732E-3,-5.7047536E-3,1.0795102E-2],"categories":[],"categories_nodes":[],"categories_segments":[],"categories_sizes":[],"default_left":[0,0,1,0,0,0,0,0,0,1,1,0,0,0,0,0,0,0,0,0,0,0,0,0,0,0,0,0,0,0,0],"id":20,"left_children":[1,3,5,7,9,11,13,15,17,19,21,23,25,27,29,-1,-1,-1,-1,-1,-1,-1,-1,-1,-1,-1,-1,-1,-1,-1,-1],"loss_changes":[3.3686823E2,6.687952E1,6.322931E1,7.238473E0,2.300122E1,1.0817642E1,1.9837646E1,3.9584928E0,3.6817093E0,6.9861298E0,8.255173E0,2.6717987E0,4.3228073E0,4.2120266E0,3.4730148E0,0E0,0E0,0E0,0E0,0E0,0E0,0E0,0E0,0E0,0E0,0E0,0E0,0E0,0E0,0E0,0E0],"parents":[2147483647,0,0,1,1,2,2,3,3,4,4,5,5,6,6,7,7,8,8,9,9,10,10,11,11,12,12,13,13,14,14],"right_children":[2,4,6,8,10,12,14,16,18,20,22,24,26,28,30,-1,-1,-1,-1,-1,-1,-1,-1,-1,-1,-1,-1,-1,-1,-1,-1],"split_conditions":[4.2738948E-2,4.0201998E-1,2.2032687E-1,3.394207E-1,1.23186156E-1,1.6887312E-1,4.0483359E-1,1.5E0,3.621109E-1,1.3580553E-1,5.065538E-1,5E-1,2.6662728E-1,4.7111396E-2,4.54556E-2,2.2236987E-3,-4.292689E-3,1.7816184E-2,4.8563047E-3,2.9020166E-2,1.8079424E-2,9.879124E-3,1.6219378E-2,-7.3277564E-3,-1.4582406E-2,-1.0723472E-2,-5.213979E-3,1.931534E-3,-4.176732E-3,-5.7047536E-3,1.0795102E-2],"split_indices":[7,16,16,16,9,11,16,23,11,14,16,20,15,17,17,0,0,0,0,0,0,0,0,0,0,0,0,0,0,0,0],"split_type":[0,0,0,0,0,0,0,0,0,0,0,0,0,0,0,0,0,0,0,0,0,0,0,0,0,0,0,0,0,0,0],"sum_hessian":[3.9431853E3,1.6378962E3,2.305289E3,5.809596E2,1.0569366E3,1.3084894E3,9.967997E2,3.3522638E2,2.4573323E2,2.470001E2,8.099365E2,7.648353E2,5.4365405E2,8.695894E2,1.2721029E2,1.8492934E2,1.5029703E2,2.0120422E1,2.2561281E2,1.0376435E2,1.4323576E2,5.0003952E2,3.0989703E2,5.5499615E1,7.093357E2,3.1881577E2,2.2483827E2,1.1619577E2,7.533936E2,1.1484783E1,1.1572551E2],"tree_param":{"num_deleted":"0","num_feature":"40","num_nodes":"31","size_leaf_vector":"1"}},{"base_weights":[-4.70225E-5,-2.355291E-1,3.189726E-1,-3.6004072E-1,-1.7495546E-2,5.0372756E-1,1.3316037E-1,-1.3120677E-1,-4.1870448E-1,-6.744346E-2,2.3062554E-1,6.2228304E-1,3.9359725E-1,-2.7205393E-2,2.4748963E-1,-7.3489896E-3,3.3191124E-3,-1.8440837E-2,-1.1156207E-2,-3.134735E-3,2.1678512E-3,-1.085416E-2,7.890291E-3,2.017136E-2,1.4615213E-2,1.3016675E-2,6.6627087E-3,-9.967508E-3,1.1771425E-3,1.02149565E-2,4.2704195E-3],"categories":[],"categories_nodes":[],"categories_segments":[],"categories_sizes":[],"default_left":[0,1,1,0,0,0,0,0,0,0,0,0,0,0,0,0,0,0,0,0,0,0,0,0,0,0,0,0,0,0,0],"id":21,"left_children":[1,3,5,7,9,11,13,15,17,19,21,23,25,27,29,-1,-1,-1,-1,-1,-1,-1,-1,-1,-1,-1,-1,-1,-1,-1,-1],"loss_changes":[3.3210687E2,6.903526E1,6.431659E1,2.162143E1,1.15146675E1,1.1791962E1,1.7224833E1,9.222034E0,1.13607025E1,4.0153456E0,3.177971E0,2.3876648E0,3.214775E0,7.981573E0,5.2643204E0,0E0,0E0,0E0,0E0,0E0,0E0,0E0,0E0,0E0,0E0,0E0,0E0,0E0,0E0,0E0,0E0],"parents":[2147483647,0,0,1,1,2,2,3,3,4,4,5,5,6,6,7,7,8,8,9,9,10,10,11,11,12,12,13,13,14,14],"right_children":[2,4,6,8,10,12,14,16,18,20,22,24,26,28,30,-1,-1,-1,-1,-1,-1,-1,-1,-1,-1,-1,-1,-1,-1,-1,-1],"split_conditions":[4.5824757E-1,3.5986125E-1,1.6445905E-1,3.5975075E-1,5.264642E-1,1.9133921E-1,4.7393137E-1,5.5E0,1.7076737E-1,1.5626768E3,3.6590835E-1,1E0,8E0,3.3845645E-1,1.7655581E-1,-7.3489896E-3,3.3191124E-3,-1.8440837E-2,-1.1156207E-2,-3.134735E-3,2.1678512E-3,-1.085416E-2,7.890291E-3,2.017136E-2,1.4615213E-2,1.3016675E-2,6.6627087E-3,-9.967508E-3,1.1771425E-3,1.02149565E-2,4.2704195E-3],"split_indices":[7,14,16,11,14,10,14,32,14,2,13,35,31,14,11,0,0,0,0,0,0,0,0,0,0,0,0,0,0,0,0],"split_type":[0,0,0,0,0,0,0,0,0,0,0,0,0,0,0,0,0,0,0,0,0,0,0,0,0,0,0,0,0,0,0],"sum_hessian":[4.4168174E3,2.541414E3,1.8754036E3,1.6168073E3,9.246068E2,9.386612E2,9.367424E2,3.312296E2,1.2855776E3,7.708812E2,1.5372557E2,4.4756055E2,4.9110062E2,3.905106E2,5.462318E2,2.2524982E2,1.05979805E2,2.4326166E2,1.042316E3,6.0970166E2,1.6117957E2,6.913135E0,1.4681242E2,3.2069916E2,1.2686139E2,3.951975E2,9.590308E1,6.84147E1,3.2209586E2,2.8746408E2,2.5876773E2],"tree_param":{"num_deleted":"0","num_feature":"40","num_nodes":"31","size_leaf_vector":"1"}},{"base_weights":[5.7027494E-3,-1.8651576E-1,6.6976555E-2,-3.2239124E-1,-1.1292048E-1,-6.830057E-2,1.0049971E-1,-1.7385E-1,-3.8331342E-1,-3.7221116E-1,-8.233697E-2,-1.0740755E-1,9.023478E-2,1.6772307E-1,4.620923E-2,-9.19831E-3,2.480671E-3,-1.2079313E-2,2.2028512E-3,-1.2510759E-2,1.3730148E-2,7.557652E-3,-3.2408119E-3,-1.4640064E-2,-2.6706674E-3,2.2193627E-2,2.4267593E-4,-1.2504688E-3,6.027976E-3,4.416245E-4,6.2662633E-3],"categories":[],"categories_nodes":[],"categories_segments":[],"categories_sizes":[],"default_left":[0,1,0,0,0,0,0,0,0,1,0,0,0,0,1,0,0,0,0,0,0,0,0,0,0,0,0,0,0,0,0],"id":22,"left_children":[1,3,5,7,9,11,13,15,17,19,21,23,25,27,29,-1,-1,-1,-1,-1,-1,-1,-1,-1,-1,-1,-1,-1,-1,-1,-1],"loss_changes":[4.0533424E1,8.245836E0,1.1847416E1,2.501871E0,4.242225E0,3.2397094E0,7.619585E0,3.0598693E0,1.86767E0,2.490003E0,4.244938E0,2.834908E0,5.5299616E0,6.511526E0,5.9360514E0,0E0,0E0,0E0,0E0,0E0,0E0,0E0,0E0,0E0,0E0,0E0,0E0,0E0,0E0,0E0,0E0],"parents":[2147483647,0,0,1,1,2,2,3,3,4,4,5,5,6,6,7,7,8,8,9,9,10,10,11,11,12,12,13,13,14,14],"right_children":[2,4,6,8,10,12,14,16,18,20,22,24,26,28,30,-1,-1,-1,-1,-1,-1,-1,-1,-1,-1,-1,-1,-1,-1,-1,-1],"split_conditions":[2.0958903E-1,1.7355387E-1,2.4273266E-1,1.4338007E3,3.706382E-1,1.8999499E0,1.5016508E3,1.4077078E3,1.8617904E3,2E1,6.130196E-1,-1.3E0,1.4023566E3,1.7655581E-1,2.9269937E-1,-9.19831E-3,2.480671E-3,-1.2079313E-2,2.2028512E-3,-1.2510759E-2,1.3730148E-2,7.557652E-3,-3.2408119E-3,-1.4640064E-2,-2.6706674E-3,2.2193627E-2,2.4267593E-4,-1.2504688E-3,6.027976E-3,4.416245E-4,6.2662633E-3],"split_indices":[10,15,15,2,13,5,2,2,2,28,6,22,2,11,15,0,0,0,0,0,0,0,0,0,0,0,0,0,0,0,0],"split_type":[0,0,0,0,0,0,0,0,0,0,0,0,0,0,0,0,0,0,0,0,0,0,0,0,0,0,0,0,0,0,0],"sum_hessian":[3.4373425E3,8.298815E2,2.607461E3,2.891944E2,5.406871E2,5.174208E2,2.0900403E3,8.635351E1,2.028409E2,5.4688736E1,4.8599832E2,4.1555743E2,1.01863365E2,9.3193036E2,1.1581099E3,5.6647667E1,2.9705837E1,1.9483203E2,8.008866E0,5.283082E1,1.8579158E0,3.342942E1,4.525689E2,1.679512E1,3.9876233E2,9.638317E0,9.2225044E1,1.27494095E2,8.044362E2,9.721125E2,1.8599745E2],"tree_param":{"num_deleted":"0","num_feature":"40","num_nodes":"31","size_leaf_vector":"1"}},{"base_weights":[2.121604E-3,-2.2736822E-1,3.4877735E-1,-3.73796E-1,-4.402953E-2,7.226166E-1,2.5365376E-1,-4.5414418E-1,-2.6771626E-1,5.7702065E-2,-1.4811984E-1,6.389686E-1,9.7212416E-1,3.6204642E-1,3.9597E-2,-1.3748526E-2,7.471879E-3,-1.3692767E-2,-6.5954276E-3,1.4571935E-2,9.0354535E-4,-6.067584E-3,-1.1957521E-3,2.5872922E-2,1.6236786E-2,3.0487582E-2,-1.1424791E-2,8.823033E-3,1.4775749E-2,2.1376803E-3,-8.119604E-3],"categories":[],"categories_nodes":[],"categories_segments":[],"categories_sizes":[],"default_left":[0,1,0,0,0,0,1,0,0,0,0,0,0,0,0,0,0,0,0,0,0,0,0,0,0,0,0,0,0,0,0],"id":23,"left_children":[1,3,5,7,9,11,13,15,17,19,21,23,25,27,29,-1,-1,-1,-1,-1,-1,-1,-1,-1,-1,-1,-1,-1,-1,-1,-1],"loss_changes":[3.146296E2,6.384983E1,5.5653107E1,1.1030746E1,1.1230043E1,5.4040527E0,2.917971E1,2.4110718E0,4.9929504E0,6.3104143E0,3.0544443E0,4.403084E0,5.318718E0,7.116852E0,4.2171164E0,0E0,0E0,0E0,0E0,0E0,0E0,0E0,0E0,0E0,0E0,0E0,0E0,0E0,0E0,0E0,0E0],"parents":[2147483647,0,0,1,1,2,2,3,3,4,4,5,5,6,6,7,7,8,8,9,9,10,10,11,11,12,12,13,13,14,14],"right_children":[2,4,6,8,10,12,14,16,18,20,22,24,26,28,30,-1,-1,-1,-1,-1,-1,-1,-1,-1,-1,-1,-1,-1,-1,-1,-1],"split_conditions":[3.5975075E-1,2.2032687E-1,1.8700393E-1,1.6887312E-1,4.1544628E-1,7.0545685E-1,3.361741E-1,1.2732058E0,1.540538E-1,2.2394872E-1,8.291517E-2,4.2124233E-1,1.3115879E0,1.8171982E0,2.25E0,-1.3748526E-2,7.471879E-3,-1.3692767E-2,-6.5954276E-3,1.4571935E-2,9.0354535E-4,-6.067584E-3,-1.1957521E-3,2.5872922E-2,1.6236786E-2,3.0487582E-2,-1.1424791E-2,8.823033E-3,1.4775749E-2,2.1376803E-3,-8.119604E-3],"split_indices":[11,16,14,11,14,16,14,6,16,14,34,13,5,6,20,0,0,0,0,0,0,0,0,0,0,0,0,0,0,0,0],"split_type":[0,0,0,0,0,0,0,0,0,0,0,0,0,0,0,0,0,0,0,0,0,0,0,0,0,0,0,0,0,0,0],"sum_hessian":[3.9509268E3,2.377611E3,1.5733158E3,1.320714E3,1.056897E3,3.1645245E2,1.2568633E3,7.477681E2,5.7294586E2,5.3495526E2,5.219417E2,2.4233194E2,7.412052E1,8.334458E2,4.2341745E2,7.4408405E2,3.6840944E0,1.1247473E2,4.604711E2,3.0376326E1,5.0457895E2,3.4679877E2,1.7514296E2,6.898011E1,1.7335184E2,7.226132E1,1.8591932E0,5.523327E2,2.8111313E2,3.8560922E2,3.7808228E1],"tree_param":{"num_deleted":"0","num_feature":"40","num_nodes":"31","size_leaf_vector":"1"}},{"base_weights":[5.972942E-3,-2.2800103E-1,3.3133543E-1,-1.3320033E-2,-3.4763235E-1,4.9756262E-1,1.5252155E-1,-2.8128373E-2,7.438678E-1,-1.326149E-1,-4.075619E-1,3.0479717E-1,5.622551E-1,2.1776874E-1,-1.7403978E-1,-1.6271315E-3,7.331044E-3,-6.0022078E-3,2.6590077E-2,2.889998E-3,-5.4838406E-3,-1.3161304E-2,-5.828265E-3,2.619184E-2,7.4560097E-3,1.4510836E-2,1.8807301E-2,1.6830029E-2,5.9251674E-3,-1.0156998E-2,-1.080593E-3],"categories":[],"categories_nodes":[],"categories_segments":[],"categories_sizes":[],"default_left":[0,0,1,0,0,0,0,0,0,0,0,0,0,0,0,0,0,0,0,0,0,0,0,0,0,0,0,0,0,0,0],"id":24,"left_children":[1,3,5,7,9,11,13,15,17,19,21,23,25,27,29,-1,-1,-1,-1,-1,-1,-1,-1,-1,-1,-1,-1,-1,-1,-1,-1],"loss_changes":[3.3882047E2,6.648323E1,5.5186935E1,1.0453278E1,2.1314346E1,1.1678238E1,1.9248257E1,6.519783E0,2.7597332E0,4.2323365E0,8.460388E0,7.44998E0,3.0474548E0,5.00058E0,3.4035072E0,0E0,0E0,0E0,0E0,0E0,0E0,0E0,0E0,0E0,0E0,0E0,0E0,0E0,0E0,0E0,0E0],"parents":[2147483647,0,0,1,1,2,2,3,3,4,4,5,5,6,6,7,7,8,8,9,9,10,10,11,11,12,12,13,13,14,14],"right_children":[2,4,6,8,10,12,14,16,18,20,22,24,26,28,30,-1,-1,-1,-1,-1,-1,-1,-1,-1,-1,-1,-1,-1,-1,-1,-1],"split_conditions":[4.8591825E-1,3.453333E-1,1.6636452E-1,7.9694164E-1,3.6742827E-1,6.013834E-1,3.1905934E-1,6.363684E-1,5.8020835E0,2.0833333E-1,1.5509398E3,-2.15E0,1.5675495E0,1.5061282E-1,-4.1968882E-2,-1.6271315E-3,7.331044E-3,-6.0022078E-3,2.6590077E-2,2.889998E-3,-5.4838406E-3,-1.3161304E-2,-5.828265E-3,2.619184E-2,7.4560097E-3,1.4510836E-2,1.8807301E-2,1.6830029E-2,5.9251674E-3,-1.0156998E-2,-1.080593E-3],"split_indices":[7,16,16,4,11,9,16,13,27,28,1,38,7,10,39,0,0,0,0,0,0,0,0,0,0,0,0,0,0,0,0],"split_type":[0,0,0,0,0,0,0,0,0,0,0,0,0,0,0,0,0,0,0,0,0,0,0,0,0,0,0,0,0,0,0],"sum_hessian":[4.44678E3,2.587012E3,1.8597681E3,9.265395E2,1.6604724E3,9.619574E2,8.978106E2,9.1065546E2,1.58840065E1,3.6332977E2,1.2971426E3,2.4458513E2,7.173723E2,7.4885504E2,1.4895552E2,8.324919E2,7.816357E1,1.9769286E0,1.3907078E1,6.498634E1,2.983434E2,1.1300035E3,1.6713908E2,1.9418873E1,2.2516626E2,3.3151703E2,3.858553E2,3.8769955E1,7.100851E2,6.662687E1,8.232866E1],"tree_param":{"num_deleted":"0","num_feature":"40","num_nodes":"31","size_leaf_vector":"1"}},{"base_weights":[-1.266843E-4,-1.778315E-1,5.743604E-2,-2.6642156E-1,-3.2242782E-2,-2.7814485E-2,1.07370555E-1,-4.5807433E-1,-2.3379606E-1,-8.7013006E-2,1.4318345E-1,-5.7821494E-2,1.4125325E-1,1.3524172E-1,-2.5016813E-2,4.5041493E-3,-1.5087012E-2,-3.1940504E-3,-8.9224335E-3,-3.4811771E-3,1.4059161E-2,-5.722365E-3,7.95257E-3,-5.0010877E-3,-4.691069E-4,2.4442041E-2,1.9896037E-3,3.6394524E-3,1.7268885E-2,-8.108234E-3,1.1065528E-3],"categories":[],"categories_nodes":[],"categories_segments":[],"categories_sizes":[],"default_left":[0,1,0,0,0,0,0,1,0,0,0,0,0,0,0,0,0,0,0,0,0,0,0,0,0,0,0,0,0,0,0],"id":25,"left_children":[1,3,5,7,9,11,13,15,17,19,21,23,25,27,29,-1,-1,-1,-1,-1,-1,-1,-1,-1,-1,-1,-1,-1,-1,-1,-1],"loss_changes":[3.5201946E1,1.08425255E1,1.1071237E1,3.0571747E0,3.1072052E0,4.8954086E0,6.056593E0,2.1691456E0,3.5912743E0,4.071793E0,3.2389333E0,3.752816E0,7.2370167E0,8.169329E0,4.3747044E0,0E0,0E0,0E0,0E0,0E0,0E0,0E0,0E0,0E0,0E0,0E0,0E0,0E0,0E0,0E0,0E0],"parents":[2147483647,0,0,1,1,2,2,3,3,4,4,5,5,6,6,7,7,8,8,9,9,10,10,11,11,12,12,13,13,14,14],"right_children":[2,4,6,8,10,12,14,16,18,20,22,24,26,28,30,-1,-1,-1,-1,-1,-1,-1,-1,-1,-1,-1,-1,-1,-1,-1,-1],"split_conditions":[2.0958903E-1,2.2175881E-1,2.631625E-1,3.7943566E-1,1.602459E3,1.8864319E0,1.570739E3,-4E0,6.385136E-1,1.8E0,-1.0121592E-1,-8.020833E-1,1.4023566E3,2.5E0,-2.0111437E-1,4.5041493E-3,-1.5087012E-2,-3.1940504E-3,-8.9224335E-3,-3.4811771E-3,1.4059161E-2,-5.722365E-3,7.95257E-3,-5.0010877E-3,-4.691069E-4,2.4442041E-2,1.9896037E-3,3.6394524E-3,1.7268885E-2,-8.108234E-3,1.1065528E-3],"split_indices":[10,15,15,13,2,5,1,35,12,22,33,35,2,37,7,0,0,0,0,0,0,0,0,0,0,0,0,0,0,0,0],"split_type":[0,0,0,0,0,0,0,0,0,0,0,0,0,0,0,0,0,0,0,0,0,0,0,0,0,0,0,0,0,0,0],"sum_hessian":[3.4373313E3,8.3998676E2,2.5973445E3,5.21187E2,3.1879977E2,9.5973175E2,1.6376128E3,7.2022545E1,4.4916443E2,2.4371649E2,7.50833E1,8.161867E2,1.43545E2,1.3527738E3,2.8483905E2,4.621262E0,6.740128E1,1.5143172E2,2.9773273E2,2.33121E2,1.0595484E1,1.9777353E1,5.5305946E1,2.2626842E2,5.899183E2,1.2395099E1,1.311499E2,1.3137783E3,3.899541E1,5.6046886E1,2.2879218E2],"tree_param":{"num_deleted":"0","num_feature":"40","num_nodes":"31","size_leaf_vector":"1"}},{"base_weights":[3.329626E-3,3.3412194E-1,-2.3959972E-1,1.040996E-1,5.0119215E-1,-3.6969534E-1,-5.3277873E-2,-2.1769155E-2,2.2754626E-1,4.264841E-1,7.77676E-1,-2.4097688E-1,-4.3817872E-1,-9.726631E-2,2.3555559E-1,2.1666521E-3,-3.5242923E-3,1.16985915E-2,4.4756155E-3,1.4095748E-2,5.0603054E-3,-1.7551695E-3,2.3703566E-2,-3.977029E-3,-1.1274073E-2,-1.3258106E-2,1.22932475E-2,-5.690531E-3,-1.4578386E-3,9.22184E-3,-1.1974764E-3],"categories":[],"categories_nodes":[],"categories_segments":[],"categories_sizes":[],"default_left":[0,0,1,0,1,0,0,0,0,0,0,1,0,0,0,0,0,0,0,0,0,0,0,0,0,0,0,0,0,0,0],"id":26,"left_children":[1,3,5,7,9,11,13,15,17,19,21,23,25,27,29,-1,-1,-1,-1,-1,-1,-1,-1,-1,-1,-1,-1,-1,-1,-1,-1],"loss_changes":[3.1530923E2,6.3743576E1,5.479901E1,1.0910441E1,1.9204773E1,1.15290985E1,1.1893587E1,3.1581113E0,4.393133E0,8.358795E0,2.1961288E0,6.725601E0,3.12471E0,3.6280813E0,2.4751205E0,0E0,0E0,0E0,0E0,0E0,0E0,0E0,0E0,0E0,0E0,0E0,0E0,0E0,0E0,0E0,0E0],"parents":[2147483647,0,0,1,1,2,2,3,3,4,4,5,5,6,6,7,7,8,8,9,9,10,10,11,11,12,12,13,13,14,14],"right_children":[2,4,6,8,10,12,14,16,18,20,22,24,26,28,30,-1,-1,-1,-1,-1,-1,-1,-1,-1,-1,-1,-1,-1,-1,-1,-1],"split_conditions":[4.2738948E-2,4.3146372E-1,2.2914262E-1,3.394207E-1,6.174054E-1,7.754965E-1,4.0483359E-1,1.9941656E-3,-3.3333334E-1,-2.0111437E-1,2.5E-1,4.9694877E-2,7.8722626E-1,9.255732E-1,2E0,2.1666521E-3,-3.5242923E-3,1.16985915E-2,4.4756155E-3,1.4095748E-2,5.0603054E-3,-1.7551695E-3,2.3703566E-2,-3.977029E-3,-1.1274073E-2,-1.3258106E-2,1.22932475E-2,-5.690531E-3,-1.4578386E-3,9.22184E-3,-1.1974764E-3],"split_indices":[7,16,16,16,16,7,16,34,26,7,19,17,39,6,19,0,0,0,0,0,0,0,0,0,0,0,0,0,0,0,0],"split_type":[0,0,0,0,0,0,0,0,0,0,0,0,0,0,0,0,0,0,0,0,0,0,0,0,0,0,0,0,0,0,0],"sum_hessian":[3.9197566E3,1.6594136E3,2.260343E3,6.99537E2,9.5987665E2,1.3298398E3,9.305032E2,3.4718613E2,3.5235083E2,7.596881E2,2.0018854E2,4.6495938E2,8.648805E2,8.086715E2,1.2183167E2,1.7541132E2,1.7177481E2,1.1208689E2,2.4026395E2,6.4887476E2,1.1081337E2,2.8266892E0,1.9736185E2,2.599266E2,2.0503276E2,8.6201764E2,2.8628497E0,2.769683E2,5.317032E2,9.644771E1,2.538397E1],"tree_param":{"num_deleted":"0","num_feature":"40","num_nodes":"31","size_leaf_vector":"1"}},{"base_weights":[4.417744E-3,-2.1902746E-1,3.1125888E-1,-3.6229086E-1,-2.9910667E-2,1.7015404E-1,5.2324283E-1,-1.2573852E-1,-4.2258245E-1,-7.708958E-2,2.2088078E-1,2.4326429E-1,-1.3151902E-1,6.120989E-1,3.8263923E-1,-7.7090734E-3,4.4659333E-4,-1.7116308E-2,-1.1386807E-2,-3.8935987E-3,2.051956E-3,9.986921E-4,1.139418E-2,1.6794384E-2,6.44488E-3,-6.322224E-3,4.0201787E-3,-2.797703E-3,1.8539602E-2,8.244826E-3,1.661469E-2],"categories":[],"categories_nodes":[],"categories_segments":[],"categories_sizes":[],"default_left":[0,1,0,0,0,0,0,0,0,0,0,0,0,0,1,0,0,0,0,0,0,0,0,0,0,0,0,0,0,0,0],"id":27,"left_children":[1,3,5,7,9,11,13,15,17,19,21,23,25,27,29,-1,-1,-1,-1,-1,-1,-1,-1,-1,-1,-1,-1,-1,-1,-1,-1],"loss_changes":[3.0457306E2,6.962163E1,5.5811813E1,2.0750137E1,1.3169005E1,2.4914906E1,8.865128E0,5.541468E0,6.979645E0,7.1925545E0,5.230335E0,7.929302E0,4.7073393E0,2.0025635E0,5.1332054E0,0E0,0E0,0E0,0E0,0E0,0E0,0E0,0E0,0E0,0E0,0E0,0E0,0E0,0E0,0E0,0E0],"parents":[2147483647,0,0,1,1,2,2,3,3,4,4,5,5,6,6,7,7,8,8,9,9,10,10,11,11,12,12,13,13,14,14],"right_children":[2,4,6,8,10,12,14,16,18,20,22,24,26,28,30,-1,-1,-1,-1,-1,-1,-1,-1,-1,-1,-1,-1,-1,-1,-1,-1],"split_conditions":[4.8591825E-1,3.361741E-1,6.565941E-1,3.6742827E-1,5.264642E-1,2.920607E-1,1.2381476E-1,2.6246555E-2,1.7442961E-1,1.4303209E0,1.5526483E3,-2.15E0,1.5509398E3,-5.461658E-1,4.9284425E-2,-7.7090734E-3,4.4659333E-4,-1.7116308E-2,-1.1386807E-2,-3.8935987E-3,2.051956E-3,9.986921E-4,1.139418E-2,1.6794384E-2,6.44488E-3,-6.322224E-3,4.0201787E-3,-2.797703E-3,1.8539602E-2,8.244826E-3,1.661469E-2],"split_indices":[7,14,14,11,14,16,11,39,14,5,1,38,1,33,17,0,0,0,0,0,0,0,0,0,0,0,0,0,0,0,0],"split_type":[0,0,0,0,0,0,0,0,0,0,0,0,0,0,0,0,0,0,0,0,0,0,0,0,0,0,0,0,0,0,0],"sum_hessian":[4.4383013E3,2.5684785E3,1.8698228E3,1.4603639E3,1.1081145E3,1.1247501E3,7.4507263E2,2.9786606E2,1.1624979E3,9.338279E2,1.7428658E2,9.05653E2,2.1909714E2,4.5244073E2,2.926319E2,1.5322368E2,1.4464236E2,2.563479E2,9.0614996E2,6.856833E2,2.4814458E2,8.104371E1,9.324287E1,7.156706E1,8.3408594E2,1.690671E2,5.0030045E1,3.4997501E0,4.48941E2,1.8274799E2,1.0988389E2],"tree_param":{"num_deleted":"0","num_feature":"40","num_nodes":"31","size_leaf_vector":"1"}},{"base_weights":[4.6792687E-3,-1.7744294E-1,6.3329086E-2,-2.4552138E-1,-5.3295977E-2,-2.9748164E-2,1.215633E-1,-2.5862628E-1,1.9166571E-1,-1.2508431E-1,7.901423E-2,-1.2392655E-1,2.4981583E-2,1.4710608E-1,9.6235E-3,2.309703E-3,-8.231887E-3,-8.72172E-3,1.8171668E-2,-4.6274015E-3,1.665435E-2,1.1679384E-2,-2.565339E-3,-2.9999402E-3,-1.352645E-2,2.2216847E-3,-3.7034918E-3,5.4387324E-3,1.6649681E-3,-9.22089E-3,2.546257E-3],"categories":[],"categories_nodes":[],"categories_segments":[],"categories_sizes":[],"default_left":[0,1,0,0,1,0,1,0,0,0,0,0,0,0,0,0,0,0,0,0,0,0,0,0,0,0,0,0,0,0,0],"id":28,"left_children":[1,3,5,7,9,11,13,15,17,19,21,23,25,27,29,-1,-1,-1,-1,-1,-1,-1,-1,-1,-1,-1,-1,-1,-1,-1,-1],"loss_changes":[3.6722454E1,7.0519085E0,1.4102102E1,3.1947823E0,2.861218E0,5.1729374E0,4.571953E0,2.8232498E0,3.7224853E0,4.0336456E0,5.50096E0,2.7948332E0,4.6484447E0,4.0590553E0,7.1940284E0,0E0,0E0,0E0,0E0,0E0,0E0,0E0,0E0,0E0,0E0,0E0,0E0,0E0,0E0,0E0,0E0],"parents":[2147483647,0,0,1,1,2,2,3,3,4,4,5,5,6,6,7,7,8,8,9,9,10,10,11,11,12,12,13,13,14,14],"right_children":[2,4,6,8,10,12,14,16,18,20,22,24,26,28,30,-1,-1,-1,-1,-1,-1,-1,-1,-1,-1,-1,-1,-1,-1,-1,-1],"split_conditions":[2.0958903E-1,2.2581649E-1,2.638918E-1,6.921308E-1,8E0,-9.668559E-2,1E0,1.3502244E3,1.881718E-1,1.8E0,-2E-1,-1.11132875E-1,2.980088E-1,4.553333E-1,-7.071477E-2,2.309703E-3,-8.231887E-3,-8.72172E-3,1.8171668E-2,-4.6274015E-3,1.665435E-2,1.1679384E-2,-2.565339E-3,-2.9999402E-3,-1.352645E-2,2.2216847E-3,-3.7034918E-3,5.4387324E-3,1.6649681E-3,-9.22089E-3,2.546257E-3],"split_indices":[10,15,15,13,28,39,21,2,10,22,26,39,39,9,39,0,0,0,0,0,0,0,0,0,0,0,0,0,0,0,0],"split_type":[0,0,0,0,0,0,0,0,0,0,0,0,0,0,0,0,0,0,0,0,0,0,0,0,0,0,0,0,0,0,0],"sum_hessian":[3.4338662E3,8.3547095E2,2.5983953E3,5.383182E2,2.9715274E2,1.00040314E3,1.597992E3,5.234445E2,1.4873664E1,1.9270493E2,1.0444782E2,3.6675912E2,6.3364404E2,1.3005907E3,2.9740125E2,2.314335E1,5.0030118E2,7.145106E0,7.7285576E0,1.8626593E2,6.4390035E0,3.524412E1,6.92037E1,3.4418155E2,2.2577583E1,4.769547E2,1.566893E2,9.4571906E2,3.548717E2,5.587354E1,2.4152773E2],"tree_param":{"num_deleted":"0","num_feature":"40","num_nodes":"31","size_leaf_vector":"1"}},{"base_weights":[-1.8883725E-3,3.0969366E-1,-2.3135152E-1,9.504368E-2,4.6426165E-1,-3.6126855E-1,-3.8128264E-2,-5.79053E-2,2.0282917E-1,7.1088547E-1,3.7749708E-1,-4.5237526E-1,-2.4506752E-1,-8.1627145E-2,2.2629489E-1,4.199242E-4,-8.295049E-3,5.449075E-3,1.8415865E-2,2.5498921E-2,1.8470015E-2,1.4621268E-2,7.4401624E-3,-5.8070566E-3,-1.3934626E-2,-5.03557E-3,-1.0541395E-2,-4.0040325E-4,-4.1833376E-3,1.9870276E-2,4.1898824E-3],"categories":[],"categories_nodes":[],"categories_segments":[],"categories_sizes":[],"default_left":[0,0,1,0,0,0,0,0,0,0,0,0,1,0,0,0,0,0,0,0,0,0,0,0,0,0,0,0,0,0,0],"id":29,"left_children":[1,3,5,7,9,11,13,15,17,19,21,23,25,27,29,-1,-1,-1,-1,-1,-1,-1,-1,-1,-1,-1,-1,-1,-1,-1,-1],"loss_changes":[2.7954248E2,5.492833E1,5.6495407E1,1.1509184E1,2.008081E1,1.40295105E1,1.047509E1,4.559093E0,3.341074E0,2.2441254E0,9.960342E0,2.1780548E0,4.77425E0,3.0785966E0,4.6778135E0,0E0,0E0,0E0,0E0,0E0,0E0,0E0,0E0,0E0,0E0,0E0,0E0,0E0,0E0,0E0,0E0],"parents":[2147483647,0,0,1,1,2,2,3,3,4,4,5,5,6,6,7,7,8,8,9,9,10,10,11,11,12,12,13,13,14,14],"right_children":[2,4,6,8,10,12,14,16,18,20,22,24,26,28,30,-1,-1,-1,-1,-1,-1,-1,-1,-1,-1,-1,-1,-1,-1,-1,-1],"split_conditions":[4.2738948E-2,4.3146372E-1,2.3270577E-1,3.2776976E-1,1.7076737E-1,1.6887312E-1,4.0483359E-1,1.4430061E-1,2.245513E0,7.059306E-1,2.5235403E-1,-3.405881E-1,5.060297E-2,4.1544628E-1,-8.75E-1,4.199242E-4,-8.295049E-3,5.449075E-3,1.8415865E-2,2.5498921E-2,1.8470015E-2,1.4621268E-2,7.4401624E-3,-5.8070566E-3,-1.3934626E-2,-5.03557E-3,-1.0541395E-2,-4.0040325E-4,-4.1833376E-3,1.9870276E-2,4.1898824E-3],"split_indices":[7,16,16,16,14,11,16,34,6,5,10,34,17,14,26,0,0,0,0,0,0,0,0,0,0,0,0,0,0,0,0],"split_type":[0,0,0,0,0,0,0,0,0,0,0,0,0,0,0,0,0,0,0,0,0,0,0,0,0,0,0,0,0,0,0],"sum_hessian":[3.9058667E3,1.656224E3,2.2496428E3,6.947073E2,9.615167E2,1.3441445E3,9.054983E2,2.875689E2,4.071384E2,2.4649129E2,7.1502545E2,7.501824E2,5.939621E2,7.7876953E2,1.2672874E2,2.178E2,6.9768906E1,3.8991757E2,1.7220812E1,9.3731445E1,1.5275984E2,3.8381583E2,3.3120963E2,3.5057655E1,7.1512476E2,3.4705328E2,2.4690884E2,3.5820444E2,4.2056512E2,1.8801876E1,1.07926865E2],"tree_param":{"num_deleted":"0","num_feature":"40","num_nodes":"31","size_leaf_vector":"1"}},{"base_weights":[-2.8239666E-3,-2.2470632E-1,2.9745167E-1,-3.5965773E-1,-5.6242824E-2,1.5416406E-1,4.9766257E-1,-1.15437835E-1,-4.1456026E-1,-1.1419255E-1,1.4113788E-1,2.20654E-1,-8.9060664E-2,2.7912906E-1,5.6111145E-1,2.2784714E-6,-9.085389E-3,-1.0533453E-2,-1.579577E-2,-4.1419873E-3,2.6953123E-3,2.6795152E-3,1.6441636E-2,9.009041E-3,3.823442E-3,-5.113903E-3,6.242858E-3,1.0234057E-2,-5.677731E-3,1.3173762E-2,1.821418E-2],"categories":[],"categories_nodes":[],"categories_segments":[],"categories_sizes":[],"default_left":[0,1,0,0,0,0,0,1,1,0,0,0,0,0,0,0,0,0,0,0,0,0,0,0,0,0,0,0,0,0,0],"id":30,"left_children":[1,3,5,7,9,11,13,15,17,19,21,23,25,27,29,-1,-1,-1,-1,-1,-1,-1,-1,-1,-1,-1,-1,-1,-1,-1,-1],"loss_changes":[2.955857E2,5.7961075E1,5.3929413E1,1.8892532E1,1.30387E1,1.7856258E1,1.0578384E1,5.6870613E0,7.8382263E0,4.312051E0,5.362989E0,6.3506203E0,5.826618E0,5.37796E0,2.8737183E0,0E0,0E0,0E0,0E0,0E0,0E0,0E0,0E0,0E0,0E0,0E0,0E0,0E0,0E0,0E0,0E0],"parents":[2147483647,0,0,1,1,2,2,3,3,4,4,5,5,6,6,7,7,8,8,9,9,10,10,11,11,12,12,13,13,14,14],"right_children":[2,4,6,8,10,12,14,16,18,20,22,24,26,28,30,-1,-1,-1,-1,-1,-1,-1,-1,-1,-1,-1,-1,-1,-1,-1,-1],"split_conditions":[4.7201687E-1,3.311317E-1,6.4535034E-1,3.621109E-1,1.5636798E3,2.920607E-1,6.013834E-1,4.9486823E-2,5.4121983E-1,5.219197E-1,6.141156E-1,1.7655581E-1,1.5585593E3,1.1111112E0,2.9161093E0,2.2784714E-6,-9.085389E-3,-1.0533453E-2,-1.579577E-2,-4.1419873E-3,2.6953123E-3,2.6795152E-3,1.6441636E-2,9.009041E-3,3.823442E-3,-5.113903E-3,6.242858E-3,1.0234057E-2,-5.677731E-3,1.3173762E-2,1.821418E-2],"split_indices":[9,14,14,11,1,16,9,17,16,14,14,11,1,22,8,0,0,0,0,0,0,0,0,0,0,0,0,0,0,0,0],"split_type":[0,0,0,0,0,0,0,0,0,0,0,0,0,0,0,0,0,0,0,0,0,0,0,0,0,0,0,0,0,0,0],"sum_hessian":[4.432494E3,2.549269E3,1.8832253E3,1.4141572E3,1.1351118E3,1.0997166E3,7.835088E2,2.6070078E2,1.1534564E3,8.781388E2,2.5697308E2,8.6377374E2,2.3594278E2,1.7872707E2,6.0478174E2,1.6252422E2,9.8176575E1,7.4153687E2,4.1191953E2,7.8673224E2,9.140658E1,2.301079E2,2.6865177E1,4.6336774E2,4.00406E2,1.8587654E2,5.006624E1,1.583126E2,2.0414452E1,1.7145673E2,4.3332498E2],"tree_param":{"num_deleted":"0","num_feature":"40","num_nodes":"31","size_leaf_vector":"1"}},{"base_weights":[8.3768164E-4,-1.9909503E-1,4.6610713E-2,-3.1570947E-1,-1.0314111E-1,6.422824E-2,-1.24652825E-1,-1.776051E-1,-3.9550978E-1,-6.321744E-2,-3.8755956E-1,1.0517498E-1,-1.5071578E-2,7.3697764E-1,-1.4608115E-1,-7.284525E-3,1.7906671E-2,6.697887E-4,-1.2745684E-2,-5.108325E-4,-9.867842E-3,-1.3350698E-2,9.219018E-3,-1.0354344E-3,3.8617286E-3,-1.0587226E-2,1.1459992E-4,3.0118814E-2,-6.863104E-3,1.2430053E-2,-5.126061E-3],"categories":[],"categories_nodes":[],"categories_segments":[],"categories_sizes":[],"default_left":[0,1,1,0,0,0,0,0,0,0,0,0,0,0,0,0,0,0,0,0,0,0,0,0,0,0,0,0,0,0,0],"id":31,"left_children":[1,3,5,7,9,11,13,15,17,19,21,23,25,27,29,-1,-1,-1,-1,-1,-1,-1,-1,-1,-1,-1,-1,-1,-1,-1,-1],"loss_changes":[3.1515045E1,7.1133976E0,8.470709E0,3.0403214E0,3.9810617E0,8.257503E0,5.053501E0,5.811632E0,2.2419739E0,3.8378534E0,2.0023293E0,5.524536E0,5.538593E0,2.1841865E0,3.7165852E0,0E0,0E0,0E0,0E0,0E0,0E0,0E0,0E0,0E0,0E0,0E0,0E0,0E0,0E0,0E0,0E0],"parents":[2147483647,0,0,1,1,2,2,3,3,4,4,5,5,6,6,7,7,8,8,9,9,10,10,11,11,12,12,13,13,14,14],"right_children":[2,4,6,8,10,12,14,16,18,20,22,24,26,28,30,-1,-1,-1,-1,-1,-1,-1,-1,-1,-1,-1,-1,-1,-1,-1,-1],"split_conditions":[1.9594654E-1,1.3077182E-1,6.0777986E-1,1.4338007E3,6.925431E-1,1.5780201E3,1.9765764E-1,5.900856E-1,9.986053E-1,5.5E0,1.6E0,1.7655581E-1,1.23186156E-1,1.142522E0,-3.8490766E-1,-7.284525E-3,1.7906671E-2,6.697887E-4,-1.2745684E-2,-5.108325E-4,-9.867842E-3,-1.3350698E-2,9.219018E-3,-1.0354344E-3,3.8617286E-3,-1.0587226E-2,1.1459992E-4,3.0118814E-2,-6.863104E-3,1.2430053E-2,-5.126061E-3],"split_indices":[10,16,14,2,16,2,10,13,5,32,22,11,9,6,34,0,0,0,0,0,0,0,0,0,0,0,0,0,0,0,0],"split_type":[0,0,0,0,0,0,0,0,0,0,0,0,0,0,0,0,0,0,0,0,0,0,0,0,0,0,0,0,0,0,0],"sum_hessian":[3.4396646E3,6.3953424E2,2.8001304E3,2.866198E2,3.5291443E2,2.540087E3,2.6004346E2,1.0732747E2,1.7929234E2,3.116174E2,4.1297035E1,1.674698E3,8.65389E2,4.689602E0,2.5535384E2,1.0025865E2,7.068814E0,1.1797479E1,1.6749487E2,2.6728262E2,4.4334785E1,3.8806873E1,2.4901595E0,2.4146263E2,1.4332354E3,4.39566E1,8.214324E2,3.6119385E0,1.0776635E0,9.484731E0,2.4586911E2],"tree_param":{"num_deleted":"0","num_feature":"40","num_nodes":"31","size_leaf_vector":"1"}},{"base_weights":[-6.203957E-4,3.0546612E-1,-2.2565283E-1,1.5571997E-1,5.091225E-1,-3.5608536E-1,-3.6735263E-2,2.5088152E-1,-1.2119733E-2,6.0963625E-1,2.6542714E-1,-2.4634956E-1,-4.530197E-1,-1.0600619E-1,1.5236743E-1,8.893112E-3,3.308468E-3,2.0801394E-4,-1.5977236E-2,1.5580083E-2,2.339206E-2,1.7209434E-3,1.286877E-2,-7.6378626E-3,1.33373495E-2,-1.4606915E-2,-1.0222321E-2,-1.15896845E-2,-2.616108E-3,-1.4998309E-2,5.3717983E-3],"categories":[],"categories_nodes":[],"categories_segments":[],"categories_sizes":[],"default_left":[0,0,1,0,0,0,0,0,0,0,0,0,1,0,0,0,0,0,0,0,0,0,0,0,0,0,0,0,0,0,0],"id":32,"left_children":[1,3,5,7,9,11,13,15,17,19,21,23,25,27,29,-1,-1,-1,-1,-1,-1,-1,-1,-1,-1,-1,-1,-1,-1,-1,-1],"loss_changes":[2.7044836E2,5.0575836E1,5.5731567E1,1.5364149E1,1.6921432E1,1.4013306E1,1.2167899E1,3.865654E0,3.476491E0,6.8224945E0,7.0663586E0,3.827755E0,2.3621063E0,3.5126243E0,4.5180626E0,0E0,0E0,0E0,0E0,0E0,0E0,0E0,0E0,0E0,0E0,0E0,0E0,0E0,0E0,0E0,0E0],"parents":[2147483647,0,0,1,1,2,2,3,3,4,4,5,5,6,6,7,7,8,8,9,9,10,10,11,11,12,12,13,13,14,14],"right_children":[2,4,6,8,10,12,14,16,18,20,22,24,26,28,30,-1,-1,-1,-1,-1,-1,-1,-1,-1,-1,-1,-1,-1,-1,-1,-1],"split_conditions":[4.2738948E-2,5.065538E-1,2.3270577E-1,3.7080202E-1,-6.0581124E-1,6.013834E-1,3.5598952E-1,1.2687573E-1,3.6257222E0,6.925431E-1,5E0,3.05E0,1.611935E-1,3.6423612E-1,2.8541667E0,8.893112E-3,3.308468E-3,2.0801394E-4,-1.5977236E-2,1.5580083E-2,2.339206E-2,1.7209434E-3,1.286877E-2,-7.6378626E-3,1.33373495E-2,-1.4606915E-2,-1.0222321E-2,-1.15896845E-2,-2.616108E-3,-1.4998309E-2,5.3717983E-3],"split_indices":[7,16,16,14,7,9,16,33,8,16,28,38,16,14,28,0,0,0,0,0,0,0,0,0,0,0,0,0,0,0,0],"split_type":[0,0,0,0,0,0,0,0,0,0,0,0,0,0,0,0,0,0,0,0,0,0,0,0,0,0,0,0,0,0,0],"sum_hessian":[3.9224028E3,1.6615995E3,2.2608032E3,9.5956885E2,7.0203064E2,1.3363739E3,9.2442944E2,6.117373E2,3.4783157E2,4.949018E2,2.0712883E2,6.301205E2,7.062534E2,6.772297E2,2.4719975E2,4.603595E2,1.513778E2,3.3745105E2,1.038052E1,3.285771E2,1.6632472E2,9.234255E1,1.14786285E2,6.2393713E2,6.1833315E0,5.3742126E2,1.688321E2,4.011322E1,6.3711646E2,8.32379E0,2.3887596E2],"tree_param":{"num_deleted":"0","num_feature":"40","num_nodes":"31","size_leaf_vector":"1"}},{"base_weights":[-1.6762604E-3,-2.141288E-1,2.8682908E-1,-2.1031513E-3,-3.2855693E-1,4.4785556E-1,1.19472206E-1,-4.8382785E-2,1.8372367E-1,-1.2842697E-1,-3.865978E-1,5.1901746E-1,3.0120265E-1,1.6762023E-1,-1.775562E-1,-2.4352227E-3,4.585741E-3,-1.4931176E-2,6.262095E-3,-1.957852E-3,-9.995863E-3,-1.3777549E-2,-8.700817E-3,1.4135787E-2,1.8889923E-2,1.7102776E-2,7.600471E-3,7.7855163E-3,2.2837536E-3,-1.1063887E-2,-7.3214516E-4],"categories":[],"categories_nodes":[],"categories_segments":[],"categories_sizes":[],"default_left":[0,0,1,0,0,0,0,0,0,1,1,0,0,0,0,0,0,0,0,0,0,0,0,0,0,0,0,0,0,0,0],"id":33,"left_children":[1,3,5,7,9,11,13,15,17,19,21,23,25,27,29,-1,-1,-1,-1,-1,-1,-1,-1,-1,-1,-1,-1,-1,-1,-1,-1],"loss_changes":[2.7174677E2,6.1945694E1,5.056302E1,7.7318673E0,1.916304E1,9.680008E0,1.3284226E1,4.7742147E0,3.2632918E0,4.81729E0,8.745911E0,2.8033905E0,3.7977047E0,6.659748E0,3.78831E0,0E0,0E0,0E0,0E0,0E0,0E0,0E0,0E0,0E0,0E0,0E0,0E0,0E0,0E0,0E0,0E0],"parents":[2147483647,0,0,1,1,2,2,3,3,4,4,5,5,6,6,7,7,8,8,9,9,10,10,11,11,12,12,13,13,14,14],"right_children":[2,4,6,8,10,12,14,16,18,20,22,24,26,28,30,-1,-1,-1,-1,-1,-1,-1,-1,-1,-1,-1,-1,-1,-1,-1,-1],"split_conditions":[4.5824757E-1,3.453333E-1,1.6636452E-1,5.169817E-1,3.6742827E-1,1.4814192E-1,3.308182E-1,1.5925573E3,7.2109663E-1,4.3146372E-1,2.4592756E-1,1.7278538E3,-2.2289568E-1,1.7655581E-1,3.5E0,-2.4352227E-3,4.585741E-3,-1.4931176E-2,6.262095E-3,-1.957852E-3,-9.995863E-3,-1.3777549E-2,-8.700817E-3,1.4135787E-2,1.8889923E-2,1.7102776E-2,7.600471E-3,7.7855163E-3,2.2837536E-3,-1.1063887E-2,-7.3214516E-4],"split_indices":[7,16,16,14,11,11,16,2,6,16,14,1,33,11,31,0,0,0,0,0,0,0,0,0,0,0,0,0,0,0,0],"split_type":[0,0,0,0,0,0,0,0,0,0,0,0,0,0,0,0,0,0,0,0,0,0,0,0,0,0,0,0,0,0,0],"sum_hessian":[4.4295146E3,2.551287E3,1.8782275E3,8.949874E2,1.6562997E3,9.5550916E2,9.2271844E2,7.177205E2,1.7726695E2,3.738069E2,1.2824928E3,6.3991724E2,3.1559192E2,7.9475995E2,1.27958466E2,6.181835E2,9.953701E1,4.9382133E0,1.7232874E2,2.8769775E2,8.610913E1,7.275882E2,5.5490454E2,4.541417E2,1.8577556E2,4.438209E1,2.712098E2,3.9467676E2,4.000832E2,5.5650997E1,7.230747E1],"tree_param":{"num_deleted":"0","num_feature":"40","num_nodes":"31","size_leaf_vector":"1"}},{"base_weights":[9.489698E-3,-1.7507525E-1,6.1079964E-2,-3.1046435E-1,-1.3979584E-1,1.3426049E-3,1.2032076E-1,-1.983962E-2,-3.5069683E-1,-2.0264778E-1,-5.638148E-2,-1.23112895E-1,3.620462E-2,1.8169083E-1,4.0927444E-2,-1.15276715E-2,1.26026785E-2,-3.2431704E-3,-1.1881548E-2,3.8573083E-3,-7.0714555E-3,-1.3676535E-4,-9.107501E-3,-6.3237414E-4,-7.784687E-3,3.5077338E-3,-1.2601437E-3,-9.132837E-3,5.924064E-3,2.0597123E-3,-4.2335107E-3],"categories":[],"categories_nodes":[],"categories_segments":[],"categories_sizes":[],"default_left":[0,0,1,0,0,0,0,0,0,0,0,0,0,0,0,0,0,0,0,0,0,0,0,0,0,0,0,0,0,0,0],"id":34,"left_children":[1,3,5,7,9,11,13,15,17,19,21,23,25,27,29,-1,-1,-1,-1,-1,-1,-1,-1,-1,-1,-1,-1,-1,-1,-1,-1],"loss_changes":[3.3086773E1,3.539198E0,9.609436E0,1.8017759E0,3.1535015E0,5.8840103E0,6.628027E0,3.689963E0,1.4138527E0,3.8364954E0,3.3678753E0,4.1184607E0,6.697455E0,6.0137787E0,3.032992E0,0E0,0E0,0E0,0E0,0E0,0E0,0E0,0E0,0E0,0E0,0E0,0E0,0E0,0E0,0E0,0E0],"parents":[2147483647,0,0,1,1,2,2,3,3,4,4,5,5,6,6,7,7,8,8,9,9,10,10,11,11,12,12,13,13,14,14],"right_children":[2,4,6,8,10,12,14,16,18,20,22,24,26,28,30,-1,-1,-1,-1,-1,-1,-1,-1,-1,-1,-1,-1,-1,-1,-1,-1],"split_conditions":[2.2581649E-1,-1.2E0,2.6641393E-1,1.4023566E3,2.0377526E-1,1.7655581E-1,1.5172084E3,1.1617543E-1,1.4679126E3,8E-1,1.2E1,5.797833E-1,1.5592457E3,-1.08851006E2,5.5515915E-1,-1.15276715E-2,1.26026785E-2,-3.2431704E-3,-1.1881548E-2,3.8573083E-3,-7.0714555E-3,-1.3676535E-4,-9.107501E-3,-6.3237414E-4,-7.784687E-3,3.5077338E-3,-1.2601437E-3,-9.132837E-3,5.924064E-3,2.0597123E-3,-4.2335107E-3],"split_indices":[15,38,15,2,10,11,2,11,1,24,27,12,2,3,11,0,0,0,0,0,0,0,0,0,0,0,0,0,0,0,0],"split_type":[0,0,0,0,0,0,0,0,0,0,0,0,0,0,0,0,0,0,0,0,0,0,0,0,0,0,0,0,0,0,0],"sum_hessian":[3.470615E3,7.5714185E2,2.7134731E3,1.5328629E2,6.038555E2,1.3520927E3,1.3613806E3,1.900286E1,1.3428343E2,3.4274304E2,2.611125E2,2.947584E2,1.0573342E3,7.6639197E2,5.949887E2,1.0531866E1,8.470994E0,2.2217073E1,1.1206636E2,3.0586994E1,3.1215604E2,2.175441E2,4.356838E1,1.6993E2,1.248284E2,5.198291E2,5.3750507E2,2.2942617E1,7.4344934E2,5.174193E2,7.756937E1],"tree_param":{"num_deleted":"0","num_feature":"40","num_nodes":"31","size_leaf_vector":"1"}},{"base_weights":[-8.621716E-3,2.9065305E-1,-2.33757E-1,4.0442398E-1,6.6714203E-3,-3.6112106E-1,-5.60707E-2,6.7004794E-1,3.2732636E-1,-9.2615366E-2,1.4040032E-1,-2.6782823E-1,-4.491015E-1,-1.2643929E-1,1.4243001E-1,2.2807574E-2,1.3117397E-2,8.948637E-3,1.9127177E-2,2.0195935E-2,-3.326508E-3,7.6853684E-3,-1.95814E-3,-5.148257E-3,-1.0425759E-2,7.611975E-3,-1.36841E-2,-2.7804754E-3,-6.8302196E-3,5.586971E-3,-8.189747E-3],"categories":[],"categories_nodes":[],"categories_segments":[],"categories_sizes":[],"default_left":[0,1,1,0,0,0,0,1,0,0,0,0,0,0,0,0,0,0,0,0,0,0,0,0,0,0,0,0,0,0,0],"id":35,"left_children":[1,3,5,7,9,11,13,15,17,19,21,23,25,27,29,-1,-1,-1,-1,-1,-1,-1,-1,-1,-1,-1,-1,-1,-1,-1,-1],"loss_changes":[2.628276E2,5.4102173E1,5.033844E1,2.4046906E1,6.4132185E0,1.0399445E1,1.3051769E1,4.943329E0,8.003349E0,4.0285244E0,4.9333143E0,4.743374E0,3.5156097E0,2.3123474E0,4.556439E0,0E0,0E0,0E0,0E0,0E0,0E0,0E0,0E0,0E0,0E0,0E0,0E0,0E0,0E0,0E0,0E0],"parents":[2147483647,0,0,1,1,2,2,3,3,4,4,5,5,6,6,7,7,8,8,9,9,10,10,11,11,12,12,13,13,14,14],"right_children":[2,4,6,8,10,12,14,16,18,20,22,24,26,28,30,-1,-1,-1,-1,-1,-1,-1,-1,-1,-1,-1,-1,-1,-1,-1,-1],"split_conditions":[4.2738948E-2,3.361741E-1,2.2914262E-1,1.23186156E-1,3.2289654E-1,1.919278E0,3.5598952E-1,2.4983522E-1,2.2257984E0,4.2897232E-2,1.5044032E3,8.2548676E1,-4.937466E-1,2.9476285E-1,5.8254756E-2,2.2807574E-2,1.3117397E-2,8.948637E-3,1.9127177E-2,2.0195935E-2,-3.326508E-3,7.6853684E-3,-1.95814E-3,-5.148257E-3,-1.0425759E-2,7.611975E-3,-1.36841E-2,-2.7804754E-3,-6.8302196E-3,5.586971E-3,-8.189747E-3],"split_indices":[7,14,16,9,16,5,16,15,6,17,1,3,33,15,17,0,0,0,0,0,0,0,0,0,0,0,0,0,0,0,0],"split_type":[0,0,0,0,0,0,0,0,0,0,0,0,0,0,0,0,0,0,0,0,0,0,0,0,0,0,0,0,0,0,0],"sum_hessian":[3.8968157E3,1.672698E3,2.2241177E3,1.1936432E3,4.7905484E2,1.2943055E3,9.298122E2,2.650582E2,9.28585E2,2.752849E2,2.0376991E2,6.32113E2,6.621925E2,6.869974E2,2.4281479E2,1.8777058E2,7.72876E1,8.526971E2,7.588792E1,4.74327E0,2.7054166E2,1.3006267E2,7.3707245E1,2.8922873E2,3.4288425E2,5.867608E0,6.563249E2,5.180758E2,1.689216E2,2.2065244E2,2.2162354E1],"tree_param":{"num_deleted":"0","num_feature":"40","num_nodes":"31","size_leaf_vector":"1"}},{"base_weights":[4.151248E-3,-2.0239289E-1,2.7982894E-1,-3.1645197E-1,-1.0190773E-2,-2.1115334E-3,3.7935224E-1,-9.426622E-2,-3.8060814E-1,1.5173653E-1,-6.0271133E-2,7.661416E-2,-2.1397087E-1,2.6472035E-1,4.6895796E-1,-5.4201093E-3,3.1969917E-3,-1.7118681E-2,-9.972876E-3,9.453218E-3,4.243596E-4,-3.7651495E-3,2.1878292E-3,8.613216E-4,9.60947E-3,-1.0260364E-2,-1.325327E-3,8.500864E-3,-6.9648027E-3,6.7834114E-3,1.5275093E-2],"categories":[],"categories_nodes":[],"categories_segments":[],"categories_sizes":[],"default_left":[0,1,0,0,0,0,0,0,0,0,1,0,0,0,0,0,0,0,0,0,0,0,0,0,0,0,0,0,0,0,0],"id":36,"left_children":[1,3,5,7,9,11,13,15,17,19,21,23,25,27,29,-1,-1,-1,-1,-1,-1,-1,-1,-1,-1,-1,-1,-1,-1,-1,-1],"loss_changes":[2.5127327E2,5.5300354E1,5.3038376E1,2.2496262E1,7.654364E0,8.290855E0,1.410144E1,6.2401E0,1.0861008E1,5.003791E0,6.279943E0,4.212986E0,2.8975196E0,5.8513985E0,7.4013214E0,0E0,0E0,0E0,0E0,0E0,0E0,0E0,0E0,0E0,0E0,0E0,0E0,0E0,0E0,0E0,0E0],"parents":[2147483647,0,0,1,1,2,2,3,3,4,4,5,5,6,6,7,7,8,8,9,9,10,10,11,11,12,12,13,13,14,14],"right_children":[2,4,6,8,10,12,14,16,18,20,22,24,26,28,30,-1,-1,-1,-1,-1,-1,-1,-1,-1,-1,-1,-1,-1,-1,-1,-1],"split_conditions":[4.5824757E-1,3.5986125E-1,5.015426E-1,3.6742827E-1,2.2914262E-1,3.2933593E-1,6.4931697E-1,5.5E0,1.7442961E-1,3.5E0,2.2222222E-1,6E0,1.7643485E-2,1.7568018E3,7.754965E-1,-5.4201093E-3,3.1969917E-3,-1.7118681E-2,-9.972876E-3,9.453218E-3,4.243596E-4,-3.7651495E-3,2.1878292E-3,8.613216E-4,9.60947E-3,-1.0260364E-2,-1.325327E-3,8.500864E-3,-6.9648027E-3,6.7834114E-3,1.5275093E-2],"split_indices":[7,14,14,11,16,16,14,32,14,32,22,32,39,1,7,0,0,0,0,0,0,0,0,0,0,0,0,0,0,0,0],"split_type":[0,0,0,0,0,0,0,0,0,0,0,0,0,0,0,0,0,0,0,0,0,0,0,0,0,0,0,0,0,0,0],"sum_hessian":[4.4089893E3,2.520845E3,1.888144E3,1.58121E3,9.396351E2,4.9312457E2,1.3950195E3,3.553837E2,1.2258263E3,2.210012E2,7.1863385E2,3.6045743E2,1.3266713E2,6.1551056E2,7.79509E2,2.4862059E2,1.0676309E2,2.4355882E2,9.8226746E2,9.9855774E1,1.2114543E2,4.8246365E2,2.3617018E2,3.0311163E2,5.7345818E1,7.447608E1,5.819104E1,5.940815E2,2.142908E1,1.12621086E2,6.668879E2],"tree_param":{"num_deleted":"0","num_feature":"40","num_nodes":"31","size_leaf_vector":"1"}},{"base_weights":[4.5676953E-3,-1.8221597E-1,6.407439E-2,-2.5849774E-1,-4.6138562E-2,-8.040658E-3,1.3194124E-1,-4.4875675E-1,-2.2426218E-1,-1.2648144E-1,1.0355378E-1,6.876454E-3,-2.7350608E-1,4.8310778E-1,1.1979591E-1,-1.4393689E-2,4.364592E-3,-3.504946E-3,-8.370926E-3,4.8966417E-3,-5.192636E-3,1.2340987E-2,-1.5244988E-3,2.9449104E-3,-1.0786845E-3,-1.0434273E-2,9.9768005E-3,2.3024749E-2,3.548713E-3,3.0113554E-3,8.499311E-3],"categories":[],"categories_nodes":[],"categories_segments":[],"categories_sizes":[],"default_left":[0,1,1,0,0,0,1,0,0,0,0,0,0,0,0,0,0,0,0,0,0,0,0,0,0,0,0,0,0,0,0],"id":37,"left_children":[1,3,5,7,9,11,13,15,17,19,21,23,25,27,29,-1,-1,-1,-1,-1,-1,-1,-1,-1,-1,-1,-1,-1,-1,-1,-1],"loss_changes":[3.8025944E1,8.556541E0,1.27000065E1,3.2460442E0,3.6265342E0,4.992338E0,5.585388E0,1.5911512E0,2.5974426E0,2.6989293E0,5.062269E0,4.6783323E0,3.2517185E0,4.3860674E0,4.0537987E0,0E0,0E0,0E0,0E0,0E0,0E0,0E0,0E0,0E0,0E0,0E0,0E0,0E0,0E0,0E0,0E0],"parents":[2147483647,0,0,1,1,2,2,3,3,4,4,5,5,6,6,7,7,8,8,9,9,10,10,11,11,12,12,13,13,14,14],"right_children":[2,4,6,8,10,12,14,16,18,20,22,24,26,28,30,-1,-1,-1,-1,-1,-1,-1,-1,-1,-1,-1,-1,-1,-1,-1,-1],"split_conditions":[2.1050256E-1,2.2581649E-1,2.627625E-1,3.7943566E-1,7.7083335E0,2.75E0,-1.4444444E0,3E0,6.3432467E-1,7.5E-1,-2E-1,1.4868273E3,2.25E0,-2.974512E-4,3.7398994E-1,-1.4393689E-2,4.364592E-3,-3.504946E-3,-8.370926E-3,4.8966417E-3,-5.192636E-3,1.2340987E-2,-1.5244988E-3,2.9449104E-3,-1.0786845E-3,-1.0434273E-2,9.9768005E-3,2.3024749E-2,3.548713E-3,3.0113554E-3,8.499311E-3],"split_indices":[10,15,15,13,28,19,22,23,12,20,26,1,23,34,39,0,0,0,0,0,0,0,0,0,0,0,0,0,0,0,0],"split_type":[0,0,0,0,0,0,0,0,0,0,0,0,0,0,0,0,0,0,0,0,0,0,0,0,0,0,0,0,0,0,0],"sum_hessian":[3.4170745E3,8.2460956E2,2.5924648E3,5.272477E2,2.9736185E2,1.2577489E3,1.334716E3,7.671266E1,4.50535E2,1.9370605E2,1.036558E2,1.1926777E3,6.507112E1,4.2026253E1,1.2926897E3,7.3271454E1,3.4412105E0,1.5424484E2,2.9629016E2,2.6150684E1,1.6755537E2,3.350924E1,7.014656E1,3.800693E2,8.1260846E2,5.8723877E1,6.3472433E0,2.2376049E1,1.9650206E1,1.1583616E3,1.3432806E2],"tree_param":{"num_deleted":"0","num_feature":"40","num_nodes":"31","size_leaf_vector":"1"}},{"base_weights":[-3.3386836E-3,2.8889593E-1,-2.2490408E-1,1.7520554E-1,5.415325E-1,-3.6102235E-1,-3.1418793E-2,-1.0658983E-2,2.3975202E-1,4.222857E-1,6.7843103E-1,-4.4610402E-1,-2.5410852E-1,-9.680701E-2,1.5240781E-1,5.570792E-4,-1.33260675E-2,6.2207207E-3,1.7945044E-2,1.5481359E-2,7.7258586E-3,2.0589957E-2,-4.48328E-3,-1.4641249E-2,-1.0044603E-2,-9.69902E-3,-4.700688E-3,-5.5723647E-3,-1.0283748E-3,5.6703906E-3,-8.8846935E-3],"categories":[],"categories_nodes":[],"categories_segments":[],"categories_sizes":[],"default_left":[0,1,1,0,0,0,0,0,0,0,0,1,0,1,0,0,0,0,0,0,0,0,0,0,0,0,0,0,0,0,0],"id":38,"left_children":[1,3,5,7,9,11,13,15,17,19,21,23,25,27,29,-1,-1,-1,-1,-1,-1,-1,-1,-1,-1,-1,-1,-1,-1,-1,-1],"loss_changes":[2.5358675E2,4.8319366E1,5.8644012E1,1.4013905E1,7.968048E0,1.1666229E1,1.1113407E1,3.8548152E0,9.816116E0,4.1355705E0,1.7767563E0,3.0586548E0,3.8353996E0,3.776598E0,4.0973396E0,0E0,0E0,0E0,0E0,0E0,0E0,0E0,0E0,0E0,0E0,0E0,0E0,0E0,0E0,0E0,0E0],"parents":[2147483647,0,0,1,1,2,2,3,3,4,4,5,5,6,6,7,7,8,8,9,9,10,10,11,11,12,12,13,13,14,14],"right_children":[2,4,6,8,10,12,14,16,18,20,22,24,26,28,30,-1,-1,-1,-1,-1,-1,-1,-1,-1,-1,-1,-1,-1,-1,-1,-1],"split_conditions":[4.2738948E-2,5.065538E-1,2.3063993E-1,3.2933593E-1,6.063243E-1,1.6887312E-1,3.5598952E-1,1.6E1,2.245513E0,1.6735726E3,2.4200793E-1,1.5938804E-1,2.682144E-1,7E0,3.043323E-1,5.570792E-4,-1.33260675E-2,6.2207207E-3,1.7945044E-2,1.5481359E-2,7.7258586E-3,2.0589957E-2,-4.48328E-3,-1.4641249E-2,-1.0044603E-2,-9.69902E-3,-4.700688E-3,-5.5723647E-3,-1.0283748E-3,5.6703906E-3,-8.8846935E-3],"split_indices":[7,16,16,16,16,11,16,28,6,2,15,16,15,28,15,0,0,0,0,0,0,0,0,0,0,0,0,0,0,0,0],"split_type":[0,0,0,0,0,0,0,0,0,0,0,0,0,0,0,0,0,0,0,0,0,0,0,0,0,0,0,0,0,0,0],"sum_hessian":[3.9124463E3,1.6868977E3,2.2255488E3,1.165701E3,5.2119666E2,1.3054344E3,9.2011426E2,3.0090405E2,8.64797E2,2.82923E2,2.3827365E2,7.234056E2,5.820289E2,6.793959E2,2.4071838E2,2.8369263E2,1.7211437E1,7.9600854E2,6.878846E1,1.7759393E2,1.0532907E2,2.3635986E2,1.9137865E0,5.2048755E2,2.0291803E2,3.376058E2,2.4442308E2,2.7883905E2,4.0055682E2,2.2362653E2,1.7091848E1],"tree_param":{"num_deleted":"0","num_feature":"40","num_nodes":"31","size_leaf_vector":"1"}},{"base_weights":[-2.2460725E-3,-2.1006924E-1,2.7442956E-1,-1.0386228E-1,-4.2277414E-1,4.279723E-1,1.2187814E-1,6.459786E-2,-1.6870989E-1,-3.1193602E-1,-4.8675358E-1,2.8435445E-1,4.876841E-1,1.7362563E-1,-1.4000635E-1,6.8613156E-3,1.20163546E-4,-1.2842562E-2,-3.7072746E-3,-7.930819E-3,-1.4970438E-2,4.2802105E-3,-1.476583E-2,1.2473345E-2,3.9322823E-3,1.7761718E-2,1.311097E-2,8.209588E-3,2.2075463E-3,-2.7615968E-3,-1.6352588E-2],"categories":[],"categories_nodes":[],"categories_segments":[],"categories_sizes":[],"default_left":[0,1,1,0,0,0,0,0,0,0,0,0,1,0,0,0,0,0,0,0,0,0,0,0,0,0,0,0,0,0,0],"id":39,"left_children":[1,3,5,7,9,11,13,15,17,19,21,23,25,27,29,-1,-1,-1,-1,-1,-1,-1,-1,-1,-1,-1,-1,-1,-1,-1,-1],"loss_changes":[2.5405838E2,5.6912224E1,4.4288925E1,1.8434874E1,5.650467E0,7.8161163E0,1.2970334E1,4.671202E0,1.4148121E1,2.5206928E0,1.9512787E0,5.570799E0,2.9918976E0,7.935871E0,2.9771142E0,0E0,0E0,0E0,0E0,0E0,0E0,0E0,0E0,0E0,0E0,0E0,0E0,0E0,0E0,0E0,0E0],"parents":[2147483647,0,0,1,1,2,2,3,3,4,4,5,5,6,6,7,7,8,8,9,9,10,10,11,11,12,12,13,13,14,14],"right_children":[2,4,6,8,10,12,14,16,18,20,22,24,26,28,30,-1,-1,-1,-1,-1,-1,-1,-1,-1,-1,-1,-1,-1,-1,-1,-1],"split_conditions":[4.5824757E-1,4.3146372E-1,1.6445905E-1,2.7958533E-1,5.065538E-1,6.2163293E-1,3.1905934E-1,2.4897894E-1,-7.146258E-1,2.8504086E-1,2E-1,2.445563E-1,1.39348E-1,1.7655581E-1,4.6553934E-1,6.8613156E-3,1.20163546E-4,-1.2842562E-2,-3.7072746E-3,-7.930819E-3,-1.4970438E-2,4.2802105E-3,-1.476583E-2,1.2473345E-2,3.9322823E-3,1.7761718E-2,1.311097E-2,8.209588E-3,2.2075463E-3,-2.7615968E-3,-1.6352588E-2],"split_indices":[7,16,16,16,16,9,16,15,7,15,20,15,15,11,16,0,0,0,0,0,0,0,0,0,0,0,0,0,0,0,0],"split_type":[0,0,0,0,0,0,0,0,0,0,0,0,0,0,0,0,0,0,0,0,0,0,0,0,0,0,0,0,0,0,0],"sum_hessian":[4.414431E3,2.5211597E3,1.8932716E3,1.6835251E3,8.3763446E2,9.4177057E2,9.515011E2,4.6793597E2,1.2155892E3,3.108569E2,5.267776E2,2.7995398E2,6.618166E2,7.9507166E2,1.5642944E2,1.2468402E2,3.4325195E2,1.7765807E2,1.0379312E3,2.5167929E2,5.917761E1,4.082093E0,5.226955E2,1.4887807E2,1.3107593E2,2.0925249E2,4.525641E2,3.95827E2,3.9924466E2,1.4206622E2,1.4363222E1],"tree_param":{"num_deleted":"0","num_feature":"40","num_nodes":"31","size_leaf_vector":"1"}},{"base_weights":[-1.7596836E-3,-1.6172093E-1,4.728385E-2,-2.8355405E-1,-1.13170095E-1,9.3317635E-2,-1.7843014E-2,-1.9963026E-1,-4.831294E-1,-8.752358E-2,-3.8083747E-1,8.176408E-2,5.2667975E-1,-6.2078852E-2,1.0218315E-1,6.612286E-3,-6.9768233E-3,-1.5643025E-2,3.1521835E-3,-7.035168E-3,-1.3598138E-3,-1.3298493E-2,6.3144793E-3,-7.3120072E-3,2.7361275E-3,-7.963913E-3,2.2756342E-2,-6.5415553E-3,-7.9574256E-4,1.5245677E-3,1.1283774E-2],"categories":[],"categories_nodes":[],"categories_segments":[],"categories_sizes":[],"default_left":[0,1,0,0,0,0,1,0,1,0,0,0,0,0,0,0,0,0,0,0,0,0,0,0,0,0,0,0,0,0,0],"id":40,"left_children":[1,3,5,7,9,11,13,15,17,19,21,23,25,27,29,-1,-1,-1,-1,-1,-1,-1,-1,-1,-1,-1,-1,-1,-1,-1,-1],"loss_changes":[2.718457E1,4.7454414E0,7.9544888E0,3.6655445E0,3.9474387E0,7.695298E0,5.8529553E0,2.39284E0,1.6143465E0,3.3043857E0,2.0524974E0,4.7032356E0,7.7478046E0,4.4525156E0,4.1405263E0,0E0,0E0,0E0,0E0,0E0,0E0,0E0,0E0,0E0,0E0,0E0,0E0,0E0,0E0,0E0,0E0],"parents":[2147483647,0,0,1,1,2,2,3,3,4,4,5,5,6,6,7,7,8,8,9,9,10,10,11,11,12,12,13,13,14,14],"right_children":[2,4,6,8,10,12,14,16,18,20,22,24,26,28,30,-1,-1,-1,-1,-1,-1,-1,-1,-1,-1,-1,-1,-1,-1,-1,-1],"split_conditions":[2.0958903E-1,1.0218595E-1,1.5143267E3,1.7627533E3,6.925431E-1,2.5E0,8.402778E-1,-1.2222222E0,5.6283623E-2,-1.6302747E-1,2.3629577E-1,1.795574E-1,-3.0095717E-1,-1.8502343E-1,1.6306314E2,6.612286E-3,-6.9768233E-3,-1.5643025E-2,3.1521835E-3,-7.035168E-3,-1.3598138E-3,-1.3298493E-2,6.3144793E-3,-7.3120072E-3,2.7361275E-3,-7.963913E-3,2.2756342E-2,-6.5415553E-3,-7.9574256E-4,1.5245677E-3,1.1283774E-2],"split_indices":[10,16,1,1,16,37,35,26,17,34,34,16,7,33,3,0,0,0,0,0,0,0,0,0,0,0,0,0,0,0,0],"split_type":[0,0,0,0,0,0,0,0,0,0,0,0,0,0,0,0,0,0,0,0,0,0,0,0,0,0,0,0,0,0,0],"sum_hessian":[3.4612317E3,8.1110913E2,2.6501226E3,2.2836667E2,5.827425E2,1.5521482E3,1.0979745E3,1.6357994E2,6.478673E1,5.3421106E2,4.8531403E1,1.5141576E3,3.7990524E1,8.02995E2,2.9497955E2,1.1064331E1,1.5251561E2,6.1038795E1,3.747934E0,1.17123215E2,4.1708786E2,4.434871E1,4.182691E0,4.1277256E1,1.4728804E3,8.536524E0,2.9453999E1,1.4715813E2,6.5583685E2,2.5040048E2,4.4579056E1],"tree_param":{"num_deleted":"0","num_feature":"40","num_nodes":"31","size_leaf_vector":"1"}},{"base_weights":[2.3445191E-3,3.0942932E-1,-2.0200327E-1,1.092217E-1,4.3980232E-1,-3.1014407E-1,1.2813171E-2,1.9391473E-1,3.6375187E-3,3.5491306E-1,6.588705E-1,-2.0322244E-1,-4.0265298E-1,-5.850899E-2,2.7093282E-1,7.1710963E-3,-1.2037549E-4,-1.767766E-3,7.7785426E-3,1.7768646E-2,9.446854E-3,1.7194174E-2,2.6389236E-2,-3.8709752E-3,-9.340043E-3,-9.4390195E-3,-1.3972011E-2,-1.4964754E-2,-1.2136886E-3,-5.9795864E-3,9.201941E-3],"categories":[],"categories_nodes":[],"categories_segments":[],"categories_sizes":[],"default_left":[0,0,1,0,0,0,0,0,0,0,1,0,0,0,0,0,0,0,0,0,0,0,0,0,0,0,0,0,0,0,0],"id":41,"left_children":[1,3,5,7,9,11,13,15,17,19,21,23,25,27,29,-1,-1,-1,-1,-1,-1,-1,-1,-1,-1,-1,-1,-1,-1,-1,-1],"loss_changes":[2.4520015E2,4.065515E1,5.4511147E1,5.5282927E0,1.7103638E1,1.5273193E1,1.4529952E1,3.0660763E0,4.465412E0,6.137024E0,3.942009E0,5.758644E0,4.341385E0,4.877489E0,2.998455E0,0E0,0E0,0E0,0E0,0E0,0E0,0E0,0E0,0E0,0E0,0E0,0E0,0E0,0E0,0E0,0E0],"parents":[2147483647,0,0,1,1,2,2,3,3,4,4,5,5,6,6,7,7,8,8,9,9,10,10,11,11,12,12,13,13,14,14],"right_children":[2,4,6,8,10,12,14,16,18,20,22,24,26,28,30,-1,-1,-1,-1,-1,-1,-1,-1,-1,-1,-1,-1,-1,-1,-1,-1],"split_conditions":[3.483967E-1,4.3146372E-1,2.6465678E-1,3.7615344E-1,6.536728E-1,5.748725E-1,4.0483359E-1,-1.6751207E1,5.2189595E-1,1.6677484E-1,6.925431E-1,8.2548676E1,6.4535034E-1,1.4583333E-1,4.4988643E-2,7.1710963E-3,-1.2037549E-4,-1.767766E-3,7.7785426E-3,1.7768646E-2,9.446854E-3,1.7194174E-2,2.6389236E-2,-3.8709752E-3,-9.340043E-3,-9.4390195E-3,-1.3972011E-2,-1.4964754E-2,-1.2136886E-3,-5.9795864E-3,9.201941E-3],"split_indices":[9,16,16,14,11,9,16,3,11,14,16,3,14,27,17,0,0,0,0,0,0,0,0,0,0,0,0,0,0,0,0],"split_type":[0,0,0,0,0,0,0,0,0,0,0,0,0,0,0,0,0,0,0,0,0,0,0,0,0,0,0,0,0,0,0],"sum_hessian":[3.9034492E3,1.5592496E3,2.3441997E3,6.163798E2,9.4286975E2,1.5586646E3,7.8553516E2,3.4109863E2,2.752812E2,6.833217E2,2.5954803E2,7.259763E2,8.326883E2,6.1668335E2,1.6885179E2,2.7743573E2,6.36629E1,2.2239482E2,5.288637E1,9.459713E1,5.887246E2,1.9213057E2,6.741746E1,4.331339E2,2.928424E2,3.5262817E2,4.800601E2,2.219011E1,5.944932E2,1.1298485E1,1.5755331E2],"tree_param":{"num_deleted":"0","num_feature":"40","num_nodes":"31","size_leaf_vector":"1"}},{"base_weights":[-1.739997E-3,-2.0373496E-1,2.7220833E-1,-1.0034694E-1,-4.0992716E-1,4.3034658E-1,1.0502798E-1,-1.6625668E-1,4.4745915E-2,-4.9728093E-1,-3.031217E-1,2.8228799E-1,4.9204805E-1,1.7818634E-1,-9.714704E-2,-8.850992E-3,-2.200706E-3,2.1889375E-4,9.641624E-3,-1.6760482E-2,-1.2771484E-2,1.0700247E-2,-9.389677E-3,1.5866429E-2,6.89348E-3,1.876019E-2,1.3436442E-2,5.595441E-3,-1.14862295E-2,-8.7703485E-3,1.5246987E-3],"categories":[],"categories_nodes":[],"categories_segments":[],"categories_sizes":[],"default_left":[0,1,1,1,0,0,0,0,0,0,0,0,1,0,0,0,0,0,0,0,0,0,0,0,0,0,0,0,0,0,0],"id":42,"left_children":[1,3,5,7,9,11,13,15,17,19,21,23,25,27,29,-1,-1,-1,-1,-1,-1,-1,-1,-1,-1,-1,-1,-1,-1,-1,-1],"loss_changes":[2.4411116E2,5.404705E1,4.9407562E1,1.621299E1,7.6040497E0,8.50592E0,1.3534978E1,1.3895863E1,5.493062E0,1.5587921E0,2.738594E0,3.4795856E0,3.4193878E0,3.2779045E0,7.0721107E0,0E0,0E0,0E0,0E0,0E0,0E0,0E0,0E0,0E0,0E0,0E0,0E0,0E0,0E0,0E0,0E0],"parents":[2147483647,0,0,1,1,2,2,3,3,4,4,5,5,6,6,7,7,8,8,9,9,10,10,11,11,12,12,13,13,14,14],"right_children":[2,4,6,8,10,12,14,16,18,20,22,24,26,28,30,-1,-1,-1,-1,-1,-1,-1,-1,-1,-1,-1,-1,-1,-1,-1,-1],"split_conditions":[4.5824757E-1,4.3146372E-1,1.6636452E-1,4.2460346E-1,2.1790347E-1,6.2163293E-1,2.8897902E-1,3.0157986E-1,6.2582785E-1,1.7076737E-1,-2.944635E2,-2.1615198E-1,5.9396468E-2,1.8023414E3,4E0,-8.850992E-3,-2.200706E-3,2.1889375E-4,9.641624E-3,-1.6760482E-2,-1.2771484E-2,1.0700247E-2,-9.389677E-3,1.5866429E-2,6.89348E-3,1.876019E-2,1.3436442E-2,5.595441E-3,-1.14862295E-2,-8.7703485E-3,1.5246987E-3],"split_indices":[7,16,16,14,14,9,16,9,13,14,3,33,16,1,31,0,0,0,0,0,0,0,0,0,0,0,0,0,0,0,0],"split_type":[0,0,0,0,0,0,0,0,0,0,0,0,0,0,0,0,0,0,0,0,0,0,0,0,0,0,0,0,0,0,0],"sum_hessian":[4.407416E3,2.5371606E3,1.8702552E3,1.6918258E3,8.453349E2,9.5950116E2,9.107541E2,1.1631587E3,5.286671E2,4.6098987E2,3.8434503E2,2.855196E2,6.7398157E2,6.689334E2,2.4182065E2,4.8563153E2,6.775272E2,4.674415E2,6.122563E1,2.407853E2,2.2020457E2,4.62758E0,3.7971747E2,4.6936203E1,2.3858339E2,1.6119366E2,5.127879E2,6.6046466E2,8.468778E0,1.0342895E2,1.3839171E2],"tree_param":{"num_deleted":"0","num_feature":"40","num_nodes":"31","size_leaf_vector":"1"}},{"base_weights":[-1.9211366E-3,-1.6815999E-1,5.108971E-2,-1.2915055E-1,-3.4051165E-1,7.955925E-2,-3.5072263E-2,-1.1149196E-1,-3.7626407E-1,-3.5831726E-1,2.3054726E-2,-1.8958735E-1,9.2022456E-2,-2.5320145E-1,3.1244562E-3,-9.973628E-3,-2.8246185E-3,-1.6585914E-2,3.4434744E-3,-1.1924149E-2,1.7690365E-3,-7.966406E-3,1.9036025E-2,3.4957107E-3,-1.7968508E-3,1.0905621E-2,-9.747619E-3,-1.0595842E-3,7.1209148E-3],"categories":[],"categories_nodes":[],"categories_segments":[],"categories_sizes":[],"default_left":[0,0,0,0,0,0,0,0,0,0,0,0,1,0,0,0,0,0,0,0,0,0,0,0,0,0,0,0,0],"id":43,"left_children":[1,3,5,7,9,11,13,15,17,19,-1,21,23,25,27,-1,-1,-1,-1,-1,-1,-1,-1,-1,-1,-1,-1,-1,-1],"loss_changes":[3.0243044E1,5.4907875E0,6.3886147E0,2.8826885E0,3.550621E0,6.5978136E0,5.3976717E0,2.3790693E0,3.9857779E0,2.5120964E0,0E0,5.7983418E0,6.979068E0,4.5060277E0,4.9976025E0,0E0,0E0,0E0,0E0,0E0,0E0,0E0,0E0,0E0,0E0,0E0,0E0,0E0,0E0],"parents":[2147483647,0,0,1,1,2,2,3,3,4,4,5,5,6,6,7,7,8,8,9,9,11,11,12,12,13,13,14,14],"right_children":[2,4,6,8,10,12,14,16,18,20,-1,22,24,26,28,-1,-1,-1,-1,-1,-1,-1,-1,-1,-1,-1,-1,-1,-1],"split_conditions":[2.1050256E-1,1.7184359E3,1.5688331E3,2.9600346E-1,4.7138715E-1,1.7360134E-1,-5.2677776E1,3.449757E-1,2.2E0,6.172927E-1,2.3054726E-2,5.900856E-1,5.065538E-1,-2.1805168E2,2.8541473E-1,-9.973628E-3,-2.8246185E-3,-1.6585914E-2,3.4434744E-3,-1.1924149E-2,1.7690365E-3,-7.966406E-3,1.9036025E-2,3.4957107E-3,-1.7968508E-3,1.0905621E-2,-9.747619E-3,-1.0595842E-3,7.1209148E-3],"split_indices":[10,1,1,33,33,16,3,13,21,13,0,13,16,3,10,0,0,0,0,0,0,0,0,0,0,0,0,0,0],"split_type":[0,0,0,0,0,0,0,0,0,0,0,0,0,0,0,0,0,0,0,0,0,0,0,0,0,0,0,0,0],"sum_hessian":[3.4278997E3,8.2775745E2,2.6001423E3,6.77837E2,1.4992044E2,1.9544939E3,6.456484E2,6.353384E2,4.2498573E1,1.4888383E2,1.0366057E0,8.52421E1,1.8692518E3,9.4534485E1,5.511139E2,4.35806E1,5.917578E2,3.1072052E1,1.1426518E1,1.3619908E2,1.2684766E1,7.928953E1,5.952574E0,1.6100493E3,2.5920258E2,9.00052E0,8.5533966E1,4.7487473E2,7.623915E1],"tree_param":{"num_deleted":"0","num_feature":"40","num_nodes":"29","size_leaf_vector":"1"}},